{"model_data": {"model": "SimpleRNN", "input_size": 1, "skip": 1, "output_size": 1, "unit_type": "LSTM", "num_layers": 1, "hidden_size": 20, "bias_fl": true}, "state_dict": {"rec.weight_ih_l0": [[-0.8261374831199646], [-0.488073468208313], [1.3519172668457031], [-0.6154183149337769], [-0.4686757028102875], [-0.8782539367675781], [1.2616251707077026], [-0.9528531432151794], [-0.6474195718765259], [-2.6157386302948], [-0.48334047198295593], [2.2222747802734375], [-0.8641140460968018], [1.3672922849655151], [-0.38420015573501587], [0.9389970898628235], [-0.5009267926216125], [-0.5792948603630066], [0.31134143471717834], [-0.26361387968063354], [-0.9017110466957092], [-0.43876007199287415], [1.2630082368850708], [-0.6718727350234985], [-0.5430962443351746], [-0.6754438877105713], [1.315871000289917], [-0.8238745927810669], [-0.9517656564712524], [-2.3414762020111084], [-0.5985225439071655], [1.85654616355896], [-1.453858733177185], [0.8499995470046997], [-0.3394489884376526], [0.8664746880531311], [-0.8630876541137695], [-0.787632167339325], [0.150656059384346], [-0.6105943322181702], [-1.016937017440796], [1.2188082933425903], [-1.3830078840255737], [0.7277873158454895], [1.0959652662277222], [-0.9288617372512817], [1.196603775024414], [-1.1244956254959106], [0.9593963623046875], [2.7884521484375], [-1.3036166429519653], [2.2044472694396973], [1.4756159782409668], [-1.3681647777557373], [-0.6991400122642517], [0.651499330997467], [-1.1192116737365723], [-0.9905602335929871], [1.0871766805648804], [0.7921270728111267], [-1.509325623512268], [-0.9359933733940125], [1.8938484191894531], [-1.1780996322631836], [-0.7782041430473328], [-1.4170708656311035], [2.0361995697021484], [-1.2529990673065186], [-1.4242286682128906], [-3.5936086177825928], [-0.8747417330741882], [2.544423818588257], [-1.6483380794525146], [1.7918936014175415], [-1.2032617330551147], [1.1449391841888428], [-1.1501076221466064], [-0.9479676485061646], [0.08148550242185593], [-0.8949363231658936]], "rec.weight_hh_l0": [[0.008696972392499447, -0.15856647491455078, 0.022584905847907066, 0.0665433406829834, 0.03844396024942398, 0.1660664975643158, 0.03093893453478813, 0.04872741550207138, 0.053499989211559296, 0.10057351738214493, 0.07206516712903976, 0.2801699638366699, 0.01743006892502308, -0.33511385321617126, 0.17642852663993835, 0.18765951693058014, 0.1453356295824051, 0.03940971940755844, 0.10181892663240433, 0.26540830731391907], [-0.010656286962330341, 0.0735781192779541, 0.14532935619354248, 0.2633589506149292, -0.09393171966075897, 0.13611213862895966, 0.189228355884552, 0.05681641772389412, 0.20551645755767822, -0.005057966336607933, -0.015584771521389484, 0.1415899693965912, 0.09005971997976303, -0.3135482668876648, 0.03149239718914032, -0.04256470873951912, -0.11951441317796707, -0.1418786495923996, -0.01624581776559353, -0.043805062770843506], [0.06623254716396332, 0.24638111889362335, 0.06302174925804138, -0.04116993397474289, 0.13066422939300537, -0.2129521667957306, -0.2224975973367691, -0.11266529560089111, -0.12148693948984146, 0.19239845871925354, -0.15926308929920197, 0.08884477615356445, 0.1981050968170166, 0.2223835438489914, -0.038512859493494034, 0.021657785400748253, 0.06043083220720291, 0.12856902182102203, -0.21763935685157776, -0.05164889991283417], [-0.2605219781398773, 0.12385175377130508, 0.13837572932243347, 0.10235457122325897, 0.15100161731243134, 0.14195679128170013, -0.141232430934906, 0.15608836710453033, 0.25253599882125854, 0.19413535296916962, 0.055214472115039825, 0.02134167030453682, 0.004161886405199766, 0.024034058675169945, 0.05214666202664375, 0.2017318606376648, -0.08454978466033936, 0.13658195734024048, 0.18801632523536682, 0.23294080793857574], [-0.08754599094390869, -0.14933563768863678, 0.1780322641134262, 0.07984514534473419, -0.06421437114477158, -0.19876474142074585, 0.06618708372116089, 0.08249056339263916, 0.19151104986667633, 0.11447882652282715, -0.1827663630247116, 0.2141229510307312, -0.0336109921336174, 0.01854223757982254, -0.14372605085372925, 0.09424363821744919, -0.0020535148214548826, -0.11902787536382675, 0.14627939462661743, -0.08809933811426163], [-0.042927201837301254, -0.023159557953476906, -0.2458372563123703, -0.010419660247862339, -0.12893593311309814, 0.023821977898478508, 0.04220758005976677, 0.1836918294429779, 0.22813495993614197, 0.18261325359344482, -0.03631748631596565, 0.25200873613357544, -0.08116307854652405, -0.20848073065280914, -0.1688309907913208, -0.014472521841526031, -0.23884999752044678, -0.08629710227251053, 0.29688969254493713, -0.15637807548046112], [-0.11384265124797821, 0.25379204750061035, 0.11865153908729553, 0.20009538531303406, -0.09905289113521576, -0.009311123751103878, -0.24321980774402618, 0.09151380509138107, 0.011494905687868595, -0.08831039071083069, -0.030184440314769745, 0.023711273446679115, 0.05025726184248924, -0.011756748892366886, -0.06270509958267212, 0.14264562726020813, -0.1035250797867775, -0.042975444346666336, -0.18691673874855042, 0.1862383931875229], [-0.2699407637119293, 0.24385090172290802, 0.14885246753692627, 0.25554245710372925, -0.06036224588751793, -0.1649172455072403, 0.2623416781425476, 0.1091834083199501, 0.20911352336406708, 0.2116582840681076, 0.037359803915023804, 0.10916148871183395, 0.29043132066726685, 0.03756055608391762, -0.16890716552734375, -0.16451974213123322, -0.20037619769573212, 0.1149599477648735, 0.22128966450691223, 0.18886999785900116], [-0.0279715396463871, 0.09254273772239685, -0.1951809823513031, -0.09922007471323013, -0.07515133917331696, -0.21753007173538208, 0.20706278085708618, 0.02878851629793644, -0.053613219410181046, -0.12357227504253387, -0.21852262318134308, 0.31060245633125305, 0.24919088184833527, -0.07778418809175491, -0.1874835044145584, -0.13635900616645813, -0.08315757662057877, -0.0008930476615205407, -0.08119958639144897, 0.23041552305221558], [0.23205310106277466, -0.12195800244808197, -0.03158602491021156, 0.04685270041227341, 0.09329024702310562, 0.2459336221218109, 0.15799826383590698, -0.15373681485652924, -0.13167878985404968, -0.028916696086525917, -0.09526928514242172, -0.25821590423583984, 0.0010750674409791827, 0.07937958091497421, 0.05017370730638504, 0.21754109859466553, -0.01694062538444996, -0.14835605025291443, -0.049059078097343445, 0.12208691984415054], [-0.0950133427977562, -0.0009024522150866687, 0.18806946277618408, 0.2933724522590637, 0.2312445491552353, 0.016459979116916656, 0.030169108882546425, -0.19807615876197815, 0.0698399767279625, -0.05416576936841011, 0.14194244146347046, -0.023193765431642532, -0.09650552272796631, 0.11515605449676514, -0.290031373500824, 0.25994569063186646, -0.021044842898845673, -0.04376739263534546, 0.28088879585266113, 0.04247085377573967], [0.19508619606494904, 0.0011527730384841561, -0.23529717326164246, -0.16350147128105164, -0.2834033668041229, 0.05372057482600212, -0.07579744607210159, -0.044009506702423096, -0.07188114523887634, -0.2326609343290329, -0.2070477157831192, 0.10999712347984314, -0.31603312492370605, 0.07135869562625885, -0.04365198686718941, -0.04151522368192673, 0.20803657174110413, 0.016574842855334282, 0.014289936982095242, -0.2799595594406128], [-0.1704874485731125, 0.16521769762039185, -0.022900180891156197, -0.09198503941297531, 0.22152097523212433, 0.13101071119308472, -0.10814911127090454, -0.20094893872737885, -0.006482013035565615, -0.2092968225479126, 0.06028227135539055, 0.08889510482549667, -0.14929094910621643, -0.04323626309633255, 0.161940798163414, 0.11989820003509521, -0.13320203125476837, 0.1649853140115738, -0.0795777216553688, 0.2503946125507355], [-0.15894843637943268, 0.264915406703949, -0.1914985328912735, 0.18567030131816864, 0.133637934923172, 0.030868137255311012, -0.23945333063602448, -0.005726614501327276, 0.20126843452453613, -0.21380995213985443, -0.17067566514015198, 0.04052092134952545, -0.07897008210420609, 0.23291021585464478, 0.1752864271402359, 0.10739674419164658, -0.21463367342948914, -0.0004323913890402764, -0.03986480087041855, 0.20947788655757904], [-0.030610080808401108, -0.14765246212482452, -0.2486778348684311, -0.13843785226345062, 0.11619333177804947, -0.10402918606996536, -0.12079348415136337, -0.20577192306518555, 0.12209910154342651, 0.09003064781427383, -0.03350396454334259, -0.022048674523830414, 0.18962974846363068, 0.08642403781414032, -0.08065703511238098, -0.17281237244606018, 0.05823148414492607, -0.22409002482891083, 0.2749325931072235, 0.03479670360684395], [0.03359535336494446, -0.04543628543615341, -0.10390632599592209, 0.1424679160118103, -0.1392282396554947, 0.0266060009598732, 0.025216251611709595, 0.030837973579764366, -0.10479394346475601, -0.12725324928760529, 0.05943342298269272, 0.08007466793060303, -0.16267859935760498, -0.10612715780735016, -0.3001973032951355, 0.05240654572844505, -0.08554098010063171, 0.05225439742207527, 0.03190789744257927, 0.1471601128578186], [0.05703464522957802, 0.1058112233877182, -0.009667673148214817, 0.17240378260612488, 0.031197676435112953, -0.1401674449443817, 0.022592851892113686, -0.07148833572864532, 0.2195231020450592, 0.0924573540687561, 0.17275486886501312, 0.2646251916885376, -0.09133820980787277, -0.04178633540868759, -0.10835385322570801, -0.18912534415721893, 0.01844717748463154, -0.07114451378583908, -0.046740446239709854, -0.1549997180700302], [-0.08593208342790604, 0.016627954319119453, -0.09049108624458313, -0.13073401153087616, -0.022214965894818306, -0.12628228962421417, 0.06560570746660233, -0.03678034618496895, 0.11982519179582596, 0.1813136786222458, -0.13486126065254211, 0.3686172664165497, 0.08616437017917633, 0.00951903685927391, -0.19316723942756653, 0.07377535104751587, -0.2571388781070709, -0.12248525768518448, -0.03402789309620857, -0.11449294537305832], [-0.08017838001251221, 0.06173306331038475, 0.02430381253361702, -0.12775573134422302, 0.09673167020082474, -0.1883164644241333, -0.19580668210983276, -0.20106472074985504, 0.13090528547763824, -0.04120796173810959, 0.04361261427402496, 0.3783639073371887, -0.06536585837602615, 0.16631920635700226, -0.15010598301887512, 0.29001396894454956, 0.09671195596456528, -0.2595612704753876, 0.10374365746974945, 0.23018652200698853], [-0.017242800444364548, 0.2536846697330475, -0.1109340488910675, -0.0033095264807343483, 0.24872303009033203, -0.16049496829509735, -0.1357855349779129, 0.04681563377380371, -0.028088662773370743, -0.1772117167711258, -0.10217254608869553, 0.18071874976158142, 0.13747739791870117, -0.22223658859729767, -0.2343933880329132, -0.08646491169929504, -0.24942618608474731, -0.12936165928840637, -0.08457314968109131, 0.22049611806869507], [0.14418870210647583, 0.032809093594551086, 0.12311042100191116, 0.23201046884059906, 0.1694781482219696, -0.11149200797080994, -0.11423616111278534, 0.16647988557815552, -0.04128192737698555, 0.2388228327035904, -0.022564448416233063, 0.26799753308296204, 0.21321386098861694, -0.03158944472670555, 0.0024040869902819395, 0.10387177765369415, 0.10542384535074234, -0.12932075560092926, -0.022282712161540985, 0.22394710779190063], [-0.07837750762701035, 0.16050530970096588, -0.18140728771686554, -0.037101056426763535, -0.0720052644610405, -0.10941437631845474, -0.006566028576344252, -0.1917380392551422, 0.00981141533702612, 0.14456112682819366, -0.07579148560762405, 0.08084359765052795, 0.22849130630493164, -0.0924341157078743, 0.0649680346250534, 0.18513458967208862, 0.03565136715769768, 0.030236458405852318, 0.00575910322368145, -0.018556680530309677], [0.030202697962522507, -0.09002713114023209, -0.14615021646022797, 0.2969464063644409, 0.08730251342058182, 7.363731128862128e-05, 0.12181682884693146, -0.2775057256221771, 0.0023139340337365866, -0.027529165148735046, -0.26584750413894653, -0.13456140458583832, -0.12484084069728851, -0.08426477015018463, -0.1730838418006897, 0.019461505115032196, -0.09127216041088104, -0.1551891565322876, -0.07265198975801468, 0.1756252944469452], [-0.15872937440872192, 0.29998281598091125, 0.14289037883281708, -0.06866009533405304, 0.07022412866353989, -0.18808519840240479, 0.015870198607444763, -0.24238793551921844, -0.058255888521671295, 0.27343326807022095, 0.15681834518909454, 0.28494012355804443, 0.058189038187265396, -0.3398873805999756, -0.00030189924291335046, -0.14033626019954681, -0.05607100576162338, -0.06565121561288834, -0.050569210201501846, 0.27981558442115784], [0.16354630887508392, 0.09482306241989136, 0.20586887001991272, 0.16772867739200592, 0.05292195826768875, -0.22149577736854553, -0.09952840209007263, -0.0552082285284996, 0.1724342256784439, 0.1243048831820488, 0.015663165599107742, 0.2487163245677948, 0.08238544315099716, -0.16025091707706451, -0.25046154856681824, 0.05434448644518852, -0.012874915264546871, -0.08873380720615387, 0.04568642005324364, 0.24380406737327576], [0.07775887846946716, -0.020208917558193207, 0.06456013768911362, 0.2502196431159973, 0.18071822822093964, -0.08039182424545288, 0.06488420814275742, 0.07173404842615128, -0.1759350597858429, 0.11939330399036407, 0.17136728763580322, 0.05219598859548569, 0.04382504150271416, 0.032243210822343826, 0.15674301981925964, 0.12478422373533249, -0.16246889531612396, -0.24921244382858276, 0.009357990697026253, -0.0340411476790905], [0.16077156364917755, -0.017516179010272026, -0.06840430200099945, -0.13501574099063873, -0.14197242259979248, 0.0024401070550084114, -0.024971380829811096, -0.03674257546663284, 0.23757848143577576, 0.03163386136293411, -0.020603902637958527, -0.19735652208328247, -0.0036565663758665323, 0.19255097210407257, -0.1268889158964157, 0.08779425173997879, -0.20085477828979492, 0.0992765799164772, -0.02488330565392971, 0.10996083170175552], [0.05930358171463013, 0.2667863965034485, -0.03805258870124817, -0.03455965593457222, 0.21238116919994354, -0.01402700413018465, -0.1314409077167511, -0.26035991311073303, -0.10326443612575531, 0.26880186796188354, -0.19830143451690674, 0.33955246210098267, 0.1459217518568039, -0.0499325729906559, 0.09687391668558121, -0.17213457822799683, 0.05870581045746803, 0.06536055356264114, 0.04770819842815399, 0.1756867915391922], [-0.10001036524772644, 0.24380111694335938, -0.054885320365428925, 0.23009143769741058, -0.12765857577323914, -0.14925594627857208, 0.02899451181292534, -0.025454282760620117, -0.01701013371348381, 0.11851461976766586, 0.08242084085941315, 0.17660370469093323, -0.08772532641887665, 0.0710885301232338, 0.1698768138885498, -0.13344182074069977, -0.12806035578250885, -0.12251456081867218, 0.06305721402168274, -0.1087532714009285], [-0.059362445026636124, 0.029759680852293968, 0.07147631794214249, -0.009960431605577469, 0.10668223351240158, -0.18734946846961975, -0.16363821923732758, -0.19966638088226318, 0.295581579208374, 0.2937655448913574, -0.14362604916095734, -0.06489964574575424, 0.2649890184402466, 0.18136444687843323, -0.10737253725528717, -0.12539933621883392, -0.054933857172727585, 0.013711312785744667, 0.14742472767829895, -0.11162936687469482], [-0.27390623092651367, 0.12305070459842682, -0.14071308076381683, 0.30214065313339233, -0.05729614198207855, -0.16958925127983093, -0.04299701750278473, -0.18496505916118622, 0.06784208118915558, 0.046858545392751694, -0.010084060952067375, 0.10593640059232712, -0.07724477350711823, -0.1682157814502716, 0.0945221334695816, 0.1750182807445526, -0.200434148311615, -0.1872403621673584, 0.03484207019209862, 0.3035587966442108], [-0.04474516957998276, 0.22827988862991333, 0.26543450355529785, 0.333257794380188, 0.10494639724493027, -0.014108981005847454, -0.2925001382827759, -0.22760996222496033, 0.13199128210544586, 0.2728373110294342, -0.03875143826007843, -0.1497173309326172, 0.17039449512958527, 0.05154871940612793, -0.17344699800014496, -0.13864612579345703, -0.20459599792957306, 0.010199859738349915, -0.1707344502210617, 0.09611688554286957], [-0.004750354681164026, 0.07407265901565552, -0.01968294009566307, 0.026598943397402763, 0.08195491135120392, -0.05844462290406227, -0.2401026040315628, -0.2883168160915375, 0.14000320434570312, -0.1366557627916336, 0.12974026799201965, 0.11623077094554901, -0.11740943789482117, -0.1793232262134552, 0.11368342489004135, -0.10124052315950394, -0.03176957741379738, -0.18979139626026154, 0.13600531220436096, 0.01802706904709339], [-0.03564133495092392, 0.33467280864715576, -0.14290477335453033, 0.32120567560195923, 0.05475284159183502, -0.14454375207424164, -0.22098590433597565, -0.12611010670661926, 0.024132778868079185, 0.10745164752006531, 0.054786983877420425, -0.11609945446252823, -0.1959759145975113, 0.18422755599021912, -0.1313442587852478, -0.14926524460315704, -0.19200681149959564, 0.12305260449647903, -0.026945380493998528, 0.1199420914053917], [-0.07744861394166946, 0.043861452490091324, 0.1473744511604309, -0.1235986277461052, -0.14734560251235962, -0.14551834762096405, -0.12767745554447174, -0.03493959829211235, -0.028740040957927704, 0.22153685986995697, 0.17909593880176544, 0.2359752655029297, 0.0958486869931221, -0.1314067244529724, -0.2428382933139801, -0.1312522441148758, -0.25294265151023865, 0.1640477180480957, 0.022673364728689194, 0.17740948498249054], [0.08295988291501999, 0.1124018058180809, -0.12390191853046417, 0.10161852836608887, -0.09000396728515625, -0.14868445694446564, 0.09484042227268219, -0.14628757536411285, 0.08592303097248077, -0.07520659267902374, -0.26028671860694885, 0.18846024572849274, 0.08584103733301163, -0.14774078130722046, -0.2816407084465027, 0.00812232680618763, -0.053929805755615234, 0.09408983588218689, 0.18537747859954834, -0.08691969513893127], [0.09961558878421783, 0.10241465270519257, 0.014768010005354881, 0.13301949203014374, 0.0032278893049806356, -0.23547527194023132, 0.06719151139259338, -0.022231290116906166, 0.07831119745969772, -0.055237047374248505, -0.14259688556194305, 0.3690142333507538, 0.07609260082244873, -0.001523059094324708, 0.14112818241119385, 0.22162467241287231, 0.01916584186255932, -0.22137007117271423, 0.32975515723228455, -0.1575409471988678], [0.01599907875061035, 0.29256486892700195, 0.06301810592412949, 0.1521407961845398, 0.06930861622095108, -0.10782994329929352, -0.11966978758573532, -0.19036774337291718, 0.260235995054245, 0.007456660736352205, 0.0768931433558464, 0.22677142918109894, 0.10358744114637375, -0.0850558876991272, -0.27181944251060486, -0.07131430506706238, 0.1653127521276474, -0.013588929548859596, 0.03321843594312668, 0.22182592749595642], [0.006922455038875341, 0.15682819485664368, -0.09479397535324097, 0.24953003227710724, 0.15488292276859283, -0.21233537793159485, -0.22907356917858124, 0.10926786065101624, 0.2651941180229187, 0.13195264339447021, -0.08365557342767715, 0.04407232254743576, 0.2742016911506653, -0.13499532639980316, 0.05431484058499336, 0.17881859838962555, -0.03026271052658558, -0.2149444818496704, 0.1482471376657486, 0.09264024347066879], [-0.0010269582271575928, -0.028232671320438385, -0.04955734312534332, 0.1456700712442398, 0.10671111941337585, 0.15243951976299286, 0.12307853251695633, -0.22468201816082, -0.15987154841423035, 0.0387612022459507, -0.016233546659350395, 0.3151620924472809, 0.33458808064460754, 0.025187378749251366, -0.11344204843044281, -0.18712298572063446, 0.12603743374347687, 0.12943173944950104, 0.26782920956611633, 0.23534546792507172], [-0.2082023173570633, 0.2276909351348877, -0.2103089839220047, 0.06160243600606918, 0.2546876072883606, 0.15840640664100647, 0.038452550768852234, -0.103925421833992, -0.10541478544473648, 0.037770770490169525, -0.050952378660440445, 0.2329755425453186, -0.04034953564405441, -0.2989582419395447, 0.11356467753648758, -0.1212085485458374, 0.1534336507320404, -0.0735279992222786, -0.07239612936973572, 0.14478281140327454], [0.19595256447792053, -0.0862177386879921, 0.14703039824962616, -0.003968753851950169, 0.006043087691068649, 0.01871728152036667, 0.02771906554698944, -0.040610481053590775, 0.038248468190431595, -0.24804124236106873, 0.08533582836389542, -0.06279324740171432, -0.03348562493920326, 0.05860131233930588, 0.004753513727337122, -0.18569836020469666, 0.228188157081604, 0.03307822346687317, -0.0030939732678234577, -0.04837849736213684], [0.05267191678285599, -0.005292994435876608, 0.15303313732147217, -0.23698553442955017, 0.09442960470914841, 0.2344171404838562, 0.14597681164741516, -0.0221845880150795, 0.0497746542096138, 0.02924736589193344, 0.16295845806598663, 0.20243677496910095, -0.19824343919754028, 0.03817374259233475, 0.2762489914894104, -0.24983946979045868, 0.12138731777667999, -0.004963917192071676, -0.05619555339217186, -0.12365015596151352], [0.17782364785671234, 0.013991155661642551, -0.1492636352777481, 0.026615193113684654, 0.02228269726037979, -0.047698263078927994, -0.016272015869617462, 0.015514887869358063, 0.22529539465904236, 0.10618365556001663, 0.053697142750024796, -0.0006171411951072514, -0.06417327374219894, 0.005903308279812336, 0.16082781553268433, -0.12716510891914368, -0.09667380154132843, 0.042650703340768814, -0.051568470895290375, 0.007140129804611206], [-0.06320880353450775, -0.21063272655010223, 0.13790638744831085, 0.10385696589946747, 0.15911100804805756, -0.13198800384998322, 0.1777477115392685, 0.1346861571073532, 0.037173569202423096, 0.04261808469891548, 0.1346645951271057, -0.217803493142128, -0.13742829859256744, -0.07736122608184814, 0.06303989887237549, -0.0873403549194336, 0.03215755894780159, -0.14421962201595306, -0.26248008012771606, 0.1298922449350357], [0.03606037050485611, 0.10964655876159668, -0.19556120038032532, 0.04197201505303383, -0.12478286027908325, -0.0062287189066410065, 0.11532384902238846, 0.03638910874724388, -0.020353058353066444, 0.11309421807527542, -0.005030945874750614, 0.23578831553459167, 0.20654809474945068, -0.16015584766864777, -0.08057071268558502, -0.0576646588742733, 0.018756426870822906, -0.1794314980506897, -0.029218172654509544, -0.12844517827033997], [0.0060641588643193245, 0.06991267204284668, -0.07076241821050644, -0.18051841855049133, 0.031103627756237984, 0.03341161459684372, 0.13340343534946442, -0.11483406275510788, -0.11609877645969391, -0.20706519484519958, 0.140167698264122, -0.26079630851745605, 0.03214101493358612, -0.13771522045135498, -0.11316997557878494, 0.005636137444525957, -0.15074996650218964, -0.07141441851854324, 0.14635592699050903, 0.07418178766965866], [0.14980167150497437, 0.162490114569664, -0.062468305230140686, -0.1411091387271881, 0.025005456060171127, -0.20923979580402374, 0.2705564796924591, -0.0637374073266983, -0.1570439487695694, -0.012044113129377365, -0.1658584624528885, 0.13129881024360657, -0.005692286882549524, -0.04875315725803375, 0.05859561264514923, -0.002495734253898263, 0.040294598788022995, 0.1543104350566864, 0.1682901531457901, -0.1077827736735344], [0.21786975860595703, -0.2511417865753174, 0.23021379113197327, 0.11448987573385239, -0.16754883527755737, 0.2267909198999405, -0.09479442238807678, -0.017546195536851883, 0.08509325236082077, -0.1473960429430008, 0.08250723779201508, -0.34467506408691406, -0.08117803186178207, -0.10584106296300888, 0.1525566279888153, 0.11541079729795456, 0.1907631754875183, -0.10854052007198334, -0.30641111731529236, -0.06715207546949387], [0.15253227949142456, -0.08196581155061722, -0.0025382505264133215, 0.10013639181852341, 0.01582413911819458, -0.056229837238788605, -0.047561511397361755, -0.005506306886672974, 0.10071341693401337, -0.13613136112689972, 0.14880888164043427, -0.2967993915081024, -0.07280709594488144, -0.06402336061000824, 0.13038967549800873, -0.07346852868795395, 0.014006325975060463, -0.17566996812820435, -0.15602394938468933, -0.1126287430524826], [-0.2884472608566284, -0.017357228323817253, 0.0587020218372345, 0.24973882734775543, -0.03425154462456703, -0.1886044293642044, 0.19530245661735535, 0.10804558545351028, 0.19676199555397034, -0.1054796427488327, -0.10314377397298813, 0.019950678572058678, 0.21309404075145721, -0.03660746291279793, 0.0021826508454978466, 0.16808441281318665, -0.1932767629623413, -0.07768438756465912, 0.31635212898254395, 0.2437310665845871], [-0.04599231109023094, -0.2209518849849701, -0.07279928028583527, 0.08950788527727127, -0.22224625945091248, -0.032795172184705734, -0.20284751057624817, 0.14809125661849976, -0.18019062280654907, -0.2955872118473053, -0.08808702230453491, 0.022849705070257187, -0.279874712228775, 0.04763270542025566, 0.154875710606575, -0.17540888488292694, -0.08870822936296463, -0.05953798443078995, 0.03566194325685501, 0.013838112354278564], [-0.046491652727127075, 0.05614230036735535, 0.07254382222890854, -0.14317983388900757, 0.12389986217021942, 0.17787037789821625, 0.01316018309444189, -0.022038687020540237, -0.14102953672409058, 0.13542503118515015, 0.0020575206726789474, -0.15196554362773895, -0.06418002396821976, -0.08780178427696228, -0.10789845138788223, -0.03697635605931282, 0.12373999506235123, 0.21793685853481293, -0.21789436042308807, -0.20461724698543549], [-0.04478170722723007, -0.15011794865131378, 0.013255509547889233, -0.008047262206673622, 0.10929601639509201, 0.18693935871124268, -0.01164119504392147, -0.08055046200752258, 0.12264265865087509, 0.13265357911586761, -0.09021835774183273, 0.07442037761211395, -0.12302093207836151, -0.01436101458966732, 0.1523163914680481, 0.17591947317123413, 0.13180789351463318, -0.002188492799177766, 0.13341709971427917, -0.005560251884162426], [0.01953761652112007, -0.1424829512834549, -0.2230561524629593, -0.1178194135427475, 0.1719706952571869, 0.2003457248210907, -0.013539176434278488, -0.005016644950956106, -0.06849459558725357, 0.26278936862945557, -0.05855046957731247, 0.2882014513015747, 0.02358887530863285, -0.2996011972427368, -0.01759103499352932, -0.12839984893798828, 0.2010069042444229, 0.19498339295387268, 0.1329004317522049, -0.0027618734166026115], [0.19777144491672516, -0.11071774363517761, 0.029374567791819572, -0.06547411531209946, -0.11031694710254669, 0.2217213213443756, -0.1449136734008789, 0.15456420183181763, -0.18419653177261353, 0.08331563323736191, -0.12078327685594559, 0.06509348005056381, 0.14823903143405914, 0.12444131076335907, -0.08891551941633224, 0.03139064833521843, 0.1027480736374855, 0.1020195335149765, 0.006258457899093628, 0.027472253888845444], [-0.002241636859253049, 0.2365272492170334, -0.11467919498682022, 0.012828060425817966, 0.0631808489561081, -0.062252990901470184, 0.27110418677330017, -0.03893977776169777, 0.21821372210979462, 0.11197439581155777, -0.0934453085064888, 0.04173097014427185, -0.05142153427004814, -0.14210344851016998, 0.15703286230564117, -0.10938751697540283, -0.012918113730847836, 0.18436278402805328, 0.08879504352807999, 0.1566896140575409], [0.08539088815450668, -0.17837978899478912, -0.19861838221549988, 0.028146514669060707, -0.16668985784053802, -0.1904979646205902, 0.021977011114358902, -0.08338386565446854, -0.02902648225426674, 0.08203709125518799, -0.19676601886749268, -0.06546536087989807, 0.2027829885482788, -0.03919779881834984, 0.19507251679897308, -0.04627576097846031, -0.19909074902534485, 0.12816600501537323, 0.00797480158507824, -0.039673272520303726], [-0.18774127960205078, 0.055509455502033234, -0.03791109845042229, 0.04892299324274063, -0.07539296895265579, -0.08351687341928482, 0.0610521025955677, -0.07061444222927094, -0.09550996124744415, -0.21867920458316803, -0.19617389142513275, -0.05250847712159157, 0.00227925693616271, 0.23263663053512573, -0.1831212341785431, -0.13885869085788727, 0.03680168464779854, -0.08482534438371658, -0.13663864135742188, 0.1299138069152832], [-0.14359724521636963, -0.23921188712120056, 0.009307336062192917, 0.12517791986465454, -0.15349842607975006, 0.09649444371461868, 0.04036947712302208, 0.03634729981422424, -0.025996219366788864, -0.2612258493900299, -0.20901136100292206, -0.34060636162757874, -0.2409498393535614, 0.292872816324234, -0.04564691334962845, -0.0013211946934461594, 0.1885717660188675, 0.1723719835281372, -0.05461205914616585, 0.04568425938487053], [0.07929863780736923, 0.2632639706134796, -0.08571968227624893, 0.2496340572834015, -0.0652891993522644, -0.041843339800834656, 0.08605275303125381, -0.1569240242242813, -0.1604222059249878, 0.07269354909658432, 0.1800089329481125, 0.046094853430986404, -0.06896580010652542, 0.02938513644039631, -0.12095148861408234, 0.15900957584381104, 0.09480679780244827, -0.18334323167800903, 0.12818367779254913, 0.11277321726083755], [0.012556755915284157, 0.15439105033874512, -0.11744070053100586, -0.08450561761856079, 0.27444756031036377, 0.16726349294185638, 0.22052592039108276, -0.14116477966308594, 0.18907594680786133, 0.08853671699762344, 0.08078829944133759, 0.3697741627693176, 0.16365331411361694, -0.1533113420009613, 0.004568988922983408, 0.2433638870716095, 0.04111902043223381, -0.19299250841140747, -0.06073026359081268, 0.13340622186660767], [-0.1361272931098938, 0.0891214907169342, 0.16028228402137756, -0.04400520399212837, -0.020583175122737885, 0.1397608369588852, -0.2434898465871811, -0.19254890084266663, 0.024821868166327477, 0.03924541920423508, -0.06931662559509277, 0.09142450243234634, 0.03954119607806206, -0.05176137015223503, 0.07113867998123169, -0.025514109060168266, 0.09255269914865494, 0.012921581976115704, 0.17413221299648285, -0.166630819439888], [-0.2323429435491562, -0.030121849849820137, -0.2148289829492569, 0.1103099137544632, -0.003547490807250142, 0.011594018898904324, 0.09192973375320435, 0.042053136974573135, 0.07428547739982605, 0.17636559903621674, -0.03777501359581947, 0.36491578817367554, -0.03558758646249771, -0.12111128866672516, -0.2234306037425995, -0.16684547066688538, -0.21352198719978333, -0.24977706372737885, 0.03963350132107735, 0.04011010378599167], [-0.03168639540672302, 0.060327112674713135, 0.1339670717716217, 0.18773354589939117, 0.1756839156150818, 0.08972471952438354, -0.19439861178398132, -0.18300114572048187, 0.1811433583498001, -0.1883798986673355, 0.006846790201961994, 0.19860081374645233, 0.06299881637096405, -0.2739642560482025, -5.0796337745850906e-05, -0.057546645402908325, 0.07292050868272781, -0.24010471999645233, 0.21482498943805695, -0.03396626189351082], [0.1412237584590912, -0.15889997780323029, 0.12632928788661957, -0.06474899500608444, -0.03882783278822899, -0.12932011485099792, 0.2648446261882782, -0.24243424832820892, -0.008717072196304798, 0.2099766731262207, -0.17048747837543488, 0.3564489781856537, 0.07151320576667786, -0.30610191822052, -0.079815573990345, 0.07577567547559738, 0.17909105122089386, -0.1985655277967453, -0.06493943184614182, -0.15366815030574799], [-0.2732352316379547, 0.19577546417713165, 0.17276129126548767, 0.08313915878534317, -0.17267388105392456, 0.16827146708965302, -0.06765098869800568, -0.08867419511079788, 0.01771499402821064, -0.2025371789932251, 0.09668833762407303, -0.16539905965328217, 0.1862957924604416, -0.04935663193464279, -0.020524965599179268, -0.16084600985050201, -0.12013554573059082, -0.22742345929145813, -0.21711237728595734, 0.07210806757211685], [0.07320523262023926, 0.032350342720746994, -0.23494119942188263, -0.036588702350854874, -0.08695251494646072, 0.028304683044552803, -0.05191023275256157, -0.20508305728435516, 0.22041888535022736, 0.11199510097503662, -0.09615293145179749, 0.034248724579811096, 0.2166324257850647, 0.02016999013721943, -0.22473327815532684, 0.09502935409545898, 0.11629331111907959, -0.26831433176994324, 0.2670491337776184, 0.12339746952056885], [-0.2513733506202698, 0.24628391861915588, -0.21034987270832062, 0.09457644820213318, 0.04544851556420326, -0.03657643869519234, 0.18706710636615753, -0.08333423733711243, -0.06487170606851578, 0.21009007096290588, 0.10117433965206146, 0.024834850803017616, -0.05646077170968056, -0.019205061718821526, -0.17194361984729767, -0.08361168950796127, -0.03678275644779205, -0.25161823630332947, -0.0070068021304905415, 0.24628371000289917], [0.019862687215209007, -0.13521094620227814, -0.08659137040376663, -0.07548696547746658, -0.16332192718982697, 0.10396526008844376, 0.07247369736433029, 0.14011746644973755, 0.06363094598054886, -0.11002849787473679, -0.08539662510156631, -0.11592819541692734, -0.3314526677131653, 0.2770948112010956, -0.1274564564228058, -0.027856938540935516, -0.11465642601251602, 0.1354120820760727, 0.0964437872171402, -0.13596045970916748], [-0.22342193126678467, -0.10034672170877457, -0.005394444800913334, 0.09379769116640091, -0.08075394481420517, 0.0025398440193384886, -0.039801519364118576, -0.11792123317718506, -0.0078118303790688515, -0.2018309235572815, -0.26218703389167786, 0.28336602449417114, 0.14791209995746613, 0.13555313646793365, -0.09848728775978088, -0.15004383027553558, -0.04313438758254051, -0.1528918743133545, 0.052025243639945984, 0.143076553940773], [0.25708287954330444, -0.03861817345023155, -0.1511433720588684, -0.4099713861942291, -0.05358242616057396, 0.07854802906513214, 0.23304127156734467, 0.14289456605911255, 0.008380791172385216, -0.13487786054611206, -0.05286065861582756, 0.17302845418453217, -0.07985671609640121, -0.08312880247831345, 0.08367811888456345, -0.0688241720199585, 0.29690712690353394, 0.33173176646232605, 0.12481261044740677, 0.10214924812316895], [-0.1901344656944275, 0.21899625658988953, 0.052793145179748535, 0.0669175237417221, -0.027547305449843407, -0.06394771486520767, 0.19249027967453003, 0.15410847961902618, 0.21088184416294098, -0.08624595403671265, -0.1107233390212059, -0.02310534194111824, -0.16709817945957184, -0.1030692607164383, -0.019301747903227806, 0.2196640819311142, 0.13892553746700287, 0.0017957233358174562, 0.15989291667938232, 0.002008660463616252], [0.1289791464805603, 0.052751168608665466, 0.07289188355207443, 0.12192774564027786, 0.10199196636676788, -0.2165464609861374, -0.18215329945087433, -0.10314717888832092, -0.14884807169437408, 0.14651983976364136, 0.17215147614479065, -0.13831473886966705, 0.1762363165616989, -0.15561412274837494, -0.1574518233537674, 0.05574740096926689, -0.23716360330581665, 0.09614071249961853, 0.03805976361036301, 0.1546693742275238], [0.049321699887514114, 0.042935747653245926, -0.14410993456840515, -0.13451983034610748, 0.11493291705846786, 0.16392801702022552, 0.05578412115573883, -0.00948804896324873, -0.07901599258184433, -0.09436134248971939, -0.08090510964393616, 0.08490531891584396, 0.23036469519138336, -0.045493580400943756, -0.0469711534678936, 0.02185719832777977, -0.04494834691286087, -0.16663621366024017, 0.2901282012462616, -0.10324031859636307], [-0.17342032492160797, 0.2119409143924713, -0.07073943316936493, 0.16551758348941803, 0.14931994676589966, -0.18548868596553802, -0.20028167963027954, -0.1243022233247757, 0.30995234847068787, -0.04267881065607071, -0.2649073302745819, -0.08154898136854172, 0.23187711834907532, 0.20232608914375305, -0.18869049847126007, -0.18304412066936493, -0.005637295078486204, -0.09344319254159927, 0.056699130684137344, -0.06639104336500168], [-0.08039205521345139, -0.09724903106689453, -0.08878929913043976, 0.1605713665485382, 0.08069115877151489, 0.1560370773077011, -0.004161398857831955, 0.18217802047729492, 0.15023858845233917, -0.08074741065502167, -0.18719026446342468, 0.36843249201774597, 0.15820711851119995, -0.2771528661251068, -0.03696957230567932, -0.030288981273770332, -0.17647133767604828, 0.1673828810453415, 0.2582811117172241, 0.21506677567958832], [0.10088633000850677, 0.08320823311805725, -0.007541530765593052, 0.011677592992782593, 0.10475053638219833, 0.11994533985853195, -0.17074623703956604, 0.14650428295135498, 0.21869687736034393, 0.16339987516403198, 0.05661535635590553, 0.17404845356941223, 0.1047017052769661, -0.10380568355321884, -0.23395328223705292, -0.17704053223133087, -0.2509811818599701, -0.22128963470458984, 0.028029484674334526, 0.27185240387916565], [-0.12705715000629425, -0.04443637654185295, -0.06715460121631622, 0.3044808804988861, 0.18728294968605042, -0.25191938877105713, 0.14815759658813477, 0.09593094140291214, 0.2545672357082367, 0.028810374438762665, 0.024512838572263718, 0.24091409146785736, 0.2297612577676773, -0.0058633871376514435, -0.3017156422138214, 0.3006783127784729, 0.09290456771850586, -0.011500957421958447, 0.20313861966133118, 0.05854921415448189], [-0.14419354498386383, -0.14686895906925201, -0.051952000707387924, 0.2704516649246216, 0.17176847159862518, -0.2347700595855713, 0.01982146129012108, -0.23595497012138367, 0.11176203936338425, 0.06729283183813095, 0.19536960124969482, 0.05164666846394539, 0.2964136004447937, 0.006243341136723757, 0.14072319865226746, 0.0034021029714494944, 0.12726788222789764, -0.2301669865846634, -0.09346114099025726, -0.086786650121212]], "rec.bias_ih_l0": [0.07699155062437057, -0.0888916403055191, -0.21087013185024261, 0.12811265885829926, -0.06481289863586426, -0.06067773699760437, 0.03388691693544388, -0.20552147924900055, -0.09512735903263092, 0.0174051932990551, 0.1104828491806984, -0.06871990114450455, -0.11618144065141678, -0.09250807017087936, 0.14240552484989166, -0.18653428554534912, -0.08019423484802246, 0.07434724271297455, -0.26762616634368896, 0.06335952132940292, -0.10024221241474152, 0.10279510915279388, 0.03975043073296547, 0.15877550840377808, -0.24213603138923645, 0.01769288256764412, -0.1486712247133255, -0.1567562073469162, 0.07060609012842178, -0.1085553914308548, 0.09710763394832611, -0.3321918845176697, -0.11260595172643661, -0.12366315722465515, 0.17038680613040924, -0.27740198373794556, 0.11837055534124374, -0.10393465310335159, -0.204193115234375, 0.10881222039461136, -0.10020467638969421, 0.02498374693095684, -0.1278809905052185, -0.024496402591466904, -0.023853765800595284, 0.16089476644992828, 0.09430209547281265, 0.08172842115163803, -0.22673238813877106, 0.05914323031902313, 0.03363408148288727, -0.022812480106949806, 0.07206080108880997, 0.03465697169303894, 0.14486239850521088, 0.07370799779891968, -0.003838043427094817, 0.18177220225334167, 0.1459205001592636, 0.03327009081840515, 0.16823288798332214, -0.0637781098484993, -0.014048764482140541, 0.015689630061388016, -0.2557609975337982, -0.09487804025411606, -0.11591968685388565, 0.17090240120887756, -0.03690728917717934, -0.1244436725974083, -0.21143321692943573, 0.16458164155483246, -0.11589266359806061, -0.17594923079013824, 0.19506943225860596, -0.018076037988066673, 0.06446078419685364, 0.0298098586499691, -0.14396993815898895, -0.061151113361120224], "rec.bias_hh_l0": [-0.10534080117940903, -0.10079766064882278, 0.06298116594552994, -0.12422538548707962, -0.209366574883461, 0.06085352972149849, 0.15285778045654297, 0.02613210305571556, -0.01553014013916254, 0.20936939120292664, 0.03199212998151779, 0.22285418212413788, 0.05817702040076256, 0.10435186326503754, -0.13063259422779083, -0.31605884432792664, -0.199794203042984, 0.16008412837982178, -0.12922333180904388, 0.1633942723274231, 0.03292253240942955, -0.05456509068608284, -0.0003563536738511175, -0.18529044091701508, 0.15978991985321045, 0.04457312077283859, 0.12705807387828827, -0.13528048992156982, 0.14964225888252258, -0.3225606381893158, -0.2644903361797333, -0.2702401280403137, -0.24706098437309265, 0.09425846487283707, 0.14536815881729126, -0.04737265780568123, -0.21939758956432343, -0.19527383148670197, -0.025290796533226967, -0.15638664364814758, 0.24093513190746307, -0.13910895586013794, 0.033838625997304916, -0.12919852137565613, -0.0016544015379622579, 0.10844767093658447, -0.016498016193509102, 0.19369561970233917, -0.07904983311891556, -0.08988450467586517, 0.11490947008132935, -0.027920709922909737, -0.17140091955661774, -0.015900954604148865, -0.0075056590139865875, -0.16503876447677612, 0.19354785978794098, 0.02399059757590294, -0.15483058989048004, -0.1577306091785431, -0.10798134654760361, 0.13389179110527039, 0.04754512012004852, -0.04058254510164261, 0.03189767524600029, -0.17403540015220642, -0.010488362982869148, 0.07741868495941162, -0.09698495268821716, -0.07615607976913452, 0.037751343101263046, 0.007214315701276064, -0.10665253549814224, 0.11533373594284058, -0.20448215305805206, 0.028688879683613777, 0.22693303227424622, 0.06520034372806549, -0.1298941969871521, -0.18260307610034943], "lin.weight": [[0.20260709524154663, -0.17543482780456543, 0.09781644493341446, -0.21042810380458832, -0.0623936764895916, 0.12084407359361649, -0.09893292933702469, 0.18378204107284546, -0.19494682550430298, -0.12188033014535904, 0.08249708265066147, -0.18985198438167572, -0.11415078490972519, 0.11699549853801727, 0.1475237011909485, -0.016719259321689606, 0.20054781436920166, 0.22229161858558655, -0.13607607781887054, -0.1395678073167801]], "lin.bias": [-0.15091027319431305]}}