{"model_data": {"model": "SimpleRNN", "input_size": 1, "skip": 1, "output_size": 1, "unit_type": "LSTM", "num_layers": 1, "hidden_size": 20, "bias_fl": true}, "state_dict": {"rec.weight_ih_l0": [[-0.8145320415496826], [-0.4481261074542999], [1.3720885515213013], [-0.6093634963035583], [-0.4609728157520294], [-0.8616862297058105], [1.2919427156448364], [-0.9555336236953735], [-0.6528030037879944], [-2.267451524734497], [-0.4048123359680176], [2.263334035873413], [-0.7177094221115112], [1.4470304250717163], [-0.3863118290901184], [0.9305905699729919], [-0.48642879724502563], [-0.5668107271194458], [0.384189635515213], [-0.2538009583950043], [-0.91515052318573], [-0.44351375102996826], [1.2360777854919434], [-0.6748849749565125], [-0.5462347269058228], [-0.6791595220565796], [1.3238223791122437], [-0.8431878685951233], [-0.9657240509986877], [-2.0179355144500732], [-0.5975018739700317], [1.6732683181762695], [-1.3723193407058716], [0.8494105339050293], [-0.34760338068008423], [0.8427375555038452], [-0.8697178959846497], [-0.7912565469741821], [0.17740517854690552], [-0.6182456612586975], [-1.0215721130371094], [1.2289921045303345], [-1.3928141593933105], [0.7285825610160828], [1.1124261617660522], [-0.930195689201355], [1.2176218032836914], [-1.1310234069824219], [0.9753873348236084], [2.8088226318359375], [-1.3110650777816772], [2.243610143661499], [1.49655282497406], [-1.389451503753662], [-0.7048946619033813], [0.6922496557235718], [-1.1217442750930786], [-0.9935100674629211], [1.1022028923034668], [0.8067131042480469], [-1.5243316888809204], [-0.8783830404281616], [1.9313383102416992], [-1.1878149509429932], [-0.7409312725067139], [-1.440533995628357], [2.0910329818725586], [-1.281067132949829], [-1.4553682804107666], [-3.404557466506958], [-0.7668612003326416], [2.687610387802124], [-1.556130290031433], [1.9208205938339233], [-1.2193018198013306], [1.1004270315170288], [-1.151705265045166], [-0.948553204536438], [0.19256676733493805], [-0.8984747529029846]], "rec.weight_hh_l0": [[0.008688236586749554, -0.15794113278388977, 0.02181888371706009, 0.06627645343542099, 0.03859145939350128, 0.16607725620269775, 0.031707070767879486, 0.04882524907588959, 0.05342916026711464, 0.09959623962640762, 0.07174748182296753, 0.2915414869785309, 0.016728276386857033, -0.3368721306324005, 0.176456481218338, 0.18834751844406128, 0.14531086385250092, 0.039414260536432266, 0.1026846393942833, 0.2656210660934448], [-0.00901806354522705, 0.07305754721164703, 0.14294657111167908, 0.26183950901031494, -0.09463012963533401, 0.13726447522640228, 0.19114601612091064, 0.058083243668079376, 0.2040712535381317, -0.01643163524568081, -0.014718294143676758, 0.16290625929832458, 0.08098643273115158, -0.320514440536499, 0.03266722708940506, -0.03878933936357498, -0.11802321672439575, -0.14072054624557495, -0.014827877283096313, -0.04463151469826698], [0.06602683663368225, 0.2458411455154419, 0.06305273622274399, -0.04061981663107872, 0.13083916902542114, -0.2128923237323761, -0.2224762886762619, -0.11267845332622528, -0.12140548229217529, 0.19374863803386688, -0.1592753529548645, 0.08724943548440933, 0.1988200545310974, 0.22238321602344513, -0.03851426765322685, 0.021589243784546852, 0.0602467805147171, 0.12832428514957428, -0.21687868237495422, -0.051686257123947144], [-0.26048189401626587, 0.12409970909357071, 0.13797049224376678, 0.10222849249839783, 0.15090079605579376, 0.14188915491104126, -0.14080864191055298, 0.15605325996875763, 0.2525356411933899, 0.1933748871088028, 0.055018000304698944, 0.02703065611422062, 0.0033271941356360912, 0.022252511233091354, 0.05210018530488014, 0.20212914049625397, -0.08454297482967377, 0.13649021089076996, 0.18832704424858093, 0.23316995799541473], [-0.08615050464868546, -0.1494370847940445, 0.1768282651901245, 0.07866165786981583, -0.0646982342004776, -0.19758684933185577, 0.06696761399507523, 0.08340947329998016, 0.19019803404808044, 0.10466843843460083, -0.1812664270401001, 0.21958310902118683, -0.043948493897914886, 0.01446154247969389, -0.14267601072788239, 0.09381328523159027, -0.0009379389812238514, -0.11793920397758484, 0.14537110924720764, -0.08855889737606049], [-0.04315350204706192, -0.022472919896245003, -0.24635517597198486, -0.010459153912961483, -0.12831977009773254, 0.023700322955846786, 0.04286304861307144, 0.18354570865631104, 0.2281666249036789, 0.18304672837257385, -0.03670968860387802, 0.26269108057022095, -0.08046223968267441, -0.21011674404144287, -0.1688571274280548, -0.013518949039280415, -0.23889780044555664, -0.0864112451672554, 0.29732322692871094, -0.15560688078403473], [-0.11330534517765045, 0.2529052197933197, 0.11847364902496338, 0.19945240020751953, -0.09908819198608398, -0.008949359878897667, -0.2430219203233719, 0.09188193827867508, 0.011106199584901333, -0.08864009380340576, -0.03010427951812744, 0.024486655369400978, 0.04981318488717079, -0.011851279996335506, -0.062246646732091904, 0.14256355166435242, -0.10304966568946838, -0.04252276569604874, -0.18643684685230255, 0.18552809953689575], [-0.27001953125, 0.24430128931999207, 0.14806661009788513, 0.25534409284591675, -0.059988267719745636, -0.1649404615163803, 0.2630123496055603, 0.10915463417768478, 0.2091340273618698, 0.2118404656648636, 0.03692236542701721, 0.12022676318883896, 0.28992772102355957, 0.03508296236395836, -0.16890884935855865, -0.16316460072994232, -0.20041070878505707, 0.11484219133853912, 0.22207847237586975, 0.18933793902397156], [-0.027803918346762657, 0.09246955811977386, -0.1952231228351593, -0.0996270626783371, -0.07532975822687149, -0.21734818816184998, 0.2073301076889038, 0.02901647984981537, -0.05374336615204811, -0.12540766596794128, -0.21833786368370056, 0.31534427404403687, 0.2471701204776764, -0.07829269766807556, -0.18730193376541138, -0.1358017474412918, -0.08291230350732803, -0.0006751163164153695, -0.08100318908691406, 0.2306061089038849], [0.23822730779647827, -0.13012753427028656, -0.026622142642736435, 0.034121084958314896, 0.08643769472837448, 0.25249773263931274, 0.15620148181915283, -0.1424258053302765, -0.14012442529201508, -0.029833775013685226, -0.09096977859735489, -0.286171555519104, -0.0077775996178388596, 0.09100620448589325, 0.05835694819688797, 0.2086752951145172, -0.006925506051629782, -0.13618333637714386, -0.061217762529850006, 0.11276433616876602], [-0.09095393121242523, -0.0025041173212230206, 0.18537840247154236, 0.2885226905345917, 0.22575722634792328, 0.019012514501810074, 0.03207400068640709, -0.19462475180625916, 0.06692571192979813, -0.06504016369581223, 0.14223641157150269, -0.00046325422590598464, -0.10469327121973038, 0.11113175749778748, -0.286409467458725, 0.2589556574821472, -0.017818672582507133, -0.04096983000636101, 0.27751004695892334, 0.039799224585294724], [0.21587710082530975, -0.04096757993102074, -0.23034334182739258, -0.1955765336751938, -0.30496251583099365, 0.06992809474468231, -0.07612767815589905, -0.023005787283182144, -0.0890021026134491, -0.25365597009658813, -0.20006628334522247, 0.05584677308797836, -0.3368462920188904, 0.08271138370037079, -0.02348691038787365, -0.04561826214194298, 0.2290438860654831, 0.04279268905520439, -0.01857965998351574, -0.2960185408592224], [-0.16585417091846466, 0.15654920041561127, -0.023793619126081467, -0.09782309085130692, 0.20623815059661865, 0.13345076143741608, -0.10677626729011536, -0.19675534963607788, -0.00941603071987629, -0.21263685822486877, 0.06065932661294937, 0.09896979480981827, -0.15213055908679962, -0.044002827256917953, 0.16492649912834167, 0.11965640634298325, -0.12889531254768372, 0.16820956766605377, -0.07746428996324539, 0.24543216824531555], [-0.15830181539058685, 0.26320478320121765, -0.19180533289909363, 0.1845467984676361, 0.1338372826576233, 0.03129404038190842, -0.2389075607061386, -0.005247315391898155, 0.20056581497192383, -0.2114325612783432, -0.17066480219364166, 0.04457388445734978, -0.07725212723016739, 0.23203271627426147, 0.17571640014648438, 0.10742895305156708, -0.2139495462179184, -4.057397381984629e-05, -0.03835110738873482, 0.2081701159477234], [-0.0308343805372715, -0.14741143584251404, -0.24840663373470306, -0.13847318291664124, 0.11612756550312042, -0.10419080406427383, -0.12081432342529297, -0.2058562934398651, 0.12228290736675262, 0.08989279717206955, -0.03358335793018341, -0.02023185044527054, 0.1890084445476532, 0.08644527941942215, -0.08081790059804916, -0.17254188656806946, 0.05807866156101227, -0.22413672506809235, 0.27467018365859985, 0.03531200811266899], [0.034231849014759064, -0.043612509965896606, -0.10587366670370102, 0.14144738018512726, -0.13615700602531433, 0.02726258896291256, 0.02695934660732746, 0.03135824576020241, -0.10524234175682068, -0.1267625242471695, 0.058722786605358124, 0.09891179949045181, -0.15963762998580933, -0.10940814763307571, -0.2982414662837982, 0.053461842238903046, -0.08463946729898453, 0.05223642662167549, 0.03547758236527443, 0.14451801776885986], [0.056965868920087814, 0.10628224909305573, -0.010419254191219807, 0.172202005982399, 0.03137771412730217, -0.1401352882385254, 0.023318978026509285, -0.071431465446949, 0.21948085725307465, 0.09180258959531784, 0.17237313091754913, 0.2750495374202728, -0.09173163026571274, -0.04402151703834534, -0.10831253230571747, -0.1877906620502472, 0.01841791719198227, -0.07117611169815063, -0.04557749256491661, -0.15445925295352936], [-0.08606642484664917, 0.01708363927900791, -0.09090343117713928, -0.13073933124542236, -0.022015081718564034, -0.1263570338487625, 0.06604929268360138, -0.03683513030409813, 0.11991823464632034, 0.18133315443992615, -0.1350823938846588, 0.3752640187740326, 0.08580724895000458, 0.007759107742458582, -0.19321903586387634, 0.07453317195177078, -0.25718122720718384, -0.12257447838783264, -0.03324899449944496, -0.11394071578979492], [-0.07948609441518784, 0.062279585748910904, 0.02223268151283264, -0.12770043313503265, 0.09673160314559937, -0.18759790062904358, -0.1938386857509613, -0.2003766894340515, 0.13016195595264435, -0.041848644614219666, 0.04322444275021553, 0.3948274552822113, -0.06525442749261856, 0.16070272028446198, -0.14939871430397034, 0.29054903984069824, 0.09695680439472198, -0.2590283155441284, 0.10543375462293625, 0.22909462451934814], [-0.01659237965941429, 0.25295963883399963, -0.11145740002393723, -0.004066611640155315, 0.24775812029838562, -0.15989437699317932, -0.134908989071846, 0.04738353192806244, -0.02860249951481819, -0.18119293451309204, -0.10176222771406174, 0.19077160954475403, 0.1328403651714325, -0.22327809035778046, -0.23374904692173004, -0.08532829582691193, -0.24858637154102325, -0.12872707843780518, -0.08387184888124466, 0.22000710666179657], [0.14311450719833374, 0.03368179872632027, 0.1233978196978569, 0.23243071138858795, 0.16995465755462646, -0.1122167557477951, -0.11444330215454102, 0.16571439802646637, -0.040455278009176254, 0.2427290380001068, -0.023196008056402206, 0.26853036880493164, 0.21541689336299896, -0.03144264221191406, 0.0016718864208087325, 0.10381850600242615, 0.10455368459224701, -0.12997187674045563, -0.021808553487062454, 0.22498176991939545], [-0.07902193814516068, 0.16086040437221527, -0.18074320256710052, -0.03646985813975334, -0.07155007869005203, -0.10997200012207031, -0.007099826820194721, -0.19227826595306396, 0.010512454435229301, 0.1482609361410141, -0.07609111815690994, 0.07550875097513199, 0.2290412336587906, -0.09048082679510117, 0.06430792063474655, 0.18367697298526764, 0.03496147319674492, 0.029583115130662918, 0.005994222592562437, -0.017780400812625885], [0.029919074848294258, -0.08988253772258759, -0.145745649933815, 0.2973410189151764, 0.08689940720796585, -0.00014899612870067358, 0.1214272752404213, -0.27768927812576294, 0.00255311606451869, -0.026152096688747406, -0.265718013048172, -0.14024294912815094, -0.12385833263397217, -0.08351416140794754, -0.17330117523670197, 0.019157281145453453, -0.09147505462169647, -0.1554042100906372, -0.07349259406328201, 0.1753334254026413], [-0.158848375082016, 0.3001543879508972, 0.14267034828662872, -0.06858819723129272, 0.07036585360765457, -0.1881493180990219, 0.016054052859544754, -0.24242466688156128, -0.05813254043459892, 0.274578720331192, 0.1564365029335022, 0.2874660789966583, 0.05859869346022606, -0.34002891182899475, -0.0003956120344810188, -0.13962529599666595, -0.05617659166455269, -0.06575848162174225, -0.05013400316238403, 0.27997177839279175], [0.16308382153511047, 0.09411878883838654, 0.20639510452747345, 0.16729289293289185, 0.05230026692152023, -0.22137604653835297, -0.10027838498353958, -0.05529403313994408, 0.17240819334983826, 0.1218278557062149, 0.015982268378138542, 0.2264731079339981, 0.07673126459121704, -0.15063361823558807, -0.2503378689289093, 0.051290519535541534, -0.012906927615404129, -0.08862792700529099, 0.04446737468242645, 0.24307797849178314], [0.076863132417202, -0.01932191103696823, 0.06457637995481491, 0.25048965215682983, 0.18115095794200897, -0.08096911013126373, 0.06486640870571136, 0.0711260437965393, -0.1752229928970337, 0.1229572743177414, 0.17060858011245728, 0.056491918861866, 0.046126898378133774, 0.031674183905124664, 0.15611058473587036, 0.12486479431390762, -0.16308468580245972, -0.2496872842311859, 0.00998313631862402, -0.032953184098005295], [0.1607600897550583, -0.017538828775286674, -0.06836797297000885, -0.1346888542175293, -0.14169546961784363, 0.002474667737260461, -0.02502163127064705, -0.03673119470477104, 0.23747119307518005, 0.0320146381855011, -0.020586233586072922, -0.19862553477287292, -0.0034041297622025013, 0.19257472455501556, -0.12681114673614502, 0.08767366409301758, -0.2007390856742859, 0.09920711815357208, -0.024976028129458427, 0.10963007807731628], [0.05866754800081253, 0.2672455310821533, -0.0379321314394474, -0.03432057052850723, 0.21261341869831085, -0.014472715556621552, -0.1313951313495636, -0.26070907711982727, -0.10275398939847946, 0.2711142897605896, -0.1986750066280365, 0.34226396679878235, 0.1468476802110672, -0.05023698881268501, 0.09641849249601364, -0.1715199053287506, 0.058211181312799454, 0.06493277102708817, 0.04809815064072609, 0.17648304998874664], [-0.10040845721960068, 0.24397069215774536, -0.054442211985588074, 0.23002704977989197, -0.12747134268283844, -0.14955206215381622, 0.028798434883356094, -0.025688214227557182, -0.016657469794154167, 0.11923573911190033, 0.0821743756532669, 0.1771417111158371, -0.08751096576452255, 0.07152098417282104, 0.16954199969768524, -0.13329344987869263, -0.12830685079097748, -0.12269016355276108, 0.062952421605587, -0.10792700201272964], [-0.07712985575199127, 0.044156551361083984, 0.07661174982786179, 0.0074503556825220585, 0.11764971911907196, -0.19895826280117035, -0.1687350571155548, -0.21284757554531097, 0.307125449180603, 0.35993340611457825, -0.14881813526153564, -0.12643744051456451, 0.31742769479751587, 0.18562369048595428, -0.11987937986850739, -0.12478744238615036, -0.07113757729530334, -0.001092907739803195, 0.14480021595954895, -0.09811761230230331], [-0.27442747354507446, 0.12286284565925598, -0.13906273245811462, 0.3019934594631195, -0.056055791676044464, -0.17062684893608093, -0.04407873749732971, -0.18608301877975464, 0.06931144744157791, 0.051101356744766235, -0.01033146120607853, 0.0900128111243248, -0.07382766157388687, -0.16529308259487152, 0.0925302505493164, 0.1729612648487091, -0.20115196704864502, -0.18806689977645874, 0.03327751159667969, 0.3027724027633667], [-0.05723123997449875, 0.18972253799438477, 0.2921309173107147, 0.3404185175895691, 0.06779105216264725, -0.026940224692225456, -0.3146107494831085, -0.23967544734477997, 0.14579923450946808, 0.2910333275794983, -0.03424333781003952, -0.44258466362953186, 0.1635226458311081, 0.09672066569328308, -0.1894940435886383, -0.1540689617395401, -0.2122499644756317, 0.00042246593511663377, -0.23468329012393951, 0.10557282716035843], [-0.009122601710259914, 0.07883422076702118, -0.017848799005150795, 0.0329933799803257, 0.08650097995996475, -0.061104029417037964, -0.24117103219032288, -0.2904987335205078, 0.14241448044776917, -0.12514501810073853, 0.1286013424396515, 0.0940914899110794, -0.10800950974225998, -0.17575575411319733, 0.10960031300783157, -0.10148674994707108, -0.03537025675177574, -0.19257529079914093, 0.12990018725395203, 0.020994894206523895], [-0.036518070846796036, 0.33136487007141113, -0.14209052920341492, 0.32234087586402893, 0.05468529462814331, -0.14513592422008514, -0.22155316174030304, -0.12691719830036163, 0.02488594874739647, 0.11003891378641129, 0.05467234551906586, -0.12611591815948486, -0.19356250762939453, 0.1851770430803299, -0.13216939568519592, -0.14943936467170715, -0.19259174168109894, 0.12167967110872269, -0.028442734852433205, 0.12003722041845322], [-0.07792028039693832, 0.044190507382154465, 0.14766304194927216, -0.12341691553592682, -0.1470533311367035, -0.1458646059036255, -0.1278475522994995, -0.03526045382022858, -0.028333168476819992, 0.22300365567207336, 0.17877598106861115, 0.23577545583248138, 0.0966041311621666, -0.13093315064907074, -0.24316108226776123, -0.13114821910858154, -0.25326007604599, 0.1637272983789444, 0.022697506472468376, 0.1780221164226532], [0.08266288787126541, 0.11329109221696854, -0.12632837891578674, 0.10145239531993866, -0.08630044758319855, -0.14774128794670105, 0.09668730199337006, -0.14554210007190704, 0.08513899147510529, -0.0736895501613617, -0.2593047022819519, 0.2083110809326172, 0.08551973849534988, -0.151712566614151, -0.2798978090286255, 0.010246199555695057, -0.05374584719538689, 0.09307399392127991, 0.1866605430841446, -0.08633417636156082], [0.09869132190942764, 0.10320612043142319, 0.014968356117606163, 0.13344290852546692, 0.0038710457738488913, -0.2360648512840271, 0.0670219212770462, -0.022849176079034805, 0.07898431271314621, -0.05096403509378433, -0.14313501119613647, 0.3698433041572571, 0.07839140295982361, -0.0016349635552614927, 0.1404656320810318, 0.22145143151283264, 0.01843404769897461, -0.22191815078258514, 0.3297715187072754, -0.15637242794036865], [0.01541904266923666, 0.293017715215683, 0.06307939440011978, 0.15239042043685913, 0.06969616562128067, -0.10822801291942596, -0.11967665702104568, -0.1907331794500351, 0.26063302159309387, 0.010659118182957172, 0.07634534686803818, 0.22842849791049957, 0.10506971925497055, -0.08520207554101944, -0.2721714377403259, -0.07095243036746979, 0.16480103135108948, -0.013993723317980766, 0.03361034393310547, 0.2224363088607788], [0.006259779445827007, 0.15687957406044006, -0.09434514492750168, 0.2497754991054535, 0.15458190441131592, -0.21266154944896698, -0.22916890680789948, 0.10844264179468155, 0.2654998302459717, 0.13499388098716736, -0.08370408415794373, 0.03648076951503754, 0.27342861890792847, -0.1337147355079651, 0.05365544557571411, 0.17765654623508453, -0.030880620703101158, -0.21527017652988434, 0.1475994735956192, 0.09275922924280167], [-0.0018723938846960664, -0.02766353078186512, -0.048960935324430466, 0.1459139585494995, 0.10680189728736877, 0.15167942643165588, 0.1225573942065239, -0.2252194583415985, -0.1590084731578827, 0.04101552441716194, -0.016573775559663773, 0.3117230534553528, 0.33428409695625305, 0.025762954726815224, -0.11405418813228607, -0.18653735518455505, 0.1252487450838089, 0.1287727653980255, 0.26705247163772583, 0.2360849678516388], [-0.20879095792770386, 0.22847597301006317, -0.21058133244514465, 0.061820946633815765, 0.2553916275501251, 0.15804827213287354, 0.03876866400241852, -0.10425601154565811, -0.10504695028066635, 0.04083498194813728, -0.051505524665117264, 0.24011404812335968, -0.03840136528015137, -0.29993438720703125, 0.11323150247335434, -0.12069528549909592, 0.1529698371887207, -0.07390100508928299, -0.07150893658399582, 0.14557714760303497], [0.19644124805927277, -0.08702683448791504, 0.1474938690662384, -0.00415771221742034, 0.005293445196002722, 0.01897512935101986, 0.02725714072585106, -0.04035358503460884, 0.037989065051078796, -0.25068533420562744, 0.08583023399114609, -0.07206428050994873, -0.03544905409216881, 0.059871263802051544, 0.0049847448244690895, -0.1862391084432602, 0.22856877744197845, 0.03339839354157448, -0.004175126552581787, -0.04902433604001999], [0.05126726254820824, -0.0014961278066039085, 0.15257203578948975, -0.23488420248031616, 0.09764223545789719, 0.23356591165065765, 0.146262988448143, -0.02326112799346447, 0.050630178302526474, 0.032637808471918106, 0.16240940988063812, 0.2099745124578476, -0.19523030519485474, 0.03716520592570305, 0.2752391993999481, -0.24939431250095367, 0.12004745751619339, -0.006472363136708736, -0.053260207176208496, -0.12236559391021729], [0.17812952399253845, 0.01359074842184782, -0.1491795778274536, 0.026614990085363388, 0.021944383159279823, -0.047529928386211395, -0.016444118693470955, 0.015643103048205376, 0.22511817514896393, 0.10476363450288773, 0.05395764485001564, -0.005034965928643942, -0.06498482078313828, 0.006318048574030399, 0.16097679734230042, -0.1274004429578781, -0.09646768122911453, 0.04279244318604469, -0.051955725997686386, 0.00662121782079339], [-0.06304952502250671, -0.21119533479213715, 0.13865673542022705, 0.10378457605838776, 0.15848633646965027, -0.1319969743490219, 0.17701993882656097, 0.13467010855674744, 0.03722298517823219, 0.04047928377985954, 0.13505396246910095, -0.2297220230102539, -0.13922716677188873, -0.07552140206098557, 0.06297948956489563, -0.0880102589726448, 0.03227490186691284, -0.1440965235233307, -0.263445109128952, 0.12967915832996368], [0.035360757261514664, 0.11060132831335068, -0.19596832990646362, 0.042225565761327744, -0.12383788824081421, -0.006632218137383461, 0.11576810479164124, 0.036004066467285156, -0.019939063116908073, 0.1167757660150528, -0.0057234568521380424, 0.24518270790576935, 0.2088419497013092, -0.1615104228258133, -0.0809377059340477, -0.05698351934552193, 0.01821804605424404, -0.17985674738883972, -0.028077153488993645, -0.1274845004081726], [0.006899611558765173, 0.06871496886014938, -0.07057543098926544, -0.18121041357517242, 0.03005371056497097, 0.03395411744713783, 0.13328216969966888, -0.11420637369155884, -0.1166614517569542, -0.20961067080497742, 0.14054395258426666, -0.2648772597312927, 0.030062219128012657, -0.13714507222175598, -0.11258312314748764, 0.005388800986111164, -0.14999322593212128, -0.07069146633148193, 0.14515306055545807, 0.07334110885858536], [0.14924731850624084, 0.16330118477344513, -0.06296408921480179, -0.14096640050411224, 0.02582957223057747, -0.20951873064041138, 0.27107349038124084, -0.06399033963680267, -0.1567535102367401, -0.008855869062244892, -0.1664932370185852, 0.1408682018518448, -0.0037370449863374233, -0.05030086636543274, 0.058339741080999374, -0.0017627293709665537, 0.03989405930042267, 0.15399113297462463, 0.16932441294193268, -0.10697166621685028], [0.21810610592365265, -0.25134316086769104, 0.23001356422901154, 0.1146244928240776, -0.16765742003917694, 0.2269260138273239, -0.09483058005571365, -0.017483385279774666, 0.0849417895078659, -0.14810682833194733, 0.0826902911067009, -0.3473829925060272, -0.08123249560594559, -0.10590505599975586, 0.15268051624298096, 0.115292027592659, 0.19086773693561554, -0.10848654061555862, -0.3064056634902954, -0.06773142516613007], [0.15373340249061584, -0.0853419303894043, 0.0013030474074184895, 0.09919096529483795, 0.012248476967215538, -0.05614471435546875, -0.05106142535805702, -0.005214220378547907, 0.10081852972507477, -0.15630412101745605, 0.1515335887670517, -0.3501465618610382, -0.08977523446083069, -0.05514594912528992, 0.1302345097064972, -0.07675736397504807, 0.015053857117891312, -0.17479993402957916, -0.1610495001077652, -0.1132102906703949], [-0.2898765504360199, -0.01503454428166151, 0.056852661073207855, 0.250643789768219, -0.03182205185294151, -0.1894688457250595, 0.19666688144207, 0.10706806182861328, 0.19762645661830902, -0.09607949107885361, -0.10508336871862411, 0.041739799082279205, 0.218677818775177, -0.041675418615341187, 0.0013588574947789311, 0.16987255215644836, -0.19452542066574097, -0.07881614565849304, 0.319292813539505, 0.24529977142810822], [-0.04164843261241913, -0.2299564778804779, -0.07006065547466278, 0.08435144275426865, -0.23052668571472168, -0.030270425602793694, -0.2047143131494522, 0.15134505927562714, -0.1827271282672882, -0.3103780448436737, -0.08568311482667923, -0.015371110290288925, -0.2933334410190582, 0.05317816883325577, 0.1575382947921753, -0.1776052564382553, -0.08450165390968323, -0.05519532784819603, 0.0250433050096035, 0.010384006425738335], [-0.045652762055397034, 0.05320589616894722, 0.0732879564166069, -0.1439826786518097, 0.12088312953710556, 0.17818863689899445, 0.012524102814495564, -0.021600903943181038, -0.1413199007511139, 0.13200320303440094, 0.002605853835120797, -0.1637803316116333, -0.06703726202249527, -0.08639384061098099, -0.1075621247291565, -0.03755505755543709, 0.1244557574391365, 0.21866706013679504, -0.22083473205566406, -0.20536065101623535], [-0.04598001390695572, -0.14746691286563873, 0.012711512856185436, -0.00669871037825942, 0.11155669391155243, 0.18622878193855286, -0.011248654685914516, -0.08142243325710297, 0.12334835529327393, 0.13606436550617218, -0.09077082574367523, 0.08350817114114761, -0.11995261162519455, -0.015538139268755913, 0.1515316665172577, 0.17637906968593597, 0.13067662715911865, -0.0033626528456807137, 0.13600969314575195, -0.004451632034033537], [0.019170613959431648, -0.1421678364276886, -0.22287140786647797, -0.1177772581577301, 0.17219054698944092, 0.20010052621364594, -0.013589718379080296, -0.0052127051167190075, -0.06823567301034927, 0.26405417919158936, -0.05874551460146904, 0.28958508372306824, 0.024213574826717377, -0.2994594871997833, -0.017826657742261887, -0.12835806608200073, 0.20075377821922302, 0.19479799270629883, 0.13296207785606384, -0.0021793164778500795], [0.19791284203529358, -0.11026383936405182, 0.028070002794265747, -0.06531450897455215, -0.10986021906137466, 0.22188971936702728, -0.1439768373966217, 0.15465007722377777, -0.18439613282680511, 0.0837254449725151, -0.12108904123306274, 0.07405738532543182, 0.14895422756671906, 0.12093811482191086, -0.0886969193816185, 0.03242426738142967, 0.10277462750673294, 0.10197755694389343, 0.00758321164175868, 0.027069155126810074], [-0.00289075612090528, 0.2373342663049698, -0.1149212121963501, 0.013057525269687176, 0.06395380944013596, -0.06264149397611618, 0.27139395475387573, -0.03930184990167618, 0.2186085432767868, 0.11511441320180893, -0.09401281177997589, 0.04888970032334328, -0.04940740391612053, -0.1430424451828003, 0.15666334331035614, -0.10889231413602829, -0.013412230648100376, 0.18395790457725525, 0.08965348452329636, 0.15755470097064972], [0.0848972499370575, -0.17772069573402405, -0.1988271027803421, 0.028261445462703705, -0.16606712341308594, -0.1907743513584137, 0.022259259596467018, -0.0836273580789566, -0.028741147369146347, 0.08444788306951523, -0.19721055030822754, -0.059112753719091415, 0.2042500376701355, -0.04001161456108093, 0.19481173157691956, -0.04584489017724991, -0.19944187998771667, 0.12788797914981842, 0.008689317852258682, -0.03895493969321251], [-0.1872483193874359, 0.05465586483478546, -0.03760499879717827, 0.048549916595220566, -0.07612413913011551, -0.08324526250362396, 0.06079817935824394, -0.07029549032449722, -0.09577859938144684, -0.22051097452640533, -0.19585442543029785, -0.05811404809355736, 0.0006725913845002651, 0.23330697417259216, -0.1828453242778778, -0.1391255110502243, 0.03722540661692619, -0.08442182093858719, -0.13761645555496216, 0.12941187620162964], [-0.1432013213634491, -0.23962892591953278, 0.00934839528053999, 0.12509053945541382, -0.15384843945503235, 0.09673136472702026, 0.04024799168109894, 0.036558475345373154, -0.026248207315802574, -0.2629534602165222, -0.20869027078151703, -0.34466639161109924, -0.2419036328792572, 0.293211966753006, -0.04541816934943199, -0.0015220633940771222, 0.18884456157684326, 0.17258499562740326, -0.05497657135128975, 0.045092348009347916], [0.07872568070888519, 0.26442214846611023, -0.08728819340467453, 0.2497667670249939, -0.06411581486463547, -0.04207475110888481, 0.08741357177495956, -0.15713874995708466, -0.1601414829492569, 0.07615712285041809, 0.17890416085720062, 0.06781744211912155, -0.06615938246250153, 0.024718934670090675, -0.1211109459400177, 0.16065776348114014, 0.09429725259542465, -0.18371346592903137, 0.13033509254455566, 0.11347397416830063], [0.013963520526885986, 0.15430741012096405, -0.12048682570457458, -0.08532509952783585, 0.2734663784503937, 0.16832034289836884, 0.2231188267469406, -0.1399056762456894, 0.18766725063323975, 0.08144304156303406, 0.080788254737854, 0.39721769094467163, 0.15697377920150757, -0.16522890329360962, 0.005719597451388836, 0.24626140296459198, 0.042224179953336716, -0.1920107752084732, -0.05807764083147049, 0.13225185871124268], [-0.13590319454669952, 0.08662844449281693, 0.16087698936462402, -0.04419437050819397, -0.02157464809715748, 0.1397659033536911, -0.24391070008277893, -0.1923244297504425, 0.02474196068942547, 0.04035830870270729, -0.06914131343364716, 0.08215056359767914, 0.039715979248285294, -0.05044574290513992, 0.0711631029844284, -0.025958670303225517, 0.09267285466194153, 0.01323817390948534, 0.1706656664609909, -0.16670458018779755], [-0.23257096111774445, -0.029370037838816643, -0.21551047265529633, 0.11043667793273926, -0.003058204660192132, 0.011415371671319008, 0.09255857020616531, 0.04185989499092102, 0.07445807009935379, 0.17897915840148926, -0.03838125988841057, 0.3735264241695404, -0.03434985876083374, -0.12416649609804153, -0.22354792058467865, -0.1651143878698349, -0.2137199193239212, -0.2499873787164688, 0.04066972807049751, 0.04059659689664841], [-0.0304165780544281, 0.05949372425675392, 0.13275517523288727, 0.18634632229804993, 0.17433981597423553, 0.09054326266050339, -0.1929693967103958, -0.1817280352115631, 0.17982356250286102, -0.19377638399600983, 0.0075613874942064285, 0.2051953673362732, 0.051525965332984924, -0.2731575071811676, 0.0008287811651825905, -0.05497916787862778, 0.07386910170316696, -0.23882214725017548, 0.21353109180927277, -0.034669168293476105], [0.14040662348270416, -0.1572296917438507, 0.12480486929416656, -0.06429652124643326, -0.03752056136727333, -0.1296890825033188, 0.2659827470779419, -0.24280697107315063, -0.008303256705403328, 0.21417465806007385, -0.17142026126384735, 0.3764643371105194, 0.07464823126792908, -0.3097858428955078, -0.08015011996030807, 0.07735505700111389, 0.17835237085819244, -0.19909363985061646, -0.06240842863917351, -0.15255096554756165], [-0.27255839109420776, 0.19451242685317993, 0.1728266328573227, 0.08246933668851852, -0.17307347059249878, 0.16860459744930267, -0.06769353896379471, -0.08819746226072311, 0.017314890399575233, -0.2029457986354828, 0.0968184769153595, -0.16759736835956573, 0.18532581627368927, -0.04897789657115936, -0.02007417008280754, -0.1608624905347824, -0.11956628412008286, -0.22675800323486328, -0.2174983024597168, 0.0714661031961441], [0.07263559103012085, 0.03355257213115692, -0.23622673749923706, -0.03634180128574371, -0.08584251999855042, 0.028020352125167847, -0.05070402845740318, -0.20532327890396118, 0.22064441442489624, 0.11568979173898697, -0.09709076583385468, 0.05189281702041626, 0.218478262424469, 0.015876146033406258, -0.22492223978042603, 0.0966692715883255, 0.11580187827348709, -0.26866209506988525, 0.2686671316623688, 0.12416578084230423], [-0.2516750693321228, 0.24703924357891083, -0.21137182414531708, 0.09455303847789764, 0.04613180831074715, -0.036729246377944946, 0.1880388855934143, -0.08344971388578415, -0.06470464169979095, 0.2118537873029709, 0.1004035621881485, 0.040255557745695114, -0.05529142916202545, -0.022630294784903526, -0.17204022407531738, -0.08202125132083893, -0.03703727573156357, -0.25179463624954224, -0.005492035765200853, 0.2469206005334854], [0.02672739140689373, -0.1427554339170456, -0.08113614469766617, -0.08595644682645798, -0.1632973700761795, 0.11106808483600616, 0.07109536230564117, 0.14931997656822205, 0.054173991084098816, -0.0944744199514389, -0.08217032998800278, -0.1602078080177307, -0.3169620931148529, 0.28721320629119873, -0.11867386847734451, -0.03200928866863251, -0.10494396090507507, 0.14491389691829681, 0.07972406595945358, -0.14189399778842926], [-0.21900813281536102, -0.10067054629325867, -0.007727364078164101, 0.09034126251935959, -0.08191540092229843, 0.005140629597008228, -0.037557452917099, -0.11479389667510986, -0.010518575087189674, -0.2087666094303131, -0.2605319023132324, 0.3016860783100128, 0.13750416040420532, 0.13126316666603088, -0.0954427495598793, -0.1474708914756775, -0.0399307943880558, -0.14980170130729675, 0.0535394623875618, 0.1396600902080536], [0.28000128269195557, -0.09163155406713486, -0.14163896441459656, -0.4435074031352997, -0.09524624049663544, 0.09602946788072586, 0.228267639875412, 0.1651456207036972, -0.010398336686193943, -0.16030779480934143, -0.04475988820195198, 0.06484383344650269, -0.11372832953929901, -0.061585623770952225, 0.10457301139831543, -0.07579484581947327, 0.32037800550460815, 0.3590591251850128, 0.07108750194311142, 0.07893720269203186], [-0.18508395552635193, 0.20915091037750244, 0.05133292078971863, 0.059127192944288254, -0.03218040615320206, -0.06065712496638298, 0.19360865652561188, 0.15752090513706207, 0.20695756375789642, -0.08936798572540283, -0.10980691015720367, -0.008046320639550686, -0.16945970058441162, -0.10405057668685913, -0.015318200923502445, 0.21908512711524963, 0.14223000407218933, 0.0062476941384375095, 0.15727023780345917, -0.001481291837990284], [0.12940053641796112, 0.050914231687784195, 0.07285598665475845, 0.12042616307735443, 0.10073293000459671, -0.21576432883739471, -0.18199093639850616, -0.10235685855150223, -0.14934465289115906, 0.14817123115062714, 0.1719953417778015, -0.13946373760700226, 0.17643998563289642, -0.1549905687570572, -0.15648925304412842, 0.05557591840624809, -0.23613934218883514, 0.09677831083536148, 0.036852944642305374, 0.15325060486793518], [0.04865783825516701, 0.0437886118888855, -0.14452219009399414, -0.13418738543987274, 0.11556629091501236, 0.16348670423030853, 0.05620696768164635, -0.009897014126181602, -0.07856319099664688, -0.09100311994552612, -0.08153413981199265, 0.09446567296981812, 0.23225519061088562, -0.04721066355705261, -0.04734981805086136, 0.022622298449277878, -0.045472655445337296, -0.1670553833246231, 0.290898859500885, -0.1023414209485054], [-0.17152495682239532, 0.21041837334632874, -0.07294502854347229, 0.16421136260032654, 0.14754018187522888, -0.184064120054245, -0.19762550294399261, -0.12320369482040405, 0.30788102746009827, -0.04337947443127632, -0.2635461390018463, -0.05683966726064682, 0.22693811357021332, 0.19558371603488922, -0.18703533709049225, -0.17908048629760742, -0.005156603176146746, -0.09271961450576782, 0.05987975373864174, -0.06653668731451035], [-0.08089225739240646, -0.09583543986082077, -0.09018993377685547, 0.16079960763454437, 0.08167009800672531, 0.1557292491197586, -0.0029472648166120052, 0.18183764815330505, 0.1504533737897873, -0.07674616575241089, -0.18798059225082397, 0.38536086678504944, 0.16037510335445404, -0.28075364232063293, -0.03718171268701553, -0.028487350791692734, -0.1768742948770523, 0.1668635606765747, 0.2600265145301819, 0.2156352549791336], [0.1004939004778862, 0.08406296372413635, -0.008542034775018692, 0.011847822926938534, 0.10531987249851227, 0.11972332745790482, -0.1698419749736786, 0.14627301692962646, 0.21887293457984924, 0.16586945950984955, 0.055883459746837616, 0.1864122599363327, 0.10592004656791687, -0.10713701695203781, -0.23409421741962433, -0.17527122795581818, -0.25123968720436096, -0.22155889868736267, 0.029450254514813423, 0.2723437547683716], [-0.12616625428199768, -0.043555110692977905, -0.06934114545583725, 0.3037527799606323, 0.18701454997062683, -0.2510063946247101, 0.14988166093826294, 0.09642167389392853, 0.2535349726676941, 0.028715908527374268, 0.024128805845975876, 0.26034143567085266, 0.22731614112854004, -0.011199637316167355, -0.3007313311100006, 0.3012733459472656, 0.09323684126138687, -0.011220932006835938, 0.2044021636247635, 0.05770540609955788], [-0.14387665688991547, -0.146046444773674, -0.05346707999706268, 0.2698369026184082, 0.17176994681358337, -0.234389066696167, 0.021286720409989357, -0.23553870618343353, 0.1114075556397438, 0.06538800895214081, 0.19477206468582153, 0.0749901682138443, 0.2938700318336487, 0.0017680387245491147, 0.14095604419708252, 0.005240237340331078, 0.12737272679805756, -0.22987854480743408, -0.09141194075345993, -0.08640923351049423]], "rec.bias_ih_l0": [0.07744858413934708, -0.08723549544811249, -0.21088196337223053, 0.1282743662595749, -0.06357422471046448, -0.06036527827382088, 0.03422751650214195, -0.20516647398471832, -0.09469528496265411, 0.02894004061818123, 0.11339520663022995, -0.0528070293366909, -0.11292828619480133, -0.09185945242643356, 0.14239123463630676, -0.18536488711833954, -0.07984032481908798, 0.07452317327260971, -0.2666513919830322, 0.0642116516828537, -0.10079555958509445, 0.10202451050281525, 0.03932035341858864, 0.15882383286952972, -0.24261082708835602, 0.01734728366136551, -0.14873111248016357, -0.15696555376052856, 0.07048198580741882, -0.12221361696720123, 0.09524423629045486, -0.35301774740219116, -0.11519713699817657, -0.12466184794902802, 0.17014291882514954, -0.2765139043331146, 0.11792317032814026, -0.10418513417243958, -0.2050665318965912, 0.10817599296569824, -0.10017654299736023, 0.024839108809828758, -0.1283271461725235, -0.024614330381155014, -0.02427978813648224, 0.1609656810760498, 0.09461688250303268, 0.08191368728876114, -0.22687704861164093, 0.05709802731871605, 0.033553339540958405, -0.0217229425907135, 0.07178429514169693, 0.03438501060009003, 0.14483270049095154, 0.07395566254854202, -0.003825669875368476, 0.18185807764530182, 0.14593937993049622, 0.03324529156088829, 0.1685955673456192, -0.06203525885939598, -0.014161183498799801, 0.01580316759645939, -0.25445622205734253, -0.09466864913702011, -0.11564136296510696, 0.17116624116897583, -0.0365530401468277, -0.11282489448785782, -0.2083350419998169, 0.18052314221858978, -0.11237878352403641, -0.175310418009758, 0.19499552249908447, -0.016994012519717216, 0.06472393125295639, 0.029983384534716606, -0.14285926520824432, -0.06029203161597252], "rec.bias_hh_l0": [-0.10487625747919083, -0.09914037585258484, 0.06295417249202728, -0.12405584007501602, -0.20809534192085266, 0.06115967780351639, 0.1531931608915329, 0.0264812670648098, -0.01509996596723795, 0.2207358032464981, 0.03493465110659599, 0.23860269784927368, 0.06137087196111679, 0.10497812926769257, -0.1306404024362564, -0.3148324489593506, -0.19943656027317047, 0.1602577418088913, -0.12826955318450928, 0.1642370969057083, 0.03236415237188339, -0.055321116000413895, -0.0007843297207728028, -0.18523213267326355, 0.15921075642108917, 0.04422621428966522, 0.12698817253112793, -0.1354905515909195, 0.14951638877391815, -0.3360132575035095, -0.26621732115745544, -0.29111185669898987, -0.2495993822813034, 0.09323570132255554, 0.14512474834918976, -0.046608392149209976, -0.21983295679092407, -0.19552172720432281, -0.026198601350188255, -0.15700212121009827, 0.24096234142780304, -0.13925275206565857, 0.03339104726910591, -0.1293163001537323, -0.002080762991681695, 0.108519047498703, -0.01618260331451893, 0.19388049840927124, -0.07919531315565109, -0.09192503243684769, 0.11482710391283035, -0.026831109076738358, -0.17167487740516663, -0.016172559931874275, -0.007535003125667572, -0.16478805243968964, 0.19355961680412292, 0.024076800793409348, -0.15481014549732208, -0.15775462985038757, -0.10760773718357086, 0.13561344146728516, 0.047429051250219345, -0.040467362850904465, 0.033137813210487366, -0.17382264137268066, -0.010213651694357395, 0.07768542319536209, -0.09662941843271255, -0.064571313560009, 0.04076862335205078, 0.023249618709087372, -0.1031416580080986, 0.11594026535749435, -0.20454652607440948, 0.029746990650892258, 0.22718961536884308, 0.06537305563688278, -0.12878578901290894, -0.18173517286777496], "lin.weight": [[0.20305804908275604, -0.17640160024166107, 0.09816121309995651, -0.21068860590457916, -0.0629989355802536, 0.12111275643110275, -0.09944763034582138, 0.1840449720621109, -0.1953544169664383, -0.12347624450922012, 0.08328358083963394, -0.19844605028629303, -0.11593647301197052, 0.118274986743927, 0.14764133095741272, -0.017921393737196922, 0.2009781152009964, 0.2225995510816574, -0.13680869340896606, -0.14041638374328613]], "lin.bias": [-0.15098096430301666]}}