{"model_data": {"model": "SimpleRNN", "input_size": 1, "skip": 1, "output_size": 1, "unit_type": "LSTM", "num_layers": 1, "hidden_size": 20, "bias_fl": true}, "state_dict": {"rec.weight_ih_l0": [[0.0713847428560257], [-0.33553096652030945], [-0.2688260078430176], [0.06035576015710831], [0.24224741756916046], [0.08190834522247314], [0.3710606098175049], [0.22793985903263092], [0.19888146221637726], [0.14182926714420319], [-0.22438359260559082], [0.14780676364898682], [-0.034890420734882355], [0.04340685158967972], [0.10098257660865784], [0.3108638525009155], [0.1085716038942337], [-0.20812128484249115], [0.10547811537981033], [0.40255770087242126], [0.06856907904148102], [-0.29044389724731445], [-0.12024679034948349], [0.3948805034160614], [0.25599807500839233], [0.4111642837524414], [0.4311874508857727], [0.1037645936012268], [0.46029117703437805], [0.15550783276557922], [-0.22298352420330048], [0.2872771918773651], [-0.056283432990312576], [0.4095245897769928], [0.25026294589042664], [0.2862205505371094], [0.1267480105161667], [-0.19200186431407928], [0.40352147817611694], [0.4369150400161743], [-0.2859744429588318], [-0.03180608153343201], [0.11335137486457825], [-0.36181214451789856], [-0.24126921594142914], [-0.45887771248817444], [0.37998166680336], [0.19301694631576538], [-0.17547816038131714], [0.12127373367547989], [-0.1992340385913849], [-0.2200450301170349], [-0.12207518517971039], [0.3053194582462311], [-0.4172574281692505], [0.10737860202789307], [-0.2315652221441269], [-0.04635871201753616], [0.09178673475980759], [0.1829826384782791], [0.2698865532875061], [-0.0005823365063406527], [-0.03515883535146713], [0.430023729801178], [0.3413562774658203], [0.1132945567369461], [0.35880813002586365], [0.16008400917053223], [0.10900986194610596], [0.4776628911495209], [-0.05221383273601532], [0.39388683438301086], [-0.12903578579425812], [0.02632847987115383], [0.0854070857167244], [0.11991100758314133], [0.22475576400756836], [-0.10534519702196121], [0.5014850497245789], [0.3441634774208069]], "rec.weight_hh_l0": [[0.1180751770734787, -0.16260740160942078, -0.06851281225681305, 0.11201956868171692, -0.0022661564871668816, -0.1669502556324005, -0.16185550391674042, -0.14374668896198273, 0.11632931977510452, 0.15860974788665771, -0.048766691237688065, 0.20117413997650146, -0.05857261270284653, 0.06506695598363876, -0.11487212032079697, 0.16808520257472992, 0.21029140055179596, -0.2123357653617859, -0.23924139142036438, -0.10287681967020035], [-0.025220904499292374, -0.27918732166290283, 0.07809634506702423, 0.15161943435668945, -0.08687017858028412, 0.23297785222530365, -0.10535572469234467, -0.040887415409088135, -0.059174567461013794, 0.1280427873134613, 0.051514338701963425, -0.18359865248203278, -0.04844553396105766, -0.05138286575675011, -0.12834326922893524, -0.13189858198165894, -0.11326975375413895, -0.03352818638086319, -0.2365029901266098, -0.258852481842041], [0.11462928354740143, 0.10368715226650238, -0.1923561841249466, -0.0672774687409401, 0.02885310724377632, 0.20229339599609375, -0.2027367502450943, -0.10703995078802109, 0.04751673713326454, -0.10388222336769104, 0.027091816067695618, 0.21015046536922455, -0.16496409475803375, -0.029356008395552635, 0.037560366094112396, -0.17711207270622253, -0.05079435929656029, -0.016739342361688614, 0.1486208587884903, 0.09156111627817154], [0.16829076409339905, -0.12254664301872253, -0.03493131324648857, 0.2034536600112915, 0.013461999595165253, 0.18862448632717133, -0.03356702998280525, 0.15021109580993652, -0.11729332059621811, -0.1931808590888977, -0.052279192954301834, 0.17730265855789185, -0.04892035201191902, 0.18528057634830475, 0.11599007993936539, 0.16996051371097565, -0.03346405550837517, 0.25143465399742126, 0.08719931542873383, 0.14074431359767914], [0.06705774366855621, -0.03764405846595764, 0.1864759474992752, 0.12084873020648956, -0.20598956942558289, 0.2147476226091385, -0.16125404834747314, -0.1261415183544159, -0.1662376970052719, 0.19456800818443298, 0.05177808925509453, -0.035629983991384506, -0.005634585861116648, -0.11813820153474808, 0.1622161716222763, 0.16135181486606598, -0.15866811573505402, 0.263921856880188, 0.19548667967319489, -0.21861009299755096], [-0.17251957952976227, -0.17612887918949127, -0.08469363301992416, -0.11441939324140549, -0.05849543958902359, -0.010684121400117874, 0.0985003113746643, -0.13493412733078003, -0.03164467588067055, -0.11613157391548157, 0.25310370326042175, -0.06554999947547913, -0.005340913776308298, 0.15403860807418823, -0.0013644767459481955, 0.12211353331804276, -0.18550291657447815, 0.24176333844661713, -0.15348152816295624, -0.21618804335594177], [0.08863819390535355, 0.21627749502658844, -0.17894117534160614, 0.06489679217338562, 0.12218859046697617, -0.0745064914226532, 0.013268187642097473, -0.025377053767442703, 0.10290974378585815, -0.058824703097343445, 0.07872126996517181, 0.18144045770168304, 0.09155507385730743, 0.1382773518562317, 0.03995215892791748, 0.06460749357938766, 0.21793490648269653, 0.11850550025701523, -0.061067115515470505, -0.19076082110404968], [-0.004802613519132137, -0.13913780450820923, -0.09813635796308517, -0.03395368531346321, -0.04283715784549713, 0.2448127418756485, -0.17951364815235138, -0.041583187878131866, -0.07520511001348495, 0.02885420434176922, -0.16634348034858704, 0.0581577867269516, -0.0002983954327646643, 0.06800521910190582, 0.10977975279092789, -0.021001825109124184, 0.24925002455711365, -0.16752579808235168, -0.1375885009765625, 0.09123902767896652], [0.012701310217380524, 0.13324536383152008, -0.16179004311561584, -0.10847148299217224, 0.04363926872611046, -0.1084483191370964, -0.11704780161380768, -0.06578781455755234, -0.005321203731000423, -0.13909903168678284, 0.0040531642735004425, -0.05032945051789284, 0.051640912890434265, -0.2126830816268921, -0.11621762067079544, 0.05434272438287735, -0.17315977811813354, 0.27318093180656433, 0.09155397862195969, -0.1794930249452591], [0.11805282533168793, -0.09117216616868973, -0.07856287807226181, -0.05611622706055641, 0.027431201189756393, -0.08630245923995972, -0.15340077877044678, 0.04458732157945633, 0.01041035633534193, -0.15581536293029785, -0.030188219621777534, -0.10483528673648834, 0.16332344710826874, -0.10853267461061478, -0.07830119132995605, -0.12462399154901505, -0.02539343386888504, 0.1058291345834732, -0.15334123373031616, 0.1914108693599701], [-0.15417346358299255, -0.17819981276988983, 0.07001149654388428, -0.07909515500068665, 0.22200123965740204, -0.03857116028666496, 0.012554507702589035, 0.07613112777471542, -0.17474861443042755, 0.09528036415576935, -0.23338361084461212, -0.12270455062389374, 0.03630189597606659, 0.09149816632270813, 0.19920220971107483, -0.1563265472650528, 0.2544011175632477, -0.015966730192303658, 0.15307988226413727, 0.09593663364648819], [-0.10091882944107056, -0.1018889993429184, -0.071775421500206, -0.0012489112559705973, 0.28194060921669006, 0.008585459552705288, 0.04253034666180611, 0.04231339693069458, 0.16368728876113892, -0.16461646556854248, -0.24999983608722687, -0.14985305070877075, 0.10895228385925293, 0.012297284789383411, 0.23876969516277313, -0.03495769947767258, 0.14871008694171906, 0.031832873821258545, 0.13580931723117828, -0.03058657795190811], [0.13776300847530365, 0.1298152357339859, -0.012917730025947094, 0.013378982432186604, -0.1499188095331192, 0.18667151033878326, -0.10368919372558594, 0.1381145715713501, 0.13390150666236877, -0.26362812519073486, 0.17184244096279144, -0.15082381665706635, -0.09397605061531067, 0.12939168512821198, -0.005611925385892391, -0.09492357075214386, -0.04310490936040878, -0.0792321041226387, 0.013628881424665451, -0.22848130762577057], [0.15776251256465912, 0.13269811868667603, 0.043528880923986435, -0.18071646988391876, -0.1734849065542221, -0.10279998928308487, 0.1275254338979721, -0.12268060445785522, -0.11894640326499939, 0.04339209944009781, -0.06472516059875488, 0.13046494126319885, -0.0025164876133203506, 0.06384167075157166, 0.004445869009941816, 0.1200592964887619, 0.006892899051308632, 0.26889196038246155, -0.050940606743097305, -0.025039421394467354], [0.07595878839492798, 0.2337108552455902, 0.07376805692911148, 0.17636331915855408, 0.04858768358826637, 0.16356530785560608, -0.1691506803035736, -0.18081510066986084, -0.043695252388715744, -0.20649978518486023, 0.11806000024080276, -0.03372007980942726, -0.12867286801338196, 0.11303151398897171, 0.0695398598909378, 0.02735225483775139, 0.023758964613080025, -0.028803853318095207, 0.20209532976150513, -0.05908965319395065], [-0.1113467812538147, 0.14213910698890686, -0.06581961363554001, 0.21183449029922485, 0.03217305615544319, -0.06305758655071259, 0.16067633032798767, -0.040131181478500366, 0.17203904688358307, 0.22645194828510284, 0.1914484202861786, 0.24370990693569183, 0.07744646072387695, -0.11456350982189178, -0.08763500303030014, -0.19021838903427124, -0.11967121064662933, 0.12259891629219055, 0.22124430537223816, -0.16680537164211273], [0.051256366074085236, -0.173903226852417, -0.05241450294852257, 0.13364523649215698, 0.06594313681125641, 0.13361230492591858, 0.011236781254410744, -0.006921653635799885, 0.03848808631300926, -0.1620548814535141, -0.060061510652303696, -0.16544421017169952, -0.16652758419513702, 0.0928463265299797, 0.03920353576540947, -0.1518244594335556, -0.0010768851498141885, 0.05843861773610115, -0.1085311695933342, -0.17691944539546967], [-0.17624154686927795, 0.04778269678354263, -0.014288549311459064, -0.01732596941292286, -0.11002127826213837, 0.048892177641391754, -0.09572096168994904, 0.033887941390275955, -0.13226185739040375, -0.1070985272526741, -0.11592541635036469, 0.17562717199325562, -0.11554847657680511, -0.049161165952682495, -0.12352155148983002, -0.09628476947546005, 0.2309965342283249, -0.05589848756790161, -0.21719202399253845, 0.07751572877168655], [0.2118639051914215, 0.2481498122215271, -0.10531291365623474, -0.20610006153583527, 0.17901559174060822, 0.06407929211854935, 0.0018216540338471532, 0.06463813781738281, -0.1660674810409546, -0.1068091168999672, -0.16280491650104523, -0.022546963766217232, -0.03414887562394142, -0.05307818576693535, 0.18745164573192596, -0.03747599199414253, 0.148471862077713, -0.12722064554691315, 0.20894083380699158, -0.11979871988296509], [0.06220070272684097, -0.1431846022605896, -0.1788863092660904, -0.09230950474739075, -0.05634792894124985, 0.14751245081424713, -0.21749478578567505, 0.10079807788133621, 0.17701956629753113, 0.21300993859767914, -0.19915521144866943, 0.13935205340385437, -0.015281526371836662, -0.10112787783145905, -0.07761041820049286, 0.04535052925348282, -0.14809410274028778, -0.12734755873680115, -0.012003839947283268, -0.1318962723016739], [0.16075848042964935, -0.10828440636396408, 0.1058516800403595, 0.08486426621675491, 0.03908586874604225, 0.17731508612632751, -0.18227751553058624, 0.14228889346122742, 0.13825686275959015, 0.022375740110874176, -0.25694510340690613, -0.05996021255850792, 0.1621260941028595, 0.13070069253444672, 0.009106013923883438, 0.049003735184669495, 0.12791572511196136, -0.1926906853914261, 0.03828795999288559, -0.15351293981075287], [0.16922730207443237, -0.2060972899198532, -0.06915050745010376, 0.19664913415908813, -0.02308516390621662, -0.017504412680864334, 0.025669291615486145, -0.026491589844226837, 0.1450483649969101, -0.18460634350776672, -0.008944443427026272, 0.007608640473335981, -0.07235769927501678, -0.19625721871852875, -0.1558167040348053, 0.019160071387887, 0.087203249335289, 0.017864219844341278, -0.23206156492233276, -0.2288680076599121], [-0.16189205646514893, -0.014462688006460667, 0.0781194269657135, 0.20902863144874573, 0.03560265898704529, 0.26248684525489807, 0.10143513977527618, -0.09739775955677032, 0.23353201150894165, -0.048124901950359344, 0.05483875051140785, 0.011749165132641792, 0.11989019811153412, 0.041802145540714264, 0.25984951853752136, -0.03028585948050022, 0.014625790528953075, 0.17738083004951477, -0.2393396496772766, -0.21422283351421356], [0.138151153922081, -0.10233616083860397, 0.15832863748073578, -0.15690521895885468, -0.011241894215345383, 0.047114595770835876, 0.04547280818223953, 0.01767352782189846, 0.13464008271694183, -0.12770122289657593, -0.020691940560936928, -0.034265562891960144, 0.040421418845653534, -0.03556662052869797, 0.12059693038463593, -0.18360374867916107, 0.21507933735847473, 0.21237961947917938, -0.08954890072345734, 0.19880007207393646], [0.14038358628749847, -0.2165868729352951, 0.08472240716218948, 0.06633183360099792, -0.14184172451496124, -0.15922708809375763, 0.07177553325891495, 0.049486588686704636, -0.04754430800676346, 0.13029827177524567, -0.141504168510437, 0.051518913358449936, -0.13236986100673676, 0.0011836731573566794, -0.16214516758918762, -0.13200822472572327, 0.049749284982681274, 0.1307380050420761, -0.01354165468364954, -0.18035893142223358], [0.22503773868083954, -0.13284412026405334, 0.021984798833727837, 0.0782555341720581, 0.10288935899734497, -0.1223108172416687, 0.21752750873565674, 0.1710442453622818, 0.11091902107000351, 0.17043384909629822, 0.02762848697602749, -0.12354108691215515, -0.0637873187661171, -0.03900986909866333, 0.13562270998954773, -0.1542133092880249, -0.22352227568626404, -0.09742315113544464, -0.11850927025079727, 0.01512935385107994], [-0.08753987401723862, 0.13553845882415771, 0.21559982001781464, -0.031176889315247536, -0.1881147027015686, 0.06236741319298744, -0.05815181881189346, 0.10073494166135788, 0.1295727640390396, -0.15390858054161072, 0.08014708757400513, 0.11676594614982605, -0.15122047066688538, -0.048796020448207855, 0.007734733168035746, -0.1420736014842987, -0.1076119989156723, 0.16045066714286804, -0.19868868589401245, -0.11706072837114334], [0.054146669805049896, 0.07902264595031738, 0.1010672003030777, -0.04295383021235466, 0.008979381993412971, -0.11717920750379562, 0.024101577699184418, -0.1516485959291458, 0.04510415717959404, -0.13263297080993652, -0.09116232395172119, -0.15172894299030304, 0.16124653816223145, 0.14140544831752777, 0.16075628995895386, 0.19017265737056732, -0.03602493926882744, 0.1470225751399994, 0.014928765594959259, -0.12342871725559235], [0.012811101973056793, 0.15797117352485657, 0.07671883702278137, -0.2076721340417862, 0.18903878331184387, 0.10884728282690048, -0.21292054653167725, 0.15737052261829376, -0.1771475076675415, -0.14676077663898468, 0.14062334597110748, -0.16583214700222015, 0.23461371660232544, 0.056856878101825714, -0.10502095520496368, -0.17983223497867584, -0.08167024701833725, 0.008319087326526642, -0.18171627819538116, 0.017066167667508125], [-0.062218718230724335, 0.17939719557762146, 0.047240614891052246, 0.10740552842617035, -0.07513030618429184, 0.12747041881084442, 0.08218103647232056, 0.21029187738895416, -0.025697952136397362, 0.20647208392620087, 0.16462454199790955, 0.21278199553489685, 0.14263033866882324, 0.0730576440691948, -0.13982321321964264, 0.07531046867370605, -0.21013443171977997, 0.06310730427503586, -0.2062903791666031, 0.17745183408260345], [0.016849098727107048, -0.05832955613732338, -0.18320336937904358, 0.23890472948551178, 0.2500167489051819, -0.13746005296707153, -0.1373329758644104, -0.22937427461147308, 0.1141173392534256, -0.2047031819820404, -0.1584600806236267, -0.19105057418346405, 0.07000353187322617, 0.027792908251285553, -0.05887525528669357, 0.030650487169623375, -0.07829875499010086, 0.17769885063171387, -0.03149682283401489, -0.0798361673951149], [-0.05789829418063164, 0.07178324460983276, 0.1911718100309372, 0.09671828150749207, 0.05507104843854904, 0.2471371740102768, -0.21320240199565887, -0.057085052132606506, 0.24786531925201416, 0.1251298487186432, 0.11023817956447601, 0.06999361515045166, -0.14079619944095612, 0.03347507864236832, -0.12817880511283875, 0.12447044998407364, 0.2821647524833679, 0.0955800712108612, -0.038766149431467056, -0.0407465361058712], [-0.23544152081012726, 0.10318100452423096, -0.02073683589696884, 0.2516702711582184, 0.18978135287761688, 0.016618957743048668, 0.15273232758045197, 0.13397783041000366, -0.023585157468914986, -0.10648119449615479, -0.15967707335948944, -0.11065661162137985, -0.1871918886899948, -0.07739517837762833, 0.05000372231006622, 0.04696853086352348, 0.2683751583099365, -0.091087207198143, -0.23568201065063477, 0.0045893569476902485], [0.03044668585062027, 0.08669334650039673, 0.1024480015039444, 0.07988176494836807, -0.040491022169589996, 0.03679061681032181, 0.17415671050548553, -0.007846404798328876, 0.13923893868923187, 0.10838516801595688, -0.05525938794016838, -0.07747391611337662, 0.12803968787193298, 0.07469327002763748, 0.022878428921103477, -0.2186087667942047, 0.18745030462741852, 0.20346468687057495, 0.13981367647647858, 0.0887351930141449], [-0.05955028906464577, -0.10652752965688705, 0.016772214323282242, -0.16737250983715057, 0.18629291653633118, 0.1394367814064026, 0.08108167350292206, 0.007172422017902136, 0.1429753303527832, 0.09104395657777786, 0.1668701022863388, -0.15336807072162628, 0.015140695497393608, -0.22517049312591553, 0.058571286499500275, 0.0882050096988678, 0.20555175840854645, -0.16865694522857666, -0.1325773298740387, -0.06872396916151047], [0.26517152786254883, -0.0909663736820221, 0.18720445036888123, 0.14042894542217255, 0.019920658320188522, 0.09041694551706314, -0.05376415327191353, -0.08656968176364899, -0.13120876252651215, 0.11322420835494995, -0.09534693509340286, -0.14777150750160217, -0.016892800107598305, 0.0503353476524353, -0.10401584953069687, -0.08665479719638824, -0.21355754137039185, 0.167751744389534, 0.07894915342330933, -0.11057813465595245], [0.04623915255069733, 0.15077632665634155, 0.17138460278511047, 0.07181007415056229, -0.09771264344453812, -0.06970205157995224, 0.09713485836982727, -0.19427938759326935, 0.1690116822719574, -0.09842211753129959, -0.008468026295304298, -0.148896262049675, 0.20475569367408752, 0.04313567653298378, 0.11529111117124557, 0.2110256403684616, 0.07716522365808487, -0.1467263251543045, 0.06916885823011398, 0.18470558524131775], [0.20257410407066345, 0.1627473086118698, 0.22265583276748657, 0.26087772846221924, 0.18980947136878967, 0.0843348577618599, -0.24925056099891663, -0.1515066921710968, 0.07012150436639786, 0.06710509210824966, -0.2079790085554123, 0.1459391713142395, -0.0012011430226266384, 0.08461524546146393, 0.20440895855426788, 0.1253550946712494, -0.011737706139683723, -0.08790291845798492, -0.08563099801540375, 0.05119957774877548], [0.13853409886360168, 0.006798665039241314, -0.1842515766620636, 0.14325733482837677, -0.04835223779082298, -0.1738732010126114, 0.058957427740097046, -0.09904501587152481, -0.13722442090511322, 0.0772537887096405, 0.2118915319442749, 0.2519332766532898, 0.20679114758968353, 0.20383872091770172, -0.11704213172197342, 0.023451169952750206, -0.18861034512519836, 0.18312883377075195, -0.05040229856967926, 0.1703408658504486], [0.06190318614244461, -0.0846300721168518, 0.13896335661411285, -0.20223821699619293, -0.13430699706077576, 0.0002276523591717705, -0.15655215084552765, 0.12976974248886108, 0.03576677292585373, -0.17547251284122467, 0.049112528562545776, -0.021558959037065506, -0.08632632344961166, 0.11644447594881058, -0.1486589014530182, -0.04851885885000229, -0.04147042706608772, -0.08976071327924728, -0.12909117341041565, 0.0812084972858429], [-0.029244951903820038, -0.1715303510427475, 0.09132934361696243, 0.06654530763626099, -0.08298016339540482, -0.018530499190092087, -0.21216225624084473, 0.09283546358346939, 0.1000862568616867, -0.1482270359992981, -0.128959521651268, 0.01345446053892374, 0.021290801465511322, -0.04013552889227867, 0.01640503853559494, -0.23102013766765594, 0.2343553751707077, -0.15703937411308289, 0.15582628548145294, 0.2111719250679016], [-0.10376713424921036, 0.08155062794685364, -0.14776086807250977, 0.016253534704446793, 0.014876275323331356, -0.06363318115472794, -0.19718880951404572, -0.07045005261898041, -0.06539500504732132, -0.01883365400135517, -0.2260737419128418, -0.041713353246450424, 0.09000537544488907, -0.30449843406677246, 0.27597442269325256, -0.19968771934509277, 0.10120917856693268, -0.11794979870319366, -0.1679103523492813, -0.07558262348175049], [-0.16498170793056488, -0.17952118813991547, -0.06894641369581223, 0.021542858332395554, 0.17354021966457367, 0.019057756289839745, -0.09689842909574509, -0.11095388233661652, 0.17169570922851562, -0.22134557366371155, -0.20462895929813385, 0.12030883878469467, 0.09405631572008133, 0.0859750509262085, -0.062005799263715744, 0.19521957635879517, 0.11303775757551193, -0.16420923173427582, 0.09097322076559067, -0.10791400820016861], [0.011941226199269295, -0.21838076412677765, 0.039119694381952286, 0.06635360419750214, 0.04196983575820923, 0.03435010835528374, -0.0471310093998909, -0.18723838031291962, 0.19238503277301788, -0.12982682883739471, -0.028952090069651604, -0.01197456568479538, 0.11413988471031189, -0.07588998973369598, -0.11755242943763733, -0.13132618367671967, 0.0556861087679863, 0.1410064846277237, -0.13384082913398743, 0.10353024303913116], [0.11801827698945999, -0.1363760083913803, -0.20517748594284058, -0.21819241344928741, 0.17463098466396332, 0.1585664302110672, 0.03156257048249245, 0.004385581240057945, -0.051190007477998734, -0.06857287883758545, 0.17044930160045624, 0.15818122029304504, -0.1529272347688675, 0.21263107657432556, 0.10285906493663788, -0.10809749364852905, -0.1774377077817917, -0.19155840575695038, 0.054280709475278854, 0.17613337934017181], [-0.0903184711933136, -0.23231235146522522, 0.02871854417026043, 0.19360752403736115, -0.1033078134059906, -0.046913307160139084, -0.20530183613300323, 0.05925653129816055, -0.169983372092247, -0.06369290500879288, -0.19687506556510925, -0.26483339071273804, -0.23976336419582367, -0.05590720474720001, 0.0846148207783699, -0.12192394584417343, 0.14809072017669678, -0.1869344711303711, 0.15052522718906403, 0.047137122601270676], [0.08026426285505295, 0.1286623775959015, -0.1865183562040329, 0.07492082566022873, 0.07989630848169327, -0.10678254067897797, 0.15829147398471832, 0.018468935042619705, 0.1193573921918869, 0.19126944243907928, -0.010923507623374462, 0.19833968579769135, 0.07819929718971252, 0.184909850358963, 0.031929317861795425, 0.15512138605117798, -0.14764374494552612, -0.16285187005996704, -0.18941959738731384, 0.044150277972221375], [-0.12503834068775177, 0.050447575747966766, -0.13725072145462036, 0.2347196638584137, 0.1986052691936493, 0.19764001667499542, -0.08282389491796494, -0.24475599825382233, -0.1853109896183014, 0.10487883538007736, -0.05770958214998245, 0.037404268980026245, -0.016440575942397118, 0.10175388306379318, -0.0980035588145256, 0.171926349401474, -0.14138664305210114, -0.09302336722612381, -0.21676760911941528, 0.0882684662938118], [-0.18813171982765198, 0.01601085625588894, 0.09818191826343536, -0.0656517818570137, 0.035680096596479416, 0.1275060921907425, -0.16537588834762573, 0.10880956798791885, -0.21864467859268188, -0.04731743410229683, 0.035126060247421265, -0.12860704958438873, 0.14360958337783813, 0.192391499876976, -0.10414814949035645, -0.17130766808986664, -0.20074982941150665, -0.1491602510213852, -0.19295945763587952, 0.11026202887296677], [0.15871882438659668, 0.20559024810791016, 0.17792843282222748, 0.07888521254062653, 0.11288164556026459, 0.015529314987361431, -0.051594775170087814, 0.158166766166687, -0.10518049448728561, 0.149881973862648, -0.05120626837015152, 0.14830665290355682, -0.06465630978345871, 0.0413547083735466, 0.19768621027469635, 0.026906007900834084, -0.13139548897743225, -0.0435263067483902, -0.15748408436775208, 0.07173744589090347], [-0.005396742839366198, 0.09155917167663574, 0.19243872165679932, -0.06422240287065506, -0.14586788415908813, 0.16469812393188477, 0.08484620600938797, -0.15685860812664032, 0.03259264677762985, 0.01033193338662386, 0.15033745765686035, -0.15948083996772766, -0.08827883750200272, -0.13853296637535095, -0.12284674495458603, -0.008346347138285637, 0.07463743537664413, 0.14600004255771637, 0.12454193085432053, 0.06271345913410187], [0.04421885684132576, -0.019042521715164185, 0.05859658867120743, 0.2392021119594574, 0.11149019002914429, 0.09786810725927353, -0.2419823408126831, 0.17254242300987244, 0.17568862438201904, -0.08946835994720459, -0.25237512588500977, -0.02398100681602955, -0.140562042593956, 0.045098207890987396, 0.1634155958890915, -0.006606320384889841, 0.06962225586175919, 0.06610725075006485, -0.05582170560956001, -0.15236066281795502], [-0.12033051997423172, 0.11039253324270248, 0.06670521944761276, 0.17295511066913605, -0.09385386854410172, 0.034281060099601746, -0.08645844459533691, -0.15138567984104156, 0.25478124618530273, 0.03804462030529976, 0.024265136569738388, -0.02407006174325943, -0.13581110537052155, -0.2212967425584793, 0.25940415263175964, 0.17056947946548462, -0.1167667880654335, -0.11105221509933472, -0.021731572225689888, -0.19019471108913422], [-0.061619676649570465, 0.07865425944328308, -0.07020338624715805, -0.1099514588713646, 0.07939956337213516, 0.1260610669851303, -0.038448598235845566, -0.0044320328161120415, 0.07581288367509842, 0.15284183621406555, -0.01280579436570406, -0.14547234773635864, -0.03354740887880325, 0.1576465517282486, -0.19858382642269135, -0.09537886083126068, 0.17812642455101013, -0.06572061777114868, -0.055668868124485016, 0.14635133743286133], [-0.21525123715400696, 0.008837804198265076, 0.02838311158120632, -0.05720284581184387, -0.2094835340976715, -0.03405594080686569, -0.13538579642772675, 0.07373394072055817, 0.21026018261909485, -0.22578127682209015, -0.1964457482099533, 0.06142403185367584, -0.24590755999088287, -0.06293090432882309, -0.1611536145210266, 0.20921988785266876, 0.011140589602291584, -0.03181585296988487, 0.14784720540046692, -0.0718773901462555], [0.15553070604801178, -0.023581435903906822, 0.03071824088692665, -0.05599471554160118, 0.07508985698223114, 0.08007214963436127, -0.17148169875144958, 0.13414312899112701, -0.14890345931053162, -0.10866498947143555, -0.01208577025681734, 0.2700766921043396, 0.26531341671943665, 0.1464424878358841, -0.13325759768486023, 0.11781834065914154, -0.03895812854170799, -0.12171784043312073, 0.08606188744306564, -0.05719466134905815], [-0.06965915858745575, -0.1587270200252533, 0.0014682493638247252, -0.08133265376091003, 0.14855623245239258, 0.23338624835014343, -0.047042764723300934, -0.006990027613937855, 0.13032394647598267, -0.2181590348482132, -0.23671647906303406, -0.07035180181264877, -0.2729933559894562, -0.02490265667438507, -0.18041600286960602, -0.06933038681745529, -0.09207499772310257, -0.10562372207641602, 0.06581861525774002, 0.18263797461986542], [-0.009213205426931381, -0.24868372082710266, -0.21546582877635956, -0.14169976115226746, -0.01007938664406538, 0.086158886551857, 0.09674664586782455, -0.023874357342720032, 0.04939030855894089, -0.19492806494235992, -0.017962155863642693, 0.13303041458129883, 0.1213127002120018, 0.07261855155229568, -0.03175843507051468, 0.10409726947546005, -0.10196463763713837, 0.026327330619096756, -0.11581036448478699, -0.13453596830368042], [-0.14613254368305206, 0.07601655274629593, -0.20313137769699097, -0.16731292009353638, -0.10457047075033188, -0.2241300344467163, 0.19271007180213928, 0.2421754151582718, 0.031227147206664085, 0.1577730029821396, -0.05502575635910034, -0.06560734659433365, -0.10469868034124374, 0.12998931109905243, -0.23612293601036072, -0.1968635618686676, 0.013221202418208122, -0.03997825086116791, 0.0690726563334465, 0.1619400680065155], [0.1909511685371399, -0.11266878247261047, 0.059168606996536255, -0.11453910171985626, -0.08861836045980453, -0.029085837304592133, -0.14172005653381348, 0.17088903486728668, 0.1517115831375122, -0.13137012720108032, 0.08744530379772186, -0.16638031601905823, -0.11876729130744934, 0.06515713036060333, -0.0026478334330022335, 0.22580528259277344, 0.023317698389291763, 0.22274677455425262, 0.19846992194652557, 0.10188828408718109], [0.09690925478935242, -0.02345624566078186, -0.22073504328727722, 0.23595502972602844, 0.14063866436481476, 0.07219267636537552, -0.02736544981598854, -0.14295518398284912, 0.03354571387171745, 0.04950399696826935, -0.014352153055369854, 0.13711461424827576, 0.01720983162522316, -0.13699667155742645, -0.030614539980888367, -0.06403661519289017, 0.028748732060194016, -0.19107364118099213, -0.1458878368139267, -0.038236506283283234], [0.22351746261119843, 0.12249360233545303, 0.11150788515806198, 0.08448362350463867, 0.14086073637008667, 0.2795982360839844, 0.11580473929643631, -0.2370358556509018, 0.07792587578296661, -0.24095913767814636, -0.09997428953647614, -0.20215557515621185, 0.05449593812227249, -0.05602886900305748, -0.06719236075878143, 0.15413710474967957, 0.23544977605342865, -0.14791014790534973, -0.029376456514000893, -0.0912766307592392], [-0.01678973250091076, 0.12122213840484619, -0.03435729444026947, -0.12027735263109207, 0.06863052397966385, -0.131418377161026, 0.1573525369167328, 0.08182656764984131, 0.09483566135168076, -0.01929429918527603, -0.2694273293018341, 0.12631405889987946, -0.0206330306828022, -0.11934401839971542, 0.19947205483913422, 0.15487343072891235, 0.017251871526241302, -0.007739761378616095, -0.031433019787073135, -0.23729310929775238], [-0.11131063848733902, -0.07600864768028259, -0.1313038021326065, 0.0829821303486824, -0.08109258860349655, 0.06110437586903572, 0.16463597118854523, 0.1589803546667099, 0.0038887185510247946, -0.08489500731229782, -0.1794416457414627, 0.19250600039958954, 0.10813728719949722, 0.13666017353534698, 0.1293262392282486, -0.12487860769033432, 0.1556181162595749, 0.2552170753479004, -0.01716066710650921, 0.03502928093075752], [-0.06499191373586655, -0.08472981303930283, -0.11369560658931732, 0.1816321462392807, 0.224904403090477, 0.003849332919344306, 0.11259482055902481, 0.1529204100370407, 0.1818443238735199, -0.020808899775147438, -0.11450108140707016, -0.03885557875037193, 0.18621210753917694, -0.0019023031927645206, 0.05033649876713753, -0.033804550766944885, -0.034281957894563675, -0.08854687958955765, -0.19921624660491943, -0.20173493027687073], [0.24787960946559906, -0.1109081357717514, -0.04990806058049202, 0.1555970162153244, 0.12349751591682434, 0.1397390514612198, 0.18131761252880096, -0.1986502856016159, -0.07307423651218414, -0.09622012078762054, -0.17068688571453094, -0.14363117516040802, -0.11699704825878143, 0.13816778361797333, 0.18165051937103271, -0.08702278882265091, -0.1622883826494217, -0.14738298952579498, -0.21623016893863678, 0.189143568277359], [0.09785138815641403, 0.07069012522697449, 0.1600067913532257, -0.20705652236938477, -0.07289092242717743, 0.14238420128822327, 0.031463298946619034, -0.196857288479805, 0.12766341865062714, -0.09927093982696533, 0.0032059517689049244, 0.23621174693107605, -0.048113200813531876, -0.1760677993297577, 0.09314929693937302, -0.1135423481464386, 0.06178879737854004, -0.08724667876958847, -0.17801706492900848, -0.02282816730439663], [0.030834505334496498, 0.13734397292137146, 0.16888560354709625, 0.021692879498004913, -0.05205022543668747, 0.038642339408397675, -0.18466438353061676, -0.09087511152029037, 0.01648627035319805, -0.16605910658836365, 0.018929651007056236, -0.013998383656144142, 0.049756430089473724, -0.18188905715942383, 0.0791517049074173, 0.10519839823246002, 0.15301325917243958, 0.04554968699812889, 0.1599264293909073, 0.10772562026977539], [0.16931498050689697, -0.18359988927841187, -0.016658756881952286, -0.1396588236093521, -0.1475757360458374, 0.10807386040687561, 0.061454180628061295, 0.06348637491464615, -0.049255236983299255, -0.030179034918546677, 0.11433562636375427, -0.04707544296979904, -0.1557384878396988, -0.13691654801368713, -0.1706729531288147, -0.15778543055057526, -0.13034197688102722, 0.03818036988377571, 0.11645987629890442, 0.07926290482282639], [0.19307181239128113, -0.020740045234560966, 0.03627374395728111, -0.0967923253774643, 0.08656568080186844, 0.10092024505138397, -0.052263520658016205, -0.20845426619052887, 0.16812510788440704, 0.11975383013486862, 0.19410206377506256, -0.009061458520591259, 0.13377372920513153, 0.003089538775384426, -0.07708360999822617, 0.16768112778663635, -0.08657846599817276, -0.10571020096540451, -0.06017465889453888, -0.14252842962741852], [-0.1820814311504364, -0.1003808081150055, -0.1944216638803482, -0.1517402082681656, 0.11923592537641525, 0.02251901663839817, -0.09403998404741287, -0.11641555279493332, -0.055826712399721146, 0.10928946733474731, -0.2739916145801544, -0.19785043597221375, -0.06991679221391678, -0.08928243070840836, 0.2570231854915619, 0.04495291784405708, -0.0362144373357296, 0.1430077850818634, -0.07009300589561462, 0.03787403181195259], [0.18419253826141357, -0.0060997577384114265, 0.14529858529567719, 0.0063758366741240025, 0.17919407784938812, 0.006936285179108381, -0.08304090797901154, -0.10858357697725296, 0.15333788096904755, -0.19040076434612274, -0.013528101146221161, 0.11924820393323898, 0.04589511826634407, -0.012968824245035648, 0.1264360249042511, -0.1554989367723465, -0.0279184989631176, 0.11938177794218063, 0.004099565092474222, -0.2474418729543686], [-0.2319556474685669, -0.18568012118339539, -0.23356762528419495, 0.049894314259290695, -0.08968214690685272, -0.1149633601307869, -0.15404152870178223, 0.0913393422961235, 0.09384644031524658, 0.12404539436101913, -0.22535091638565063, -0.1055939644575119, -0.15847551822662354, 0.07337714731693268, 0.02840535342693329, -0.2285332977771759, -0.09023620188236237, -0.019082382321357727, -0.19458909332752228, 0.1374841183423996], [0.23991461098194122, -0.16006730496883392, 0.23571453988552094, -0.08337429910898209, -0.028489846736192703, -0.007096696645021439, -0.14753296971321106, 0.0028086951933801174, -0.15853768587112427, -0.13426348567008972, 0.18595144152641296, -0.0949888825416565, 0.004572330042719841, -0.13686592876911163, -0.0202077217400074, 0.029283970594406128, -0.18655313551425934, -0.1483156532049179, 0.02198363095521927, -0.09294365346431732], [-0.14286179840564728, 0.11290081590414047, 0.16875627636909485, -0.05412198230624199, -0.024057555943727493, 0.0720529556274414, 0.019323421642184258, 0.20733000338077545, -0.1211557611823082, -0.20201170444488525, 0.18619835376739502, -0.0009332060581073165, 0.0755821093916893, -0.05781121179461479, 0.14277967810630798, 0.15399743616580963, 0.19917233288288116, 0.10299444943666458, -0.1614830046892166, -0.0684850737452507], [-0.12819026410579681, -0.06711114197969437, -0.08777430653572083, 0.005603291559964418, 0.13807770609855652, 0.05018073320388794, 0.03293955698609352, -0.004265671130269766, -0.018426908180117607, -0.1782218962907791, 0.12461663037538528, 0.12946592271327972, 0.2189149409532547, -0.16475418210029602, 0.18520955741405487, -0.11074352264404297, 0.10087337344884872, 0.1342223733663559, 0.21512380242347717, -0.10984829813241959], [0.23058509826660156, -0.10393986105918884, 0.07893453538417816, -0.20183220505714417, -0.21063028275966644, 0.15063700079917908, 0.18643733859062195, -0.012905191630125046, 0.07410117983818054, 0.21301598846912384, 0.09779691696166992, 0.011745556257665157, 0.08939022570848465, -0.19953201711177826, 0.07637318968772888, -0.07855290919542313, -0.20931608974933624, 0.11969922482967377, 0.17260318994522095, -0.04693557694554329], [0.15165825188159943, -0.05072306841611862, 0.11376584321260452, 0.023282106965780258, -0.0775139331817627, 0.24923643469810486, -0.07609520107507706, 0.10505694895982742, 0.05653255432844162, -0.2065504938364029, -0.17242088913917542, 0.14694355428218842, -0.24133941531181335, 0.046782318502664566, 0.15026676654815674, -0.16638542711734772, 0.23063699901103973, 0.21401408314704895, -0.11707848310470581, -0.10769696533679962], [-0.14164423942565918, 0.07180223613977432, 0.135005384683609, 0.023064471781253815, -0.1917700171470642, -0.06876373291015625, -0.1900722086429596, 0.16666719317436218, 0.015442035160958767, -0.18345236778259277, -0.14026406407356262, 0.20761920511722565, 0.14392922818660736, -0.18412458896636963, 0.07952383905649185, 0.0218367800116539, -0.20636360347270966, 0.18235337734222412, -0.05295801907777786, 0.09592358022928238], [-0.09190717339515686, -0.08910069614648819, -0.13991935551166534, -0.013307010754942894, -0.10512927174568176, -0.0943218544125557, 0.0464492030441761, 0.2138291895389557, -0.010758018121123314, -0.2170931100845337, 0.12842963635921478, -0.1412879228591919, -0.16705742478370667, 0.13363920152187347, 0.03478066623210907, 0.040460165590047836, 0.050853099673986435, 0.2131534069776535, -0.13868562877178192, 0.08341733366250992]], "rec.bias_ih_l0": [0.11018359661102295, -0.2506237030029297, -0.2422952651977539, 0.15264910459518433, -0.08908368647098541, -0.06783657521009445, 0.16446441411972046, 0.03961605206131935, -0.14078323543071747, 0.15543422102928162, -0.11717046052217484, -0.2504231929779053, -0.17594286799430847, 0.11089856177568436, 0.1679668128490448, 0.04463386535644531, -0.00158588751219213, 0.13901327550411224, 0.15479576587677002, 0.07708259671926498, -0.08036291599273682, 0.14315375685691833, -0.26122334599494934, 0.01733819767832756, -0.22139474749565125, -0.12011081725358963, -0.11106128990650177, -0.17135070264339447, -0.16336874663829803, 0.13767479360103607, -0.23308807611465454, -0.13982050120830536, -0.21993187069892883, -0.17662502825260162, -0.08499220013618469, 0.0737220048904419, -0.008725939318537712, 0.043122608214616776, 0.17222383618354797, 0.0613541379570961, -0.013100461103022099, 0.15180794894695282, -0.021991662681102753, 0.09089034050703049, -0.15823207795619965, -0.04841702803969383, 0.20418843626976013, 0.10246464610099792, 0.14617154002189636, 0.21279843151569366, 0.0988229364156723, 0.18766531348228455, -0.110350601375103, 0.2245570719242096, -0.2384880632162094, 0.06685798615217209, 0.12582947313785553, 0.06216973066329956, -0.024010946974158287, -0.03497956693172455, -0.0061309803277254105, -0.1526079922914505, -0.006344391033053398, 0.005308153107762337, 0.13126394152641296, -0.025025680661201477, 0.06481572985649109, -0.21302883327007294, 0.1311909258365631, -0.033006295561790466, -0.1471303552389145, 0.06965846568346024, 0.16719751060009003, -0.18546585738658905, -0.1235051304101944, 0.09484727680683136, 0.10992223769426346, -0.14706505835056305, -0.0017716314177960157, -0.043786484748125076], "rec.bias_hh_l0": [-0.03803105279803276, 0.02805793657898903, -0.19483888149261475, 0.1916201412677765, 0.1283499300479889, -0.017428884282708168, -0.08326321840286255, -0.104448601603508, 0.16786696016788483, -0.11952601373195648, -0.11893290281295776, -0.0569014735519886, 0.03430577740073204, -0.20406800508499146, -0.09668901562690735, 0.12073997408151627, -0.1362062692642212, -0.20906494557857513, -0.19918477535247803, -0.15142372250556946, 0.05141834169626236, 0.13544398546218872, -0.19933031499385834, -0.0018751542083919048, -0.2085191160440445, 0.13484615087509155, 0.14819331467151642, -0.19276610016822815, 0.04821537807583809, -0.05735430866479874, -0.16198301315307617, -0.18519921600818634, -0.10307244956493378, 0.03312201797962189, 0.1388089954853058, 0.001937071792781353, 0.08275219798088074, -0.12868332862854004, 0.2098226547241211, 0.012261642143130302, 0.016082748770713806, 0.14960169792175293, 0.07089287042617798, -0.17929427325725555, 0.09760648757219315, -0.24834312498569489, -0.13728415966033936, 0.05877169221639633, -0.2486714869737625, 0.16081461310386658, 0.0604962594807148, -0.13817431032657623, 0.15054035186767578, -0.11804978549480438, -0.03370390459895134, 0.24708940088748932, -0.13985146582126617, -0.07770758867263794, 0.19096843898296356, 0.1617220938205719, -0.03648412227630615, -0.16267719864845276, 0.06137068569660187, -0.19973614811897278, 0.10767042636871338, 0.20589867234230042, -0.20283930003643036, -0.2153826355934143, 0.1820550411939621, -0.12354163080453873, -0.12411747872829437, -0.00921108853071928, -0.013058343902230263, 0.07196223735809326, -0.16236938536167145, -0.14010414481163025, -0.06697569787502289, 0.09739246964454651, -0.11956169456243515, -0.04762827605009079], "lin.weight": [[0.12356504797935486, 0.08420054614543915, -0.06695245951414108, 0.1555408537387848, 0.05490533262491226, 0.16433414816856384, -0.024806873872876167, 0.0002502383722458035, 0.1735609769821167, -0.11023424565792084, 0.1703478842973709, 0.1657903492450714, 0.06809557974338531, -0.03395737335085869, 0.06442397832870483, -0.1425330489873886, 0.22633305191993713, 0.019038990139961243, -0.19117702543735504, -0.13376665115356445]], "lin.bias": [0.14863868057727814]}}