{"model_data": {"model": "SimpleRNN", "input_size": 1, "skip": 1, "output_size": 1, "unit_type": "LSTM", "num_layers": 1, "hidden_size": 20, "bias_fl": true}, "state_dict": {"rec.weight_ih_l0": [[0.008483645506203175], [-0.29483887553215027], [-0.2767890393733978], [-0.020128779113292694], [0.19692450761795044], [-0.007132664788514376], [0.3101367950439453], [0.17149847745895386], [0.11661213636398315], [0.054661430418491364], [-0.1472695916891098], [0.08886464685201645], [-0.03783116489648819], [-0.01614433340728283], [0.02178138494491577], [0.223895862698555], [0.03757108747959137], [-0.14899948239326477], [0.02020936645567417], [0.3276465833187103], [0.009528669528663158], [-0.2521176040172577], [-0.12400414794683456], [0.31659212708473206], [0.2148350477218628], [0.32292431592941284], [0.3727841079235077], [0.050711553543806076], [0.3814355731010437], [0.07057534158229828], [-0.1482633501291275], [0.23417505621910095], [-0.060489948838949203], [0.35597658157348633], [0.17368578910827637], [0.20091795921325684], [0.05825832113623619], [-0.13856840133666992], [0.3203792870044708], [0.364379346370697], [-0.21680812537670135], [0.03516070544719696], [0.0545710064470768], [-0.2754473090171814], [-0.16659757494926453], [-0.3666025996208191], [0.30211976170539856], [0.11526618897914886], [-0.09126477688550949], [0.031413935124874115], [-0.10897468030452728], [-0.15021570026874542], [-0.09863999485969543], [0.23395892977714539], [-0.3319871723651886], [0.018019920215010643], [-0.14423754811286926], [-0.11235810071229935], [0.00231912755407393], [0.10167187452316284], [0.2105495184659958], [0.041214823722839355], [-0.03355450928211212], [0.3507940173149109], [0.2985304594039917], [0.02470507100224495], [0.29856425523757935], [0.10310028493404388], [0.02629002183675766], [0.3920885920524597], [0.024992482736706734], [0.3380424380302429], [-0.13819481432437897], [-0.03228270635008812], [0.0067847915925085545], [0.033920515328645706], [0.15337957441806793], [-0.04145246371626854], [0.4181339144706726], [0.2690805494785309]], "rec.weight_hh_l0": [[0.11885299533605576, -0.16233672201633453, -0.06848064810037613, 0.11197759211063385, -0.0028744724113494158, -0.16730691492557526, -0.16208620369434357, -0.1433846652507782, 0.11608173698186874, 0.15922288596630096, -0.048429425805807114, 0.20180167257785797, -0.05790111422538757, 0.0655098631978035, -0.11530517786741257, 0.16875940561294556, 0.21022872626781464, -0.21281592547893524, -0.23904180526733398, -0.10257221758365631], [-0.027353568002581596, -0.2782759368419647, 0.07730966806411743, 0.14965727925300598, -0.08834422379732132, 0.23157188296318054, -0.10357140004634857, -0.039720624685287476, -0.06137586385011673, 0.12945985794067383, 0.052570492029190063, -0.18519744277000427, -0.04789014533162117, -0.04929502680897713, -0.1298762559890747, -0.1305145025253296, -0.11491815745830536, -0.03447363153100014, -0.23476232588291168, -0.25702574849128723], [0.11372484266757965, 0.10640687495470047, -0.19694460928440094, -0.06959112733602524, 0.02710121124982834, 0.20038601756095886, -0.2013300657272339, -0.10536367446184158, 0.04562726244330406, -0.10178928077220917, 0.02962624840438366, 0.21025048196315765, -0.16582317650318146, -0.02739889919757843, 0.035402923822402954, -0.17517270147800446, -0.05311181768774986, -0.019437285140156746, 0.15102078020572662, 0.09387470036745071], [0.16847404837608337, -0.12231971323490143, -0.033986616879701614, 0.20314906537532806, 0.012948909774422646, 0.18832838535308838, -0.033549729734659195, 0.15091635286808014, -0.11817019432783127, -0.19251175224781036, -0.05194176360964775, 0.17706581950187683, -0.04863400012254715, 0.1857173591852188, 0.11563996225595474, 0.1707700937986374, -0.03422288969159126, 0.2520289123058319, 0.08786473423242569, 0.14146572351455688], [0.06651993840932846, -0.037017885595560074, 0.1880149394273758, 0.12010537832975388, -0.207163006067276, 0.21408310532569885, -0.1607380211353302, -0.1253380924463272, -0.167486771941185, 0.19561424851417542, 0.052561789751052856, -0.03658682480454445, -0.005410442128777504, -0.11739088594913483, 0.16152101755142212, 0.16243048012256622, -0.15990687906742096, 0.2644146978855133, 0.19653691351413727, -0.21778643131256104], [-0.17251943051815033, -0.17599646747112274, -0.08357448875904083, -0.11485297977924347, -0.05895292013883591, -0.0111000407487154, 0.09846875071525574, -0.13431285321712494, -0.03270881250500679, -0.11528969556093216, 0.2534670829772949, -0.06594859063625336, -0.0053011272102594376, 0.15445294976234436, -0.0017971600173041224, 0.12308931350708008, -0.18634293973445892, 0.2420678734779358, -0.1526833027601242, -0.21538086235523224], [0.08836013078689575, 0.21671360731124878, -0.1789761781692505, 0.06434952467679977, 0.12157723307609558, -0.07501082867383957, 0.013654462061822414, -0.024660369381308556, 0.10211300849914551, -0.05813885107636452, 0.07918672263622284, 0.18097196519374847, 0.0918351411819458, 0.13897427916526794, 0.03943832591176033, 0.06539127230644226, 0.21728312969207764, 0.11871960759162903, -0.06034604832530022, -0.1900508850812912], [-0.005785032641142607, -0.13819320499897003, -0.09823431819677353, -0.035200316458940506, -0.04405606538057327, 0.24367503821849823, -0.1787392646074295, -0.04033840075135231, -0.07680929452180862, 0.030345533043146133, -0.16535654664039612, 0.0571645051240921, 0.0004373500996734947, 0.06922170519828796, 0.10861146450042725, -0.019483493641018867, 0.24827121198177338, -0.16882890462875366, -0.13625186681747437, 0.09269960224628448], [0.012281195260584354, 0.13409234583377838, -0.16119898855686188, -0.10943865031003952, 0.04276207834482193, -0.10950513929128647, -0.11658142507076263, -0.06465112417936325, -0.006823972333222628, -0.13768009841442108, 0.005069664213806391, -0.05111553519964218, 0.05234641209244728, -0.2118951380252838, -0.11726845055818558, 0.05588899925351143, -0.17448663711547852, 0.27315837144851685, 0.09287296235561371, -0.17827506363391876], [0.11752159148454666, -0.09064017236232758, -0.07759013772010803, -0.0571497417986393, 0.026600444689393044, -0.0873677134513855, -0.1529209464788437, 0.04567176476120949, 0.008761564269661903, -0.15436714887619019, -0.029385441914200783, -0.10577383637428284, 0.16339734196662903, -0.10764360427856445, -0.07933482527732849, -0.12305521219968796, -0.026653168722987175, 0.10536413639783859, -0.1519508957862854, 0.19282346963882446], [-0.15495944023132324, -0.17768438160419464, 0.06889013200998306, -0.07952376455068588, 0.22175952792167664, -0.03901861980557442, 0.013352302834391594, 0.07644373178482056, -0.17465810477733612, 0.09544659405946732, -0.23298220336437225, -0.12285957485437393, 0.036761604249477386, 0.09195040166378021, 0.19882619380950928, -0.15630148351192474, 0.25447186827659607, -0.016383923590183258, 0.15320618450641632, 0.09595896303653717], [-0.101169653236866, -0.1012309342622757, -0.07162664085626602, -0.0017006146954372525, 0.28144440054893494, 0.00813079159706831, 0.04291927069425583, 0.04319319128990173, 0.16312918066978455, -0.16398343443870544, -0.24952751398086548, -0.150412455201149, 0.11013957858085632, 0.012850970029830933, 0.23836132884025574, -0.03424036502838135, 0.14805267751216888, 0.03238436207175255, 0.1364862471818924, -0.029947811737656593], [0.13894815742969513, 0.13045614957809448, -0.012683402746915817, 0.012822259217500687, -0.15075987577438354, 0.1861783117055893, -0.10323140770196915, 0.1388247013092041, 0.13366782665252686, -0.26316067576408386, 0.17253629863262177, -0.15094000101089478, -0.09346939623355865, 0.13022328913211823, -0.006205654237419367, -0.09438709914684296, -0.04378039389848709, -0.07897845655679703, 0.014219071716070175, -0.22829309105873108], [0.15747414529323578, 0.13325226306915283, 0.04437176510691643, -0.18147356808185577, -0.17440252006053925, -0.10345474630594254, 0.1280808448791504, -0.12190995365381241, -0.11998278647661209, 0.04424130916595459, -0.06419023126363754, 0.1298626959323883, -0.0022472054697573185, 0.0645875483751297, 0.0037864921614527702, 0.1209874227643013, 0.005969915073364973, 0.26928991079330444, -0.050105951726436615, -0.02415701374411583], [0.07572013884782791, 0.23442880809307098, 0.0750533938407898, 0.17564772069454193, 0.04784294217824936, 0.16276727616786957, -0.1688663363456726, -0.17995761334896088, -0.04507031291723251, -0.20533473789691925, 0.11894328892230988, -0.034465767443180084, -0.1286754608154297, 0.1138632595539093, 0.06871894001960754, 0.028690241277217865, 0.02268439158797264, -0.02906898222863674, 0.2033035010099411, -0.057988330721855164], [-0.11187971383333206, 0.1427822709083557, -0.06469687819480896, 0.21085390448570251, 0.03133230283856392, -0.06414921581745148, 0.16117428243160248, -0.039012402296066284, 0.17041049897670746, 0.2279914915561676, 0.1923855096101761, 0.24297325313091278, 0.07764808088541031, -0.11370084434747696, -0.08869460970163345, -0.18859530985355377, -0.12098078429698944, 0.1222696378827095, 0.22267772257328033, -0.16543839871883392], [0.05080985277891159, -0.17350231111049652, -0.05182848870754242, 0.132919579744339, 0.06520837545394897, 0.1329154372215271, 0.011676664464175701, -0.006044172681868076, 0.03732055798172951, -0.16106218099594116, -0.05949576199054718, -0.1663161963224411, -0.16663770377635956, 0.09361480921506882, 0.038476310670375824, -0.1507468968629837, -0.0020796561148017645, 0.0582147054374218, -0.1075405701994896, -0.17593397200107574], [-0.18297071754932404, 0.049548275768756866, -0.016893841326236725, -0.020721305161714554, -0.11348506808280945, 0.046299323439598083, -0.09304413944482803, 0.03614646941423416, -0.13632935285568237, -0.10487249493598938, -0.1145009994506836, 0.17549894750118256, -0.11575261503458023, -0.04617690294981003, -0.12664975225925446, -0.09402620047330856, 0.23079615831375122, -0.05925929918885231, -0.21487650275230408, 0.0810801163315773], [0.2118309587240219, 0.24857197701931, -0.10423610359430313, -0.20674176514148712, 0.17842479050159454, 0.06343533098697662, 0.001991986995562911, 0.06549964845180511, -0.16731053590774536, -0.10574740916490555, -0.1622467190027237, -0.023068929091095924, -0.033923741430044174, -0.052515462040901184, 0.1868167668581009, -0.03630225360393524, 0.14753837883472443, -0.12721410393714905, 0.20994502305984497, -0.11882052570581436], [0.061821307986974716, -0.14253704249858856, -0.17859500646591187, -0.0931481346487999, -0.05721317231655121, 0.1466899961233139, -0.21708674728870392, 0.10185930877923965, 0.17582635581493378, 0.21423222124576569, -0.19840450584888458, 0.138726145029068, -0.014822837896645069, -0.10037560015916824, -0.07848936319351196, 0.04662317410111427, -0.1492578387260437, -0.12777242064476013, -0.010904115624725819, -0.13084016740322113], [0.1614743322134018, -0.10783255845308304, 0.10774524509906769, 0.08460557460784912, 0.038473840802907944, 0.17711755633354187, -0.18235306441783905, 0.14333181083202362, 0.1378900557756424, 0.023005999624729156, -0.25688475370407104, -0.060460977256298065, 0.16389010846614838, 0.13138355314731598, 0.008679644204676151, 0.04970249533653259, 0.12748079001903534, -0.193189337849617, 0.03887809067964554, -0.15312492847442627], [0.16800826787948608, -0.20521798729896545, -0.07022925466299057, 0.19489184021949768, -0.024393877014517784, -0.018861738964915276, 0.027400074526667595, -0.025397315621376038, 0.14328621327877045, -0.18337774276733398, -0.007973382249474525, 0.006657215766608715, -0.07181049883365631, -0.1944912075996399, -0.1572350561618805, 0.020477155223488808, 0.085901640355587, 0.01718972623348236, -0.23046629130840302, -0.22717349231243134], [-0.16649076342582703, -0.012000737711787224, 0.07628842443227768, 0.20772644877433777, 0.03391478583216667, 0.26084470748901367, 0.10431746393442154, -0.09582800418138504, 0.2328902631998062, -0.045902423560619354, 0.057648345828056335, 0.00993471872061491, 0.1263444721698761, 0.044227760285139084, 0.2584788203239441, -0.028043748810887337, 0.01268279179930687, 0.17660188674926758, -0.2377096712589264, -0.21317200362682343], [0.1381637454032898, -0.10199988633394241, 0.15945708751678467, -0.15739165246486664, -0.011847143061459064, 0.0466797910630703, 0.04563064128160477, 0.01841810718178749, 0.13375632464885712, -0.1269216537475586, -0.020237579941749573, -0.03472146764397621, 0.04083496704697609, -0.03509096801280975, 0.12013378739356995, -0.1827465444803238, 0.21433432400226593, 0.2127671241760254, -0.08881118893623352, 0.19961275160312653], [0.14000898599624634, -0.21606814861297607, 0.08548185229301453, 0.06551908701658249, -0.14297594130039215, -0.1601358950138092, 0.07258372753858566, 0.050515931099653244, -0.04867042601108551, 0.13133734464645386, -0.14092667400836945, 0.05071038752794266, -0.13286906480789185, 0.0020747194066643715, -0.16311268508434296, -0.13106995820999146, 0.04880097135901451, 0.13073496520519257, -0.012568986974656582, -0.17950096726417542], [0.2251386046409607, -0.1326371431350708, 0.02313401736319065, 0.07779403775930405, 0.1024082750082016, -0.1227932870388031, 0.21757952868938446, 0.17177513241767883, 0.1098489835858345, 0.17134803533554077, 0.028029609471559525, -0.12399494647979736, -0.06371178478002548, -0.038572367280721664, 0.1351454257965088, -0.1532088965177536, -0.22441673278808594, -0.09730684757232666, -0.11766660213470459, 0.01599990949034691], [-0.08809951692819595, 0.1359618604183197, 0.21688184142112732, -0.03178837150335312, -0.18896637856960297, 0.06187812611460686, -0.0577678419649601, 0.10154076665639877, 0.12877929210662842, -0.15323276817798615, 0.080632783472538, 0.11618789285421371, -0.15146204829216003, -0.04817237704992294, 0.007184108719229698, -0.14133572578430176, -0.10853457450866699, 0.16066646575927734, -0.19798550009727478, -0.11630146205425262], [0.05330899357795715, 0.08015899360179901, 0.10239250212907791, -0.04420879855751991, 0.007831661030650139, -0.11851685494184494, 0.025119030848145485, -0.1505766361951828, 0.043688494712114334, -0.13127200305461884, -0.0901121199131012, -0.1532151848077774, 0.16328772902488708, 0.1427185833454132, 0.15965482592582703, 0.1917768269777298, -0.037428852170705795, 0.1468883603811264, 0.016314508393406868, -0.12217899411916733], [0.012369617819786072, 0.1587996929883957, 0.07770033180713654, -0.20863209664821625, 0.18823418021202087, 0.10788329690694809, -0.21247458457946777, 0.15855549275875092, -0.17863596975803375, -0.14542743563652039, 0.14164607226848602, -0.1666998416185379, 0.23558081686496735, 0.057721734046936035, -0.10602346807718277, -0.17841848731040955, -0.0829034298658371, 0.008014542981982231, -0.18050704896450043, 0.018281759694218636], [-0.06288216263055801, 0.18000108003616333, 0.04825781658291817, 0.10636036843061447, -0.07602100819349289, 0.12639057636260986, 0.0827559232711792, 0.21143066883087158, -0.027350617572665215, 0.20795904099941254, 0.16549552977085114, 0.211907297372818, 0.14270521700382233, 0.07400990277528763, -0.14089395105838776, 0.07690104842185974, -0.21145182847976685, 0.06257054209709167, -0.20489118993282318, 0.17886942625045776], [0.01639796793460846, -0.05778807774186134, -0.184864342212677, 0.2386329472064972, 0.24982590973377228, -0.1379428654909134, -0.13664695620536804, -0.22919119894504547, 0.11439025402069092, -0.20457039773464203, -0.15803654491901398, -0.19131110608577728, 0.0705086961388588, 0.02821861021220684, -0.05933590605854988, 0.030752316117286682, -0.07851040363311768, 0.17764031887054443, -0.03139083459973335, -0.07988514006137848], [-0.0582314133644104, 0.07259060442447662, 0.1928156316280365, 0.09623166173696518, 0.054301753640174866, 0.2466951608657837, -0.2129436582326889, -0.05624254047870636, 0.24735812842845917, 0.1259649693965912, 0.11109193414449692, 0.06969013065099716, -0.14026321470737457, 0.03414096683263779, -0.12889444828033447, 0.12534216046333313, 0.281673789024353, 0.09620188921689987, -0.038063809275627136, -0.040035832673311234], [-0.23664969205856323, 0.10381153225898743, -0.020539289340376854, 0.2514643371105194, 0.1895151138305664, 0.016045868396759033, 0.1535816490650177, 0.13469895720481873, -0.024223720654845238, -0.10595174133777618, -0.15919813513755798, -0.1106923446059227, -0.18679271638393402, -0.07696915417909622, 0.04945240169763565, 0.047578100115060806, 0.2683793306350708, -0.09090441465377808, -0.2352863848209381, 0.005164386238902807], [0.02989588864147663, 0.08730217814445496, 0.10335926711559296, 0.07915622740983963, -0.04136805608868599, 0.03610007092356682, 0.17482103407382965, -0.006959893740713596, 0.13831306993961334, 0.10930272936820984, -0.054646823555231094, -0.07835284620523453, 0.12868712842464447, 0.07550804316997528, 0.022155286744236946, -0.2177201807498932, 0.18661798536777496, 0.2036137729883194, 0.14074482023715973, 0.0897093266248703], [-0.060108333826065063, -0.10592415928840637, 0.017776910215616226, -0.1683240830898285, 0.18561695516109467, 0.13856644928455353, 0.08161663264036179, 0.00822128914296627, 0.14171245694160461, 0.09234807640314102, 0.1678365021944046, -0.15432694554328918, 0.015519081614911556, -0.22449949383735657, 0.05768640711903572, 0.08959776163101196, 0.20461294054985046, -0.16928374767303467, -0.13143333792686462, -0.06758587807416916], [0.2647775113582611, -0.09033764898777008, 0.18845504522323608, 0.13945871591567993, 0.019068915396928787, 0.08936849981546402, -0.053288668394088745, -0.08546923846006393, -0.1328321397304535, 0.11470195651054382, -0.0944681167602539, -0.14863698184490204, -0.01670827902853489, 0.051217347383499146, -0.10505138337612152, -0.08507969230413437, -0.21485702693462372, 0.16744425892829895, 0.08032351732254028, -0.10924459248781204], [0.045703113079071045, 0.1513175517320633, 0.17233696579933167, 0.0710001289844513, -0.0985703244805336, -0.07050926238298416, 0.09768213331699371, -0.19341029226779938, 0.16784162819385529, -0.09735740721225739, -0.007811935152858496, -0.149819016456604, 0.2050122171640396, 0.043953265994787216, 0.11450700461864471, 0.21221669018268585, 0.07614827156066895, -0.14724498987197876, 0.07024233043193817, 0.18583060801029205], [0.203041672706604, 0.16458339989185333, 0.2240934818983078, 0.2591756582260132, 0.18926075100898743, 0.08210789412260056, -0.24783559143543243, -0.15043403208255768, 0.06790546327829361, 0.06948342174291611, -0.20702877640724182, 0.1457137018442154, -0.0007019295589998364, 0.08829398453235626, 0.20266950130462646, 0.12791572511196136, -0.014149635098874569, -0.09129093587398529, -0.08318191766738892, 0.05435178056359291], [0.13836397230625153, 0.007256744895130396, -0.18326735496520996, 0.14259019494056702, -0.04904983937740326, -0.17459887266159058, 0.059219762682914734, -0.09816058725118637, -0.1384909600019455, 0.07837337255477905, 0.2125674933195114, 0.25141802430152893, 0.20713989436626434, 0.2044987678527832, -0.11777091771364212, 0.024669229984283447, -0.18965905904769897, 0.18318596482276917, -0.04937104508280754, 0.17139501869678497], [0.061515551060438156, -0.08396276086568832, 0.13984785974025726, -0.20307576656341553, -0.13520416617393494, -0.0005850247107446194, -0.15610967576503754, 0.1308174580335617, 0.034578531980514526, -0.1743737906217575, 0.049944501370191574, -0.022289510816335678, -0.08591655641794205, 0.11725499480962753, -0.14952264726161957, -0.04732769727706909, -0.042546842247247696, -0.09011717885732651, -0.12805905938148499, 0.08227723091840744], [-0.02876257710158825, -0.17136727273464203, 0.09079325944185257, 0.06702420115470886, -0.08272529393434525, -0.018270343542099, -0.2122322916984558, 0.09255527704954147, 0.10109895467758179, -0.14874452352523804, -0.1289331465959549, 0.014233059249818325, 0.021692583337426186, -0.04059486463665962, 0.016677802428603172, -0.23164865374565125, 0.23493199050426483, -0.1565660983324051, 0.15512892603874207, 0.21036900579929352], [-0.1073111966252327, 0.08271981030702591, -0.14936533570289612, 0.013400593772530556, 0.013030466623604298, -0.06563053280115128, -0.19461198151111603, -0.06894022226333618, -0.0681440457701683, -0.017049914225935936, -0.22482742369174957, -0.04402780160307884, 0.09053021669387817, -0.3016590178012848, 0.27401742339134216, -0.19786812365055084, 0.09923110902309418, -0.11966972053050995, -0.1654883176088333, -0.07284105569124222], [-0.16382001340389252, -0.18015410006046295, -0.06651560962200165, 0.022161142900586128, 0.1739448606967926, 0.01959533616900444, -0.09795396775007248, -0.11122579127550125, 0.17181821167469025, -0.2215455174446106, -0.20514662563800812, 0.12119679898023605, 0.09453850984573364, 0.08532662689685822, -0.06147357076406479, 0.1951357126235962, 0.1131603866815567, -0.16256628930568695, 0.09068690240383148, -0.10813331604003906], [0.012145009823143482, -0.2185458540916443, 0.03791486844420433, 0.0669957771897316, 0.04247981309890747, 0.03496789187192917, -0.0472433939576149, -0.1879516988992691, 0.19370010495185852, -0.13086320459842682, -0.02934153378009796, -0.011371112428605556, 0.11427637189626694, -0.07645129412412643, -0.11694813519716263, -0.1324901133775711, 0.056604865938425064, 0.14115233719348907, -0.1348702609539032, 0.10247856378555298], [0.11851511150598526, -0.13703495264053345, -0.2061854600906372, -0.217343270778656, 0.1754879355430603, 0.15947122871875763, 0.031064342707395554, 0.003361472161486745, -0.04986874759197235, -0.06980882585048676, 0.16963158547878265, 0.15896683931350708, -0.15331439673900604, 0.21183544397354126, 0.10375760495662689, -0.10941778868436813, -0.17634272575378418, -0.19133077561855316, 0.053131092339754105, 0.1749943345785141], [-0.09006058424711227, -0.23273055255413055, 0.02740505523979664, 0.19447967410087585, -0.1026420071721077, -0.045984067022800446, -0.20555159449577332, 0.05828525498509407, -0.16835498809814453, -0.0651136264204979, -0.19758614897727966, -0.2641732692718506, -0.23982198536396027, -0.05663616210222244, 0.08550962060689926, -0.12348496913909912, 0.14926636219024658, -0.18669475615024567, 0.14919103682041168, 0.04581650346517563], [0.07964584976434708, 0.12906022369861603, -0.1856745332479477, 0.07400992512702942, 0.07912752032279968, -0.1076606959104538, 0.1587950438261032, 0.019389647990465164, 0.11795162409543991, 0.19246812164783478, -0.010313303209841251, 0.19745130836963654, 0.07806732505559921, 0.1857602298259735, 0.031068958342075348, 0.1564217209815979, -0.14875414967536926, -0.16336871683597565, -0.18822616338729858, 0.0453680157661438], [-0.12587152421474457, 0.05154598131775856, -0.13637861609458923, 0.23351675271987915, 0.19751062989234924, 0.19630885124206543, -0.08199266344308853, -0.24342718720436096, -0.1870192438364029, 0.10654479265213013, -0.05642664059996605, 0.03640076145529747, -0.015493139624595642, 0.10288197547197342, -0.09931490570306778, 0.17367379367351532, -0.14285261929035187, -0.09360245615243912, -0.21525868773460388, 0.08975966274738312], [-0.1878947913646698, 0.015821101143956184, 0.09709305316209793, -0.06500803679227829, 0.03622390702366829, 0.12812073528766632, -0.16553957760334015, 0.10809081047773361, -0.21738667786121368, -0.048326484858989716, 0.03472539782524109, -0.12798574566841125, 0.1437317132949829, 0.1918143481016159, -0.10353928059339523, -0.1724371314048767, -0.19984300434589386, -0.1490071713924408, -0.19396498799324036, 0.10923387110233307], [0.15840095281600952, 0.2059181034564972, 0.17912203073501587, 0.07809317857027054, 0.11223742365837097, 0.01473190076649189, -0.051333729177713394, 0.15904554724693298, -0.1066366508603096, 0.15110239386558533, -0.0506402850151062, 0.1476067155599594, -0.06471168994903564, 0.042053788900375366, 0.1969120055437088, 0.028249870985746384, -0.13246981799602509, -0.04377906396985054, -0.15630212426185608, 0.07293135672807693], [-0.006330436561256647, 0.09200736880302429, 0.1910090148448944, -0.06461470574140549, -0.14621561765670776, 0.1643550544977188, 0.08576340973377228, -0.15675492584705353, 0.032999370247125626, 0.010231832042336464, 0.1506706029176712, -0.1598115861415863, -0.08802464604377747, -0.1381215900182724, -0.12318876385688782, -0.008570699952542782, 0.07469445466995239, 0.14536230266094208, 0.12447106838226318, 0.06258179992437363], [0.044551726430654526, -0.018826588988304138, 0.05806135758757591, 0.23953653872013092, 0.11169493943452835, 0.09799537807703018, -0.24194885790348053, 0.17233513295650482, 0.176518514752388, -0.08984623104333878, -0.2522795796394348, -0.023329179733991623, -0.1401728391647339, 0.044762950390577316, 0.1635693907737732, -0.007083358708769083, 0.07008662819862366, 0.06644480675458908, -0.056365542113780975, -0.1530214101076126], [-0.12048475444316864, 0.11105221509933472, 0.06650058925151825, 0.17230331897735596, -0.0943833664059639, 0.03355595842003822, -0.0857587605714798, -0.15083132684230804, 0.2542746961116791, 0.03871230408549309, 0.024933313950896263, -0.023854004219174385, -0.13523855805397034, -0.22076164186000824, 0.2587210237979889, 0.17123009264469147, -0.11730155348777771, -0.11106086522340775, -0.021100694313645363, -0.18970239162445068], [-0.062261633574962616, 0.07904227077960968, -0.0691717267036438, -0.11084330826997757, 0.07862537354230881, 0.1252182424068451, -0.03795122727751732, -0.0035320057068020105, 0.07447860389947891, 0.1539822518825531, -0.012212581932544708, -0.1463872641324997, -0.03372121602296829, 0.1584770828485489, -0.19942404329776764, -0.09415066987276077, 0.17706741392612457, -0.06610813736915588, -0.05452971160411835, 0.14752772450447083], [-0.21467062830924988, 0.008001381531357765, 0.027237387374043465, -0.05600423365831375, -0.20854473114013672, -0.032722413539886475, -0.13603688776493073, 0.07244190573692322, 0.2121630311012268, -0.22757616639137268, -0.1976201981306076, 0.06238267570734024, -0.24625259637832642, -0.06397595256567001, -0.15988986194133759, 0.20733216404914856, 0.012569236569106579, -0.031179161742329597, 0.14622469246387482, -0.07346047461032867], [0.15540464222431183, -0.023309625685214996, 0.032042816281318665, -0.056655701249837875, 0.07452662289142609, 0.07938909530639648, -0.1713673323392868, 0.13495193421840668, -0.15025070309638977, -0.10753534734249115, -0.011573851108551025, 0.26953962445259094, 0.2653399407863617, 0.1470184326171875, -0.13393045961856842, 0.1190771609544754, -0.0399446077644825, -0.12174982577562332, 0.08713600784540176, -0.056112587451934814], [-0.06949351727962494, -0.15896892547607422, 0.00021951050439383835, -0.08068165183067322, 0.1491159349679947, 0.23404620587825775, -0.047172509133815765, -0.007763314060866833, 0.13164407014846802, -0.21925024688243866, -0.2371915876865387, -0.06977915018796921, -0.27296698093414307, -0.02547527849674225, -0.17977100610733032, -0.07054463773965836, -0.09111853688955307, -0.1055641919374466, 0.06476983428001404, 0.18157555162906647], [-0.006953640375286341, -0.24852558970451355, -0.21337378025054932, -0.14092512428760529, -0.009973378852009773, 0.08644836395978928, 0.09602651000022888, -0.023864885792136192, 0.05004768446087837, -0.19507713615894318, -0.017847450450062752, 0.1347862184047699, 0.12191929668188095, 0.0717693492770195, -0.03147630766034126, 0.10395736247301102, -0.1018429845571518, 0.028341900557279587, -0.1163269430398941, -0.13521043956279755], [-0.14610037207603455, 0.07602611184120178, -0.20182257890701294, -0.16775263845920563, -0.10491033643484116, -0.22454442083835602, 0.1925991326570511, 0.242723286151886, 0.030078090727329254, 0.1586257517337799, -0.05480729416012764, -0.06602926552295685, -0.10485982894897461, 0.13035644590854645, -0.23653367161750793, -0.19588202238082886, 0.01246284507215023, -0.03988790884613991, 0.06992325186729431, 0.16283340752124786], [0.19079694151878357, -0.11253991723060608, 0.06026865914463997, -0.11507891863584518, -0.08911557495594025, -0.02957664430141449, -0.1416267305612564, 0.1715395748615265, 0.15061064064502716, -0.13050757348537445, 0.08776509016752243, -0.16695095598697662, -0.11889984458684921, 0.06566093862056732, -0.003147902898490429, 0.2267853170633316, 0.02250082418322563, 0.22273173928260803, 0.199340358376503, 0.10279634594917297], [0.09753262996673584, -0.022960055619478226, -0.22224611043930054, 0.23604433238506317, 0.1403486579656601, 0.0720456913113594, -0.027317417785525322, -0.14253851771354675, 0.03308168053627014, 0.050045788288116455, -0.013905397616326809, 0.13744515180587769, 0.018377384170889854, -0.13688413798809052, -0.030955253168940544, -0.0635443702340126, 0.028151508420705795, -0.19134093821048737, -0.14557144045829773, -0.03781301528215408], [0.2223067432641983, 0.12344846874475479, 0.11088541895151138, 0.08257806301116943, 0.1396571397781372, 0.27827709913253784, 0.1176566630601883, -0.23602508008480072, 0.07601484656333923, -0.2397112250328064, -0.09901578724384308, -0.20359230041503906, 0.05509686470031738, -0.05405035987496376, -0.068613700568676, 0.1555204689502716, 0.2342565357685089, -0.14889226853847504, -0.02765103057026863, -0.08939681202173233], [-0.019046632573008537, 0.12407489120960236, -0.037645068019628525, -0.12284379452466965, 0.06728482246398926, -0.1339770257472992, 0.16033345460891724, 0.08448315411806107, 0.09327814728021622, -0.017078736796975136, -0.268308162689209, 0.12598729133605957, -0.0184866301715374, -0.11788621544837952, 0.19785460829734802, 0.15744449198246002, 0.015420285053551197, -0.010398037731647491, -0.029353784397244453, -0.23628662526607513], [-0.1113499104976654, -0.07566332817077637, -0.13052622973918915, 0.08258317410945892, -0.08168509602546692, 0.06069926172494888, 0.1647569090127945, 0.15974748134613037, 0.002981004538014531, -0.08410914242267609, -0.17902015149593353, 0.19221855700016022, 0.10867726802825928, 0.13712581992149353, 0.12888804078102112, -0.1240101009607315, 0.15486496686935425, 0.2556588649749756, -0.016435446217656136, 0.035782940685749054], [-0.0658782422542572, -0.08410467952489853, -0.11443052440881729, 0.18091806769371033, 0.22428962588310242, 0.003041763324290514, 0.11341146379709244, 0.154065802693367, 0.1809796839952469, -0.019836612045764923, -0.11388267576694489, -0.03982933610677719, 0.1875257045030594, -0.001029728096909821, 0.04953577741980553, -0.032793816179037094, -0.03535998985171318, -0.08935409784317017, -0.19832608103752136, -0.20088426768779755], [0.24815793335437775, -0.11076581478118896, -0.04883033037185669, 0.15527983009815216, 0.12311793118715286, 0.13940547406673431, 0.1812293827533722, -0.19806791841983795, -0.0740673765540123, -0.09542917460203171, -0.17039649188518524, -0.1439511924982071, -0.11691371351480484, 0.13851125538349152, 0.18129651248455048, -0.08611747622489929, -0.16306458413600922, -0.14717668294906616, -0.21550974249839783, 0.1899193376302719], [0.09760311990976334, 0.07107283174991608, 0.16106130182743073, -0.20767784118652344, -0.07362660765647888, 0.1419568508863449, 0.03183470666408539, -0.19623321294784546, 0.12689083814620972, -0.09860208630561829, 0.0036291233263909817, 0.23579531908035278, -0.04806005582213402, -0.1755433827638626, 0.09266569465398788, -0.11281553655862808, 0.061017319560050964, -0.08737464994192123, -0.17733924090862274, -0.022066166624426842], [0.02997041866183281, 0.13850632309913635, 0.17046870291233063, 0.020513640716671944, -0.053257014602422714, 0.03740755841135979, -0.18389101326465607, -0.08968431502580643, 0.015011686831712723, -0.16467200219631195, 0.020146816968917847, -0.01510588824748993, 0.050875235348939896, -0.18091300129890442, 0.07797189801931381, 0.1067597046494484, 0.15187270939350128, 0.04500754177570343, 0.1613742560148239, 0.10916494578123093], [0.1691509485244751, -0.1828591525554657, -0.015788104385137558, -0.14058198034763336, -0.1485171616077423, 0.1071089655160904, 0.06192424148321152, 0.0646543875336647, -0.05074460431933403, -0.02876771055161953, 0.11538589000701904, -0.047790005803108215, -0.1553087830543518, -0.13616368174552917, -0.17170050740242004, -0.1563052535057068, -0.1316205859184265, 0.03796098381280899, 0.11774548143148422, 0.0805128887295723], [0.19253800809383392, -0.02008400857448578, 0.03727190941572189, -0.09789307415485382, 0.08569372445344925, 0.09976886957883835, -0.051710955798625946, -0.2073228508234024, 0.16641639173030853, 0.1213437020778656, 0.1950654238462448, -0.00997867714613676, 0.13392533361911774, 0.004048875533044338, -0.07821045070886612, 0.16939152777194977, -0.08791124075651169, -0.10637152194976807, -0.0586906298995018, -0.14109060168266296], [-0.1828967034816742, -0.09986262023448944, -0.19600066542625427, -0.15218918025493622, 0.11893068999052048, 0.02209303341805935, -0.09329496324062347, -0.11618819832801819, -0.05564504116773605, 0.10944295674562454, -0.2736087441444397, -0.19808357954025269, -0.06950980424880981, -0.08892631530761719, 0.2566685080528259, 0.04500306770205498, -0.03634276241064072, 0.14278694987297058, -0.07002585381269455, 0.0378628708422184], [0.18451198935508728, -0.00536403339356184, 0.14658395946025848, 0.005913520231842995, 0.1786094456911087, 0.006459124851971865, -0.08274538069963455, -0.10782114416360855, 0.15276619791984558, -0.18975777924060822, -0.012836077250540257, 0.11909974366426468, 0.047030314803123474, -0.012422275729477406, 0.12595735490322113, -0.15480615198612213, -0.028787674382328987, 0.12015727907419205, 0.004751269239932299, -0.2469344437122345], [-0.23311351239681244, -0.18515802919864655, -0.23468950390815735, 0.049389030784368515, -0.09044724702835083, -0.1156078651547432, -0.1536787748336792, 0.09201490879058838, 0.09353785216808319, 0.12469177693128586, -0.2249108999967575, -0.10559669137001038, -0.15804240107536316, 0.07412518560886383, 0.027836281806230545, -0.22807618975639343, -0.09102734178304672, -0.018664781004190445, -0.1941593438386917, 0.13829416036605835], [0.23973266780376434, -0.15960507094860077, 0.23707590997219086, -0.08407305926084518, -0.029299205169081688, -0.007714520208537579, -0.14712655544281006, 0.0036532822996377945, -0.15957368910312653, -0.1334604024887085, 0.1866455376148224, -0.09578745812177658, 0.00494705094024539, -0.1362241804599762, -0.020868320018053055, 0.03018195927143097, -0.18759791553020477, -0.148617222905159, 0.022822057828307152, -0.09210207313299179], [-0.1433611810207367, 0.11356129497289658, 0.17023339867591858, -0.05489965155720711, -0.024842632934451103, 0.0712599903345108, 0.019696110859513283, 0.20844930410385132, -0.12252453714609146, -0.20086023211479187, 0.18710818886756897, -0.0015587032539770007, 0.07618656754493713, -0.0571325421333313, 0.14201763272285461, 0.15533660352230072, 0.19827446341514587, 0.10302496701478958, -0.1604294627904892, -0.06743233650922775], [-0.12862685322761536, -0.0664631724357605, -0.08673286437988281, 0.004663282074034214, 0.1372784823179245, 0.049151718616485596, 0.03336833044886589, -0.0031553362496197224, -0.020022233948111534, -0.17675316333770752, 0.1255445033311844, 0.12875846028327942, 0.21927793323993683, -0.1639440804719925, 0.18422095477581024, -0.1091579869389534, 0.09966100007295609, 0.13393090665340424, 0.21648971736431122, -0.10853876173496246], [0.23038288950920105, -0.10351874679327011, 0.07980122417211533, -0.20261619985103607, -0.21147307753562927, 0.14995884895324707, 0.18689870834350586, -0.012030147947371006, 0.07294823974370956, 0.2140846848487854, 0.098434217274189, 0.011038731783628464, 0.08958534151315689, -0.19888995587825775, 0.07566727697849274, -0.07744907587766647, -0.21042057871818542, 0.11958828568458557, 0.17363308370113373, -0.045933108776807785], [0.15056589245796204, -0.049160975962877274, 0.11320286244153976, 0.020052524283528328, -0.08068136870861053, 0.24708563089370728, -0.07322271913290024, 0.10769671201705933, 0.05394331365823746, -0.20451949536800385, -0.17116782069206238, 0.14619439840316772, -0.2422354519367218, 0.050470322370529175, 0.14804047346115112, -0.1642724573612213, 0.23028312623500824, 0.21354825794696808, -0.11444026231765747, -0.10516726225614548], [-0.14181144535541534, 0.07235757261514664, 0.13615931570529938, 0.022405998781323433, -0.19249238073825836, -0.06950421631336212, -0.18987731635570526, 0.16763430833816528, 0.014176055788993835, -0.18228432536125183, -0.13954707980155945, 0.207176074385643, 0.14447017014026642, -0.1835351288318634, 0.07878933846950531, 0.02311921864748001, -0.20742592215538025, 0.18242280185222626, -0.0519091859459877, 0.09696947038173676], [-0.09235557168722153, -0.08840826898813248, -0.13957226276397705, -0.014091248624026775, -0.10600147396326065, -0.09517279267311096, 0.04691743478178978, 0.21493588387966156, -0.012013212777674198, -0.21593855321407318, 0.12933626770973206, -0.1420522928237915, -0.16668669879436493, 0.1344393491744995, 0.0339415967464447, 0.04173555225133896, 0.04980640485882759, 0.21314145624637604, -0.13762259483337402, 0.08450833708047867]], "rec.bias_ih_l0": [0.11047195643186569, -0.24933524429798126, -0.2399997115135193, 0.15315206348896027, -0.08826661109924316, -0.06718128174543381, 0.16499128937721252, 0.04105250537395477, -0.13944083452224731, 0.15676498413085938, -0.11687898635864258, -0.24990122020244598, -0.17537319660186768, 0.11158553510904312, 0.16909030079841614, 0.04603796824812889, -0.0007272870861925185, 0.14148642122745514, 0.1557082086801529, 0.07815542817115784, -0.07993867248296738, 0.14435821771621704, -0.25890088081359863, 0.017951911315321922, -0.22056415677070618, -0.11939675360918045, -0.11052951216697693, -0.169973686337471, -0.16211582720279694, 0.13902594149112701, -0.23277930915355682, -0.13919277489185333, -0.2193698287010193, -0.1758842170238495, -0.08383413404226303, 0.07507655024528503, -0.0077910819090902805, 0.04530937224626541, 0.17319054901599884, 0.06236550211906433, -0.013427119702100754, 0.1534867286682129, -0.022336695343255997, 0.09003406018018723, -0.1593589186668396, -0.04968658462166786, 0.20523680746555328, 0.10408174246549606, 0.14533942937850952, 0.21385306119918823, 0.0989009439945221, 0.18747983872890472, -0.10962679982185364, 0.2255522608757019, -0.24020534753799438, 0.06782227009534836, 0.12491157650947571, 0.062050070613622665, -0.023353336378932, -0.03429640457034111, -0.0058243549428880215, -0.1513865441083908, -0.003989004530012608, 0.005922199692577124, 0.13214288651943207, -0.02442121133208275, 0.06532877683639526, -0.21163032948970795, 0.13251571357250214, -0.03153429180383682, -0.14685483276844025, 0.07023639976978302, 0.16779135167598724, -0.18479324877262115, -0.12242645025253296, 0.09621560573577881, 0.11080286651849747, -0.14468468725681305, -0.0007272003567777574, -0.0427083820104599], "rec.bias_hh_l0": [-0.037769168615341187, 0.029358167201280594, -0.19253015518188477, 0.1921241283416748, 0.12918825447559357, -0.016772963106632233, -0.08274964988231659, -0.10302689671516418, 0.16921953856945038, -0.1181991696357727, -0.11864146590232849, -0.05636601150035858, 0.03488973155617714, -0.203396737575531, -0.0955827459692955, 0.12214523553848267, -0.13535138964653015, -0.20671974122524261, -0.19827739894390106, -0.15035845339298248, 0.051864124834537506, 0.13664816319942474, -0.19698169827461243, -0.0012618667678907514, -0.2076871544122696, 0.13556355237960815, 0.14873787760734558, -0.19139160215854645, 0.04947507008910179, -0.05600566416978836, -0.1616714894771576, -0.18457551300525665, -0.10250136256217957, 0.033873021602630615, 0.1399805098772049, 0.003290708176791668, 0.0836896225810051, -0.12655678391456604, 0.210789754986763, 0.013271464966237545, 0.015756193548440933, 0.1512804627418518, 0.07054898142814636, -0.18015116453170776, 0.09648124873638153, -0.24961325526237488, -0.13623735308647156, 0.0603882260620594, -0.24950434267520905, 0.16186904907226562, 0.060574062168598175, -0.13836079835891724, 0.15126554667949677, -0.11705619096755981, -0.035419199615716934, 0.24805410206317902, -0.140769824385643, -0.07782851159572601, 0.19162656366825104, 0.16240593791007996, -0.03618237376213074, -0.1614561229944229, 0.06375052779912949, -0.1991259604692459, 0.10854697972536087, 0.20650601387023926, -0.20233812928199768, -0.21398432552814484, 0.18338176608085632, -0.12207071483135223, -0.123841293156147, -0.008639462292194366, -0.012478222139179707, 0.07264656573534012, -0.16129270195960999, -0.1387385129928589, -0.06610091775655746, 0.09985817968845367, -0.11851869523525238, -0.04655029997229576], "lin.weight": [[0.1230890229344368, 0.08418910205364227, -0.06830926239490509, 0.15576356649398804, 0.05508418753743172, 0.1646237075328827, -0.024412980303168297, -0.0002327018155483529, 0.17465735971927643, -0.11107659339904785, 0.17013037204742432, 0.1658523678779602, 0.06808662414550781, -0.03409731015563011, 0.06471452116966248, -0.14351749420166016, 0.22698767483234406, 0.018771352246403694, -0.19192850589752197, -0.13452637195587158]], "lin.bias": [0.1479877084493637]}}