{"model_data": {"model": "SimpleRNN", "input_size": 1, "skip": 1, "output_size": 1, "unit_type": "LSTM", "num_layers": 1, "hidden_size": 20, "bias_fl": true}, "state_dict": {"rec.weight_ih_l0": [[-0.02749861218035221], [-0.3751424551010132], [-0.29474687576293945], [-0.20551736652851105], [-0.6553913354873657], [0.014900998212397099], [-0.0959225594997406], [-0.7232546806335449], [-0.38006067276000977], [-0.07956527918577194], [0.2063622921705246], [-0.0809050053358078], [-0.2769356966018677], [-0.1778443157672882], [0.2553313970565796], [-1.1174992322921753], [-0.5567587018013], [-0.29331257939338684], [-0.23403869569301605], [-0.3009051978588104], [0.04637746512889862], [-0.6712831854820251], [-0.28365474939346313], [-0.17570127546787262], [-0.6090118885040283], [0.013864616863429546], [-0.20380212366580963], [-0.481769859790802], [-0.1823449432849884], [-0.03210708871483803], [0.10487573593854904], [-0.36755606532096863], [-0.3500462770462036], [-0.3551624119281769], [0.2687562108039856], [-1.1601245403289795], [-0.5158231854438782], [-0.5781915187835693], [-0.43401622772216797], [-0.3879685699939728], [0.5761427879333496], [-0.35695698857307434], [-0.4176385700702667], [0.23559647798538208], [0.40657761693000793], [-0.04526802524924278], [0.04483822360634804], [-0.5247491598129272], [-0.3247144818305969], [0.6115904450416565], [-0.07346902042627335], [-0.6009274125099182], [0.42142027616500854], [0.2534346878528595], [0.495911568403244], [0.9830346703529358], [0.843976616859436], [0.47398823499679565], [-0.24871203303337097], [-0.5139339566230774], [-0.017992643639445305], [-0.3642136752605438], [-0.397222101688385], [-0.42705976963043213], [-0.6796513795852661], [0.06216266751289368], [-0.006322955247014761], [-0.5595043897628784], [-0.3966324031352997], [-0.0804239884018898], [0.5036349296569824], [-0.24708305299282074], [-0.41826358437538147], [-0.3101304769515991], [0.3323257863521576], [-1.1292665004730225], [-0.5512357354164124], [-0.5057368874549866], [-0.13814325630664825], [-0.4763861298561096]], "rec.weight_hh_l0": [[-0.05483860895037651, 0.3099856972694397, -0.018018269911408424, 0.006682198494672775, -0.057003624737262726, -0.03537622466683388, -0.15892688930034637, 0.057937975972890854, -0.04875243827700615, -0.00649637496098876, 0.022080417722463608, -0.04196187108755112, 0.10124035179615021, -0.15369310975074768, -0.26153481006622314, -0.24361447989940643, -0.2341335415840149, 0.0017901440151035786, -0.04226388782262802, -0.0370972566306591], [-0.15093502402305603, 0.16515560448169708, 0.022320983931422234, -0.1172010600566864, 0.09571832418441772, -0.005094762425869703, -0.09547335654497147, -0.08648496866226196, -0.07711316645145416, -0.022097382694482803, -0.25401005148887634, -0.21014291048049927, -0.12732474505901337, 0.19424974918365479, 0.04167614132165909, -0.2683858275413513, -0.21499590575695038, -0.04340941458940506, 0.0009678147034719586, 0.017035676166415215], [-0.04690328240394592, 0.29870063066482544, 0.05028625577688217, -0.09769335389137268, -0.0694945678114891, 0.0077965701930224895, -0.10950354486703873, 0.06266133487224579, -0.09006522595882416, -0.20602832734584808, -0.09525413811206818, -0.20089560747146606, -0.03167618438601494, -0.08390755206346512, -0.23029735684394836, -0.23977825045585632, -0.21319255232810974, -0.12732785940170288, 0.18813267350196838, 0.009130468592047691], [-0.07845283299684525, -0.11930188536643982, 0.07027431577444077, 0.004443520680069923, -0.04500475898385048, 0.13470599055290222, 0.21631738543510437, -0.1809537410736084, -0.08258961886167526, -0.10044047981500626, -0.15767763555049896, -0.07459671795368195, 0.20282310247421265, 0.0019101661164313555, -0.15851837396621704, 0.17029491066932678, 0.10794192552566528, -0.1715373396873474, -0.10307696461677551, 0.15748532116413116], [0.23589971661567688, -0.13988621532917023, -0.005496966186910868, -0.09669915586709976, -0.07309971749782562, 0.031302694231271744, 0.1233617514371872, 0.06755340844392776, 0.10206426680088043, 0.11451543867588043, -0.03425336629152298, -0.01695864088833332, -0.14867481589317322, -0.10715213418006897, -0.1364070028066635, 0.13812117278575897, 0.13287945091724396, -0.10713308304548264, -0.06597025692462921, 0.0977141335606575], [-0.1307901293039322, -0.032845839858055115, -0.018027061596512794, -0.07431727647781372, -0.13605958223342896, -0.025001291185617447, 0.024785974994301796, 0.12804144620895386, -0.05495098605751991, -0.1621575653553009, -0.017421819269657135, -0.11899007111787796, 0.029224617406725883, 0.18937943875789642, -0.011996952816843987, -0.07087505608797073, -0.19761775434017181, 0.17535951733589172, 0.014056849293410778, 0.07309142500162125], [0.08111663162708282, -0.158780038356781, -0.01145632192492485, 0.06525392830371857, 0.1276082694530487, -0.1354258507490158, -0.12727665901184082, -0.004364395514130592, -0.16038943827152252, -0.019927173852920532, 0.016468994319438934, -0.1454739272594452, -0.017070531845092773, 0.1611374169588089, -0.04533066973090172, -0.07809789478778839, 0.03938204422593117, 0.192348912358284, 0.12762121856212616, 0.15910929441452026], [0.023342175409197807, 0.05311937630176544, 0.05834253132343292, 0.029438767582178116, -0.09801903367042542, 0.014704813249409199, -0.1792100965976715, -0.10971847921609879, 0.11132041364908218, -0.1696319282054901, -0.11126858741044998, 0.05199359357357025, 0.04736193269491196, 0.18927256762981415, -0.13744370639324188, -0.3037984371185303, -0.12166371196508408, -0.007279940415173769, -0.036698419600725174, -0.16807079315185547], [-0.0006777983508072793, 0.049744077026844025, -0.08495192229747772, 0.005687693599611521, -0.1132454201579094, 0.011299590580165386, 0.11997871845960617, -0.21424557268619537, 0.08476658910512924, -0.10898739844560623, 0.11235353350639343, -0.0493837334215641, -0.09163292497396469, 0.13532216846942902, -0.15540629625320435, -0.34710565209388733, -0.14170239865779877, -0.05265834182500839, 0.05479968711733818, 0.10381151735782623], [0.0006273348699323833, 0.11121140420436859, -0.06285961717367172, -0.12361421436071396, 0.10819515585899353, 0.1393601894378662, 0.09295852482318878, -0.057009629905223846, 0.022133395075798035, -0.16400769352912903, 0.0657072439789772, -0.16191498935222626, 0.05080614611506462, 0.2052956074476242, -0.03482206165790558, -0.2231658548116684, 0.03273041918873787, -0.11223958432674408, -0.08809787780046463, 0.08136197924613953], [-0.19247056543827057, 0.21534037590026855, -0.13407522439956665, 0.022904204204678535, 0.17492040991783142, -0.12225405126810074, -0.07671249657869339, -0.21711672842502594, 0.027945226058363914, 0.07491902261972427, -0.0529467836022377, -0.29575663805007935, 0.13153143227100372, 0.09243355691432953, -0.16169671714305878, -0.16125375032424927, -0.009553740732371807, 0.2667909860610962, -0.028469787910580635, -0.2168787717819214], [-0.09237465262413025, 0.12383919209241867, 0.19504067301750183, 0.08213239163160324, 0.1138651967048645, 0.04760346934199333, 0.04669845476746559, 0.2069750279188156, 0.07548248022794724, 0.023194069042801857, -0.20132564008235931, -0.07828323543071747, -0.10837765038013458, -0.1855550855398178, 0.1487673968076706, -0.3119831085205078, 0.12203492224216461, -0.2725074589252472, -0.07762628048658371, 0.015978295356035233], [-0.02469276264309883, 0.04364221543073654, -0.011531646363437176, -0.1229742169380188, -0.09064510464668274, 0.09314218163490295, -0.1749815195798874, -0.07434443384408951, -0.100054070353508, -0.039689380675554276, -0.1258145421743393, -0.0011219846783205867, 0.13520807027816772, 0.09011008590459824, -0.1419955939054489, -0.3188469707965851, -0.17615124583244324, -0.1316889524459839, 0.08643481880426407, -0.0013058983022347093], [0.12369503825902939, -0.12673312425613403, 0.0702582523226738, -0.10883931815624237, -0.034455347806215286, 0.04646597430109978, -0.03499595448374748, -0.038389381021261215, -0.056584179401397705, 0.09327831864356995, -0.13516470789909363, -0.11738231778144836, -0.13482911884784698, -0.06515605747699738, 0.1541738212108612, -0.24973632395267487, -0.1122962161898613, 0.14131711423397064, 0.10506828129291534, 0.0735197365283966], [-0.12666745483875275, -0.10227814316749573, -0.01993212103843689, 0.10387612134218216, -0.15786907076835632, 0.13180461525917053, -0.12915319204330444, 0.07189824432134628, -0.10365033894777298, 0.1121969074010849, -0.10064172744750977, -0.08100925385951996, 0.12909317016601562, 0.16320155560970306, -0.08445470780134201, 0.0490201935172081, 0.2025880366563797, 0.19624388217926025, -0.09854703396558762, 0.0002712893474381417], [-0.13282620906829834, 0.3930439054965973, 0.0971473902463913, -0.22160175442695618, -0.4491264820098877, -0.06671777367591858, -0.24642875790596008, 0.32337862253189087, 0.18556374311447144, -0.43862661719322205, -0.40326178073883057, 0.1865559220314026, -0.03600608929991722, -0.15418678522109985, -0.14704734086990356, -0.633513331413269, -0.6278210282325745, -0.37529823184013367, 0.2126464694738388, 0.3544836640357971], [-0.08250324428081512, 0.4792894721031189, -0.0042803636752069, 0.10133638978004456, -0.09485933929681778, 0.12747035920619965, 0.07263411581516266, 0.04896479472517967, 0.21648630499839783, 0.006583964452147484, -0.2755418121814728, -0.1489243507385254, -0.1541927307844162, 0.13460125029087067, -0.17045177519321442, -0.8599385619163513, -0.163650780916214, 0.03757390379905701, -0.07153031975030899, 0.27606841921806335], [-0.07091142237186432, -0.002764594042673707, 0.0828952044248581, -0.08427198231220245, -0.2006654292345047, -0.13444502651691437, -0.17885252833366394, -0.19672781229019165, -0.09496650844812393, 0.24727573990821838, 0.11715362966060638, 0.1945052444934845, -0.053445618599653244, -0.07110413908958435, 0.26667022705078125, -0.06748395413160324, -0.020690038800239563, -0.07350710034370422, 0.07820408046245575, 0.12899059057235718], [0.13096027076244354, -0.01793159544467926, -0.20123861730098724, -0.13035748898983002, 0.04201513156294823, -0.013903604820370674, -0.09744329005479813, -0.08753965049982071, -0.18288007378578186, 0.14378219842910767, -0.12850138545036316, -0.1549682319164276, -0.09277945011854172, -0.06554679572582245, -0.09843022376298904, -0.11837037652730942, 0.11689144372940063, 0.0674688071012497, -0.03546702861785889, -0.10435985028743744], [0.06791149079799652, -0.052667368203401566, -0.17443646490573883, 0.12958434224128723, -0.07876729220151901, 0.06015924736857414, -0.05465955659747124, 0.20889468491077423, -0.1049940288066864, -0.048548903316259384, -0.014941675588488579, 0.13066360354423523, -0.012092778459191322, 0.13399240374565125, -0.1370054930448532, -0.05606709420681, -0.13698424398899078, 0.1441393494606018, 0.13831064105033875, 0.1381405144929886], [-0.10496429353952408, 0.18512322008609772, -0.09015198051929474, 0.19558273255825043, -0.15299564599990845, -0.15399959683418274, 0.0696973130106926, -0.05061674118041992, -0.13679246604442596, -0.12046553194522858, -0.247634619474411, -0.12163128703832626, 0.09229470789432526, 0.05700286850333214, 0.05580215901136398, -0.07529520243406296, -0.025627456605434418, -0.1701483130455017, 0.047032732516527176, -0.06013941764831543], [0.0014798237243667245, 0.29167744517326355, -0.22614850103855133, -0.21398410201072693, 0.02360786870121956, 0.020703885704278946, 0.024694770574569702, -0.017807530239224434, -0.06129148229956627, -0.15742994844913483, -0.35102659463882446, -0.10498041659593582, 0.18047252297401428, 0.017770884558558464, -0.26759323477745056, -0.33684712648391724, -0.06446003168821335, 0.15105107426643372, 0.04714703559875488, 0.08802374452352524], [-0.1883668601512909, 0.2261848896741867, -0.08185989409685135, 0.11465907096862793, -0.07669966667890549, 0.14994560182094574, 0.05075005069375038, 0.062012068927288055, -0.12276339530944824, -0.11090276390314102, -0.08356750756502151, -0.07889070361852646, 0.08030739426612854, 0.1029786542057991, -0.13246281445026398, -0.08268836885690689, -0.07149854302406311, 0.16307678818702698, -0.09432636946439743, 0.13146406412124634], [-0.012190590612590313, -0.17583991587162018, 0.1419294774532318, -0.004259519279003143, -0.045898403972387314, 0.016887135803699493, -0.08224835991859436, -0.19912020862102509, -0.18799321353435516, 0.029621459543704987, -0.1266717165708542, -0.06261304765939713, -0.0320659801363945, 0.09024743735790253, 0.008640028536319733, 0.20919251441955566, 0.12081855535507202, 0.056363701820373535, 0.07970109581947327, -0.06251928210258484], [-0.11509627848863602, 0.08951815217733383, 0.2140936702489853, -0.18636387586593628, -0.015801142901182175, 0.2139737457036972, 0.07295431941747665, 0.16936850547790527, 0.14940188825130463, -0.09633664786815643, 0.04093027114868164, 0.022730357944965363, 0.162540003657341, 0.19814546406269073, 0.055417098104953766, -0.08926627039909363, 0.19991569221019745, -0.19420616328716278, 0.09086203575134277, 0.20162160694599152], [-0.13835936784744263, 0.0749795213341713, -0.011714877560734749, -0.0789513885974884, -0.07806128263473511, -0.011238674633204937, 0.1353669911623001, -0.03476911410689354, 0.07410793751478195, 0.07400459796190262, 0.09122969210147858, -0.0023096450604498386, 0.18953895568847656, 0.22387950122356415, -0.08325640857219696, -0.07842928171157837, -0.17476461827754974, -0.09309215098619461, -0.1793699413537979, -0.10459259152412415], [0.13065789639949799, 0.1628439873456955, -0.048229631036520004, 0.029030555859208107, 0.211043119430542, 0.15571103990077972, -0.02095157653093338, 0.03915449604392052, 0.010867992416024208, -0.18189425766468048, -0.1398857980966568, 0.06663767993450165, -0.05305582284927368, 0.15056395530700684, 0.12071164697408676, -0.056932948529720306, -0.12466233223676682, -0.037998996675014496, -0.04032815247774124, 0.14203517138957977], [-0.06963631510734558, 0.14979219436645508, -0.09616009145975113, -0.10529046505689621, -0.06142185255885124, 0.2089885175228119, 0.16072100400924683, -0.11512749642133713, -0.20999225974082947, -0.10865841805934906, -0.07689777761697769, 0.23087866604328156, 0.14213064312934875, -0.204001784324646, -0.16270600259304047, -0.29904934763908386, -0.12420101463794708, -0.11047834903001785, -0.07641209661960602, -0.054213982075452805], [-0.06734482944011688, 0.030534639954566956, -0.01040667574852705, 0.10059268772602081, -0.13783693313598633, -0.1481252759695053, 0.10348597913980484, -0.24595387279987335, -0.015745727345347404, -0.18289139866828918, 0.012205366045236588, 0.09067416936159134, -0.04587063565850258, 0.10627783834934235, -0.1262323558330536, -0.14858229458332062, -0.17943036556243896, 0.03747143968939781, -0.11408918350934982, -0.018259767442941666], [0.07298603653907776, 0.16834183037281036, -0.09526532143354416, -0.026174185797572136, -0.018903696909546852, 0.07608266919851303, -0.13533326983451843, 0.08976919949054718, 0.09281139075756073, -0.05469953268766403, -0.1533822864294052, -0.10993162542581558, 0.1398807168006897, -0.14440129697322845, 0.06900939345359802, -0.26718148589134216, -0.09380274266004562, 0.2119176983833313, 0.0017783900257200003, 0.06437986344099045], [0.05781884118914604, 0.37770843505859375, -0.22447384893894196, -0.15429069101810455, 0.13643771409988403, -0.0743156224489212, -0.10131356120109558, -0.23745018243789673, -0.1053396612405777, 0.07338889688253403, -0.24651573598384857, -0.23741687834262848, 0.06450111418962479, 0.20177748799324036, -0.28294774889945984, -0.35253188014030457, -0.014467312954366207, 0.0989953950047493, -0.049455638974905014, -0.08406339585781097], [-0.09480386972427368, 0.19312433898448944, -0.03178296983242035, 0.07259491086006165, -0.09473530948162079, 0.09856031090021133, -0.2239234745502472, -0.07869590073823929, -0.0999004915356636, 0.05522608011960983, -0.34709978103637695, -0.09177679568529129, 0.25224632024765015, -0.05993618816137314, 0.15831661224365234, -0.14024938642978668, 0.08965813368558884, -0.27896949648857117, -0.10664688050746918, 0.06177448481321335], [-0.16675250232219696, -0.015625420957803726, -0.123825803399086, -0.1037953570485115, 0.10664825141429901, 0.10234476625919342, 0.055609479546546936, -0.12300147861242294, -0.13295768201351166, -0.2165382355451584, -0.20639261603355408, -0.03036649338901043, 0.11146372556686401, 0.06610708683729172, -0.1867872029542923, -0.29776716232299805, -0.22814351320266724, -0.16373077034950256, 0.015822555869817734, 0.020214075222611427], [-0.1545635163784027, -0.11828333139419556, -0.01857229694724083, 0.03290187567472458, -0.2253255546092987, -0.00810420885682106, -0.2154620885848999, -0.17914263904094696, 0.0004793800471816212, -0.1239531859755516, 0.02824288047850132, 0.17111676931381226, 0.1618112176656723, -0.040523137897253036, 0.062044743448495865, 0.024708474054932594, 0.006241321563720703, 0.03361034765839577, -0.027184952050447464, 0.18782548606395721], [0.09963533282279968, 0.19859357178211212, -0.0026642095763236284, -0.1101824939250946, 0.16232401132583618, -0.20589393377304077, 0.02520395815372467, -0.2116594910621643, -0.0683719590306282, -0.016130095347762108, -0.02718224935233593, 0.14732706546783447, -0.14470812678337097, -0.10822933912277222, -0.060464467853307724, -0.07890532165765762, 0.11187633126974106, 0.1507350653409958, 0.12192925065755844, -0.10782578587532043], [-0.023469647392630577, 0.07913333177566528, 0.019217807799577713, -0.17736952006816864, -0.020218992605805397, 0.11116526275873184, -0.1470455676317215, 0.2660156190395355, 0.13241809606552124, -0.07105343788862228, -0.07717791199684143, 0.2901868522167206, 0.09860938042402267, -0.13867934048175812, -0.14267931878566742, -0.42183974385261536, -0.14417462050914764, -0.08575593680143356, 0.008996345102787018, 0.08659015595912933], [-0.05165543779730797, 0.2132752537727356, 0.1492389291524887, 0.09707258641719818, 0.01627616211771965, -0.2308824062347412, 0.16986361145973206, 0.0383453294634819, 0.17384545505046844, 0.13644784688949585, 0.0670085921883583, 0.14363251626491547, -0.024683011695742607, -0.1199488416314125, 0.09644655883312225, -0.24679777026176453, 0.005126722622662783, 0.17817693948745728, 0.014650598168373108, 7.097467459971085e-05], [-0.035563480108976364, -0.2577548027038574, -0.13150152564048767, -0.19711366295814514, -0.22142475843429565, -0.17707045376300812, -0.1779349446296692, -0.1623370200395584, -0.14278918504714966, 0.08023088425397873, -0.02218133583664894, 0.09334663301706314, -0.05934269726276398, -0.09508323669433594, 0.21717163920402527, 0.08351210504770279, 0.18706190586090088, -0.2217731922864914, -0.21415694057941437, -0.02138916775584221], [0.17723289132118225, -0.024616340175271034, -0.08807075023651123, 0.12258055806159973, 0.037857621908187866, -0.011308257468044758, 0.18259912729263306, -0.1334201693534851, -0.14105486869812012, 0.04950198531150818, 0.0949396938085556, 0.02213083952665329, 0.10816748440265656, 0.2224234789609909, -0.05091410502791405, 0.15799975395202637, 0.1163012832403183, -0.025172272697091103, 0.13479512929916382, 0.10156263411045074], [-0.0013581461971625686, 0.04621439054608345, -0.06331076472997665, -0.1230098307132721, -0.1776246279478073, -0.06062866747379303, -0.08528870344161987, 0.17081089317798615, 0.03521445021033287, 0.1525622308254242, 0.19613993167877197, -0.024062907323241234, -0.05632752552628517, -0.04754882678389549, -0.16928862035274506, 0.04022454470396042, -0.16255100071430206, 0.016426263377070427, 0.07976414263248444, -0.18079276382923126], [-0.16335377097129822, 0.19821828603744507, -0.21014785766601562, 0.059055354446172714, -0.13036981225013733, 0.11327429860830307, 0.1274123638868332, -0.032513417303562164, -0.13318587839603424, -0.07062260061502457, 0.013449251651763916, -0.29810360074043274, -0.03885485976934433, -0.10028179734945297, 0.138294979929924, 0.3902061879634857, -0.08635921031236649, 0.08631759136915207, -0.10016040503978729, -0.1930363029241562], [-0.022519178688526154, 0.26147907972335815, 0.18516936898231506, -0.15462833642959595, -0.21115964651107788, 0.15169423818588257, 0.0892520323395729, 0.0929717868566513, -0.15257030725479126, -0.05950354039669037, -0.025904301553964615, -0.22419096529483795, 0.03963661193847656, 0.10540177673101425, -0.2018975019454956, -0.2159530073404312, -0.0014416839694604278, 0.11176357418298721, 0.1686621457338333, 0.03817296028137207], [0.11261551082134247, -0.23937009274959564, -0.10106255114078522, -0.1651059091091156, 0.08190932124853134, 0.15082067251205444, 0.17765210568904877, -0.18018952012062073, 0.10460906475782394, 0.25328055024147034, 0.12204482406377792, 0.27394619584083557, -0.17149710655212402, 0.12088310718536377, -0.06053929403424263, -0.15703392028808594, -0.005810550879687071, 0.09730246663093567, 0.17686451971530914, 0.16447295248508453], [-0.2530938386917114, -0.0004330333904363215, 0.064847931265831, -0.07368747889995575, -0.08949267864227295, -0.12539514899253845, -0.007047722581773996, -0.049018703401088715, 0.09860861301422119, -0.2639220058917999, 0.034151796251535416, 0.19597113132476807, 0.0958104357123375, -0.20361152291297913, 0.18855929374694824, 0.11254007369279861, -0.161502867937088, 0.09591776877641678, -0.03854062035679817, 0.02111487276852131], [-0.12915536761283875, 0.015765337273478508, -0.14869245886802673, 0.0408286452293396, -0.002374346135184169, 0.04582524672150612, -0.0286200363188982, 0.1524880826473236, -0.15505202114582062, -0.09862415492534637, -0.02478478103876114, -0.08702708035707474, -0.11350183933973312, -0.04828059300780296, -0.07749874144792557, -0.12705564498901367, -0.1913665235042572, 0.22338448464870453, 0.0745491236448288, -0.03283409774303436], [-0.052137475460767746, -0.016113873571157455, -0.17037709057331085, -0.09867934137582779, -0.03805415704846382, -0.05333789810538292, -0.03619962930679321, -0.1840493381023407, 0.18261143565177917, 0.039443373680114746, -0.12186233699321747, -0.15983954071998596, 0.011823796667158604, -0.03104133903980255, 0.05006418749690056, 0.20847204327583313, -0.050417378544807434, 0.18250249326229095, 0.05994659289717674, -0.09055614471435547], [0.19781701266765594, -0.03180664777755737, 0.027716612443327904, -0.04195615276694298, -0.21737632155418396, -0.0606599785387516, 0.03890807554125786, -0.13547654449939728, 0.1311403214931488, -0.17500098049640656, 0.08653802424669266, 0.12708432972431183, 0.14339500665664673, -0.04653015360236168, 0.12617704272270203, 0.023800857365131378, 0.09885837137699127, -0.12649500370025635, 0.08589570224285126, -0.12207092344760895], [0.17782825231552124, -0.18188871443271637, 0.06627961248159409, -0.12279737740755081, -0.09363865852355957, -0.08930087834596634, 0.13024015724658966, -0.06734941899776459, 0.030093766748905182, -0.046121545135974884, 0.2669109106063843, 0.18350517749786377, 0.15570960938930511, 0.1883721798658371, 0.1442875862121582, 0.0022900749463588, -0.058084726333618164, -0.1395537406206131, 0.144839808344841, -0.08952105790376663], [-0.12713876366615295, -0.09487433731555939, -0.09906862676143646, 0.08925387263298035, 0.06670556217432022, -0.05120525136590004, -0.11653123795986176, 0.21784661710262299, 0.02286810427904129, -0.022912785410881042, -0.04477767273783684, 0.1353866457939148, -0.157952681183815, -0.10527051240205765, 0.25113609433174133, -0.12623272836208344, -0.0591873861849308, 0.03822576254606247, -0.11671621352434158, 0.038123082369565964], [0.026001717895269394, -0.22490635514259338, 0.029532896354794502, 0.34250980615615845, 0.27306365966796875, 0.0238653514534235, 0.005853845272213221, 0.09366440027952194, 0.022466475144028664, 0.12034133076667786, 0.009863613173365593, -0.020157648250460625, -0.1273849457502365, 0.12618058919906616, -0.1415962427854538, 0.45887231826782227, 0.11378047615289688, 0.043428316712379456, -0.06453544646501541, -0.22683164477348328], [0.021281985566020012, -0.2095051258802414, -0.06937162578105927, 0.06742537021636963, -0.10601483285427094, -0.2440321296453476, 0.1675088107585907, -0.03514676168560982, 0.21059280633926392, 0.04190398007631302, 0.09271000325679779, -0.021542483940720558, 0.041689448058605194, -0.14420568943023682, 0.08531183749437332, 0.3079838454723358, -0.03194330260157585, 0.2453993856906891, -0.19184419512748718, 0.10703419148921967], [0.1308356523513794, -0.23078703880310059, 0.12788338959217072, -0.06789562851190567, -0.13103407621383667, -0.16791224479675293, -0.08404677361249924, -0.05192597955465317, 0.016612114384770393, 0.24121268093585968, 0.10073041915893555, 0.15669375658035278, 0.17402546107769012, -0.12591084837913513, 0.2682842016220093, 0.19196031987667084, 0.15310849249362946, 0.025081222876906395, 0.0034808162599802017, -0.10936327278614044], [0.14402982592582703, 0.25737249851226807, 0.034242045134305954, 0.028579043224453926, 0.02926476299762726, -0.20582306385040283, 0.029211807996034622, -0.05991353094577789, -0.06835667788982391, 0.06751474738121033, -0.32452136278152466, -0.2690390646457672, -0.17832040786743164, -0.020549437031149864, 0.044345058500766754, -0.16160763800144196, -0.06475553661584854, 0.12756845355033875, 0.11614971607923508, 0.2088850885629654], [0.18110942840576172, 0.09188397973775864, -0.02160416543483734, -0.11289423704147339, -0.0794113352894783, -0.06736692786216736, -0.03991338610649109, 0.10861136764287949, 0.18470636010169983, -0.11210771650075912, -0.08226267248392105, -0.2820097804069519, 0.15871025621891022, 0.23797591030597687, -0.266412615776062, -0.16615399718284607, -0.2338409572839737, 0.2239381968975067, 0.03741851821541786, -0.017957111820578575], [-0.04893368110060692, -0.5500938892364502, -0.16152752935886383, 0.19622787833213806, 0.14467652142047882, 0.12680767476558685, -0.036385394632816315, -0.24576237797737122, -0.026487817987799644, 0.14232051372528076, 0.11145153641700745, 0.1636904776096344, -0.1512811779975891, -0.030549656599760056, 0.03957603499293327, 0.23800355195999146, -0.06380247324705124, 0.2196018397808075, -0.20211736857891083, -0.29474708437919617], [-0.1160387322306633, 0.018620947375893593, 0.2017301470041275, 0.068633534014225, -0.14738613367080688, -0.026738345623016357, 0.08271674066781998, -0.12305284291505814, -0.009665340185165405, 0.06448816508054733, 0.09239847958087921, 0.0775580108165741, 0.004179972689598799, -0.20740844309329987, -0.029424788430333138, 0.1842704713344574, 0.09799793362617493, 0.22050848603248596, -0.07245394587516785, 0.11861695349216461], [-0.18214227259159088, -0.2566906213760376, -0.28373289108276367, 0.23322831094264984, 0.26903384923934937, 0.023502502590417862, -0.13270758092403412, 0.09737098962068558, 0.1939558982849121, -0.08054637908935547, -0.21582266688346863, -0.0892656072974205, 0.044262900948524475, 0.008811133913695812, 0.026725605130195618, 0.20056524872779846, -0.2162678837776184, -0.0943765938282013, -0.1408620923757553, -0.1337670534849167], [-0.1769479215145111, 0.19457067549228668, 0.11706270277500153, 0.017481617629528046, 0.14764326810836792, -0.1307659149169922, 0.04762686416506767, 0.04160638153553009, -0.09639478474855423, 0.021580038592219353, 0.04597748816013336, -0.24552293121814728, -0.12211539596319199, 0.0037475370336323977, -0.14295995235443115, 0.03353692218661308, -0.1357572078704834, 0.21607008576393127, -0.1321185976266861, -0.06577213853597641], [-0.16206718981266022, -0.024285076186060905, -0.04927811026573181, 0.02175390161573887, 0.015270331874489784, 0.0010059622582048178, -0.08478192985057831, -0.04654484987258911, -0.20798838138580322, 0.23435358703136444, 0.15474185347557068, -0.21216997504234314, 0.12623010575771332, -0.07697740942239761, 0.02086351253092289, 0.2655268907546997, -0.030037084594368935, 0.001218128832988441, -0.06032223999500275, -0.05913124233484268], [-0.19820527732372284, -0.18175725638866425, 0.1463119387626648, 0.00445130467414856, -0.20457065105438232, 0.08897079527378082, -0.18105998635292053, -0.06449595838785172, 0.0180982518941164, -0.17027592658996582, -0.2251499593257904, 0.10146265476942062, -0.06083692982792854, -0.16743949055671692, 0.0308446753770113, 0.14731355011463165, -0.0674324631690979, -0.1591453105211258, -0.06299019604921341, 0.11584717780351639], [-0.17906934022903442, 0.2712790369987488, -0.02782357484102249, -0.0843399316072464, -0.001947630662471056, -0.18433824181556702, -0.15636791288852692, 0.0874253585934639, 0.1578739881515503, -0.2351023256778717, 0.018879059702157974, -0.1681036502122879, 0.22331371903419495, -0.08352954685688019, -0.03570828214287758, -0.2787048816680908, -0.10026219487190247, -0.1375821828842163, -0.22157569229602814, 0.11938551813364029], [-0.11225945502519608, 0.3046216666698456, -0.024333037436008453, -0.06430411338806152, -0.08811841905117035, 0.15396049618721008, 0.05452409386634827, 0.004354000091552734, -0.022571073845028877, 0.033511605113744736, -0.0892452672123909, 0.18812215328216553, -0.18030674755573273, 0.11940669268369675, -0.09729588776826859, -0.4899885058403015, -0.19819919764995575, -0.16571976244449615, 0.008976729586720467, -0.004631405230611563], [-0.09038230031728745, 0.10735893994569778, -0.07396776974201202, -0.012092310935258865, -0.25455063581466675, 0.12458125501871109, 0.0072040855884552, 0.0911695659160614, 0.11028831452131271, -0.2333575189113617, -0.15834201872348785, -0.283663272857666, 0.13328160345554352, 0.0338766947388649, -0.00970844179391861, -0.4738982915878296, 0.020237978547811508, 0.11604750901460648, -0.1343393474817276, 0.10375244915485382], [-0.1169230043888092, -0.08722633123397827, -0.12787063419818878, -0.13653555512428284, -0.020227894186973572, -0.0407891608774662, 0.18332557380199432, -0.1480642557144165, 0.03286006301641464, 0.055430203676223755, 0.04565273970365524, 0.11960891634225845, 0.10443676263093948, 0.03174200281500816, -0.1946890652179718, 0.04127896949648857, -0.04885182902216911, 0.019424472004175186, -0.05086587741971016, -0.12654337286949158], [0.17819298803806305, -0.019608205184340477, 0.20898431539535522, 0.11736317723989487, -0.03295481577515602, 0.1477050930261612, 0.11906172335147858, -0.09904947131872177, -0.010255706496536732, 0.09583612531423569, 0.09400833398103714, 0.20160599052906036, -0.20620213449001312, -0.1690034568309784, 0.1290355920791626, -0.39606407284736633, 0.03299733251333237, -0.17620441317558289, -0.026041528210043907, 0.07325270771980286], [0.12588337063789368, -0.00044090606388635933, -0.028850238770246506, -0.016125354915857315, 0.18116585910320282, -0.0029521698597818613, 0.03961138799786568, -0.1638241559267044, 0.040703993290662766, -0.1385941356420517, -0.14688654243946075, -0.14912061393260956, 0.0048512802459299564, -0.023087242618203163, -0.17273087799549103, -0.034286171197891235, -0.008804693818092346, 0.02292257733643055, 0.011269867420196533, -0.17874734103679657], [0.13174451887607574, -0.048869695514440536, -0.18863488733768463, -0.1187981367111206, -0.11953312903642654, 0.14155127108097076, 0.09156091511249542, -0.003162338864058256, -0.09913179278373718, 0.006211155094206333, -0.03508705273270607, -0.12400856614112854, -0.06741289794445038, 0.05042869970202446, 0.09532573819160461, 0.032364774495363235, -0.0036168256774544716, 0.08694645017385483, -0.0977780893445015, -0.03036784566938877], [0.018278922885656357, 0.2723449170589447, 0.058144982904195786, 0.014517842791974545, 0.08291417360305786, 0.08304943889379501, 0.016562676057219505, 0.201382115483284, -0.16454502940177917, 0.039412423968315125, 0.11046645790338516, 0.15948344767093658, -0.22466138005256653, 0.012107490561902523, 0.03396599367260933, -0.495047003030777, -0.05247282236814499, -0.1273040920495987, 0.1950000673532486, -0.12970148026943207], [-0.026287894695997238, 0.13922657072544098, -0.054904717952013016, -0.012875130400061607, 0.011592555791139603, -0.13991916179656982, 0.01489824615418911, 0.017544865608215332, 0.014417693018913269, 0.03568385913968086, -0.142842099070549, -0.0781889259815216, -0.06322664022445679, 0.1969008445739746, -0.12570486962795258, -0.2637249827384949, -0.060565974563360214, -0.06676419079303741, 0.06866515427827835, -0.022682346403598785], [-0.11375590413808823, -0.10631244629621506, 0.08171495795249939, 0.15429562330245972, -0.08447413891553879, -0.20451216399669647, 0.024556705728173256, -0.1430855542421341, 0.06521708518266678, 0.14220164716243744, -0.1036541610956192, -0.15413519740104675, 0.19973447918891907, 0.06598902493715286, -0.15420003235340118, -0.23207566142082214, 0.008167552761733532, 0.227960467338562, -0.04947515204548836, 0.028228849172592163], [-0.17671142518520355, 0.25986623764038086, -0.14111998677253723, -0.08538713306188583, -0.04079428315162659, 0.06721404194831848, -0.14723360538482666, -0.18269801139831543, 0.018317807465791702, -0.034606218338012695, -0.2647078037261963, -0.34484827518463135, 0.26515907049179077, 0.283229798078537, -0.0548294261097908, -0.23508845269680023, -0.16047902405261993, 0.003724561305716634, -0.044929977506399155, -0.06162722408771515], [0.0622856430709362, 0.04282073304057121, 0.03400718793272972, 0.07590646296739578, -0.15526533126831055, 0.007683872245252132, 0.08525820076465607, 0.20001859962940216, -0.004437563009560108, -0.05942844599485397, -0.2518026828765869, -0.24792611598968506, 0.16160374879837036, -0.13727882504463196, 0.09036966413259506, -0.3152638077735901, -0.03827314451336861, -0.11645185947418213, -0.08458810299634933, 0.1045977920293808], [0.02946937084197998, -0.059914685785770416, -0.017895007506012917, -0.15396976470947266, 0.1277499496936798, -0.1184164360165596, -0.038973528891801834, -0.1485137790441513, -0.08106887340545654, -0.16285303235054016, -0.19980278611183167, -0.2282319962978363, -0.03821403905749321, 0.08344148844480515, -0.2164185345172882, -0.07835772633552551, -0.049060940742492676, 0.1421404331922531, -0.18693995475769043, 0.17626747488975525], [-0.0603635311126709, 0.21944211423397064, 0.19718562066555023, -0.13170400261878967, -0.2120549976825714, 0.14080728590488434, -0.06352249532938004, 0.1398245245218277, 0.10644963383674622, 0.07111319154500961, 0.13916009664535522, 0.09325854480266571, 0.023273125290870667, -0.06766290217638016, -0.17511169612407684, -0.1468793898820877, -0.06294072419404984, -0.1948145031929016, 0.18807856738567352, -0.17946389317512512], [0.17969366908073425, 0.04777587577700615, -0.08005940914154053, 0.2130334973335266, 0.16484934091567993, 0.08760953694581985, -0.12974074482917786, 0.06534729897975922, -0.009520112536847591, -0.21857419610023499, -0.20310090482234955, -0.014064147137105465, 0.20060379803180695, 0.06894057244062424, 0.06452994048595428, 0.16636914014816284, -0.15091049671173096, 0.1726260930299759, -0.12743374705314636, -0.21345698833465576], [-0.4671200215816498, 0.5064608454704285, 0.4748406410217285, -0.21080705523490906, -0.48162272572517395, -0.16111497581005096, -0.08062994480133057, 0.14950788021087646, 0.330491304397583, -0.3561740517616272, -0.3541489541530609, 0.1738262176513672, -0.07918066531419754, -0.3079640865325928, -0.3504469096660614, -0.8706351518630981, -0.7976365089416504, -0.4391712248325348, 0.35733070969581604, 0.19980576634407043], [-0.10906874388456345, 0.48929017782211304, 0.20170268416404724, -0.08571594953536987, -0.008891266770660877, 0.12495654076337814, -0.1520380973815918, 0.1412551999092102, 0.11831911653280258, -0.2492743581533432, -0.25213611125946045, -0.28604966402053833, 0.20948293805122375, 0.08870191872119904, 0.02555016241967678, -0.7301647663116455, 0.07638931274414062, -0.16088616847991943, -0.17040815949440002, 0.022872023284435272], [-0.029882337898015976, 0.017756257206201553, -0.12859846651554108, 0.11013128608465195, -0.16514377295970917, 0.02049400843679905, -0.1489039808511734, -0.18657003343105316, -0.034739505499601364, 0.06181608885526657, -0.10285066068172455, 0.242373988032341, -0.11599474400281906, -0.019385021179914474, 0.10918331891298294, -0.17719043791294098, -0.18720793724060059, -0.153544083237648, -0.09603406488895416, 0.11813738197088242], [0.1579420119524002, -0.11854881793260574, -0.08687048405408859, 0.12491034716367722, -0.031997453421354294, -0.15401412546634674, -0.04733475670218468, -0.20495910942554474, 0.000657325959764421, 0.019779164344072342, 0.016508115455508232, 0.0902213379740715, 0.04842764139175415, 0.10466282814741135, -0.06887031346559525, -0.09947723150253296, -0.07299541682004929, 0.15505319833755493, -0.07218949496746063, 0.03211137652397156], [0.0018115370767191052, 0.16820910573005676, 0.06852679699659348, -0.15550291538238525, 0.20264527201652527, -0.14668530225753784, -0.1748383492231369, 0.06285260617733002, -0.10603591054677963, -0.09834206104278564, 0.05912817642092705, 0.04886407032608986, -0.18898071348667145, -0.17033888399600983, -0.05832285434007645, -0.1203865334391594, -0.1922391653060913, 0.16554424166679382, -0.11996430158615112, -0.1658891886472702]], "rec.bias_ih_l0": [-0.09480737149715424, 0.0011401353403925896, -0.027102524414658546, -0.11958087980747223, -0.181682750582695, 0.04651038348674774, 0.1786009669303894, 0.2005789875984192, -0.00960360374301672, -0.03076777793467045, 0.14321276545524597, 0.0024687719997018576, 0.11890345811843872, 0.24295763671398163, -0.029485298320651054, 0.35602903366088867, -0.019801339134573936, 0.14469946920871735, 0.1546197086572647, -0.05521529167890549, 0.06163942441344261, 0.11671368032693863, -0.0472615547478199, 0.04024062678217888, -0.15278714895248413, -0.26452353596687317, -0.12207023799419403, -0.013174201361835003, 0.02386603318154812, -0.004487892612814903, 0.1215662881731987, 0.18055537343025208, -0.03372051194310188, -0.07556028664112091, 0.079501673579216, 0.03260836750268936, 0.011080400086939335, -0.14213664829730988, 0.18876796960830688, -0.16383439302444458, 0.04368358477950096, 0.15284967422485352, 0.2469777762889862, -0.06813982874155045, -0.1914648860692978, 0.0080822529271245, -0.0342412106692791, 0.09480571001768112, -0.03056037425994873, 0.12223659455776215, 0.061657678335905075, 0.08262897282838821, 0.022090043872594833, -0.24494872987270355, 0.154011532664299, -0.2160508632659912, -0.05716581270098686, -0.015686601400375366, -0.02876029536128044, 0.04207227751612663, 0.18488487601280212, 0.09694730490446091, 0.09216442704200745, 0.12533089518547058, 0.2218848317861557, -0.13184571266174316, -0.13621574640274048, 0.022341109812259674, -0.03530069813132286, -0.06521176546812057, 0.09588931500911713, 0.3233484923839569, -0.006193774752318859, 0.050159234553575516, 0.17798738181591034, 0.25139331817626953, 0.15274976193904877, 0.15842711925506592, 0.04108095541596413, -0.14503224194049835], "rec.bias_hh_l0": [-0.03548809513449669, 0.1818765550851822, 0.2168324738740921, -0.05050000175833702, 0.19989357888698578, -0.1450793296098709, -0.16824133694171906, -0.1513075977563858, -0.007738135289400816, -0.0453435443341732, 0.12456562370061874, 0.10815369337797165, 0.15684059262275696, 0.04695158079266548, 0.018915165215730667, 0.10229136794805527, 0.09728419035673141, 0.14486010372638702, 0.0848110243678093, 0.09315180778503418, -0.15819312632083893, 0.21565355360507965, -0.10047547519207001, -0.1471834033727646, -0.09356384724378586, -0.10603990405797958, -0.13748781383037567, 0.12568683922290802, -0.2197638750076294, 0.031094782054424286, 0.15247343480587006, 0.18888479471206665, 0.0009958409937098622, 0.03153292462229729, 0.18287259340286255, 0.11032755672931671, 0.17771685123443604, 0.11243217438459396, 0.14493662118911743, -0.05584705248475075, 0.03207419812679291, -0.03991933912038803, -0.11643365770578384, -0.025116387754678726, -0.18623042106628418, 0.002144752535969019, -0.11777685582637787, 0.19081073999404907, 0.030296923592686653, -0.014266643673181534, -0.10626592487096786, -0.055426839739084244, -0.1128203347325325, 0.052374400198459625, 0.1304590106010437, 0.182119220495224, 0.1560421735048294, -0.22819525003433228, 0.15762171149253845, 0.04007713869214058, -0.21745584905147552, 0.22623039782047272, -0.05481160804629326, 0.17745360732078552, 0.07820303738117218, -0.06442342698574066, 0.02426127716898918, 0.09304346889257431, 0.16822215914726257, -0.17119498550891876, -0.20568431913852692, 0.23181065917015076, 0.19070571660995483, -0.007953044027090073, -0.08657773584127426, 0.022183841094374657, -0.06712115556001663, 0.02612769789993763, -0.14398318529129028, -0.05087335407733917], "lin.weight": [[0.08291317522525787, -0.122104212641716, -0.2595955729484558, 0.023268550634384155, 0.2102426439523697, 0.009283735416829586, 0.016407368704676628, -0.1901719570159912, -0.09305346757173538, 0.061252959072589874, -0.030211759731173515, -0.22830867767333984, 0.0910414382815361, 0.22630147635936737, 0.05871167406439781, 0.43276217579841614, 0.20106461644172668, 0.19462880492210388, -0.04195429012179375, -0.05499758571386337]], "lin.bias": [0.16538378596305847]}}