{"model_data": {"model": "SimpleRNN", "input_size": 1, "skip": 1, "output_size": 1, "unit_type": "LSTM", "num_layers": 1, "hidden_size": 20, "bias_fl": true}, "state_dict": {"rec.weight_ih_l0": [[-0.05731604993343353], [0.08069610595703125], [-0.26518651843070984], [-0.7086460590362549], [0.5141905546188354], [-0.393347829580307], [-0.17683731019496918], [0.2592199444770813], [0.10637329518795013], [-0.29183417558670044], [-0.4055902659893036], [-0.041796933859586716], [0.09195134043693542], [0.011095830239355564], [0.17695418000221252], [-0.3310564458370209], [0.019496681168675423], [-0.6116758584976196], [-3.082186222076416], [-0.7151597142219543], [0.027439504861831665], [0.233023002743721], [-0.12954109907150269], [-0.7108457684516907], [0.5687138438224792], [-0.1939145028591156], [-0.17216522991657257], [-1.1134766340255737], [0.400475412607193], [-0.27334707975387573], [-0.692882776260376], [0.14368754625320435], [0.30404940247535706], [-0.137796550989151], [-0.03537118434906006], [-0.36052805185317993], [0.01076736394315958], [-0.28245189785957336], [0.001608069404028356], [-0.5687363743782043], [-0.22670306265354156], [0.23309867084026337], [0.4243772029876709], [0.7246583700180054], [1.2362966537475586], [0.16790902614593506], [-0.3946938216686249], [-3.0194079875946045], [-0.3024652302265167], [-0.46437808871269226], [-0.7027813196182251], [-0.26558852195739746], [-0.17964282631874084], [0.07913371175527573], [-0.10655772686004639], [-0.36629730463027954], [0.24833448231220245], [-0.3994908630847931], [2.7340705394744873], [-1.547847032546997], [-0.04915314540266991], [0.1405036896467209], [-0.11905140429735184], [-0.6251703500747681], [0.7477329969406128], [-0.32116150856018066], [-0.2460818886756897], [0.15624821186065674], [0.4326866567134857], [-0.13329754769802094], [-0.788985550403595], [-0.013122687116265297], [0.17613624036312103], [-0.1321624368429184], [0.305923193693161], [-0.6270974278450012], [0.02736484631896019], [-0.5902255177497864], [-4.653899669647217], [-1.055030345916748]], "rec.weight_hh_l0": [[0.07855535298585892, -0.016182739287614822, 0.09856024384498596, 0.15667255222797394, -0.1591036170721054, -0.0753839835524559, -0.005466415546834469, -0.13573585450649261, 0.10393362492322922, 0.11304057389497757, -0.11465378850698471, 0.022402040660381317, -0.019386889412999153, 0.05298907309770584, -0.0863904282450676, 0.13836969435214996, -0.022019410505890846, 0.11797158420085907, 0.2952580451965332, -0.1621679812669754], [-0.10066723823547363, -0.05689234659075737, 0.23870596289634705, 0.07324342429637909, -0.015936240553855896, -0.03418772295117378, -0.052489060908555984, -0.18418842554092407, -0.06404908001422882, 0.03440224751830101, -0.016273142769932747, 0.050273921340703964, -0.10965929925441742, -0.0525200329720974, -0.07537328451871872, -0.05225453898310661, 0.04451190307736397, 0.09931604564189911, -0.010894873179495335, 0.007998360320925713], [-0.03116430900990963, -0.1655258983373642, -0.220505028963089, 0.1093042716383934, -0.10974778234958649, -0.37032121419906616, -0.07575572282075882, 0.09883550554513931, -0.4402811527252197, -0.015354713425040245, 0.20980270206928253, -0.22053174674510956, -0.1853402554988861, 0.0018704290268942714, 0.12565353512763977, -0.09476501494646072, -0.09676501899957657, -0.1391262263059616, -0.32098904252052307, 0.23466795682907104], [0.07792815566062927, 0.09418106824159622, -0.18347202241420746, -0.0003944949130527675, -0.08650916069746017, -0.1367802917957306, -0.06830870360136032, 0.36155182123184204, -0.05151056498289108, 0.08907049894332886, 0.1213989108800888, -0.051232852041721344, 0.009231735952198505, -0.057144101709127426, 0.01994922198355198, 0.030162490904331207, -0.0622074156999588, 0.17326413094997406, -0.3327533006668091, 0.2112915813922882], [-0.013772244565188885, 0.00518164224922657, -0.14237190783023834, 0.08358913660049438, 0.010904966853559017, -0.13525822758674622, -0.12171898037195206, 0.02467997558414936, -0.13551700115203857, -0.08282212913036346, 0.04349885880947113, -0.14060930907726288, -0.025181813165545464, 0.007501597516238689, 0.15645767748355865, -0.08004578948020935, -0.07049199938774109, -0.015297706238925457, 0.0695480927824974, -0.07906712591648102], [0.20939235389232635, 0.003487624693661928, 0.36689698696136475, 0.016247689723968506, -0.0217899102717638, 0.004853433929383755, 0.0004374285344965756, 0.0185397882014513, -0.4057638943195343, 0.04359497129917145, 0.125404953956604, -0.05519712343811989, -0.023976249620318413, 0.013201472349464893, -0.09155339002609253, 0.08479376882314682, -0.011899651028215885, 0.2001611888408661, -0.033266838639974594, 0.04167390242218971], [-0.0723675936460495, -0.04200030490756035, 0.10414548963308334, 0.055184897035360336, -0.035625211894512177, -0.04721112921833992, -0.16570305824279785, -0.013127046637237072, -0.1261979043483734, 0.052890658378601074, 0.011529302224516869, -0.013612208887934685, -0.023236103355884552, 0.043030913919210434, -0.06158807873725891, 0.0666627287864685, 0.06445171684026718, 0.055364206433296204, 0.1059119775891304, -0.036846812814474106], [0.3098564147949219, -0.14161913096904755, -0.2725975215435028, -0.16486938297748566, 0.05054511874914169, -0.2540615499019623, 0.13196666538715363, 0.5700633525848389, -0.17111612856388092, -0.1812664419412613, 0.3133169412612915, -0.17678776383399963, -0.05105205997824669, -0.06927301734685898, -0.06882055103778839, -0.1276668757200241, -0.27389058470726013, -0.3507494330406189, -0.555711567401886, 0.33950647711753845], [-0.2832363247871399, 0.1823655515909195, 0.2503674626350403, 0.27174505591392517, -0.2989136278629303, 0.097159743309021, -0.2422594428062439, -0.00013576431956607848, -0.153971865773201, -0.11849192529916763, -0.0870187059044838, 0.09876681864261627, -0.10985717922449112, -0.07863949984312057, -0.11260480433702469, 0.02878088504076004, 0.0788622498512268, 0.11276683956384659, 0.03907579183578491, 0.30010178685188293], [-0.18196812272071838, 0.20851977169513702, -0.12172722816467285, -0.131245419383049, -0.0996808260679245, -0.03007601574063301, -0.12059595435857773, -0.2936936616897583, 0.05518968030810356, 0.14115725457668304, -0.00656050443649292, 0.028342049568891525, 0.07116968929767609, 0.00980400387197733, 0.06070784479379654, 0.11810678243637085, 0.15195122361183167, 0.04008541256189346, 0.02198502980172634, -0.1568269431591034], [0.04314722865819931, 0.0016570891020819545, -0.21726399660110474, -0.1970263570547104, -0.10704715549945831, -0.27698037028312683, 0.02658887952566147, 0.03625800088047981, -0.18969303369522095, 0.2043616622686386, 0.09467725455760956, -0.008878100663423538, 0.028502102941274643, 0.02302345260977745, 0.1661795824766159, -0.026180125772953033, -0.09425239264965057, 0.11389679461717606, -0.019413935020565987, -0.03247186169028282], [0.04558657482266426, -0.08387293666601181, -0.13960164785385132, 0.002418273128569126, -0.1805322915315628, 0.08607275784015656, -0.1265062391757965, 0.07734672725200653, -0.14538834989070892, 0.01863020472228527, 0.11542090028524399, 0.24266844987869263, 0.070790134370327, -0.12422169744968414, -0.07310914248228073, -0.19257387518882751, 0.08438735455274582, 0.3225553333759308, -0.1561432182788849, -0.011552807874977589], [-0.0717158317565918, -0.2938975691795349, 0.05175970122218132, 0.08018767833709717, -0.05263170227408409, -0.10183802247047424, -0.08977022767066956, -0.08266309648752213, -0.26577454805374146, 0.018134666606783867, -0.08778369426727295, 0.11215779930353165, -0.33924081921577454, -0.07437767088413239, -0.09524284303188324, 0.13989505171775818, 0.08761371672153473, 0.20250150561332703, 0.24314086139202118, -0.167343869805336], [-0.09385212510824203, -0.12318123877048492, -0.20572470128536224, -0.1201612651348114, -0.09190801531076431, 0.0705413669347763, -0.023881638422608376, -0.0691186711192131, -0.15949313342571259, 0.15404999256134033, -0.11263245344161987, 0.138315349817276, 0.04336291179060936, 0.00657593784853816, 0.09285435825586319, 0.18615896999835968, 0.08345896750688553, -0.15235008299350739, 0.04942554235458374, 0.04935353621840477], [-0.16031211614608765, -0.006704058963805437, -0.1452971249818802, 0.03431388735771179, -0.09907562285661697, 0.1104806587100029, -0.13534122705459595, -0.08204825222492218, -0.15199005603790283, 0.10057671368122101, -0.22525078058242798, 0.07505336403846741, -0.08801484107971191, 0.058624476194381714, 0.04767556115984917, 0.24609756469726562, 0.14904572069644928, -0.06462691724300385, 0.09804139286279678, 0.04976318031549454], [-0.09059066325426102, 0.15102818608283997, 0.13227036595344543, -0.2243453413248062, -0.2945683002471924, -0.019353168085217476, 0.0320311039686203, 0.4364624321460724, -0.011268978007137775, 0.016164163127541542, -0.09199144691228867, 0.1456986665725708, 0.003929618280380964, -0.15950806438922882, -0.2403080016374588, 0.025775067508220673, 0.07757314294576645, 0.09623567014932632, -0.5297407507896423, 0.4948989450931549], [-0.06519266963005066, 0.06771693378686905, 0.20123863220214844, 0.030925139784812927, 0.030725007876753807, -0.0797155350446701, -0.11065617203712463, -0.06792186200618744, -0.15383893251419067, 0.06558074802160263, 0.03283921629190445, 0.1030827984213829, 0.04988827556371689, -0.03950509428977966, -0.1227593645453453, -0.020252056419849396, -0.07024751603603363, 0.2847021520137787, -0.021410010755062103, -0.14547766745090485], [0.11288537830114365, -0.18526850640773773, -0.33879637718200684, -0.3288272023200989, -0.24967965483665466, -0.14588120579719543, 0.07549162954092026, 0.7173810601234436, -0.1619091033935547, 0.20223578810691833, 0.4085140526294708, 0.1148163303732872, 0.07009167969226837, -0.029264817014336586, 0.09772202372550964, -0.24145950376987457, -0.18435701727867126, 0.22023166716098785, -0.7109025716781616, 0.3175114691257477], [0.4752504229545593, -0.240736186504364, -0.7315006852149963, -0.514533281326294, -0.7947618961334229, -0.6847732663154602, 0.45572638511657715, 2.3828213214874268, 0.10615809261798859, 0.12139976024627686, 1.0806970596313477, 0.010555820539593697, 0.11344198137521744, -0.12866558134555817, 0.059489909559488297, -0.6501877307891846, -0.8167029023170471, 0.2482835054397583, -1.5635045766830444, 1.0872888565063477], [0.0330902524292469, 0.011412293650209904, -0.37038683891296387, -0.14413782954216003, -0.14679789543151855, -0.13667970895767212, 0.06383630633354187, 0.7098968029022217, 0.18388423323631287, -0.2020796239376068, 0.4395163357257843, -0.09325013309717178, 0.09650999307632446, -0.07899066805839539, -0.05598877742886543, -0.18120664358139038, -0.25275033712387085, -0.3062460422515869, -0.687812864780426, 0.42858147621154785], [0.11339282989501953, -0.01818680390715599, 0.13311971724033356, 0.15750481188297272, -0.20252645015716553, 0.03045637719333172, -0.2664828598499298, -0.0775984600186348, 0.04423874616622925, 0.1312609761953354, -0.2676142454147339, 0.0715118870139122, -0.012002435512840748, 0.016900913789868355, 0.08735433965921402, -0.14496175944805145, 0.03960833325982094, 0.22572354972362518, 0.3246622383594513, -0.258029043674469], [0.02128513529896736, -0.28673315048217773, 0.4613228142261505, 0.10937041789293289, 0.13771399855613708, -0.21273310482501984, -0.07992111146450043, -0.24922417104244232, -0.42684638500213623, 0.019758764654397964, -0.059016935527324677, 0.016974465921521187, -0.36922746896743774, -0.0635538250207901, -0.12614865601062775, -0.1054677665233612, -0.09817348420619965, 0.06144889444112778, 0.1244567260146141, -0.15436942875385284], [0.3812216520309448, -0.43157148361206055, -0.39974653720855713, -0.2831062078475952, 0.35113489627838135, -0.6235884428024292, 0.3343174457550049, 0.1910872906446457, -0.07776183634996414, 0.3644801676273346, 0.12816886603832245, -0.5188905596733093, -0.33540505170822144, 0.3343532979488373, 0.4030359983444214, -0.2463768720626831, -0.3454092741012573, -0.3546392321586609, -0.1257983148097992, -0.08528599143028259], [-0.05399841070175171, 0.1603979766368866, -0.2445780634880066, -0.37939974665641785, -0.05059761926531792, 0.14238658547401428, 0.17211957275867462, 0.09766226261854172, 0.1991024762392044, 0.48737409710884094, -0.4182894825935364, -0.13585738837718964, 0.1333867758512497, 0.23300230503082275, 0.25243067741394043, 0.4448014795780182, 0.02605327032506466, -0.1847163587808609, -0.2601132094860077, 0.24248161911964417], [-0.21708713471889496, 0.06278502941131592, -0.06722001731395721, 0.2488914132118225, 0.03781679645180702, -0.13881564140319824, -0.1470356285572052, -0.06468917429447174, -0.1476771980524063, -0.1351678967475891, 0.02459346130490303, -0.04963000491261482, -0.07842322438955307, 0.019156865775585175, -0.07583560049533844, -0.1270841509103775, 0.13684214651584625, 0.01759524829685688, 0.268817275762558, -0.05526834353804588], [0.032254163175821304, -0.12221139669418335, 0.1443338543176651, -0.07471605390310287, 0.13233737647533417, -0.19433030486106873, 0.1619652956724167, -0.06747347861528397, -0.4413236677646637, -0.034909676760435104, -0.08977366238832474, 0.1373383104801178, -0.2064436823129654, -0.0012518676230683923, -0.24591927230358124, 0.03932398930191994, -0.16374698281288147, 0.11933127790689468, 0.3711288273334503, -0.2444133311510086], [0.06089147925376892, -0.024119136855006218, -0.16932514309883118, 0.09392949938774109, 0.04050751402974129, 0.01605038344860077, -0.02119181677699089, -0.10591067373752594, -0.05861716344952583, 0.07667860388755798, -0.020870130509138107, 0.012066211551427841, -0.04156331717967987, -0.03987568989396095, -0.016918858513236046, 0.012000114656984806, -0.04769739881157875, -0.015339027158915997, 0.11433614790439606, -0.020090434700250626], [-0.252189040184021, 0.027568474411964417, 0.14631806313991547, -0.3199927806854248, -0.45635533332824707, 0.07156708836555481, -0.0663004070520401, 0.6127983331680298, -0.042957402765750885, 0.07960338145494461, 0.0891525000333786, 0.0008248068625107408, 0.049653127789497375, 0.021294279024004936, -0.04325350001454353, 0.3869180977344513, 0.09759703278541565, -0.5369062423706055, -0.8904464244842529, 0.9103094935417175], [0.14391644299030304, 0.04333001747727394, 0.4922502934932709, 0.12740077078342438, 0.23811163008213043, -0.2154848575592041, 0.09258435666561127, 0.2511848509311676, -0.2802393436431885, -0.18203936517238617, -0.0206620916724205, -0.3686427175998688, -0.3895733952522278, -0.03632567822933197, -0.266571581363678, -0.10149410367012024, -0.12469112873077393, 0.15553730726242065, 0.1299494206905365, -0.09766444563865662], [0.11919143795967102, 0.23466381430625916, -0.2725326716899872, -0.23031191527843475, 0.14248517155647278, 0.2251030057668686, 0.0014434512704610825, -0.3874976933002472, 0.20265299081802368, 0.3855821192264557, -0.3942457139492035, 0.15993337333202362, 0.17173907160758972, 0.25249388813972473, 0.3067711889743805, 0.20308513939380646, 0.24543528258800507, -0.1900847852230072, 0.14873382449150085, -0.11867149919271469], [0.08229701220989227, 0.1324874758720398, -0.21702858805656433, -0.19612190127372742, 0.10747843235731125, -0.049861516803503036, 0.23387287557125092, -0.15848533809185028, -0.005088226869702339, 0.44146865606307983, -0.40949201583862305, 0.0005922314594499767, -0.032971832901239395, 0.2255791574716568, 0.1893317550420761, 0.04752101004123688, 0.043338995426893234, 0.009339853189885616, 0.002578528830781579, -0.23488034307956696], [-0.15549823641777039, 0.11759383976459503, -0.07895813882350922, 0.1225723922252655, -0.22120454907417297, 0.055171992629766464, 0.016085632145404816, -0.12363053858280182, -0.027936464175581932, 0.020633794367313385, -0.0660688504576683, 0.11456528306007385, 0.037972088903188705, -0.1446763426065445, -0.10964376479387283, 0.016576366499066353, 0.13822850584983826, 0.23371373116970062, 0.14312073588371277, -0.15832972526550293], [0.07652637362480164, -0.5958195328712463, 0.3254372477531433, 0.03168926388025284, 0.1460535228252411, -0.18773503601551056, -0.07707436382770538, 0.0720265805721283, -0.5166280269622803, -0.026586988940835, -0.0353875532746315, -0.06100282073020935, -0.6276962161064148, -0.15290939807891846, -0.17160727083683014, -0.06234493851661682, -0.06024140119552612, 0.0354870967566967, 0.28507155179977417, -0.33267325162887573], [0.24821707606315613, -0.030215371400117874, -0.3788076639175415, -0.21752572059631348, -0.09108428657054901, 0.05617562308907509, 0.01362315472215414, -0.09308571368455887, -0.11890339106321335, 0.2526056170463562, -0.23677615821361542, 0.07857726514339447, 0.09009198099374771, 0.07762524485588074, 0.31487447023391724, 0.295034795999527, 0.06485161185264587, -0.22867059707641602, 0.030575785785913467, 0.057612113654613495], [0.21418702602386475, -0.0823001116514206, -0.31085631251335144, -0.20596148073673248, 0.16270966827869415, 0.046044208109378815, 0.13781128823757172, -0.050159480422735214, -0.07951842993497849, 0.316518634557724, -0.22683310508728027, -0.08029565215110779, -0.06349758058786392, 0.23165404796600342, 0.22268374264240265, 0.23377437889575958, 0.01902930811047554, -0.23581458628177643, 0.14374631643295288, -0.08515172451734543], [-0.16565224528312683, 0.20435908436775208, 0.024752885103225708, -0.22796668112277985, -0.004077454563230276, 0.06417568773031235, 0.02305445447564125, 0.15160015225410461, -0.1475626528263092, 0.08180098980665207, -0.20581378042697906, -0.009527921676635742, 0.052321214228868484, 0.05881709232926369, -0.20670461654663086, 0.14761987328529358, 0.006060408893972635, -0.037303224205970764, -0.6325392127037048, 0.3135330379009247], [0.02163836546242237, 0.08363648504018784, 0.15694129467010498, 0.07300303131341934, 0.07835111021995544, -0.12190502882003784, 0.014003364369273186, -0.010512967593967915, -0.10567411780357361, 0.01722293347120285, -0.0988544151186943, 0.027000321075320244, 0.06739169359207153, -0.015236928127706051, -0.0950765311717987, -0.06854435056447983, 0.12231230735778809, 0.2733428478240967, 0.16085758805274963, -0.22686171531677246], [-0.06690247356891632, -0.06787228584289551, -0.23235343396663666, -0.35802286863327026, -0.1929617077112198, 0.09463072568178177, -0.053500495851039886, 0.0721733495593071, -0.14531449973583221, 0.311396062374115, -0.008363245986402035, 0.2166575938463211, 0.0639885812997818, 0.07390574365854263, 0.09808758646249771, 0.20869193971157074, 0.0004764001350849867, 0.15867497026920319, -0.4696693420410156, 0.2299761325120926], [-0.21467751264572144, 0.1887674778699875, 0.09551727771759033, 0.5347836017608643, -0.23499716818332672, 0.1126646175980568, -0.4361956715583801, -0.8836588859558105, 0.10871430486440659, -0.24687330424785614, -0.32903945446014404, -0.04568403214216232, 0.07271319627761841, -0.25682875514030457, -0.15885430574417114, 0.090804822742939, 0.17477965354919434, 0.2981979548931122, 0.8175280094146729, -0.5671289563179016], [-0.2055155485868454, 0.10535305738449097, 0.029747625812888145, 0.27135851979255676, -0.09896659851074219, 0.0024768139701336622, -0.14972618222236633, 0.3372604548931122, -0.07664166390895844, -0.144693061709404, 0.09332197904586792, 0.10987695306539536, 0.017481552436947823, -0.26178187131881714, -0.1883096694946289, -0.31270381808280945, 0.20798788964748383, 0.3677394390106201, 0.20726315677165985, -0.20075877010822296], [0.10027963668107986, -0.0315571166574955, 0.16419413685798645, 0.19540859758853912, 0.14995834231376648, 0.26254403591156006, -0.1538909375667572, -0.33243227005004883, -0.17921912670135498, 0.002132599940523505, -0.35526272654533386, -0.0026328961830586195, -0.1277182549238205, 0.22063025832176208, -0.04417596012353897, 0.11371913552284241, 0.16837726533412933, 0.0058530173264443874, 0.3087100684642792, -0.2811565697193146], [0.08069095760583878, 0.08917661011219025, 0.003106014570221305, 0.18639187514781952, 0.08042212575674057, 0.11914952099323273, -0.019235802814364433, -0.16561701893806458, 0.27011770009994507, -0.3520619571208954, 0.01496568787842989, -0.10812774300575256, 0.2692364454269409, 0.0787072479724884, -0.054565444588661194, -0.022830184549093246, -0.08046437799930573, -0.45715463161468506, 0.03617531806230545, 0.057816196233034134], [-0.15589214861392975, -0.10914434492588043, 0.3675488233566284, 0.06598540395498276, -0.16723941266536713, -0.041175711899995804, -0.08524724841117859, -0.16283391416072845, -0.051724549382925034, 0.0055947499349713326, 0.12050879746675491, -0.13891607522964478, 0.023194724693894386, -0.060962047427892685, -0.0732419416308403, -0.07821252942085266, -0.008840925060212612, -0.20716816186904907, 0.2859362065792084, 0.022381696850061417], [-0.11709369719028473, 0.013759858906269073, 0.03767457604408264, 0.06737086921930313, 0.16010737419128418, 0.07512172311544418, -0.10869795829057693, -0.19928009808063507, 0.057561472058296204, -0.1399601399898529, -0.08039285987615585, -0.11833683401346207, 0.0713006854057312, 0.020146338269114494, 0.07420291006565094, -0.14100755751132965, -0.10476070642471313, -0.13399429619312286, 0.14011450111865997, 0.04178399220108986], [-0.04558497667312622, 0.07549666613340378, 0.023054642602801323, 0.1379498392343521, -0.18585410714149475, 0.12264326214790344, -0.22791913151741028, -0.2222127616405487, -0.00922749936580658, 0.10419672727584839, -0.2205430120229721, -0.15998901426792145, 0.1145746037364006, -0.04660164564847946, 0.1451147496700287, 0.322000116109848, 0.22574664652347565, -0.07113758474588394, 0.4511083960533142, -0.12385131418704987], [0.03686226159334183, -0.2049548327922821, -0.3758462071418762, -0.13766998052597046, -0.012122469022870064, -0.05535693094134331, 0.1642787754535675, 0.06671322882175446, 0.10757642239332199, -0.13102148473262787, 0.18738913536071777, -0.12363329529762268, 0.2218671590089798, 0.2217264622449875, 0.3300074338912964, -0.06980685889720917, 0.15605312585830688, -0.13770022988319397, -0.23250411450862885, 0.09811641275882721], [0.05992429330945015, 0.1388176679611206, 0.012499921023845673, 0.19157393276691437, -0.02202664501965046, -0.19849742949008942, -0.1535123735666275, -0.07669578492641449, 0.11018911004066467, 0.16222888231277466, 0.02618475817143917, 0.07927856594324112, -0.005108396522700787, 0.08829053491353989, -0.15393956005573273, -0.0460730716586113, 0.11497440189123154, -0.1611928939819336, 0.05485114827752113, -0.22591730952262878], [-0.0350201353430748, -0.21871605515480042, 0.2097122222185135, 0.1480860859155655, 0.08393961191177368, -0.16982689499855042, -0.11054326593875885, -1.1331188678741455, -0.06539162993431091, -0.19000937044620514, 0.15468816459178925, 0.15637648105621338, -0.20734736323356628, 0.009460235945880413, -0.17798775434494019, 0.11688645929098129, -0.0396987721323967, 0.2712323069572449, 0.166728675365448, 0.38643679022789], [-0.02517678402364254, -0.2159537822008133, -0.2683153450489044, -0.06246839091181755, -0.04272197186946869, 0.055687129497528076, -0.01483053620904684, -0.12602177262306213, 0.2935904860496521, -0.043207596987485886, 0.2240314781665802, 0.14104461669921875, -0.0069252862595021725, 0.10302401334047318, 0.1359906643629074, 0.13397060334682465, -0.1689106822013855, -0.15259075164794922, -0.1832747906446457, 0.1422153115272522], [-0.10842803865671158, 0.272360622882843, 0.08810540288686752, -0.025706147775053978, -0.0680781826376915, 0.0640760213136673, -0.1540743112564087, -0.24869972467422485, 0.12155353277921677, 0.07662948220968246, -0.1173163577914238, -0.15624216198921204, -0.2613452076911926, 0.2117181122303009, 0.13141389191150665, 0.11614380031824112, -0.007825365290045738, -0.17421260476112366, 0.15824304521083832, 0.05634419247508049], [-0.011633382178843021, -0.10581230372190475, 0.2083328515291214, 0.15802939236164093, 0.060689423233270645, -0.18685282766819, 0.2518439292907715, 0.11623989790678024, 0.08512843400239944, 0.05025679990649223, -0.16224242746829987, -0.044938672333955765, 0.10878688097000122, -0.19119928777217865, -0.1280001997947693, -0.09053890407085419, 0.10719838738441467, 0.3979737162590027, -0.16243618726730347, -0.40914440155029297], [0.17513449490070343, 0.030775634571909904, 0.023637762293219566, 0.20388706028461456, 0.02969313971698284, 0.06148460507392883, -0.025203639641404152, -0.1568976491689682, 0.32298052310943604, -0.1067667156457901, 0.13798846304416656, 0.07788041979074478, -0.1658039093017578, 0.06351325660943985, 0.039192084223032, 0.1384306699037552, 0.09515178948640823, -0.1894199550151825, 0.25103452801704407, -0.5304923057556152], [-0.03574409335851669, 0.20717781782150269, -0.1316404938697815, -0.08647684752941132, 0.0013834212440997362, 0.04520067200064659, 0.23990567028522491, 0.1850002110004425, 0.2284756749868393, -0.10331790149211884, 0.048513781279325485, 0.021845944225788116, -0.02731955610215664, 0.02323583886027336, 0.07771717011928558, -0.2446144074201584, -0.2042289674282074, 0.08806514739990234, -0.012966923415660858, -0.24194899201393127], [-0.030796032398939133, -0.027592230588197708, -0.2945569157600403, -0.1711353063583374, -0.1260998547077179, 0.10040388256311417, 0.0055198948830366135, 0.09952279925346375, 0.023089054971933365, 0.11160440742969513, 0.05906679853796959, -0.03886804357171059, 0.029686028137803078, -0.03267468512058258, 0.29715460538864136, 0.038043063133955, 0.19048529863357544, -0.029198063537478447, 0.06174074485898018, 0.275522381067276], [0.12413444370031357, -0.16035126149654388, -0.35935738682746887, -0.14838582277297974, 0.14813680946826935, 0.08145739883184433, -0.03559611737728119, 0.07787227630615234, 0.149210587143898, 0.28825807571411133, 0.13026222586631775, -0.11385854333639145, 0.047885630279779434, 0.18863233923912048, -0.048861436545848846, 0.09648636728525162, 0.13528621196746826, -0.06245885789394379, -0.16222119331359863, -0.038517724722623825], [-0.05696386471390724, -0.35764187574386597, -0.2781054377555847, -0.11765114963054657, -0.10797011852264404, -0.20430628955364227, -0.05643497779965401, 0.03221457079052925, 0.04120413213968277, 0.04308547452092171, 0.18180333077907562, -0.08068454265594482, 0.021086400374770164, 0.24121110141277313, 0.2197514921426773, 0.09034553915262222, -0.028065068647265434, -0.4098481237888336, -0.12776696681976318, 0.5443324446678162], [-0.14544501900672913, -0.019624987617135048, -0.27001386880874634, 0.061067018657922745, 0.0662451907992363, 0.17821872234344482, -0.060620758682489395, -0.008438220247626305, 0.06016151234507561, -0.1192132979631424, -0.09487484395503998, -0.16644525527954102, 0.11586368083953857, 0.16260536015033722, 0.08418790996074677, 0.05167880654335022, -0.17385928332805634, -0.48357346653938293, 0.007055330090224743, 0.07530813664197922], [-0.1592838615179062, 0.1497965157032013, 0.29412752389907837, 0.3851090669631958, 0.20489585399627686, 0.16609103977680206, -0.24945418536663055, -0.5756964087486267, 0.29510417580604553, -0.026678679510951042, -0.10914001613855362, -0.017372941598296165, -0.10090892761945724, -0.06822798401117325, -0.09481839090585709, -0.002313184319064021, 0.13570363819599152, -0.25164714455604553, 0.5416065454483032, -0.26331642270088196], [0.07748155295848846, -0.06515547633171082, -0.16261175274848938, 0.11441777646541595, 0.14418527483940125, 0.07496815919876099, -0.004475701134651899, -0.78848797082901, -0.20506787300109863, -0.06556382030248642, -0.24128659069538116, -0.05503522977232933, 0.15067802369594574, 0.18583860993385315, 0.1806812435388565, -0.1908894032239914, -0.19865664839744568, 0.02247055247426033, 0.10493025928735733, -0.22010889649391174], [-0.03799149766564369, 0.15843328833580017, -0.03129656985402107, 0.07312985509634018, 0.006562767084687948, -0.1215655654668808, 0.3010543882846832, 0.7472829818725586, 0.06051329895853996, 0.2961869537830353, 0.08998783677816391, 0.27368804812431335, 0.005617862567305565, -0.018670938909053802, 0.10667542368173599, -0.22513960301876068, -0.24777986109256744, 0.37740325927734375, -0.6091440320014954, -0.6248430609703064], [-0.21951930224895477, 0.06563542783260345, -0.13070175051689148, 0.2137654423713684, 0.08458026498556137, -0.18984481692314148, -0.093623585999012, 0.050925519317388535, -0.2666357159614563, 0.22691987454891205, -0.12168267369270325, 0.0028384635224938393, -0.13136965036392212, 0.08473333716392517, -0.10253070294857025, -0.0035024562384933233, -0.1311330646276474, 0.22212223708629608, 0.06349224597215652, -0.1110822856426239], [0.02701669931411743, -0.23271307349205017, 0.31583988666534424, 0.08378355950117111, 0.06298838555812836, -0.14780683815479279, -0.06197422742843628, -0.2388693392276764, -0.24863849580287933, 0.01126164197921753, 0.0011585584143176675, 0.02005353942513466, -0.3065958023071289, -0.08716552704572678, -0.13429708778858185, -0.044540904462337494, -0.02021036297082901, 0.0913650393486023, 0.03824513033032417, -0.09841624647378922], [0.3924902677536011, -0.2531142234802246, -0.41931235790252686, -0.15748001635074615, 0.07582197338342667, -0.4110708236694336, 0.10620658099651337, 0.39435866475105286, -0.16875435411930084, 0.38686537742614746, 0.11876092851161957, -0.08649496734142303, -0.11798442155122757, 0.10028594732284546, 0.31787142157554626, -0.09908458590507507, -0.37524867057800293, -0.10752952843904495, -0.2833990454673767, -0.0015562541084364057], [0.19422347843647003, 0.1346587985754013, -0.2987558841705322, -0.24629409611225128, -0.21182774007320404, -0.13498756289482117, 0.07192520797252655, 0.18671831488609314, -0.029142476618289948, 0.3926244080066681, 0.10589676350355148, -0.02723945863544941, 0.07821959257125854, 0.047542545944452286, 0.22438256442546844, 0.10542241483926773, 0.022259263321757317, 0.07974795997142792, -0.5695734620094299, 0.24663706123828888], [-0.2503640353679657, 0.025137342512607574, -0.30582815408706665, 0.2796809673309326, -0.021160997450351715, -0.10818856954574585, -0.08415168523788452, 0.1587512344121933, -0.15616147220134735, -0.20932132005691528, 0.12720026075839996, -0.09752985835075378, -0.09014152735471725, -0.13921989500522614, -0.05916508659720421, -0.18107324838638306, -0.1679493635892868, -0.15938808023929596, 0.21652895212173462, 0.11105015873908997], [0.19945794343948364, -0.10296281427145004, 0.17155027389526367, -0.15688641369342804, -0.15000948309898376, -0.210349902510643, -0.10078921914100647, 0.1446414738893509, -0.3924627900123596, 0.024334954097867012, 0.14249034225940704, 0.14504873752593994, -0.09064729511737823, -0.017536405473947525, -0.23722052574157715, 0.03831477090716362, -0.19612827897071838, 0.33455803990364075, -0.04850237816572189, -0.02746218629181385], [-0.1992591768503189, -0.05801379308104515, -0.17956171929836273, 0.10454487800598145, -0.16600565612316132, -0.02805299684405327, -0.14633801579475403, -0.13700315356254578, -0.0633673444390297, -0.025147896260023117, -0.059199731796979904, 0.039844054728746414, -0.04465556889772415, -0.03405993804335594, -0.04883536696434021, -0.15463106334209442, 0.08016100525856018, 0.14089052379131317, 0.09562855958938599, 0.04742894694209099], [0.3823041617870331, -0.1653696894645691, -0.38241344690322876, -0.20596809685230255, 0.1451587975025177, -0.2907649278640747, 0.17311008274555206, 0.6488676071166992, -0.2163480520248413, -0.16743203997612, 0.34168320894241333, -0.20859429240226746, -0.04967042803764343, -0.031744860112667084, -0.013320147059857845, -0.24081125855445862, -0.39804378151893616, -0.40358033776283264, -0.579107403755188, 0.41410598158836365], [-0.1879902482032776, -0.11183073371648788, 0.2785032391548157, 0.02962958626449108, -0.005060788244009018, -0.000823604001197964, 0.0006251528975553811, 0.08627325296401978, -0.16500121355056763, -0.2389163076877594, -0.07026023417711258, -0.11040221899747849, -0.2437577098608017, -0.03510535880923271, -0.20884273946285248, -0.17007896304130554, 0.1331939846277237, -0.014310789294540882, 0.03255423158407211, 0.1575283408164978], [0.13426533341407776, 0.15474620461463928, -0.15342546999454498, -0.19067008793354034, -0.07974005490541458, 0.050060342997312546, 0.08941250294446945, -0.2892172336578369, 0.06349167972803116, 0.3005967438220978, -0.24683964252471924, 0.08477859199047089, 0.07646609842777252, 0.16945861279964447, 0.17290113866329193, 0.2262752652168274, 0.05331473797559738, -0.03514629229903221, 0.1142815575003624, -0.2320971041917801], [0.16073326766490936, -0.012607263401150703, -0.44060415029525757, -0.17968617379665375, -0.06560014188289642, -0.2285355031490326, 0.1404995322227478, 0.23091891407966614, -0.137606680393219, 0.2957136332988739, 0.1935674399137497, -0.011202391237020493, 0.025230487808585167, 0.07873577624559402, 0.22111627459526062, 0.02085070312023163, -0.16568733751773834, 0.22967946529388428, -0.28591859340667725, -0.04546255245804787], [-0.07303036004304886, 0.1043928787112236, -0.27489814162254333, 0.01297320332378149, -0.06140255555510521, -0.0938669964671135, -0.031523022800683975, -0.05379160866141319, 0.011161310598254204, -0.03645573928952217, 0.13683582842350006, 0.2160690724849701, 0.11377494037151337, -0.10823564976453781, -0.0037040242459625006, -0.15993794798851013, 0.14980334043502808, 0.24864868819713593, 0.05521594360470772, -0.012285253964364529], [-0.04289510101079941, -0.42318195104599, 0.16530732810497284, 0.07973597943782806, 0.08516625314950943, -0.18447744846343994, -0.09804506599903107, -0.005056704860180616, -0.30670592188835144, -0.02380121313035488, -0.0755128413438797, 0.06416542828083038, -0.4826001226902008, -0.1350591778755188, -0.08200527727603912, 0.10353455692529678, 0.022816713899374008, 0.18091724812984467, 0.28898265957832336, -0.2624054253101349], [0.18364357948303223, -0.13273176550865173, -0.07576808333396912, -0.19438417255878448, -0.08994424343109131, 0.04962969198822975, 0.1727169156074524, -0.10939867794513702, -0.06897968798875809, 0.15642519295215607, -0.22787651419639587, 0.07899019122123718, 0.07971329987049103, 0.16215796768665314, 0.18768936395645142, 0.25969868898391724, 0.12574522197246552, -0.1934332549571991, -0.012128645554184914, 0.07556074857711792], [-0.10661209374666214, -0.011505773290991783, -0.19713039696216583, -0.07748332619667053, -0.03797129914164543, 0.06859045475721359, -0.01603097841143608, -0.09993289411067963, -0.15877290070056915, 0.22084839642047882, -0.2149863988161087, 0.033938392996788025, -0.04936760663986206, 0.09799180924892426, 0.07865360379219055, 0.35072511434555054, 0.12105613946914673, -0.0731002688407898, 0.011008155532181263, 0.05001610890030861], [-0.025303849950432777, -0.0027121342718601227, 0.05796857923269272, -0.1609639823436737, -0.2731691598892212, -0.036465685814619064, 0.07874546200037003, 0.522545337677002, -0.24342910945415497, 0.049057334661483765, -0.03921376168727875, -0.04341330751776695, 0.17354339361190796, -0.12469427287578583, -0.20035971701145172, 0.14293541014194489, 0.11861953884363174, 0.14993898570537567, -0.8450303673744202, 0.40440624952316284], [-0.09792378544807434, 0.11945091187953949, 0.1921098232269287, -0.000673052214551717, -0.17395317554473877, -0.08126863837242126, -0.040671207010746, -0.10321488976478577, -0.03315135836601257, 0.08669469505548477, -0.04849996045231819, 0.07700949907302856, 0.1129186600446701, -0.02160264551639557, -0.11951005458831787, -0.16253462433815002, 0.0573880560696125, 0.41920459270477295, -0.1415993571281433, -0.15630726516246796], [0.054816607385873795, -0.16711603105068207, -0.2915964722633362, -0.46348974108695984, -0.2153671532869339, -0.09039436280727386, 0.0845530778169632, 0.8018373847007751, -0.14674967527389526, 0.2332674264907837, 0.3587394058704376, 0.1321580559015274, 0.08130859583616257, 0.06757514178752899, 0.1315038949251175, -0.11662273854017258, -0.19842037558555603, 0.046761542558670044, -0.7836700081825256, 0.39859870076179504], [0.21689996123313904, -0.0853254646062851, -0.6651854515075684, -0.5873513221740723, -1.4286562204360962, -0.6104717254638672, 0.47889894247055054, 3.7741572856903076, 0.3959099352359772, 0.1021403968334198, 1.5941238403320312, 0.3739525377750397, 0.33516889810562134, -0.6163988709449768, -0.18558378517627716, -0.6961096525192261, -0.6787781715393066, 1.0943974256515503, -2.496833324432373, 1.3984020948410034], [-0.007728871423751116, 0.07612000405788422, -0.26025131344795227, -0.20384088158607483, -0.2820175290107727, -0.17025023698806763, 0.023120589554309845, 1.2319769859313965, 0.26797059178352356, -0.230449378490448, 0.5151123404502869, -0.12656354904174805, 0.18385064601898193, -0.12876878678798676, -0.06631046533584595, -0.1677960902452469, -0.22600197792053223, -0.20684710144996643, -0.640171229839325, 0.3520115911960602]], "rec.bias_ih_l0": [-0.11314009130001068, -0.07500232756137848, 0.12654827535152435, -0.03942331299185753, 0.10187269747257233, -0.20315967500209808, 0.08198415488004684, 1.1846239566802979, 0.01671789027750492, -0.27346065640449524, -0.011415238492190838, -0.2697177827358246, -0.2532082796096802, -0.23055659234523773, -0.12950681149959564, -0.0668269470334053, -0.18612128496170044, -0.12228494882583618, 0.8794077634811401, 0.22752845287322998, -0.04143112152814865, 0.0973634421825409, 0.4272930324077606, -0.22981837391853333, -0.2726480960845947, -0.0868220180273056, -0.15672364830970764, -0.5062934756278992, 0.3322601616382599, 0.17876334488391876, -0.07703662663698196, -0.23994658887386322, -0.17323990166187286, -0.03967428207397461, 0.10559725016355515, 0.09982218593358994, -0.018120495602488518, -0.2521809935569763, -0.3891720771789551, -0.46335485577583313, 0.1689690202474594, 0.006482399068772793, 0.023162582889199257, 0.01960158348083496, 0.1445588618516922, -0.0378163605928421, 0.03898264840245247, 0.12143003195524216, -0.07132702320814133, -0.10986839979887009, 0.19856171309947968, 0.08613519370555878, 0.022935040295124054, -0.05269361659884453, 0.13515940308570862, -0.015092781744897366, -0.19124171137809753, 0.17501120269298553, -0.010749788954854012, -0.12306485325098038, -0.025965794920921326, 0.025709865614771843, 0.306273877620697, 0.06918129324913025, -0.04730832204222679, -0.08414945006370544, -0.16986458003520966, 1.0438646078109741, 0.18171456456184387, 0.10066697001457214, 0.20009833574295044, 0.07062722742557526, -0.22953267395496368, 0.07676564902067184, -0.19798028469085693, 0.16201834380626678, -0.1898570954799652, 0.12460022419691086, 0.2443360835313797, 0.38510358333587646], "rec.bias_hh_l0": [0.0190908070653677, 0.02656869776546955, -0.035314641892910004, -0.05662805214524269, 0.12102735787630081, 0.055560894310474396, 0.09761741012334824, 1.166947364807129, -0.21464049816131592, -0.36902791261672974, -0.04426050931215286, 0.0009589656838215888, -0.3922116458415985, -0.1913597583770752, 0.05116898939013481, 0.1440698653459549, -0.13112285733222961, -0.07692784070968628, 0.8231026530265808, 0.5480928421020508, 0.017619213089346886, -0.11091554164886475, 0.589816153049469, -0.04790996387600899, -0.04900040850043297, -0.004629066213965416, -0.20183081924915314, -0.6159842610359192, 0.32338765263557434, 0.08345597982406616, 0.16483937203884125, -0.25461384654045105, 0.10706869512796402, -0.04309850186109543, 0.06550207734107971, 0.23360566794872284, -0.25012829899787903, -0.339698851108551, -0.38895606994628906, -0.34598395228385925, 0.11405134946107864, -0.010339619591832161, -0.003127431496977806, -0.036290984600782394, 0.07698395103216171, -0.11707961559295654, 0.06894569098949432, 0.011557523161172867, 0.08702300488948822, 0.08608127385377884, -0.09110043942928314, -0.1465584635734558, 0.048973917961120605, 0.0674867033958435, -0.1967979520559311, -0.15957356989383698, -0.12293040752410889, -0.12479870021343231, 0.004091668874025345, -0.019371358677744865, -0.1027902215719223, 0.08809441328048706, 0.44132670760154724, -0.21803632378578186, -0.03175487741827965, 0.01659255661070347, -0.1017659455537796, 1.1418384313583374, 0.20591875910758972, -0.04813208803534508, 0.1433093547821045, -0.16712860763072968, -0.244687020778656, -0.17231017351150513, 0.0768921971321106, 0.1644367277622223, -0.16973572969436646, -0.11359108239412308, 0.3034183382987976, 0.1452239602804184], "lin.weight": [[-0.24096618592739105, 0.023358246311545372, 0.19944244623184204, 0.06744924932718277, -0.09281366318464279, 0.2221239060163498, -0.08537763357162476, 0.3641487658023834, 0.25756150484085083, -0.08739332854747772, -0.14845708012580872, -0.19103476405143738, -0.05109311640262604, 0.2550838589668274, 0.04782313480973244, 0.3056025207042694, 0.06676394492387772, -0.30331704020500183, 1.1891522407531738, 0.20199021697044373]], "lin.bias": [0.10258309543132782]}}