{"model_data": {"model": "SimpleRNN", "input_size": 1, "skip": 0, "output_size": 1, "unit_type": "LSTM", "num_layers": 1, "hidden_size": 20, "bias_fl": true}, "state_dict": {"rec.weight_ih_l0": [[0.08532214164733887], [0.0922725722193718], [0.0030866058077663183], [0.1260192096233368], [0.04831308126449585], [0.016514107584953308], [0.16664931178092957], [0.20360523462295532], [-0.08315484970808029], [-0.019079750403761864], [0.14656519889831543], [-0.013532332144677639], [0.12773258984088898], [0.11059316992759705], [0.10114908963441849], [-0.04826800152659416], [-0.008052668534219265], [0.048283834010362625], [0.14677923917770386], [-0.017067410051822662], [-0.07326070219278336], [-0.06528355181217194], [0.1170087531208992], [-0.095645472407341], [0.18455646932125092], [0.07131430506706238], [0.12973350286483765], [-0.10890895873308182], [-0.013333373703062534], [-0.012033464387059212], [-0.014481283724308014], [0.1872311532497406], [-0.12204713374376297], [0.2201499491930008], [-0.10110197961330414], [-0.04372274875640869], [0.2301095426082611], [0.08874284476041794], [-0.040333814918994904], [0.17035631835460663], [-0.06557606905698776], [0.0779811292886734], [-0.14855514466762543], [0.0630318745970726], [0.1604389250278473], [-0.04588994383811951], [-0.09046857804059982], [-0.015440458431839943], [0.07646283507347107], [0.12460432946681976], [0.026436137035489082], [-0.0730486810207367], [0.019842732697725296], [-0.003556847106665373], [0.04795195534825325], [-0.12455777823925018], [-0.17359475791454315], [0.04713217914104462], [0.06778892874717712], [0.0042218491435050964], [-0.07994876056909561], [-0.1468673199415207], [0.12765094637870789], [-0.04089995473623276], [0.051854364573955536], [0.0053642187267541885], [-0.04390483349561691], [0.14184866845607758], [0.04265763610601425], [0.15903310477733612], [0.1487220823764801], [-0.025312203913927078], [0.16701604425907135], [0.201255664229393], [0.017580071464180946], [-0.021867485716938972], [-0.022692911326885223], [0.11768370121717453], [0.058452386409044266], [0.072267547249794]], "rec.weight_hh_l0": [[0.25127896666526794, 0.0025250273756682873, -0.13008961081504822, 0.16425563395023346, 0.007219033781439066, -0.13831642270088196, -0.0780392438173294, -0.07137220352888107, -0.004844157490879297, -0.038123928010463715, 0.15406256914138794, -0.10469646006822586, 0.0892806351184845, -0.059340525418519974, 0.1719154268503189, 0.06525091081857681, -0.028953805565834045, 0.21438254415988922, 0.17240840196609497, 0.011418944224715233], [-0.16178838908672333, -0.012672321870923042, 0.19410210847854614, 0.21707017719745636, 0.1565285474061966, -0.07499518245458603, -0.23120348155498505, 0.10636065155267715, 0.12881658971309662, -0.0629468709230423, 0.02598113939166069, 0.01514429785311222, -0.01325036957859993, 0.11674663424491882, 0.07128991186618805, 0.19403280317783356, 0.11148392409086227, 0.11049659550189972, 0.16340404748916626, 0.00468649435788393], [0.03586946055293083, -0.14203813672065735, -0.11720651388168335, -0.22100089490413666, 0.21977020800113678, 0.12787841260433197, 0.02846328169107437, 0.13718929886817932, 0.012662982568144798, 0.1565374732017517, -0.12105248868465424, 0.1652178019285202, -0.018423927947878838, 0.20814967155456543, -0.13365475833415985, 0.1669531762599945, 0.013677624985575676, 0.11452263593673706, -0.1624918282032013, -0.06689908355474472], [-0.10410413891077042, 0.28016653656959534, -0.1672627031803131, 0.1660475730895996, -0.04276428744196892, -0.14819453656673431, -0.002158487681299448, 0.13561847805976868, -0.1797029823064804, 0.055035073310136795, 0.04967200383543968, -0.040637608617544174, 0.021380942314863205, 0.03428936377167702, 0.19709967076778412, -0.2856268584728241, 0.2391824573278427, -0.1601281464099884, 0.14806680381298065, -0.24168576300144196], [-0.24798521399497986, 0.027013657614588737, -0.0187644362449646, -0.1970994919538498, 0.20744659006595612, -0.08213824033737183, -0.10628068447113037, 0.061671506613492966, -0.2337249368429184, -0.07836750894784927, -0.18621951341629028, -0.12795114517211914, 0.2180863320827484, -0.12704139947891235, 0.13066844642162323, -0.17720799148082733, 0.1500675529241562, -0.10904289782047272, -0.08382070064544678, 0.19663965702056885], [-0.1541038155555725, -0.1437729150056839, 0.12102442979812622, 0.14894121885299683, 0.2022630125284195, -0.12499269098043442, -0.10663383454084396, -0.16242457926273346, 0.01663029193878174, 0.09183184057474136, 0.1532905250787735, 0.132669597864151, -0.2053775191307068, 0.08003074675798416, 0.11198314279317856, 0.03557620942592621, 0.08879900723695755, -0.0029056405182927847, -0.14926527440547943, -0.006210494786500931], [0.1733579784631729, -0.08216607570648193, 0.09877172112464905, -0.15323041379451752, 0.17282205820083618, 0.2488296627998352, 0.11441881209611893, 0.03213503211736679, 0.02221774309873581, -0.02995675429701805, -0.05400463193655014, 0.155105859041214, 0.03183344006538391, 0.1298237144947052, 0.13145042955875397, -0.14604255557060242, -0.025303035974502563, -0.149554044008255, -0.08806353807449341, -0.1560421884059906], [-0.11641306430101395, -0.11671368777751923, -0.011763402260839939, -0.13493797183036804, -0.0016163877444341779, 0.005015554837882519, -0.15651920437812805, 0.19491654634475708, 0.10032371431589127, -0.13922114670276642, 0.031558942049741745, 0.02822190150618553, 7.263627048814669e-05, 0.055783066898584366, -0.07946976274251938, -0.19556060433387756, 0.01953979954123497, -0.22323307394981384, -0.14779174327850342, 0.22030262649059296], [0.05784941837191582, -0.018810242414474487, -0.14392957091331482, -0.19686613976955414, 0.09911961853504181, 0.017915382981300354, 0.21637649834156036, -0.10567410290241241, -0.08432137221097946, -0.11299595981836319, -0.15835176408290863, -0.07368136197328568, 0.09404027462005615, -0.09076908230781555, 0.2030574083328247, -0.24471688270568848, -0.03272238001227379, -0.05692582204937935, -0.18288031220436096, -0.06870198994874954], [0.2120300531387329, -0.029405610635876656, -0.07580781728029251, 0.09679397940635681, 0.10040079802274704, 0.23516108095645905, -0.10175883024930954, -0.046909406781196594, 0.16873961687088013, -0.1750415861606598, 0.14944225549697876, 0.06724292039871216, -0.21121253073215485, 0.06823477149009705, 0.12328052520751953, -0.021514466032385826, 0.20748527348041534, 0.12423402816057205, -0.008563809096813202, -0.06053688004612923], [-0.17504842579364777, -0.16114257276058197, -0.014572824351489544, 0.07997650653123856, -0.049208227545022964, 0.1461079865694046, 0.2045954167842865, 0.09179222583770752, 0.0013688126346096396, 0.04870082065463066, 0.12337643653154373, -0.09812045842409134, -0.17004549503326416, 0.13776300847530365, 0.22131234407424927, -0.07857164740562439, 0.17204390466213226, -0.1600518375635147, 0.16333529353141785, -0.043561238795518875], [-0.22027520835399628, 0.03077598847448826, -0.00700347637757659, 0.049255214631557465, 0.08881484717130661, -0.009569170884788036, 0.14764703810214996, 0.07639364153146744, 0.06996721029281616, 0.10723238438367844, 0.1606641262769699, 0.11842001974582672, -0.09384810924530029, 0.17396177351474762, 0.17575982213020325, 0.0979224294424057, 0.1263633817434311, -0.21621732413768768, -0.198325976729393, 0.1956157088279724], [-0.10664907097816467, -0.03991326317191124, 0.007848652079701424, -0.06427175551652908, 0.06654465198516846, -0.1557992547750473, 0.10690002888441086, 0.15699289739131927, -0.0771176815032959, -0.04235203564167023, -0.1188734695315361, 0.28398409485816956, 0.11605741083621979, -0.10530713200569153, -0.07450275868177414, -0.15482378005981445, 0.2605428397655487, -0.08907977491617203, 0.01068038772791624, -0.17343099415302277], [-0.11368323117494583, -0.070429727435112, 0.1883956491947174, -0.008781746961176395, 0.19397130608558655, -0.22675392031669617, -0.20436154305934906, -0.12768270075321198, -0.03581647947430611, 0.1801697015762329, -0.19119451940059662, -0.1989971399307251, -0.05789743736386299, 0.03945176303386688, 0.17203985154628754, 0.20215164124965668, 0.06720606237649918, -0.1450759321451187, -0.19908614456653595, -0.18082740902900696], [0.08180859684944153, 0.16702333092689514, -0.14893005788326263, -0.11140120774507523, 0.21195046603679657, -0.027005910873413086, 0.15264557301998138, 0.11741234362125397, 0.10021649301052094, 0.1655057817697525, -0.10262169688940048, 0.19765017926692963, -0.06726039946079254, 0.01375986635684967, 0.21304303407669067, -0.03457300737500191, 0.1284846067428589, 0.06230864301323891, 0.16948772966861725, 0.07464980334043503], [0.03235267475247383, 0.14572566747665405, -0.04192552715539932, -0.1907440423965454, 0.08137012273073196, 0.03463215008378029, -0.22235603630542755, 0.1535000205039978, -0.23936815559864044, -0.08732033520936966, -0.020355934277176857, 0.03246932849287987, 0.048566173762083054, -0.06840752810239792, 0.12880222499370575, -0.06662803143262863, 0.02260083518922329, -0.10275480151176453, -0.25320783257484436, 0.19138701260089874], [-0.045360736548900604, 0.06756221503019333, 0.2308850884437561, 0.1871454119682312, -0.11177701503038406, 0.13077911734580994, -0.19632381200790405, -0.15776993334293365, 0.06547054648399353, 0.08134656399488449, 0.13370320200920105, -0.016537100076675415, -0.05314861983060837, -0.01885126903653145, -0.2150404006242752, 0.09004423767328262, 0.12407369911670685, -0.15184396505355835, -0.10588909685611725, 0.23464049398899078], [0.016585182398557663, -0.04894004017114639, 0.1360950469970703, -0.037957899272441864, 0.04308641329407692, -0.10983221232891083, 0.10959320515394211, 0.1493285447359085, 0.19236226379871368, 0.1460377424955368, -0.07278575003147125, -0.022709481418132782, -0.046932246536016464, 0.12105026096105576, -0.10649065673351288, 0.019092973321676254, -0.19856047630310059, 0.05360821634531021, -0.15948830544948578, -0.06677026301622391], [0.11707410961389542, -0.12525421380996704, -0.176505908370018, 0.10183631628751755, -0.11337532103061676, -0.1275945007801056, 0.10078243911266327, -0.0808546394109726, -0.08220696449279785, -0.04851321130990982, 0.10738088935613632, 0.08995366096496582, -0.06408900022506714, -0.07433684170246124, -0.10592450201511383, -0.1853133887052536, -0.0449032187461853, -0.07891203463077545, 0.15948882699012756, -0.08072192221879959], [0.04666987806558609, -0.1615668535232544, -0.00715508870780468, -0.005059930495917797, 0.09043848514556885, -0.11408760398626328, 0.25424233078956604, -0.201772078871727, -0.011543904431164265, 0.0032818978652358055, 0.1261572390794754, 0.09050635248422623, 0.03641896694898605, -0.1795574426651001, -0.110629141330719, -0.11250120401382446, -0.056336238980293274, -0.0754331722855568, 0.14638756215572357, -0.058953214436769485], [-0.08679591864347458, -0.01865692064166069, -0.04506022483110428, -0.18865977227687836, -0.07286133617162704, 0.20564985275268555, 0.08008100837469101, -0.17367790639400482, 0.11162201315164566, 0.0035009838175028563, 0.08696077764034271, 0.1604718714952469, -0.05703650042414665, 0.030380167067050934, 0.04296068847179413, 0.13709916174411774, 0.11192497611045837, 0.031310491263866425, -0.1103120967745781, -0.15767911076545715], [0.08046197891235352, 0.07661707699298859, 0.03326134756207466, 0.09228891879320145, -0.06573278456926346, 0.02639557607471943, -0.17106109857559204, 0.1806076169013977, -0.0506046861410141, -0.031999681144952774, 0.14862361550331116, -0.026610594242811203, 0.19322453439235687, 0.032769251614809036, 0.2113095223903656, 0.13634243607521057, -0.13583850860595703, 0.11131489276885986, -0.23178592324256897, -0.13258078694343567], [-0.18731358647346497, 0.05484846234321594, -0.14876633882522583, 0.10611473023891449, -0.03799944743514061, -0.047632355242967606, -0.05997777730226517, 0.13456416130065918, 0.07354381680488586, 0.04531831666827202, -0.0559503436088562, 0.024706002324819565, 0.17471112310886383, 0.15142033994197845, 0.020579718053340912, -0.1324426680803299, 0.2499702274799347, -0.08965086936950684, -0.09667107462882996, 0.16644160449504852], [0.19716979563236237, 0.17109951376914978, -0.14750032126903534, 0.16228820383548737, 0.08683466911315918, -0.002548731630668044, -0.06598621606826782, -0.00874341931194067, 0.07006292045116425, 0.17549286782741547, -0.03241989016532898, 0.24896840751171112, -0.15237081050872803, 0.14489418268203735, -0.09196716547012329, 0.010807950049638748, 0.19902575016021729, 0.14614349603652954, 0.0577419176697731, 0.00026026423438452184], [-0.037888843566179276, 0.017651939764618874, 0.21738722920417786, 0.0883718803524971, 0.14120453596115112, -0.14485247433185577, -0.1762247532606125, 0.12023276835680008, 0.022900719195604324, -0.11407697945833206, 0.13677096366882324, -0.19215962290763855, -0.17347455024719238, -0.0330413281917572, -0.199842169880867, -0.14566701650619507, 0.06546535342931747, 0.13339468836784363, 0.03169232979416847, -0.028160281479358673], [0.13214191794395447, -0.00028878849116154015, 0.1500539481639862, -0.2361210137605667, 0.19911101460456848, 0.14251834154129028, 0.2102959007024765, -0.22065706551074982, 0.014200407080352306, -0.05128759518265724, -0.06380465626716614, 0.09398970007896423, 0.18329168856143951, -0.03255865350365639, 0.2660512924194336, 0.05620385333895683, 0.01976696215569973, 0.010472931899130344, 0.2241317331790924, 0.029445478692650795], [-0.16501469910144806, 0.10349170118570328, -0.2208257019519806, 0.08318391442298889, 0.054732389748096466, 0.07019604742527008, 0.1992780566215515, -0.1560303419828415, -0.19808824360370636, 0.11061437427997589, -0.1021350845694542, 0.2405451238155365, -0.14838220179080963, -0.019655870273709297, 0.1578933149576187, 0.0955561101436615, 0.07056242972612381, -0.16730524599552155, -0.07401201874017715, -0.1479528546333313], [0.05042288452386856, 0.1249711811542511, 0.15793181955814362, 0.09920864552259445, -0.029969464987516403, 0.013095484115183353, -0.20652809739112854, 0.02310219779610634, -0.09526212513446808, -0.11018871515989304, -0.16289609670639038, 0.12210778146982193, 0.019661396741867065, 0.21500086784362793, -0.1415935605764389, -0.04730331525206566, 0.13871033489704132, 0.1996726244688034, -0.09909799695014954, 0.10723432898521423], [0.060746658593416214, -0.11711724102497101, 0.12340511381626129, -0.01724179834127426, 0.23222818970680237, 0.04002982750535011, -0.15762639045715332, -0.05330919846892357, 0.13463950157165527, 0.12815329432487488, -0.0364309586584568, 0.08808004856109619, 0.1370956152677536, -0.12536492943763733, 0.15592269599437714, -0.12981274724006653, 0.2386704534292221, 0.1406136155128479, -0.19049805402755737, 0.06283547729253769], [0.19976477324962616, 0.12881775200366974, -0.16902989149093628, 0.13768386840820312, 0.2101113349199295, 0.19492946565151215, -0.0795004814863205, -0.1257885843515396, -0.12595386803150177, 0.06098778918385506, 0.24100962281227112, 0.2252495437860489, -0.10103461146354675, 0.14451813697814941, 0.14611506462097168, -0.030088480561971664, 0.08097468316555023, 0.022139646112918854, -0.053231291472911835, -0.14033471047878265], [0.02347433939576149, 0.03852692246437073, 0.06786888837814331, 0.12741082906723022, 0.2399064153432846, 0.12338336557149887, -0.16336660087108612, 0.08597474545240402, 0.1766873002052307, 0.07403496652841568, 0.07084400206804276, 0.07391969114542007, -0.22714053094387054, 0.09342138469219208, 0.21466411650180817, 0.003826317610219121, 0.18626783788204193, 0.18635636568069458, -0.02560546062886715, -0.07024398446083069], [0.1558765470981598, -0.16948063671588898, 0.08145032078027725, -0.0025227477308362722, -0.20184175670146942, -0.06485260277986526, 0.11811129003763199, 0.15769600868225098, -0.004309740848839283, 0.12300026416778564, 0.10729970782995224, -0.004468842875212431, 0.07011101394891739, -0.15804177522659302, 0.17423753440380096, -0.1620475947856903, 0.04654373228549957, 0.016673963516950607, -0.09307605773210526, 0.05834592133760452], [0.188450887799263, -0.08727476745843887, -0.14117306470870972, 0.10272128134965897, -0.026201268658041954, -0.007047475315630436, 0.015100770629942417, 0.12308447062969208, -0.18393544852733612, 0.03524580970406532, 0.12412633001804352, 0.2815687358379364, 0.1180548444390297, 0.04416610300540924, -0.159729465842247, 0.10048364102840424, 0.24751131236553192, -0.12241620570421219, -0.057280559092760086, 0.007256991695612669], [0.11819905042648315, -0.08352134376764297, 0.00891062244772911, 0.17678996920585632, -0.10145097970962524, -0.14945727586746216, 0.0838155671954155, 0.015011725947260857, 0.10512260347604752, -0.2146233767271042, 0.13466140627861023, -0.21733738481998444, 0.0002596797130536288, -0.023909583687782288, 0.1196477860212326, -0.055306822061538696, -0.00611486891284585, -0.08798389136791229, -0.1533542275428772, -0.11020468175411224], [-0.13112212717533112, 0.17118819057941437, 0.16033625602722168, -0.06352473795413971, -0.08544939756393433, 0.22395633161067963, 0.18390819430351257, 0.012966836802661419, -0.1778716742992401, 0.1945648044347763, 0.23318946361541748, -0.065676249563694, 0.15991424024105072, 0.13215363025665283, 0.1288999319076538, -0.16051265597343445, -0.11988361924886703, 0.14478564262390137, -0.00027518716524355114, -0.20275653898715973], [-0.14472800493240356, 0.19253258407115936, 0.06118719279766083, 0.01790699176490307, 0.1832190901041031, 0.03548391908407211, 0.0017059482634067535, -0.019785767421126366, 0.1310747116804123, -0.11130943894386292, -0.17537075281143188, 0.17168815433979034, -0.06779638677835464, 0.059222131967544556, 0.04811305180191994, 0.2147950828075409, -0.1106841117143631, -0.04169927537441254, 0.10752347856760025, -0.03840991109609604], [-0.029439309611916542, -0.11667781323194504, 0.07621774077415466, -0.08303408324718475, -0.04788661375641823, 0.04087876155972481, 0.09972896426916122, 0.14671096205711365, 0.1478213518857956, 0.062120188027620316, -0.19096821546554565, -0.1279652714729309, 0.09940160065889359, -0.02319265529513359, 0.03549100458621979, 0.059108916670084, 0.05410034954547882, 0.1872655153274536, -0.06928545981645584, 0.1121344342827797], [0.15193897485733032, -0.03243348002433777, 0.12394237518310547, 0.12507660686969757, 0.056501105427742004, 0.08542080223560333, -0.07314609736204147, -0.22991742193698883, -0.155009463429451, 0.1651259958744049, -0.19831596314907074, -0.04217342287302017, 0.04875640943646431, -0.08159035444259644, 0.03122679889202118, 0.08596590161323547, 0.050772774964571, 0.07072999328374863, 0.08022239059209824, -0.048292048275470734], [0.24750636518001556, 0.045900143682956696, -0.19453482329845428, -0.004160732496529818, 0.12616989016532898, -0.014393084682524204, -0.006958316080272198, -0.08740545064210892, 0.08166828751564026, -0.0125337028875947, 0.18862907588481903, -0.04591308906674385, -0.09077170491218567, -0.00730957230553031, -0.15289314091205597, -0.25250107049942017, -0.07764054089784622, 0.1710074543952942, 0.06727495044469833, -0.10894573479890823], [-0.15481670200824738, 0.2066284567117691, -0.16836966574192047, 0.018184470012784004, 0.160516157746315, 0.06222829967737198, 0.08907660841941833, -0.14978668093681335, -0.017467767000198364, -0.049709025770425797, 0.06287967413663864, 0.1422373652458191, -0.20236898958683014, -0.1677551418542862, -0.18342433869838715, -0.15544110536575317, 0.235347718000412, -0.07884576171636581, -0.09980716556310654, -0.20323829352855682], [0.12332519143819809, -0.12060877680778503, 0.17405465245246887, 0.11680229008197784, 0.038699861615896225, -0.051536090672016144, -0.15562883019447327, 0.13990622758865356, -0.044851481914520264, 0.14727869629859924, 0.04599854350090027, -0.11782487481832504, 0.07698848098516464, -0.002742404816672206, -0.11825186759233475, 0.14898933470249176, -0.03113826923072338, -0.06782718747854233, 0.12352883815765381, 0.09738269448280334], [-0.07771015912294388, -0.03990106284618378, 0.11500237137079239, 0.026713984087109566, 0.08821272104978561, -0.0034140697680413723, 0.1387133002281189, -0.2295784205198288, 0.19437415897846222, 0.2220500111579895, -0.22793066501617432, -0.09887341409921646, -0.06119352951645851, -0.07297643274068832, -0.10091715306043625, -0.16163848340511322, -0.20278584957122803, 0.05016413331031799, 0.06868916004896164, 0.102284736931324], [-0.04321301728487015, -0.18103130161762238, 0.1764448583126068, -0.1022922620177269, 0.11973059922456741, -0.17893725633621216, 0.18129058182239532, 0.07174702733755112, 0.257218599319458, 0.006598286796361208, 0.024980638176202774, 0.1649291068315506, -0.25550636649131775, 0.03027527406811714, -0.14250361919403076, -0.19379264116287231, 0.18763265013694763, -0.0515257753431797, 0.16497649252414703, 0.1548212766647339], [0.0078070079907774925, 0.2849538326263428, 0.17164893448352814, -0.10441900789737701, 0.1634369045495987, 0.16903841495513916, 0.25237587094306946, 0.09541141986846924, -0.16404403746128082, 0.05687449872493744, -0.05536964535713196, -0.06346674263477325, 0.14834743738174438, 0.07186189293861389, 0.10309949517250061, 0.12754656374454498, 0.2896723747253418, 0.08990226686000824, 0.07257243990898132, -0.1160365417599678], [-0.14197658002376556, -0.16211073100566864, -0.26056939363479614, -0.07491463422775269, 0.17147760093212128, -0.15073516964912415, -0.075743168592453, -0.04346814751625061, -0.04082164913415909, 0.10562384128570557, -0.10542795807123184, 0.20147410035133362, -0.08229198306798935, 0.08419542014598846, -0.026222582906484604, 0.09804071485996246, 0.20376676321029663, -0.1985451579093933, -0.10205107927322388, -0.2541351914405823], [-0.08159206807613373, 0.08061718940734863, -0.1250617653131485, -0.17201977968215942, -0.2095245122909546, 0.08447743952274323, -0.018774230033159256, 0.11191271990537643, 0.1379753202199936, -0.20112328231334686, -0.18986672163009644, -0.21382977068424225, 0.25030866265296936, 0.09591228514909744, 0.15132662653923035, 0.07009274512529373, -0.20003974437713623, -0.0014600366121158004, -0.11587395519018173, -0.09561072289943695], [-0.17770735919475555, -0.03174779191613197, 0.20523419976234436, 0.03535652160644531, 0.03306769207119942, 0.09410081058740616, -0.2081691175699234, -0.08184321969747543, -0.01874482072889805, 0.13341955840587616, -0.18837253749370575, 0.13945047557353973, 0.11700945347547531, 0.17602792382240295, -0.22165973484516144, -0.06267498433589935, 0.09062472730875015, 0.14930608868598938, 0.1738349199295044, -0.170242577791214], [-0.214055597782135, -0.04425960034132004, 0.17542535066604614, -0.1684344857931137, -0.04051307961344719, -0.1363987773656845, 0.19973307847976685, -0.006598346866667271, -0.1829100400209427, -0.22978095710277557, 0.10017480701208115, 0.05906971916556358, -0.10023920238018036, 0.1371203064918518, -0.027547454461455345, 0.12705084681510925, -0.13280433416366577, -0.08174487203359604, -0.016144143417477608, 0.0533214695751667], [0.1803199201822281, -0.11990614980459213, 0.1635492891073227, -0.0907198116183281, -0.2365991324186325, -0.07031107693910599, -0.030482731759548187, 0.09074229747056961, -0.1300828903913498, 0.07412607222795486, 0.03998717665672302, 0.09620442986488342, 0.12115467339754105, -0.1669929474592209, 0.06646917760372162, 0.10722154378890991, -0.0690862387418747, -0.10415110737085342, 0.1589002162218094, -0.04165245592594147], [0.025167379528284073, -0.23841243982315063, -0.11817080527544022, -0.07503118366003036, 0.17868328094482422, 0.07875986397266388, 0.17323310673236847, 0.023677997291088104, -0.08160407841205597, 0.11880312860012054, 0.1858973503112793, -0.1276850551366806, 0.13928359746932983, 0.17491748929023743, -0.002382120583206415, 0.21235790848731995, 0.03769102320075035, -0.14201490581035614, 0.10360325872898102, 0.03170537203550339], [0.09541633725166321, -0.017101168632507324, 0.11795619875192642, -0.14789220690727234, 0.12129368633031845, 0.10687004774808884, -0.09005094319581985, 0.10321857035160065, -0.0847945585846901, -0.03765123710036278, 0.028759416192770004, 0.22148339450359344, -0.13651591539382935, 0.11456122249364853, 0.03820991516113281, -0.14825795590877533, 0.19018413126468658, -0.14099693298339844, 0.06515100598335266, 0.10269016027450562], [-0.010205782949924469, 0.2168138474225998, -0.15565133094787598, 0.13025882840156555, 0.22431524097919464, -0.05229387804865837, 0.11673633009195328, -0.15735530853271484, -0.0834110900759697, -0.1751701384782791, 0.20063097774982452, 0.18099042773246765, -0.07990694046020508, 0.08561805635690689, 0.12099473178386688, -0.0699833557009697, 0.14222216606140137, 0.14842917025089264, 0.08430521935224533, 0.10346058011054993], [0.0755109041929245, -0.10747390240430832, 0.030432522296905518, 0.11642718315124512, 0.07331717759370804, 0.03377300128340721, -0.05967791751027107, -0.12375334650278091, -0.12840557098388672, 0.023119162768125534, -0.13451527059078217, 0.14094668626785278, 0.04146944358944893, 0.048038240522146225, -0.15066684782505035, -0.24395188689231873, 0.1661757230758667, 0.1154419556260109, -0.09431987255811691, 0.08301623910665512], [-0.14591924846172333, 0.09451522678136826, -0.022597627714276314, -0.11256946623325348, -0.12804418802261353, -0.029504509642720222, 0.0677376314997673, -0.005219403188675642, -0.1289232224225998, 0.19160832464694977, -0.012586439959704876, 0.12011083215475082, 0.12250079959630966, 0.16894643008708954, -0.06334972381591797, -0.10671784728765488, 0.21145282685756683, -0.03784382715821266, 0.19954326748847961, -0.24520108103752136], [0.17024444043636322, 0.07331858575344086, -0.08573341369628906, 0.03808765858411789, 0.15340621769428253, 0.012880907393991947, 0.1757144331932068, -0.16820615530014038, 0.20674046874046326, -0.062292829155921936, 0.011637897230684757, -0.13752034306526184, 0.22175393998622894, 0.1750859171152115, -0.019937502220273018, -0.08329865336418152, -0.2578608989715576, -0.19093140959739685, -0.23153941333293915, 0.1417512148618698], [-0.10696429014205933, -0.16037745773792267, 0.24950216710567474, 0.03656249865889549, -0.14884252846240997, -0.21398603916168213, -0.02986009605228901, 0.03821108862757683, -0.06553887575864792, 0.05241403728723526, -0.0859328955411911, -0.1111062541604042, 0.1109655424952507, -0.1404828429222107, 0.03930693864822388, -0.004936080425977707, 0.022636450827121735, -0.14675076305866241, -0.02038254588842392, 0.1367819458246231], [0.2031443864107132, 0.19542242586612701, 0.10563138127326965, 0.013196473941206932, -0.10530422627925873, 0.11641429364681244, -0.13788732886314392, 0.06151368468999863, 0.01056736707687378, 0.13283292949199677, 0.05620031803846359, 0.16093899309635162, 0.00818549282848835, -0.05190959572792053, -0.062186114490032196, 0.10370220988988876, -0.20189185440540314, -0.03516443073749542, -0.12213447690010071, -0.1279001533985138], [0.11117420345544815, -0.024662436917424202, 0.2177741527557373, 0.0065356469713151455, 0.16908380389213562, -0.251268208026886, 0.11595186591148376, -0.02947029285132885, 0.17733873426914215, 0.06866265088319778, -0.01748991198837757, 0.18929535150527954, 0.058676376938819885, 0.12872880697250366, -0.18347479403018951, -0.1770414263010025, -0.024591956287622452, -0.2234697937965393, -0.08090456575155258, -0.11552993208169937], [-0.14330488443374634, 0.004859688691794872, -0.11538761854171753, 0.13745248317718506, -0.13831138610839844, -0.03604447841644287, -0.007055291905999184, -0.10980458557605743, 0.18678826093673706, -0.19474241137504578, -0.2303302139043808, -0.0058205085806548595, 0.14459286630153656, -0.03226336091756821, 0.13829192519187927, 0.016472794115543365, -0.25247883796691895, -0.21829721331596375, 0.1387915313243866, 0.13816720247268677], [0.03350883349776268, 0.004868310876190662, 0.07133348286151886, 0.044162265956401825, 0.09208513796329498, 0.08117428421974182, -0.09342926740646362, 0.15327994525432587, -0.04296094924211502, 0.04140325263142586, 0.11360827833414078, -0.11349249631166458, 0.11174320429563522, 0.22697564959526062, -0.13886003196239471, -0.252734899520874, 0.04688028618693352, 0.07390625029802322, 0.15001824498176575, -0.19167780876159668], [-0.08827658742666245, -0.04730449244379997, -0.007112960331141949, -0.05725549906492233, 0.17803306877613068, 0.18996620178222656, 0.16282078623771667, 0.12915301322937012, -0.0694238692522049, -0.13869333267211914, 0.20970697700977325, 0.143014058470726, 0.03184213116765022, -0.04223527014255524, 0.17656026780605316, 0.06392773240804672, 0.03687068074941635, 0.06766626983880997, -0.12335531413555145, 0.08925336599349976], [0.09536416083574295, -0.15125761926174164, 0.21575096249580383, -0.08213973790407181, -0.06416913121938705, -0.22282975912094116, 0.0008081509149633348, 0.04707486927509308, -0.13155026733875275, -0.10857529938220978, 0.10195411741733551, -0.16097517311573029, -0.04430176317691803, 0.09074043482542038, -0.06508193910121918, 0.08745155483484268, -0.05565253272652626, -0.18646536767482758, -0.08928269892930984, 0.20562323927879333], [-0.028051620349287987, 0.16382187604904175, -0.23671139776706696, 0.04251621663570404, 0.2117815464735031, -0.00477580027654767, 0.16282501816749573, -0.09686695784330368, -0.2217516452074051, -0.1226046085357666, 0.060089342296123505, 0.047716688364744186, 0.15982545912265778, 0.219257652759552, -0.011237047612667084, 0.10349300503730774, 0.23104605078697205, -0.06711726635694504, -0.1710178405046463, -0.18564660847187042], [-0.05111381784081459, 0.06772468239068985, 0.11622290313243866, 0.10519986599683762, 0.27885007858276367, 0.1618710458278656, -0.14576900005340576, -0.06379548460245132, -0.13492624461650848, 0.08588109165430069, -0.044499967247247696, 0.07061994075775146, -0.028212442994117737, 0.25000104308128357, -0.08569083362817764, 0.031207285821437836, -0.1405288279056549, 0.22614921629428864, 0.20617400109767914, -0.1245545893907547], [0.10078467428684235, -0.16517901420593262, -0.12208909541368484, -0.22014294564723969, 0.01058100163936615, -0.19543662667274475, -0.20776739716529846, 0.1824805736541748, 0.1687680035829544, -0.05933310091495514, -0.19083894789218903, 0.08775286376476288, -0.15815068781375885, -0.19451849162578583, -0.03890380263328552, 0.08047620207071304, 0.16856606304645538, -0.17020945250988007, -0.19272270798683167, -0.13836045563220978], [0.24719859659671783, -0.06870044022798538, -0.1453891098499298, -0.08610931038856506, 0.10359430313110352, 0.14273014664649963, -0.16367009282112122, 0.08418124914169312, 0.09411833435297012, 0.23320484161376953, -0.11325856298208237, 0.11155310273170471, -0.08682961016893387, 0.029932934790849686, -0.09007718414068222, 0.05147138610482216, 0.22022680938243866, -0.00948072038590908, -0.059352755546569824, -0.13593295216560364], [0.05714166536927223, -0.06533773988485336, 0.0593339204788208, -0.15596674382686615, 0.11025689542293549, 0.027568990364670753, 0.21362625062465668, -0.12493515759706497, -0.094591423869133, -0.014858036302030087, 0.07112789899110794, -0.17485925555229187, 0.0030593511182814837, 0.20933930575847626, -0.13234242796897888, 0.14571848511695862, 0.014218823052942753, 0.038988322019577026, 0.1846957504749298, -0.016158372163772583], [-0.10157636553049088, 0.005774442572146654, 0.2284841388463974, -0.008783907629549503, -0.021983718499541283, -0.03547938913106918, -0.15411122143268585, -0.2024732232093811, -0.10093820095062256, -0.21947750449180603, 0.2418428659439087, 0.007557456847280264, -0.18622690439224243, 0.20060934126377106, 0.013898258097469807, -0.13691000640392303, -0.2099446803331375, -0.17317508161067963, -0.1512330174446106, 0.09471995383501053], [0.05577029287815094, 0.15151937305927277, -0.2250968962907791, -0.016632942482829094, 0.17075026035308838, 0.1197386234998703, -0.15026642382144928, -0.1837894767522812, 0.20332646369934082, 0.11010123789310455, -0.0043687717989087105, 0.14723576605319977, 0.16721151769161224, -0.041680023074150085, -0.03319598734378815, 0.1510065495967865, -0.15230469405651093, 0.2586745619773865, -0.05590982362627983, -0.12747786939144135], [0.24106375873088837, -0.03171035647392273, -0.08894612640142441, -0.1816302239894867, 0.008370746858417988, 0.11740222573280334, -0.09630049020051956, -0.16985975205898285, -0.09785378724336624, 0.06288046389818192, 0.07539915293455124, -0.059638336300849915, 0.07048311084508896, 0.022755496203899384, -0.05130676180124283, -0.05185083672404289, -0.03461092710494995, 0.06774060428142548, -0.18382784724235535, 0.029493192210793495], [-0.05800723657011986, 0.21542666852474213, 0.03422212973237038, 0.01166264247149229, -0.1374131441116333, 0.14155565202236176, 0.1695399433374405, 0.12224490195512772, -0.0728970393538475, -0.14049480855464935, 0.1571826934814453, 0.04543951526284218, 0.21511457860469818, 0.12346477806568146, -0.056510183960199356, -0.1226901262998581, -0.1890271157026291, -0.025305869057774544, -0.15089631080627441, -0.12291969358921051], [0.130966916680336, -0.018162623047828674, 0.2771422863006592, 0.11718080192804337, -0.047200094908475876, -0.04119769111275673, -0.08870606124401093, 0.17900450527668, -0.09464342147111893, 0.10497808456420898, 0.23629510402679443, 0.1973925083875656, 0.20566777884960175, -0.14684541523456573, 0.14917637407779694, 0.03317602351307869, -0.07393161207437515, 0.15051260590553284, -0.09660044312477112, 0.2600722908973694], [0.01463363878428936, 0.1676216870546341, -0.0816577821969986, -0.11718199402093887, 0.00032231974182650447, -0.16625843942165375, 0.03680034726858139, -0.2154775857925415, 0.1633322685956955, 0.04879122972488403, 0.09431042522192001, 0.01636793464422226, -0.05813271924853325, 0.08573582768440247, 0.14621500670909882, -0.1470223218202591, 0.06115461885929108, 0.11991531401872635, 0.09353676438331604, 0.05406707525253296], [-0.19502532482147217, 0.16166846454143524, 0.16095833480358124, 0.02935718558728695, 0.10272911936044693, 0.07235666364431381, -0.030166255310177803, -0.01358854677528143, -0.17913328111171722, -0.061946846544742584, -0.07578419893980026, 0.16932260990142822, 0.15869803726673126, -0.1980724036693573, -0.13650456070899963, -0.06772012263536453, -0.10854452103376389, 0.07546893507242203, 0.007890021428465843, 0.029802192002534866], [0.021837476640939713, 0.1572418361902237, -0.010297263041138649, -0.04074699431657791, -0.17261739075183868, -0.0295359306037426, -0.05683119595050812, -0.2496272623538971, 0.1513597071170807, -0.13774234056472778, 0.15460528433322906, 0.26405957341194153, 0.17416024208068848, 0.20080487430095673, 0.0726526752114296, -0.2393701672554016, -0.12664483487606049, 0.032991260290145874, 0.0343068391084671, 0.06904499977827072], [-0.0425877720117569, -0.20886850357055664, 0.22385156154632568, -0.09524837881326675, 0.15969526767730713, -0.01910008303821087, -0.1602819412946701, 0.05854669585824013, -0.23720909655094147, 0.09799173474311829, -0.049221087247133255, -0.14785288274288177, 0.030706273391842842, 0.2185337245464325, 0.044076092541217804, 0.027505187317728996, 0.11953721940517426, 0.04008602350950241, -0.051360324025154114, -0.10358420014381409], [0.046895962208509445, -0.16654302179813385, 0.055095870047807693, -0.09215988218784332, -0.1832893043756485, -0.08644286543130875, 0.022343818098306656, 0.16859766840934753, -0.034745633602142334, 0.09713348001241684, -0.10264936089515686, 0.14095759391784668, -0.10298319905996323, -0.0611230731010437, 0.025052417069673538, 0.11789336055517197, 0.08096440136432648, 0.04798094183206558, -0.18879741430282593, -0.14850538969039917], [0.05869712680578232, -0.06981351226568222, -0.0009422942530363798, -0.25232988595962524, 0.13498961925506592, 0.1655724197626114, -0.07011638581752777, 0.1737237572669983, -0.18903036415576935, 0.17443741858005524, 0.21786552667617798, -0.019118143245577812, -0.010629480704665184, 0.14141330122947693, 0.13059130311012268, -0.04818636551499367, -0.08002548664808273, 0.15977460145950317, -0.06085154414176941, -0.1612035036087036], [-0.01642211712896824, -0.0924810916185379, 0.0403222031891346, -0.18469223380088806, -0.04565679281949997, -0.016425758600234985, -0.1483311653137207, 0.19104737043380737, -0.1613856852054596, -0.018197258934378624, -0.0898076519370079, 0.05025343596935272, 0.09115409851074219, 0.235142782330513, 0.0342090018093586, -0.1306769996881485, -0.07829764485359192, -0.13980214297771454, -0.20304657518863678, -0.048521678894758224], [-0.03232760727405548, 0.130049929022789, -0.22083458304405212, 0.13771837949752808, 0.02723601646721363, -0.10442744940519333, 0.2137928158044815, 0.04737430065870285, -0.13530544936656952, 0.2244902402162552, 0.16963601112365723, 0.010330764576792717, -0.05358196049928665, -0.12200871109962463, 0.17996647953987122, -0.2155005782842636, 0.05078205093741417, 0.23441320657730103, 0.20454537868499756, -0.08828990906476974]], "rec.bias_ih_l0": [-0.11122728884220123, 0.13193529844284058, -0.15378673374652863, 0.1620633751153946, -0.022342698648571968, -0.03435266390442848, -0.08336500078439713, 0.10822360962629318, -0.1377532184123993, -0.2537068724632263, 0.014525525271892548, 0.09297894686460495, 0.14710767567157745, 0.054430875927209854, -0.15047095715999603, 0.15406733751296997, -0.08984475582838058, -0.19329164922237396, -0.006142377387732267, -0.07984679937362671, 0.16073288023471832, -0.14657700061798096, -0.02843073196709156, 0.08101586997509003, -0.13893741369247437, 0.016568893566727638, -0.2380305528640747, 0.1768651008605957, -0.060985248535871506, 0.10225943475961685, 0.194216787815094, -0.038969285786151886, -0.22651436924934387, -0.06514505296945572, -0.09215107560157776, -0.014556446112692356, -0.027997884899377823, 0.14631341397762299, -0.049981970340013504, -0.21227926015853882, -0.11686673760414124, 0.09453915059566498, 0.12994231283664703, -0.04908216744661331, -0.1348680853843689, -0.1866905689239502, -0.035003598779439926, 0.20067660510540009, 0.07270974665880203, -0.1277317851781845, -0.16410118341445923, -0.050921738147735596, 0.016554629430174828, -0.2075010985136032, -0.18004848062992096, 0.18862108886241913, 0.0948195606470108, -0.014076956547796726, 0.02209744229912758, -0.053037483245134354, -0.04790002480149269, -0.08443450927734375, -0.06106288358569145, 0.11167584359645844, 0.07390395551919937, 0.00100433558691293, -0.21119238436222076, -0.14958864450454712, -0.16325940191745758, 0.11115733534097672, -0.005114416591823101, -0.025251511484384537, -0.13975046575069427, -0.15065470337867737, -0.20972123742103577, 0.22378161549568176, 0.2057989090681076, -0.12327512353658676, -0.06854116916656494, 0.07308521121740341], "rec.bias_hh_l0": [0.053727611899375916, 0.055936604738235474, -0.03076010011136532, -0.16220463812351227, 0.13835328817367554, -0.14260657131671906, -0.10150950402021408, -0.19132216274738312, 0.050379376858472824, -0.21482589840888977, -0.05048394948244095, 0.0034058880992233753, 0.11578488349914551, 0.19784656167030334, 0.049406420439481735, 0.0033507258631289005, 0.20646484196186066, 0.07187925279140472, 0.03567594289779663, -0.05512608587741852, 0.07931800186634064, -0.17933796346187592, -0.2225998044013977, -0.07246500253677368, -0.057389095425605774, -0.022676633670926094, 0.17480573058128357, -0.20013652741909027, 0.04275486618280411, 0.031141340732574463, 0.11726576089859009, 0.228884756565094, -0.024393880739808083, 0.14377497136592865, 0.17341569066047668, 0.01668182946741581, 0.06863264739513397, -0.010883377864956856, -0.05865124985575676, -0.03597704693675041, -0.03958084061741829, -0.20854723453521729, -0.1164451539516449, 0.12981761991977692, 0.03744211047887802, -0.1394544243812561, -0.06980947405099869, 0.20418420433998108, -0.10524997860193253, 0.07437960058450699, 0.16968511044979095, -0.13808780908584595, 0.08152192085981369, -0.1623774766921997, -0.1277063935995102, 0.08184462040662766, -0.19997236132621765, 0.029800763353705406, -0.07001013308763504, 0.1272350251674652, -0.0768410712480545, -0.10298454761505127, -0.25130870938301086, 0.14961279928684235, 0.1842372566461563, -0.10131338238716125, -0.18071000277996063, 0.2141776978969574, -0.174559086561203, -0.08646447956562042, -0.11457865685224533, 0.2190694361925125, 0.006446299608796835, 0.1515927016735077, -0.24177154898643494, -0.15199749171733856, 0.18380047380924225, 0.18335899710655212, -0.0915818065404892, 0.16655053198337555], "lin.weight": [[0.07043508440256119, -0.13520804047584534, -0.08136693388223648, 0.02091878280043602, -0.22158856689929962, 0.17267754673957825, 0.12662439048290253, 0.020918412134051323, -0.026026980951428413, 0.1682845801115036, -0.11710788309574127, -0.11715216189622879, -0.06817866116762161, -0.16615305840969086, -0.012561055831611156, 0.13612288236618042, -0.126154363155365, 0.09371275454759598, -0.022434525191783905, -0.08333620429039001]], "lin.bias": [-0.101744145154953]}}