{"model_data": {"model": "SimpleRNN", "input_size": 1, "skip": 0, "output_size": 1, "unit_type": "LSTM", "num_layers": 1, "hidden_size": 20, "bias_fl": true}, "state_dict": {"rec.weight_ih_l0": [[0.08872520923614502], [0.09429583698511124], [0.0042775277979671955], [0.13876745104789734], [0.04906204715371132], [0.01720505580306053], [0.17180368304252625], [0.20840135216712952], [-0.09775791317224503], [-0.01950453780591488], [0.15107476711273193], [-0.01602090895175934], [0.14292171597480774], [0.11032649129629135], [0.10543723404407501], [-0.049254558980464935], [-0.010185923427343369], [0.050509389489889145], [0.15846730768680573], [-0.017831599339842796], [-0.07482670247554779], [-0.06585497409105301], [0.12302260100841522], [-0.10437434911727905], [0.18818598985671997], [0.07270801812410355], [0.13504186272621155], [-0.11438640207052231], [-0.016168344765901566], [-0.012639965862035751], [-0.01585536263883114], [0.1863977462053299], [-0.13289977610111237], [0.22011873126029968], [-0.10585431009531021], [-0.04426956921815872], [0.23048529028892517], [0.09218145906925201], [-0.0423373207449913], [0.17835476994514465], [-0.06605572253465652], [0.0792093276977539], [-0.150389164686203], [0.06273552775382996], [0.16228769719600677], [-0.04658748209476471], [-0.09165457636117935], [-0.01898478902876377], [0.07704658806324005], [0.1244967058300972], [0.02735678292810917], [-0.07165098190307617], [0.018046457320451736], [-0.001854881178587675], [0.0491301529109478], [-0.1261153668165207], [-0.17280688881874084], [0.0460331104695797], [0.06981440633535385], [0.0034814272075891495], [-0.08214279264211655], [-0.14855161309242249], [0.13317440450191498], [-0.04587232321500778], [0.0533340647816658], [0.0055229016579687595], [-0.04393990337848663], [0.1445387601852417], [0.049483004957437515], [0.16182836890220642], [0.15348131954669952], [-0.027139175683259964], [0.17966045439243317], [0.20261608064174652], [0.018185695633292198], [-0.02178279124200344], [-0.02540128119289875], [0.12244594842195511], [0.06367703527212143], [0.07552118599414825]], "rec.weight_hh_l0": [[0.25130030512809753, 0.002526233671233058, -0.13011562824249268, 0.16426512598991394, 0.007222629152238369, -0.1383219212293625, -0.07804518938064575, -0.0713757574558258, -0.00484861433506012, -0.038127366453409195, 0.15414303541183472, -0.10470214486122131, 0.08928516507148743, -0.05934237688779831, 0.17192381620407104, 0.06525345891714096, -0.028962096199393272, 0.21440498530864716, 0.17246507108211517, 0.011420156806707382], [-0.16182515025138855, -0.012675699777901173, 0.19413542747497559, 0.21708792448043823, 0.15653277933597565, -0.07500360906124115, -0.231227308511734, 0.10636647790670395, 0.12883245944976807, -0.06295965611934662, 0.025979630649089813, 0.01514088548719883, -0.013252957724034786, 0.11674526333808899, 0.07128997147083282, 0.19404129683971405, 0.1114875003695488, 0.1105039045214653, 0.16343529522418976, 0.004685577005147934], [0.035876642912626266, -0.14209260046482086, -0.11725888401269913, -0.22102859616279602, 0.21984520554542542, 0.12789161503314972, 0.028468089178204536, 0.13720326125621796, 0.012675277888774872, 0.15657080709934235, -0.12110453844070435, 0.16523823142051697, -0.018425922840833664, 0.20816737413406372, -0.13366906344890594, 0.16697067022323608, 0.01368151605129242, 0.11454817652702332, -0.1626107543706894, -0.06691084057092667], [-0.10414590686559677, 0.28025251626968384, -0.16736873984336853, 0.1660839468240738, -0.04277278110384941, -0.14822131395339966, -0.0021591982804238796, 0.1356337070465088, -0.1797947734594345, 0.05505678802728653, 0.04968281090259552, -0.04064188897609711, 0.02138490043580532, 0.03429216518998146, 0.19713212549686432, -0.28565680980682373, 0.23924040794372559, -0.16018226742744446, 0.14818814396858215, -0.24176889657974243], [-0.24801991879940033, 0.02701222151517868, -0.01876840926706791, -0.1971077173948288, 0.20744828879833221, -0.08214442431926727, -0.1062883511185646, 0.06167495995759964, -0.23373344540596008, -0.07837628573179245, -0.18622559309005737, -0.12795570492744446, 0.21809345483779907, -0.12704584002494812, 0.13066790997982025, -0.17720670998096466, 0.15006864070892334, -0.10905077308416367, -0.08382643759250641, 0.19665849208831787], [-0.15410907566547394, -0.14377805590629578, 0.12103420495986938, 0.14894425868988037, 0.20227552950382233, -0.1249939352273941, -0.106635183095932, -0.16242873668670654, 0.016628626734018326, 0.0918353870511055, 0.15330472588539124, 0.13267599046230316, -0.20538049936294556, 0.08003463596105576, 0.11198633909225464, 0.03557376563549042, 0.08880565315485, -0.0029035082552582026, -0.14927954971790314, -0.00620988430455327], [0.1733696013689041, -0.0821707621216774, 0.09878675639629364, -0.1532357633113861, 0.17283940315246582, 0.24883875250816345, 0.11442706733942032, 0.03213338926434517, 0.02221875824034214, -0.029957910999655724, -0.054005350917577744, 0.15511523187160492, 0.031835053116083145, 0.1298302859067917, 0.13145655393600464, -0.14605025947093964, -0.025303004309535027, -0.1495622843503952, -0.08807914704084396, -0.15605047345161438], [-0.11644557118415833, -0.1167227178812027, -0.011766773648560047, -0.1349463313817978, -0.0016194989439100027, 0.005010353401303291, -0.15653331577777863, 0.194923996925354, 0.1003328338265419, -0.13924458622932434, 0.03155720978975296, 0.02821820229291916, 7.152804755605757e-05, 0.05577955022454262, -0.07947712391614914, -0.1955595463514328, 0.019538147374987602, -0.223252534866333, -0.14781063795089722, 0.22034338116645813], [0.057907287031412125, -0.01882041059434414, -0.1442922055721283, -0.19707657396793365, 0.09916037321090698, 0.017922384664416313, 0.21649134159088135, -0.10569611936807632, -0.08436998724937439, -0.11310605704784393, -0.15843337774276733, -0.07369272410869598, 0.09412726759910583, -0.09078092128038406, 0.20312121510505676, -0.24476423859596252, -0.032736558467149734, -0.056964728981256485, -0.18301688134670258, -0.06878338009119034], [0.21204152703285217, -0.029408099129796028, -0.07581637799739838, 0.09679737687110901, 0.10041429102420807, 0.23516742885112762, -0.10176312178373337, -0.046911440789699554, 0.16877849400043488, -0.17505139112472534, 0.1494717001914978, 0.06724738329648972, -0.2112177163362503, 0.06823773682117462, 0.12328466027975082, -0.021516237407922745, 0.20751529932022095, 0.12424232810735703, -0.008566251955926418, -0.060539472848176956], [-0.17511625587940216, -0.16115333139896393, -0.014576178044080734, 0.0799826979637146, -0.0492115318775177, 0.14611448347568512, 0.20460841059684753, 0.09179646521806717, 0.0013700614217668772, 0.04870731756091118, 0.1233796626329422, -0.09812440723180771, -0.17005912959575653, 0.13776284456253052, 0.22131919860839844, -0.07857081294059753, 0.17204974591732025, -0.16006724536418915, 0.1633608192205429, -0.043572768568992615], [-0.2202882468700409, 0.030772609636187553, -0.007005651481449604, 0.049256302416324615, 0.08881241083145142, -0.009574116207659245, 0.14764586091041565, 0.07639822363853455, 0.0699712336063385, 0.10723356902599335, 0.1606631726026535, 0.11841616779565811, -0.09385082125663757, 0.17395801842212677, 0.17575739324092865, 0.09792788326740265, 0.12636259198188782, -0.21622684597969055, -0.19833549857139587, 0.19562366604804993], [-0.10669117420911789, -0.03993670642375946, 0.007854840718209743, -0.06428617984056473, 0.06657039374113083, -0.15582890808582306, 0.10693425685167313, 0.15702039003372192, -0.07719975709915161, -0.04236912727355957, -0.11892968416213989, 0.28403380513191223, 0.11608072370290756, -0.1053226888179779, -0.07451816648244858, -0.15484850108623505, 0.26066944003105164, -0.0891154482960701, 0.010692509822547436, -0.17348794639110565], [-0.11369013041257858, -0.07043557614088058, 0.18840713798999786, -0.00878259725868702, 0.19397105276584625, -0.22676251828670502, -0.20437262952327728, -0.12768034636974335, -0.03581513464450836, 0.18017731606960297, -0.19120237231254578, -0.19900399446487427, -0.057901009917259216, 0.039447296410799026, 0.1720387041568756, 0.20215871930122375, 0.06720522046089172, -0.14508642256259918, -0.19909964501857758, -0.18083953857421875], [0.0818200334906578, 0.16707655787467957, -0.14897532761096954, -0.11141074448823929, 0.21204127371311188, -0.02700764872133732, 0.15266390144824982, 0.11742085963487625, 0.1003391444683075, 0.16552911698818207, -0.10272251814603806, 0.19767031073570251, -0.06726539134979248, 0.013760590925812721, 0.21305811405181885, -0.034575413912534714, 0.12854592502117157, 0.06231788918375969, 0.16957852244377136, 0.07465856522321701], [0.032354407012462616, 0.1457270383834839, -0.041931673884391785, -0.1907496303319931, 0.08136850595474243, 0.03462975099682808, -0.2223675698041916, 0.15350545942783356, -0.23937693238258362, -0.08732735365629196, -0.020359938964247704, 0.03246503695845604, 0.04856596142053604, -0.06841256469488144, 0.12880103290081024, -0.06662435084581375, 0.022598816081881523, -0.10276313871145248, -0.2532266676425934, 0.19139578938484192], [-0.045370228588581085, 0.06756342947483063, 0.2309206873178482, 0.18715867400169373, -0.11178330332040787, 0.13078433275222778, -0.196340873837471, -0.15777122974395752, 0.06547778844833374, 0.08135658502578735, 0.13370637595653534, -0.01654023677110672, -0.05315385386347771, -0.018854208290576935, -0.2150522768497467, 0.09004926681518555, 0.12407838553190231, -0.15185977518558502, -0.10590603202581406, 0.23468220233917236], [0.01658816449344158, -0.04894566535949707, 0.13613244891166687, -0.037961091846227646, 0.04309534654021263, -0.109837107360363, 0.10960666835308075, 0.14933356642723083, 0.19241559505462646, 0.1460576057434082, -0.07279422134160995, -0.022706961259245872, -0.04693520441651344, 0.1210588812828064, -0.10649522393941879, 0.019090695306658745, -0.19858905673027039, 0.05361686646938324, -0.1595422774553299, -0.0667775347828865], [0.11716485023498535, -0.12530744075775146, -0.17677703499794006, 0.10190550982952118, -0.11340585350990295, -0.1276262402534485, 0.1008215993642807, -0.08086607605218887, -0.08224184066057205, -0.04854916036128998, 0.10741699486970901, 0.08996444195508957, -0.06412915885448456, -0.07434511184692383, -0.10594888031482697, -0.18533842265605927, -0.04491841793060303, -0.07895291596651077, 0.15958085656166077, -0.08079551160335541], [0.04667441174387932, -0.16160759329795837, -0.007156687788665295, -0.005060100927948952, 0.09046678990125656, -0.11409410834312439, 0.2542663812637329, -0.2017824500799179, -0.011553601361811161, 0.0032821279019117355, 0.12624484300613403, 0.09051326662302017, 0.03642109036445618, -0.179566890001297, -0.11063583940267563, -0.11250750720500946, -0.05635758116841316, -0.07544208317995071, 0.14644628763198853, -0.05895831808447838], [-0.08680273592472076, -0.018659519031643867, -0.04506753385066986, -0.18866805732250214, -0.07287542521953583, 0.2056579291820526, 0.08008643984794617, -0.1736849993467331, 0.1116715520620346, 0.0035013628657907248, 0.08700168132781982, 0.16048170626163483, -0.0570385567843914, 0.030381690710783005, 0.04296260327100754, 0.13710425794124603, 0.11195124685764313, 0.03131366893649101, -0.11034252494573593, -0.15768906474113464], [0.08047738671302795, 0.07661929726600647, 0.03326461464166641, 0.09229619055986404, -0.06573779135942459, 0.026392968371510506, -0.17107880115509033, 0.1806154102087021, -0.05060776695609093, -0.03200729563832283, 0.14862793684005737, -0.026614801958203316, 0.1932382881641388, 0.03276599571108818, 0.2113153636455536, 0.13634927570819855, -0.13584758341312408, 0.11132190376520157, -0.23182551562786102, -0.1326056718826294], [-0.1873544603586197, 0.05487214773893356, -0.14883634448051453, 0.10612883418798447, -0.03801431134343147, -0.047637611627578735, -0.05998954921960831, 0.1345788538455963, 0.07362231612205505, 0.045328591018915176, -0.0559794083237648, 0.024708716198801994, 0.17473061382770538, 0.1514338105916977, 0.020581837743520737, -0.1324571669101715, 0.2500849664211273, -0.08967211842536926, -0.09674680978059769, 0.16647270321846008], [0.1972382515668869, 0.1711501181125641, -0.1475847363471985, 0.16231930255889893, 0.08685099333524704, -0.0025489521212875843, -0.06600286811590195, -0.00874444842338562, 0.07009795308113098, 0.1755528301000595, -0.03242707625031471, 0.24899174273014069, -0.15239644050598145, 0.14490577578544617, -0.09198087453842163, 0.010809104889631271, 0.19907252490520477, 0.14618733525276184, 0.05778634920716286, 0.0002601188898552209], [-0.037897780537605286, 0.01764984428882599, 0.2174007147550583, 0.08837510645389557, 0.14120440185070038, -0.1448611319065094, -0.1762346476316452, 0.12023719400167465, 0.022903326898813248, -0.11408831179141998, 0.13677099347114563, -0.19216465950012207, -0.17348141968250275, -0.0330452024936676, -0.19984976947307587, -0.14566491544246674, 0.06546434015035629, 0.1333969533443451, 0.031694937497377396, -0.028163783252239227], [0.13214634358882904, -0.00028581300284713507, 0.15006586909294128, -0.2361260950565338, 0.19912508130073547, 0.14252164959907532, 0.2103034108877182, -0.220662459731102, 0.014199062250554562, -0.05128871649503708, -0.06380365788936615, 0.09399566799402237, 0.1832948923110962, -0.03255607932806015, 0.26605749130249023, 0.056201718747615814, 0.019770676270127296, 0.010475178249180317, 0.22415286302566528, 0.029446760192513466], [-0.16502645611763, 0.10350842028856277, -0.22086048126220703, 0.08318786323070526, 0.05474230274558067, 0.0702001303434372, 0.1992924064397812, -0.15603846311569214, -0.19812899827957153, 0.1106238067150116, -0.10214286297559738, 0.24055898189544678, -0.1483873873949051, -0.019652700051665306, 0.1579016149044037, 0.09555542469024658, 0.07057325541973114, -0.1673162877559662, -0.074026919901371, -0.14796219766139984], [0.050429750233888626, 0.12497343868017197, 0.15795022249221802, 0.0992153063416481, -0.02997324801981449, 0.013090423308312893, -0.20654486119747162, 0.02310650795698166, -0.09526718407869339, -0.11020785570144653, -0.16290383040905, 0.12210572510957718, 0.019661908969283104, 0.21499957144260406, -0.14160306751728058, -0.0472998209297657, 0.13871273398399353, 0.1996828019618988, -0.0991109162569046, 0.1072540134191513], [0.060807134956121445, -0.11718838661909103, 0.12372855097055435, -0.017261164262890816, 0.23232302069664001, 0.040044255554676056, -0.15770719945430756, -0.053321290761232376, 0.1347154676914215, 0.1282784789800644, -0.03644903376698494, 0.08809728920459747, 0.1372220665216446, -0.12538151443004608, 0.15597215294837952, -0.1298389434814453, 0.23878511786460876, 0.14071348309516907, -0.19063857197761536, 0.06290849298238754], [0.1997779756784439, 0.12883678078651428, -0.16905315220355988, 0.13768905401229858, 0.21014423668384552, 0.19493575394153595, -0.07950436323881149, -0.1257936805486679, -0.12599419057369232, 0.0609920397400856, 0.24106720089912415, 0.22526156902313232, -0.10103755444288254, 0.1445237547159195, 0.14612042903900146, -0.030090859159827232, 0.08099047839641571, 0.02214190736413002, -0.053243767470121384, -0.14034293591976166], [0.02347598783671856, 0.03852654621005058, 0.06787671893835068, 0.12741923332214355, 0.23991133272647858, 0.1233861893415451, -0.16338004171848297, 0.08597899228334427, 0.17670117318630219, 0.07404366880655289, 0.07084491848945618, 0.0739184021949768, -0.22715523838996887, 0.09342004358768463, 0.21466875076293945, 0.003829105058684945, 0.18627284467220306, 0.18636763095855713, -0.02560940571129322, -0.07025852054357529], [0.15587948262691498, -0.16948749125003815, 0.08145195990800858, -0.002522291848435998, -0.20184725522994995, -0.06485932320356369, 0.11810888350009918, 0.15770158171653748, -0.004307929426431656, 0.12300103902816772, 0.10729796439409256, -0.004473480395972729, 0.07011140137910843, -0.15804743766784668, 0.17423437535762787, -0.16204345226287842, 0.046541474759578705, 0.016670579090714455, -0.09308062493801117, 0.058347899466753006], [0.18850496411323547, -0.08731746673583984, -0.14125867187976837, 0.1027398481965065, -0.026212019845843315, -0.007049470208585262, 0.015103934332728386, 0.12310231477022171, -0.184111088514328, 0.03525611758232117, 0.12417920678853989, 0.2816099524497986, 0.11807295680046082, 0.04416961967945099, -0.15975406765937805, 0.1004985123872757, 0.24761778116226196, -0.1224541962146759, -0.05733761563897133, 0.007259202189743519], [0.11820279061794281, -0.08352775126695633, 0.008908974938094616, 0.17679449915885925, -0.10145638883113861, -0.14946524798870087, 0.08381267637014389, 0.015016668476164341, 0.10512854903936386, -0.2146364152431488, 0.13465985655784607, -0.21734412014484406, 0.00025853628176264465, -0.023915152996778488, 0.11964408308267593, -0.05530158057808876, -0.006117937620729208, -0.08799101412296295, -0.15336287021636963, -0.11021069437265396], [-0.131139874458313, 0.17124217748641968, 0.16038435697555542, -0.06352992355823517, -0.08548732101917267, 0.22397096455097198, 0.18393060564994812, 0.012967927381396294, -0.17808838188648224, 0.1945921927690506, 0.23341704905033112, -0.06568357348442078, 0.1599249243736267, 0.13216185569763184, 0.12890909612178802, -0.16052450239658356, -0.1199401393532753, 0.14480748772621155, -0.0002753792214207351, -0.20278005301952362], [-0.14473915100097656, 0.19253398478031158, 0.06118886172771454, 0.01790769398212433, 0.1832185536623001, 0.035479940474033356, 0.0017013902543112636, -0.01978157088160515, 0.13108281791210175, -0.11131803691387177, -0.17537760734558105, 0.17168474197387695, -0.06779900193214417, 0.05921746417880058, 0.04810919612646103, 0.21480223536491394, -0.11068963259458542, -0.04170481860637665, 0.10753103345632553, -0.038412537425756454], [-0.029445672407746315, -0.11668560653924942, 0.07622695714235306, -0.08303899317979813, -0.047890182584524155, 0.04087771847844124, 0.09973245114088058, 0.14671584963798523, 0.14783267676830292, 0.06212519854307175, -0.19097597897052765, -0.12796945869922638, 0.09940639138221741, -0.023195436224341393, 0.03548934683203697, 0.059112854301929474, 0.05410146340727806, 0.18727503716945648, -0.06929495930671692, 0.11215051263570786], [0.15195752680301666, -0.03243514522910118, 0.12397293001413345, 0.12508483231067657, 0.056511957198381424, 0.08542738854885101, -0.07315098494291306, -0.22993192076683044, -0.15505367517471313, 0.1651459038257599, -0.19834305346012115, -0.04217148199677467, 0.048759255558252335, -0.08158974349498749, 0.031230924651026726, 0.08596643060445786, 0.050784070044755936, 0.07073982059955597, 0.0802479237318039, -0.04829687625169754], [0.24768847227096558, 0.04591977968811989, -0.19484177231788635, -0.004163726698607206, 0.12620407342910767, -0.01439669169485569, -0.006961541250348091, -0.08741739392280579, 0.08170247822999954, -0.01254244428128004, 0.18869352340698242, -0.045919258147478104, -0.09082797914743423, -0.007310851477086544, -0.15292727947235107, -0.25253474712371826, -0.07766632735729218, 0.17109259963035583, 0.06731250137090683, -0.10904043167829514], [-0.15483485162258148, 0.2066831886768341, -0.16841243207454681, 0.018185870721936226, 0.1605728566646576, 0.06223147362470627, 0.08908552676439285, -0.14979490637779236, -0.017484094947576523, -0.04971505329012871, 0.06293012946844101, 0.1422496736049652, -0.2023812234401703, -0.16776476800441742, -0.1834358125925064, -0.1554505079984665, 0.23543919622898102, -0.07885564863681793, -0.09985177218914032, -0.2032579630613327], [0.12332610040903091, -0.12061171233654022, 0.17405596375465393, 0.11680229008197784, 0.03869795799255371, -0.051536910235881805, -0.1556309312582016, 0.1399078369140625, -0.04485033452510834, 0.14727869629859924, 0.04599631950259209, -0.1178278848528862, 0.07698848098516464, -0.0027444856241345406, -0.11825335770845413, 0.14899182319641113, -0.03113989531993866, -0.06782913208007812, 0.12353143095970154, 0.09738269448280334], [-0.07771053165197372, -0.03989781439304352, 0.11500605940818787, 0.02671443298459053, 0.08821627497673035, -0.0034109940752387047, 0.13871781527996063, -0.22958222031593323, 0.194373220205307, 0.22205370664596558, -0.22792813181877136, -0.09886905550956726, -0.06119241937994957, -0.07297224551439285, -0.10091374814510345, -0.16164323687553406, -0.20278428494930267, 0.05016835778951645, 0.06868956238031387, 0.10228700190782547], [-0.043214764446020126, -0.18103864789009094, 0.17644938826560974, -0.1022922620177269, 0.11972889304161072, -0.17893990874290466, 0.1812906116247177, 0.07175001502037048, 0.2572289705276489, 0.0065976097248494625, 0.02497982233762741, 0.1649276316165924, -0.25550636649131775, 0.030272847041487694, -0.14250622689723969, -0.19379091262817383, 0.18763358891010284, -0.05152667313814163, 0.16498011350631714, 0.1548234224319458], [0.00780781265348196, 0.28495779633522034, 0.1716553270816803, -0.10442142188549042, 0.16343700885772705, 0.1690395027399063, 0.2523793578147888, 0.09541346877813339, -0.16404734551906586, 0.056875500828027725, -0.05537189170718193, -0.06346911191940308, 0.14834928512573242, 0.07186049222946167, 0.10309910774230957, 0.12754927575588226, 0.28967535495758057, 0.08990226686000824, 0.07257616519927979, -0.11604148894548416], [-0.14197728037834167, -0.16210761666297913, -0.26056912541389465, -0.07491447776556015, 0.17148135602474213, -0.15073275566101074, -0.07573990523815155, -0.043471645563840866, -0.040824443101882935, 0.10562608391046524, -0.10542448610067368, 0.20147912204265594, -0.08229078352451324, 0.08419980853796005, -0.026219122111797333, 0.0980362519621849, 0.20376954972743988, -0.19854193925857544, -0.1020519882440567, -0.2541351914405823], [-0.08159223198890686, 0.08061476051807404, -0.12506569921970367, -0.1720205396413803, -0.2095291167497635, 0.08447631448507309, -0.01877685636281967, 0.11191561073064804, 0.13797996938228607, -0.201125830411911, -0.18987229466438293, -0.21383501589298248, 0.25030866265296936, 0.09590870141983032, 0.15132489800453186, 0.07009681314229965, -0.20004341006278992, -0.0014631998492404819, -0.11587487161159515, -0.09561233222484589], [-0.17770883440971375, -0.031752102077007294, 0.20523682236671448, 0.03535637632012367, 0.03306357562541962, 0.09409978985786438, -0.20817354321479797, -0.08184058964252472, -0.018741881474852562, 0.13341975212097168, -0.188380166888237, 0.13944557309150696, 0.11700931191444397, 0.17602428793907166, -0.22166332602500916, -0.06267079710960388, 0.09062301367521286, 0.1493045687675476, 0.17384007573127747, -0.17024536430835724], [-0.21407228708267212, -0.044264305382966995, 0.17542973160743713, -0.1684371381998062, -0.04051697999238968, -0.13640666007995605, 0.19973143935203552, -0.0065939468331635, -0.18291127681732178, -0.22979365289211273, 0.1001725122332573, 0.05906523019075394, -0.10024193674325943, 0.13711589574813843, -0.027552945539355278, 0.12705661356449127, -0.13280810415744781, -0.08175069838762283, -0.016145357862114906, 0.05332261323928833], [0.18032574653625488, -0.11990886181592941, 0.16356505453586578, -0.09072155505418777, -0.23660320043563843, -0.0703110620379448, -0.03048158809542656, 0.09074155241250992, -0.1300903856754303, 0.07412946224212646, 0.03999275341629982, 0.0962090715765953, 0.1211581826210022, -0.1669917106628418, 0.06647201627492905, 0.10721999406814575, -0.06908631324768066, -0.10415226221084595, 0.1589079201221466, -0.041653022170066833], [0.025168156251311302, -0.23841767013072968, -0.1181742325425148, -0.07503201067447662, 0.17868098616600037, 0.07875923067331314, 0.1732323169708252, 0.023680144920945168, -0.08160223811864853, 0.11880316585302353, 0.18589428067207336, -0.12769006192684174, 0.13928359746932983, 0.17491470277309418, -0.0023838605266064405, 0.21236182749271393, 0.03768919035792351, -0.14201867580413818, 0.10360623896121979, 0.03170466795563698], [0.0954170897603035, -0.017098572105169296, 0.11795985698699951, -0.14789220690727234, 0.12129682302474976, 0.10687264800071716, -0.0900486409664154, 0.10321614146232605, -0.08479756116867065, -0.03765010088682175, 0.028762510046362877, 0.22148758172988892, -0.13651590049266815, 0.11456485837697983, 0.0382128544151783, -0.14826169610023499, 0.19018693268299103, -0.14099475741386414, 0.06515141576528549, 0.10269248485565186], [-0.010205227881669998, 0.21681921184062958, -0.15565058588981628, 0.13025884330272675, 0.22432006895542145, -0.05229080468416214, 0.11674055457115173, -0.15735967457294464, -0.0834144726395607, -0.1751692295074463, 0.20063593983650208, 0.18099620938301086, -0.07990612834692001, 0.08562328666448593, 0.12099903076887131, -0.06998873502016068, 0.14222559332847595, 0.14843393862247467, 0.08430597186088562, 0.10346201062202454], [0.0755091980099678, -0.10748159140348434, 0.030436169356107712, 0.11643201112747192, 0.07331684976816177, 0.0337691605091095, -0.05968157947063446, -0.12375098466873169, -0.12841491401195526, 0.023118678480386734, -0.1345183104276657, 0.14094668626785278, 0.04147240146994591, 0.04803585633635521, -0.15067285299301147, -0.2439519613981247, 0.16617798805236816, 0.11544756591320038, -0.09433339536190033, 0.08302225172519684], [-0.14592142403125763, 0.09452000260353088, -0.022595208138227463, -0.11256938427686691, -0.12804079055786133, -0.029501821845769882, 0.0677422359585762, -0.005223217885941267, -0.12892796099185944, 0.1916125863790512, -0.012581893242895603, 0.12011673301458359, 0.12250340729951859, 0.16895192861557007, -0.0633460059762001, -0.1067233607172966, 0.21145665645599365, -0.037839192897081375, 0.199545755982399, -0.24520108103752136], [0.17025020718574524, 0.07332565635442734, -0.08574090898036957, 0.03808886930346489, 0.15342572331428528, 0.012881023809313774, 0.1757199764251709, -0.1682092249393463, 0.20680882036685944, -0.0622953400015831, 0.011643207632005215, -0.13752417266368866, 0.2217591255903244, 0.17508897185325623, -0.019937921315431595, -0.0833008661866188, -0.25789690017700195, -0.19093963503837585, -0.23157548904418945, 0.14175640046596527], [-0.10696504265069962, -0.1603822559118271, 0.24950344860553741, 0.03656211867928505, -0.14884690940380096, -0.21398966014385223, -0.02986414171755314, 0.03821473568677902, -0.0655364915728569, 0.052412696182727814, -0.08593765646219254, -0.11111170798540115, 0.11096443235874176, -0.1404879242181778, 0.03930344805121422, -0.004931258503347635, 0.022634055465459824, -0.14675655961036682, -0.020382024347782135, 0.13678193092346191], [0.20314587652683258, 0.1954265534877777, 0.10563428699970245, 0.013196766376495361, -0.10530112683773041, 0.11641740798950195, -0.1378844678401947, 0.06151031702756882, 0.010564916767179966, 0.1328354924917221, 0.056203898042440414, 0.16094374656677246, 0.00818663276731968, -0.051905371248722076, -0.062182772904634476, 0.10369792580604553, -0.20189008116722107, -0.035160940140485764, -0.12213585525751114, -0.1279001533985138], [0.1111752837896347, -0.024666979908943176, 0.21777625381946564, 0.006535344757139683, 0.16908051073551178, -0.2512705624103546, 0.11594993621110916, -0.02946707047522068, 0.1773446947336197, 0.06866204738616943, -0.017495421692728996, 0.18929030001163483, 0.05867568403482437, 0.12872467935085297, -0.18347835540771484, -0.1770373433828354, -0.024595068767666817, -0.22347509860992432, -0.08090575039386749, -0.11553168296813965], [-0.1433083415031433, 0.004863256122916937, -0.11539088934659958, 0.13745546340942383, -0.13830961287021637, -0.036041710525751114, -0.007052008528262377, -0.1098085343837738, 0.18679003417491913, -0.19474585354328156, -0.23032978177070618, -0.005816484801471233, 0.14459747076034546, -0.03225957602262497, 0.1382969170808792, 0.016468822956085205, -0.2524794638156891, -0.21829816699028015, 0.1387951672077179, 0.13817252218723297], [0.03350788354873657, 0.004867267794907093, 0.07133638858795166, 0.04416313022375107, 0.09208671748638153, 0.08117406070232391, -0.09342987090349197, 0.15328140556812286, -0.04296489432454109, 0.041403502225875854, 0.11361442506313324, -0.11349217593669891, 0.11174469441175461, 0.2269764095544815, -0.13886089622974396, -0.252735435962677, 0.04688073694705963, 0.0739082545042038, 0.15002115070819855, -0.19167780876159668], [-0.08828462660312653, -0.047313690185546875, -0.007114076986908913, -0.05725806951522827, 0.17807504534721375, 0.1899741291999817, 0.16283296048641205, 0.12915848195552826, -0.06945905089378357, -0.13870562613010406, 0.20980548858642578, 0.1430232971906662, 0.031843945384025574, -0.04223696142435074, 0.17656835913658142, 0.06393055617809296, 0.03687858581542969, 0.06767309457063675, -0.12339329719543457, 0.08926019817590714], [0.0953819677233696, -0.15126825869083405, 0.2157813310623169, -0.08214619755744934, -0.06417341530323029, -0.22284457087516785, 0.0008048739982768893, 0.04707830771803856, -0.13155972957611084, -0.10859230160713196, 0.10195554047822952, -0.16098140180110931, -0.04430638253688812, 0.09073866158723831, -0.06508741527795792, 0.08745647966861725, -0.05565688759088516, -0.18648403882980347, -0.08929496258497238, 0.20565225183963776], [-0.028057275339961052, 0.1638822704553604, -0.23681089282035828, 0.042521219700574875, 0.21184776723384857, -0.004776326939463615, 0.16285258531570435, -0.0968760997056961, -0.221934974193573, -0.12262913584709167, 0.060112133622169495, 0.047721974551677704, 0.15984153747558594, 0.21927526593208313, -0.011238202452659607, 0.10350307822227478, 0.2311306595802307, -0.06713157892227173, -0.1711362600326538, -0.1856779158115387], [-0.05113552138209343, 0.06774798780679703, 0.11630333960056305, 0.10522456467151642, 0.2789105176925659, 0.16190311312675476, -0.14581415057182312, -0.0638037919998169, -0.1350027471780777, 0.08591786026954651, -0.04451124742627144, 0.07062748819589615, -0.028218625113368034, 0.2500251531600952, -0.08570627868175507, 0.03121095336973667, -0.14056625962257385, 0.2262319028377533, 0.20636051893234253, -0.12460098415613174], [0.10079926252365112, -0.1651863157749176, -0.12210250645875931, -0.22015294432640076, 0.010579393245279789, -0.19544614851474762, -0.20777933299541473, 0.18248531222343445, 0.16877830028533936, -0.05934043228626251, -0.19084538519382477, 0.08775083720684052, -0.15815898776054382, -0.19452343881130219, -0.03890741989016533, 0.08047998696565628, 0.16856852173805237, -0.1702207326889038, -0.1927385926246643, -0.13837867975234985], [0.24720437824726105, -0.0687028020620346, -0.14539730548858643, -0.08611049503087997, 0.1036015972495079, 0.14273221790790558, -0.16367323696613312, 0.08418179303407669, 0.09412359446287155, 0.2332124561071396, -0.113260418176651, 0.11155802756547928, -0.086829774081707, 0.029935015365481377, -0.0900779664516449, 0.0514703132212162, 0.22023913264274597, -0.009479103609919548, -0.05935926362872124, -0.13593590259552002], [0.05714496970176697, -0.06534095108509064, 0.059342604130506516, -0.1559719294309616, 0.11026856303215027, 0.02757074125111103, 0.21363875269889832, -0.12494051456451416, -0.09460792690515518, -0.014858216978609562, 0.07113853842020035, -0.1748606413602829, 0.003060037037357688, 0.20934677124023438, -0.13234488666057587, 0.1457192599773407, 0.01422175858169794, 0.03899285942316055, 0.18472649157047272, -0.016158653423190117], [-0.10160215944051743, 0.005771726369857788, 0.22850826382637024, -0.008784371428191662, -0.021986881271004677, -0.03548556938767433, -0.1541234701871872, -0.2024732381105423, -0.10094273090362549, -0.21950805187225342, 0.241847425699234, 0.0075539480894804, -0.18623840808868408, 0.200608029961586, 0.013894762843847275, -0.13690826296806335, -0.20995327830314636, -0.17318925261497498, -0.1512499451637268, 0.09473443031311035], [0.05582045018672943, 0.15160448849201202, -0.2256041020154953, -0.016649283468723297, 0.17081215977668762, 0.1197747066617012, -0.15033550560474396, -0.18382294476032257, 0.20342965424060822, 0.11019862443208694, -0.004369467031210661, 0.14726027846336365, 0.16734953224658966, -0.04168388247489929, -0.033203646540641785, 0.15103031694889069, -0.15236718952655792, 0.25883811712265015, -0.05594700574874878, -0.12761303782463074], [0.24108052253723145, -0.03171452507376671, -0.08895909786224365, -0.1816384494304657, 0.008373246528208256, 0.11740633845329285, -0.09630587697029114, -0.16986583173274994, -0.09788542240858078, 0.06288514286279678, 0.0754188671708107, -0.059639569371938705, 0.07048570364713669, 0.022757120430469513, -0.051308345049619675, -0.051853545010089874, -0.03461573272943497, 0.06774647533893585, -0.183872789144516, 0.029495278373360634], [-0.05803084000945091, 0.21543583273887634, 0.034225840121507645, 0.011663547717034817, -0.13741891086101532, 0.1415611207485199, 0.1695493906736374, 0.1222495511174202, -0.0729018822312355, -0.1405196487903595, 0.15718704462051392, 0.04543808475136757, 0.21512891352176666, 0.12346439063549042, -0.05651480704545975, -0.1226901262998581, -0.18903569877147675, -0.025309821590781212, -0.1509181708097458, -0.12294839322566986], [0.13097192347049713, -0.018166279420256615, 0.27715328335762024, 0.11718317866325378, -0.04720360040664673, -0.04120267555117607, -0.08871191740036011, 0.17900940775871277, -0.09464386850595474, 0.10497955977916718, 0.23629511892795563, 0.19738967716693878, 0.2056708037853241, -0.14685039222240448, 0.14917407929897308, 0.03318048641085625, -0.07393481582403183, 0.15051235258579254, -0.0966048613190651, 0.2600826621055603], [0.014636223204433918, 0.16768701374530792, -0.08170106261968613, -0.11719980835914612, 0.0003209349815733731, -0.1662806272506714, 0.03680768981575966, -0.2155008763074875, 0.16346196830272675, 0.04880375787615776, 0.09434370696544647, 0.01636875793337822, -0.05813996121287346, 0.08574260026216507, 0.14623306691646576, -0.1470380425453186, 0.06117512658238411, 0.11994791030883789, 0.09361501038074493, 0.05407952144742012], [-0.19503401219844818, 0.16166849434375763, 0.16096389293670654, 0.029357105493545532, 0.10272731631994247, 0.07235491275787354, -0.030170753598213196, -0.013585608452558517, -0.17913590371608734, -0.06195172667503357, -0.07578856498003006, 0.16931955516338348, 0.1586988866329193, -0.19807757437229156, -0.1365099400281906, -0.06771647185087204, -0.10854800045490265, 0.07546647638082504, 0.007891206070780754, 0.029801053926348686], [0.02183997631072998, 0.1572796106338501, -0.0102996239438653, -0.04074958711862564, -0.17267419397830963, -0.029537245631217957, -0.05683640390634537, -0.2496408224105835, 0.15150001645088196, -0.13775700330734253, 0.1547168791294098, 0.26408031582832336, 0.17416946589946747, 0.2008146196603775, 0.0726567879319191, -0.23938396573066711, -0.12668941915035248, 0.03299478441476822, 0.03432082757353783, 0.0690511018037796], [-0.04258975386619568, -0.20887629687786102, 0.22386349737644196, -0.09525115042924881, 0.1596950888633728, -0.019102944061160088, -0.16028985381126404, 0.05855002626776695, -0.23721586167812347, 0.09799482673406601, -0.04922514408826828, -0.1478581577539444, 0.030705364421010017, 0.21853163838386536, 0.04407375305891037, 0.027509113773703575, 0.11953746527433395, 0.04008353129029274, -0.05136243626475334, -0.10359081625938416], [0.04691139608621597, -0.16655628383159637, 0.05510556697845459, -0.09216857701539993, -0.18329887092113495, -0.08645027130842209, 0.022343864664435387, 0.16860386729240417, -0.03474779799580574, 0.09714912623167038, -0.10265600681304932, 0.14095832407474518, -0.10299351811408997, -0.0611262172460556, 0.02505161240696907, 0.11789870262145996, 0.08096827566623688, 0.047982607036828995, -0.1888316422700882, -0.14854012429714203], [0.058705609291791916, -0.06982307881116867, -0.0009415035019628704, -0.25235000252723694, 0.13501062989234924, 0.16558416187763214, -0.07012203335762024, 0.17373040318489075, -0.18908672034740448, 0.1744612604379654, 0.21790336072444916, -0.019115537405014038, -0.010630054399371147, 0.14142285287380219, 0.13060155510902405, -0.048192162066698074, -0.08003523200750351, 0.15979744493961334, -0.060872238129377365, -0.16122150421142578], [-0.016432981938123703, -0.09251584857702255, 0.040375273674726486, -0.1848054975271225, -0.04566752910614014, -0.016429167240858078, -0.14838333427906036, 0.19107146561145782, -0.1614467352628708, -0.018208902329206467, -0.08983545750379562, 0.050258707255125046, 0.0912037193775177, 0.23516492545604706, 0.03421610966324806, -0.13069283962249756, -0.07832083851099014, -0.13986624777317047, -0.20314912497997284, -0.04856143146753311], [-0.032332103699445724, 0.13008573651313782, -0.2208940088748932, 0.137728750705719, 0.02724462002515793, -0.10443424433469772, 0.2138155698776245, 0.04737810418009758, -0.13543055951595306, 0.224518284201622, 0.16977263987064362, 0.010330963879823685, -0.0535852313041687, -0.12201624363660812, 0.17997723817825317, -0.21551446616649628, 0.05080102011561394, 0.23444512486457825, 0.204639732837677, -0.08829888701438904]], "rec.bias_ih_l0": [-0.11122547090053558, 0.13193626701831818, -0.1537894606590271, 0.16206598281860352, -0.022342020645737648, -0.03434979170560837, -0.08336593210697174, 0.10822638869285583, -0.13776038587093353, -0.2537069022655487, 0.01452811062335968, 0.09298200160264969, 0.14711730182170868, 0.05443015694618225, -0.1504739373922348, 0.15406779944896698, -0.08984594792127609, -0.1932968944311142, -0.006143871694803238, -0.07984532415866852, 0.16073381900787354, -0.14657413959503174, -0.028430810198187828, 0.08101735264062881, -0.1389342099428177, 0.016567498445510864, -0.23803482949733734, 0.17687052488327026, -0.0609893873333931, 0.10225921124219894, 0.19422103464603424, -0.038963910192251205, -0.2265176624059677, -0.06513994932174683, -0.0921521857380867, -0.014551641419529915, -0.027995536103844643, 0.14631128311157227, -0.04998323321342468, -0.21228033304214478, -0.11686752736568451, 0.09453922510147095, 0.12994760274887085, -0.049083296209573746, -0.13486765325069427, -0.18669265508651733, -0.0350058376789093, 0.2006794512271881, 0.07271145284175873, -0.12773485481739044, -0.16410022974014282, -0.050922147929668427, 0.016567856073379517, -0.20749858021736145, -0.18004846572875977, 0.188619002699852, 0.09481941908597946, -0.01407790370285511, 0.02209632098674774, -0.0530322827398777, -0.0478978231549263, -0.08443479984998703, -0.061063624918460846, 0.11167722940444946, 0.07390470802783966, 0.001007204526104033, -0.2111937552690506, -0.1495867520570755, -0.16326691210269928, 0.11115889251232147, -0.005111998412758112, -0.025248615071177483, -0.13974925875663757, -0.15065455436706543, -0.20972424745559692, 0.22378242015838623, 0.20579911768436432, -0.12327951937913895, -0.06854407489299774, 0.07308810949325562], "rec.bias_hh_l0": [0.05373074486851692, 0.05593708157539368, -0.030760351568460464, -0.16220982372760773, 0.1383543759584427, -0.14260387420654297, -0.10151049494743347, -0.19132068753242493, 0.05037904903292656, -0.21482601761817932, -0.05048167333006859, 0.0034087467938661575, 0.11579342186450958, 0.1978461742401123, 0.04940635338425636, 0.003350739600136876, 0.20646505057811737, 0.0718766301870346, 0.03567556291818619, -0.055124398320913315, 0.07931859791278839, -0.1793353110551834, -0.22260348498821259, -0.07246686518192291, -0.05738559737801552, -0.02267814613878727, 0.17480400204658508, -0.20013277232646942, 0.042754437774419785, 0.031140703707933426, 0.11726950109004974, 0.2288905531167984, -0.024392440915107727, 0.14378057420253754, 0.17341797053813934, 0.016686705872416496, 0.06863538920879364, -0.010887007229030132, -0.05865275487303734, -0.03597654029726982, -0.03958166390657425, -0.20854736864566803, -0.11643998324871063, 0.12981703877449036, 0.037442535161972046, -0.13945648074150085, -0.06981167942285538, 0.2041870504617691, -0.10524863749742508, 0.07437688112258911, 0.16968613862991333, -0.13808831572532654, 0.08153536170721054, -0.16237489879131317, -0.12770633399486542, 0.08184247463941574, -0.19997256994247437, 0.02979985624551773, -0.07001137733459473, 0.12724028527736664, -0.07683904469013214, -0.10298488289117813, -0.25131314992904663, 0.14961554110050201, 0.18423831462860107, -0.10131077468395233, -0.18071113526821136, 0.2141808420419693, -0.1745671033859253, -0.08646414428949356, -0.11457674950361252, 0.21907256543636322, 0.006450719200074673, 0.15159332752227783, -0.24177458882331848, -0.15199729800224304, 0.18380054831504822, 0.18335771560668945, -0.09158524125814438, 0.16655468940734863], "lin.weight": [[0.0704413577914238, -0.13520663976669312, -0.08137011528015137, 0.020916331559419632, -0.2215888500213623, 0.17268118262290955, 0.12662404775619507, 0.020916324108839035, -0.02602342516183853, 0.16828526556491852, -0.11711163073778152, -0.11715393513441086, -0.06818199902772903, -0.16615304350852966, -0.0125597408041358, 0.13612309098243713, -0.12615282833576202, 0.09370870888233185, -0.022430365905165672, -0.08334015309810638]], "lin.bias": [-0.10175005346536636]}}