{"model_data": {"model": "SimpleRNN", "input_size": 1, "skip": 1, "output_size": 1, "unit_type": "LSTM", "num_layers": 1, "hidden_size": 20, "bias_fl": true}, "state_dict": {"rec.weight_ih_l0": [[0.046915628015995026], [0.050025492906570435], [0.45508837699890137], [-0.2632237374782562], [0.20410247147083282], [0.6077097058296204], [-0.16289639472961426], [0.1329028606414795], [0.5933488607406616], [-0.4753110706806183], [-0.30389833450317383], [-0.40285539627075195], [-0.254321426153183], [0.39128583669662476], [0.4803626537322998], [-0.498468279838562], [0.24340203404426575], [0.21533167362213135], [0.4841594099998474], [0.035659316927194595], [0.06309132277965546], [0.04157277196645737], [0.4439398944377899], [-0.299915075302124], [0.49027466773986816], [0.280984103679657], [-0.18001878261566162], [-0.0009494609548710287], [0.2718653678894043], [-0.4062754511833191], [-0.11222650855779648], [-0.18362510204315186], [-0.2522428631782532], [0.3997404873371124], [0.5205121636390686], [-0.31343895196914673], [0.07655852288007736], [0.2573022246360779], [0.17193850874900818], [0.30913135409355164], [0.0695188045501709], [0.16533271968364716], [-0.6085748076438904], [0.37781810760498047], [-0.3621176481246948], [0.30904388427734375], [0.5764288306236267], [-0.07093744724988937], [-0.3326467275619507], [0.6121684312820435], [-0.46886828541755676], [0.422029584646225], [-0.10836917161941528], [-0.12212793529033661], [-0.6093264222145081], [-0.2532515227794647], [0.3487890660762787], [-0.002668198198080063], [-0.24980895221233368], [0.26945751905441284], [0.16176748275756836], [0.18601688742637634], [0.4292193055152893], [-0.23943369090557098], [0.3162665367126465], [0.18448980152606964], [-0.27228236198425293], [0.055073317140340805], [0.32182949781417847], [-0.1648978441953659], [-0.17961634695529938], [-0.2922120690345764], [0.04334662854671478], [0.1612507700920105], [0.5047103762626648], [-0.23222890496253967], [0.11154001206159592], [0.27047574520111084], [0.44678446650505066], [0.22058342397212982]], "rec.weight_hh_l0": [[0.14488227665424347, -0.15485289692878723, 0.07496661692857742, 0.10319064557552338, -0.04467541724443436, 0.1181461364030838, 0.09164943546056747, -0.19329844415187836, -0.10278937965631485, 0.10736407339572906, 0.1321241557598114, -0.015597926452755928, 0.18678702414035797, 0.1116955354809761, 0.11609195917844772, -0.025849493220448494, 0.15906573832035065, 0.20908693969249725, 0.2062644511461258, -0.09915609657764435], [-0.17211532592773438, -0.16989584267139435, 0.10901571065187454, 0.04544713348150253, 0.2192315310239792, -0.021220393478870392, -0.07362481951713562, -0.18984104692935944, 0.21666887402534485, -0.1638338416814804, 0.08013007789850235, 0.19342879951000214, 0.034677326679229736, 0.2129441499710083, 0.03689140826463699, -0.1949119120836258, -0.2474413961172104, 0.157307967543602, 0.15138867497444153, -0.012410683557391167], [-0.03980496898293495, -0.07944298535585403, -0.05561557412147522, 0.05127308517694473, -0.19290132820606232, 0.22124747931957245, -0.1711399108171463, -0.05107022821903229, 0.16531941294670105, -0.15272396802902222, 0.016665099188685417, -0.1319923847913742, -0.11879438906908035, -0.16551201045513153, 0.09592185169458389, 0.11765050143003464, -0.09763377159833908, 0.08455561846494675, -0.17095313966274261, -0.0609598383307457], [-0.08226755261421204, -0.013076688162982464, -0.1614171862602234, 0.029149094596505165, -0.038995251059532166, 0.14307071268558502, -0.14339719712734222, 0.05473489686846733, 0.022193700075149536, 0.19578266143798828, -0.08648807555437088, 0.09238950908184052, -0.10498876124620438, 0.21030576527118683, 0.12272967398166656, -0.08315760642290115, -0.09810508787631989, -0.10887566953897476, 0.005315731279551983, 0.17421232163906097], [-0.20540542900562286, 0.08034718036651611, -0.023588765412569046, 0.10782990604639053, 0.21636584401130676, 0.19832256436347961, -0.14638905227184296, -0.07757233083248138, -0.17399771511554718, -0.08516673743724823, 0.0832720398902893, -0.07309909909963608, -0.044586241245269775, 0.024384131655097008, -0.10223813354969025, -0.1518297791481018, -0.04936015233397484, 0.15139853954315186, -0.19426754117012024, 0.1844470053911209], [0.0026806313544511795, -0.19613394141197205, 0.0994199812412262, 0.1345805525779724, -0.17085282504558563, -0.09321663528680801, -0.017751794308423996, 0.1063111200928688, 0.0817214697599411, 0.21166254580020905, -0.045974601060152054, 0.18467961251735687, -0.11714751273393631, 0.05695369467139244, -0.0016883109929040074, 0.15439774096012115, -0.20489676296710968, 0.16772377490997314, -0.15428897738456726, -0.024671044200658798], [-0.15396824479103088, -0.028615053743124008, 0.12775397300720215, 0.0145485270768404, 0.013911874033510685, -0.02590017206966877, -0.17977601289749146, 0.02607775293290615, 0.20211182534694672, 0.16670620441436768, -0.22604408860206604, 0.10087050497531891, -0.07091768831014633, 0.14950428903102875, 0.24112051725387573, -0.06282936036586761, -0.08486256748437881, -0.09248518198728561, -0.17720773816108704, -0.24480412900447845], [0.16535207629203796, 0.058543507009744644, -0.10107633471488953, 0.08362802863121033, 0.09895564615726471, -0.11204168200492859, 0.04672056809067726, 0.06949320435523987, -0.0093770083039999, 0.08684725314378738, 0.16510650515556335, -0.011024943552911282, -0.03556117042899132, -0.07788991183042526, 0.2172650396823883, -0.21840879321098328, 0.0784141793847084, 0.08079225569963455, -0.030650828033685684, 0.04599759355187416], [0.13338924944400787, -0.1730298548936844, -0.1622931957244873, -0.10050234943628311, -0.21527215838432312, -0.028271077200770378, -0.09865178167819977, -0.14617647230625153, -0.1651107370853424, -0.03707890585064888, -0.10893736034631729, 0.05728848651051521, -0.023577088490128517, -0.099771648645401, 0.05959485471248627, -0.17297041416168213, 0.011886863969266415, 0.083694688975811, -0.08279436081647873, 0.11181990802288055], [0.008164857514202595, 0.1502964198589325, 0.24406524002552032, 0.2202972173690796, -0.16261053085327148, 0.09633255749940872, 0.19372080266475677, 0.06729408353567123, -0.07198990136384964, 0.09176824241876602, 0.12706662714481354, 0.1538391262292862, 0.05161174759268761, -0.10402951389551163, -0.08934082090854645, -0.21615637838840485, 0.10088872164487839, -0.005194473545998335, 0.03906149044632912, -0.20604091882705688], [-0.062199197709560394, 0.004574719816446304, 0.09496214985847473, -0.1545490026473999, 0.06138874217867851, -0.13984167575836182, -0.02667747065424919, -0.14728882908821106, -0.17544960975646973, 0.09227695316076279, -0.1891840100288391, 0.03623291477560997, -0.02506355382502079, -0.10537095367908478, -0.1332099586725235, 0.15095925331115723, -0.040112897753715515, 0.22688433527946472, 0.005744471214711666, 0.03397912532091141], [-0.00507395900785923, -0.09215961396694183, 0.023324234411120415, 0.23295387625694275, -0.11363212019205093, 0.09058236330747604, 0.21647730469703674, -0.16197797656059265, 0.1000584214925766, 0.18874222040176392, 0.08051886409521103, 0.0720386728644371, -0.20158392190933228, -0.1490231156349182, -0.06726377457380295, -0.22417131066322327, -0.05117879807949066, -0.04978964477777481, 0.25200775265693665, -0.11960028111934662], [-0.16514168679714203, 0.19423998892307281, 0.013686954975128174, 0.2328445464372635, 0.2571714520454407, -0.029602542519569397, -0.12629733979701996, -0.07913056761026382, -0.1646113395690918, 0.2469366490840912, -0.10204679518938065, 0.10696685314178467, -0.12255027145147324, 0.0008963348809629679, 0.07953593879938126, -0.1204996183514595, 0.16192427277565002, 0.24006511270999908, 0.2370377779006958, -0.10037533193826675], [-0.00949765369296074, -0.217488631606102, -0.08520305901765823, 0.12330301851034164, -0.165444016456604, -0.22809384763240814, 0.06520490348339081, 0.014501456171274185, 0.03892739862203598, 0.06798393279314041, -0.16114750504493713, -0.01469864696264267, -0.08152623474597931, 0.18787911534309387, 0.11659170687198639, -0.1212325245141983, -0.10193770378828049, -0.05420178174972534, 0.19898924231529236, -0.16125284135341644], [-0.21733759343624115, -0.13090474903583527, 0.05612991750240326, 0.15400034189224243, 0.09217815101146698, 0.10871490836143494, -0.11385384202003479, 0.033845797181129456, 0.06914447993040085, 0.05767379328608513, -0.16547100245952606, -0.10529061406850815, -0.035072892904281616, -0.21005696058273315, 0.03713181987404823, -0.14157512784004211, 0.12165262550115585, 0.20566487312316895, 0.04198230430483818, -0.0008339509950019419], [-0.19733324646949768, -0.14705099165439606, -0.05571532994508743, 0.12300877273082733, -0.04208635538816452, -0.09597285836935043, 0.1818840205669403, 0.01403680257499218, 0.05463409796357155, 0.062238909304142, -0.12892881035804749, -0.11090090870857239, 0.07111635059118271, -0.13861329853534698, 0.21659164130687714, 0.016715478152036667, 0.04085153713822365, 0.1918458640575409, 0.20331668853759766, -0.13835608959197998], [0.19110403954982758, -0.22022190690040588, 0.07827210426330566, -0.10885612666606903, 0.20946040749549866, -0.008956730365753174, -0.20721448957920074, -0.1712581217288971, 0.09581460058689117, -0.06928000599145889, 0.21943895518779755, -0.018368151038885117, -0.01303563080728054, 0.08903463184833527, 0.08769933134317398, 0.17154856026172638, 0.16438604891300201, -0.0729399248957634, -0.07489658147096634, -0.1626262664794922], [0.19381891191005707, 0.026210131123661995, -0.1500379592180252, -0.12639965116977692, -0.07955789566040039, -0.16911134123802185, 0.031236663460731506, -0.11206142604351044, 0.08344894647598267, -0.005636623129248619, -0.0015476285479962826, 0.22097046673297882, 0.08641089498996735, 0.06698574125766754, 0.1608976423740387, 0.09829460829496384, 0.17073853313922882, -0.17188660800457, -0.10984031856060028, -0.02799740619957447], [0.1621059775352478, -0.12532377243041992, 0.2086329460144043, 0.00381084973923862, 0.1422307938337326, -0.1619054675102234, 0.11318700015544891, -0.012895375490188599, 0.14803782105445862, -0.15495219826698303, 0.012351874262094498, 0.11768434941768646, -0.00655550230294466, 0.13113467395305634, 0.06664742529392242, -0.1456068754196167, -0.20375704765319824, -0.10277056694030762, 0.15095938742160797, -0.04839843511581421], [0.12175320833921432, 0.16134236752986908, -0.15166643261909485, 0.26057863235473633, 0.03777295723557472, -0.27198663353919983, -0.054175976663827896, -0.20759764313697815, -0.10558470338582993, -0.01972115971148014, -0.23068951070308685, 0.05917831137776375, -0.09173569083213806, 0.2702426016330719, 0.12833447754383087, -0.009248403832316399, -0.06497569382190704, -0.08389370888471603, 0.1534496694803238, -0.27298447489738464], [-0.10257163643836975, 0.13625647127628326, -0.020667515695095062, 0.1921265721321106, 0.18843786418437958, 0.13376031816005707, -0.10372716188430786, -0.10632459819316864, 0.2457694411277771, -0.1927373707294464, -0.059069909155368805, -0.14136433601379395, 0.11182854324579239, 0.20001661777496338, 0.17050479352474213, 0.0490034818649292, -0.0013994951732456684, -0.14169734716415405, 0.08010918647050858, 0.1901620775461197], [0.027246184647083282, 0.14944694936275482, 0.25375500321388245, 0.24824167788028717, -0.013880157843232155, -0.2531838119029999, 0.20430542528629303, -0.101664699614048, 0.17451037466526031, 0.10755465179681778, -0.055244043469429016, 0.08335133641958237, -0.08560441434383392, 0.24348604679107666, -0.013878862373530865, -0.18773595988750458, 0.08249329775571823, 0.2598669230937958, 0.184146448969841, 0.029210850596427917], [-0.17551028728485107, 0.15118271112442017, 0.031041748821735382, -0.043212346732616425, -0.14190246164798737, 0.08422701060771942, -0.0859181135892868, -0.07303540408611298, -0.16273580491542816, 0.027361195534467697, -0.13288265466690063, 0.015652503818273544, 0.18629296123981476, 0.14308308064937592, -0.003423526883125305, 0.044827282428741455, 0.15774087607860565, 0.23849433660507202, -0.13695546984672546, 0.007049107924103737], [-0.012494217604398727, 0.18435955047607422, -0.06700224429368973, -0.06907780468463898, 0.2263391762971878, 0.07374228537082672, -0.06703424453735352, -0.1462058126926422, -0.08331969380378723, -0.10169710963964462, -0.02572895959019661, -0.01577049121260643, 0.15949486196041107, 0.17219945788383484, 0.13139158487319946, 0.14223086833953857, -0.11900176107883453, -0.1546611487865448, 0.23423832654953003, -0.07565341889858246], [-0.2216089516878128, 0.1291101574897766, -0.17147564888000488, -0.0288300272077322, -0.01245091948658228, 0.13152138888835907, 0.18583746254444122, -0.07179246097803116, -0.15397867560386658, -0.17559826374053955, -0.18909795582294464, 0.16014999151229858, 0.19070182740688324, 0.0671931803226471, 0.040867697447538376, -0.05641642212867737, -0.036973871290683746, -0.19913020730018616, 0.0014386165421456099, 0.10835165530443192], [-0.1098734438419342, -0.25298455357551575, -0.02672494761645794, 0.19899925589561462, 0.06192605197429657, -0.17293523252010345, -0.030466090887784958, -0.14714474976062775, -0.16405586898326874, 0.04362678527832031, 0.01095557026565075, -0.21684448421001434, 0.068855419754982, -0.16634894907474518, -0.12186818569898605, 0.23519226908683777, 0.21276246011257172, -0.1699729859828949, 0.038182441145181656, -0.137420654296875], [0.008886363357305527, 0.14404739439487457, 0.13724549114704132, -0.02451864443719387, -0.13951872289180756, -0.234262615442276, -0.11758559942245483, -0.027701474726200104, -0.128850519657135, 0.16915598511695862, 0.1490384042263031, -0.07205650955438614, -0.21577192842960358, 0.1272498220205307, -0.049017466604709625, 0.11902560293674469, -0.17760388553142548, 0.182951882481575, 0.23373933136463165, 0.131759911775589], [-0.06025156378746033, -0.2454383224248886, 0.04562527313828468, 0.04088548570871353, 0.2192937284708023, 0.007337300572544336, 0.04968418926000595, 0.11169439554214478, -0.11572585254907608, -0.1382119059562683, 0.17556114494800568, 0.04784947633743286, -0.10322581231594086, -0.10525232553482056, -0.08935726433992386, 0.02178240567445755, -0.14926278591156006, -0.1069861501455307, 0.03422655165195465, 0.16657382249832153], [-0.153272345662117, 0.034389253705739975, 0.012660847045481205, 0.11775588244199753, 0.16674545407295227, -0.10415273159742355, -0.1629677563905716, -0.024025164544582367, -0.1499236524105072, 0.05400514230132103, -0.16967064142227173, -0.08375980705022812, 0.10555829107761383, -0.12962029874324799, 0.02262664958834648, -0.09759917855262756, 0.06860942393541336, -0.019679252058267593, 0.09382069855928421, 0.1784629076719284], [-0.19359053671360016, 0.2385784387588501, 0.21676631271839142, 0.18145614862442017, 0.22903406620025635, 0.17153300344944, -0.10223296284675598, 0.09675303101539612, -0.0386592298746109, 0.16708172857761383, -0.0246074628084898, 0.24792003631591797, 0.040024589747190475, 0.23153932392597198, 0.13774193823337555, -0.255307674407959, 0.1564529836177826, 0.06868337839841843, -0.14401544630527496, -0.02741301618516445], [-0.2164292186498642, -0.1165788546204567, -0.17936863005161285, 0.12611015141010284, -0.06366900354623795, -0.09130050241947174, 0.039072826504707336, -0.17077744007110596, -0.12235485017299652, 0.18939419090747833, -0.173389732837677, -0.03303780406713486, 0.10844334214925766, -0.023760545998811722, -0.07644538581371307, -0.21748916804790497, -0.2503884732723236, -0.09776485711336136, 0.10589219629764557, -0.11003151535987854], [-0.1662537306547165, 0.21499775350093842, 0.04110061749815941, 0.0070873163640499115, -0.15311212837696075, 0.10722050815820694, 0.06384968012571335, 0.11946166306734085, -0.17200633883476257, 0.005042319651693106, -0.1299448162317276, 0.13385117053985596, -0.23314455151557922, 0.13793796300888062, -0.16224798560142517, -0.09086167812347412, -0.03727821260690689, 0.0028752826619893312, 0.16909609735012054, -0.11406470835208893], [0.1444544941186905, 0.03999060019850731, 0.20401830971240997, -0.044278379529714584, 0.2211625725030899, -0.22901077568531036, 0.1194632276892662, -0.2410488873720169, 0.17389413714408875, 0.033051785081624985, -0.1468154489994049, 0.25528421998023987, -0.12324228137731552, 0.16195610165596008, -0.011218365281820297, -0.251662939786911, 0.06178513169288635, -0.04516683891415596, -0.01960720866918564, -0.12337011098861694], [0.057162441313266754, -0.24913498759269714, 0.05491257831454277, 0.036467790603637695, -0.18891464173793793, -0.06476539373397827, 0.0045921397395431995, -0.12439995259046555, 0.1828107088804245, 0.00258656102232635, 0.059163790196180344, -0.02712094783782959, 0.09257572889328003, -0.017019815742969513, 0.016895100474357605, 0.17645373940467834, 0.1541832685470581, -0.11246564984321594, -0.04953509196639061, 0.0983160212635994], [0.057726237922906876, -0.21079903841018677, 0.21553382277488708, -0.12926514446735382, 0.08441351354122162, -0.18872392177581787, -0.11871012300252914, 0.0016337927663698792, 0.15592898428440094, 0.013116313144564629, -0.18697595596313477, 0.09141747653484344, 0.11434362828731537, -0.13966625928878784, 0.09551436454057693, 0.013493780978024006, -0.10936837643384933, -0.11281827092170715, -0.0788165032863617, -0.08983894437551498], [0.13033419847488403, 0.006776835769414902, -0.17398081719875336, 0.15536342561244965, 0.19262191653251648, 0.0663108080625534, -0.029726650565862656, 0.09489551931619644, 0.07336021959781647, 0.18793199956417084, -0.23852837085723877, -0.050626035779714584, -0.08971116691827774, 0.12905246019363403, 0.25263461470603943, -0.0801023542881012, -0.13809901475906372, -0.05117696896195412, 0.0964401513338089, 0.04566959664225578], [-0.1833958476781845, -0.2751320004463196, 0.09038735181093216, 0.12332675606012344, 0.18867535889148712, -0.22156210243701935, 0.02109590731561184, -0.011419162154197693, -0.18639624118804932, -0.0032663140445947647, 0.07586124539375305, -0.10447756946086884, 0.0939292386174202, -0.13389860093593597, 0.06012760475277901, 0.11392959207296371, -0.077850840985775, 0.06844436377286911, 0.16666993498802185, -0.050452183932065964], [-0.0634765625, 0.0256025567650795, 0.04855110123753548, 0.02781224437057972, -0.1528060883283615, -0.16543513536453247, 0.04248594120144844, 0.09126446396112442, 0.23873329162597656, -0.1979551613330841, -0.13091562688350677, -0.02939930558204651, 0.13332149386405945, -0.1585891991853714, -0.1911422461271286, -0.03756225109100342, 0.010537760332226753, 0.047880884259939194, 0.1861802190542221, -0.05797357112169266], [0.17971773445606232, -0.019901126623153687, 0.12458764761686325, -0.1641889363527298, -0.07505108416080475, -0.06612150371074677, 0.14768268167972565, -0.0009405469172634184, 0.15674713253974915, -0.06195438653230667, 0.05900651589035988, 0.11144845187664032, 0.053967975080013275, -0.05840853601694107, 0.12648527324199677, -0.016602490097284317, -0.07991845905780792, 0.03925010934472084, 0.07217191159725189, 0.006429169327020645], [0.04647006466984749, -0.1917378157377243, -0.1058783233165741, -0.16385360062122345, 0.09565291553735733, -0.10037114471197128, -0.04033828154206276, 0.0661511942744255, -0.1099478080868721, 0.1288517862558365, -0.14145268499851227, 0.2664746940135956, -0.0364672988653183, -0.0880376324057579, 0.1842612475156784, -0.04842246323823929, -0.09847903996706009, 0.19441236555576324, -0.010468709282577038, -0.16492612659931183], [-0.14050981402397156, 0.007456192746758461, -0.08350952714681625, -0.11627338826656342, -0.15385551750659943, -0.02190237119793892, 0.027502015233039856, -0.051659971475601196, 0.15756800770759583, -0.1388518512248993, -0.0987030491232872, -0.010781422257423401, 0.18204058706760406, 0.05928069353103638, 0.24372398853302002, 0.13903965055942535, 0.06146663799881935, 0.1822182983160019, 0.0014663381734862924, -0.2038673311471939], [0.1610041856765747, -0.11632565408945084, -0.022829879075288773, -0.030794624239206314, 0.15985706448554993, -0.0968904197216034, -0.1544961780309677, 0.0640125572681427, 0.09419037401676178, 0.11910495162010193, 0.1627773642539978, -0.23646995425224304, -0.15897521376609802, -0.13369311392307281, 0.02170926332473755, -0.07211653888225555, 0.10763201862573624, -0.21409407258033752, -0.10119246691465378, -0.06904903799295425], [0.14372126758098602, 0.03445352613925934, -0.01172358077019453, 0.08350268751382828, -0.17098571360111237, -0.14591790735721588, 0.07773163169622421, 0.15156492590904236, -0.009109276346862316, 0.13948176801204681, 0.076310895383358, -0.2096882164478302, -0.20680935680866241, -0.027418240904808044, 0.07352126389741898, 0.045305684208869934, 0.12853705883026123, -0.1024632453918457, -0.01927375979721546, -0.18926629424095154], [-0.1025332659482956, 0.09898743033409119, 0.06534506380558014, -0.2195071130990982, 0.18073682487010956, 0.10671070218086243, -0.21351377665996552, 0.2082841694355011, -0.09079019725322723, -0.1379290372133255, 0.09593343734741211, -0.07783039659261703, 0.1861606389284134, 0.08810622990131378, -0.09049765765666962, 0.03759417682886124, -0.14432354271411896, -0.12944774329662323, -0.1509271264076233, -0.09162482619285583], [-0.02300313487648964, 0.15409909188747406, 0.05267888307571411, -0.189451664686203, 0.0009456659900024533, -0.04898681119084358, 0.1586916446685791, 0.21501949429512024, 0.18798813223838806, -0.10238105803728104, -0.1995955854654312, -0.16440565884113312, -0.08893187344074249, -0.15312424302101135, 0.03578123450279236, -0.1983528733253479, -0.1412147730588913, 0.01969975419342518, 0.06583290547132492, 0.12908804416656494], [8.581607289670501e-06, 0.029474835842847824, -0.08173365145921707, -0.11812692880630493, 0.15571480989456177, 0.02935035526752472, 0.10993531346321106, -0.10772224515676498, -0.20180469751358032, 0.06959796696901321, -0.000388461077818647, -0.19328297674655914, 0.09477851539850235, 0.08098390698432922, 0.0481482595205307, 0.06814495474100113, 0.13537675142288208, 0.1694583296775818, -0.09379308670759201, 0.07598520070314407], [0.19654002785682678, 0.06333762407302856, -0.025071246549487114, 0.03899924457073212, 0.19558146595954895, -0.13479268550872803, 0.12364989519119263, -0.19072657823562622, -0.037502747029066086, -0.24919013679027557, -0.05545841529965401, -0.24775303900241852, 0.21951517462730408, 0.0002463569981046021, 0.10443632304668427, -0.04085879772901535, 0.02133265696465969, -0.1816512644290924, 0.20376674830913544, 0.04970131069421768], [0.07384127378463745, 0.1160222589969635, 0.07921470701694489, -0.05053708702325821, -0.15119999647140503, -0.2109188586473465, 0.11738555133342743, -0.2413712590932846, 0.012063599191606045, 0.16705787181854248, 0.2078610360622406, 0.18177902698516846, 0.09647073596715927, -0.1386900395154953, 0.028849199414253235, -0.19262711703777313, 0.15975141525268555, 0.22649385035037994, -0.11715509742498398, -0.02229808270931244], [0.04357157647609711, -0.11231639981269836, -0.14275608956813812, -0.18989920616149902, 0.19943863153457642, 0.21569517254829407, -0.14926700294017792, 0.01837027817964554, 0.1047368124127388, 0.025235436856746674, 0.13631246984004974, -0.08021121472120285, 0.01588951051235199, 0.09514019638299942, -0.1307792067527771, 0.06419945508241653, 0.17968235909938812, -0.16678017377853394, 0.009043092839419842, -0.02602270059287548], [0.1389789879322052, -0.1433309018611908, -0.17896507680416107, -0.215596541762352, -0.0948714166879654, -0.17557285726070404, 0.17310145497322083, -0.18791036307811737, -0.21144737303256989, -0.2048831284046173, 0.029162894934415817, 0.07919023931026459, 0.20450589060783386, 0.12508763372898102, -0.020516538992524147, 0.1242125853896141, -0.05289214849472046, 0.19004002213478088, -0.2413831353187561, -0.1339625120162964], [-0.24412932991981506, 0.038044918328523636, 0.03549276292324066, -0.04657050222158432, 0.21233007311820984, 0.10328350961208344, 0.023064255714416504, 0.015217618085443974, -0.05042668804526329, 0.16474908590316772, -0.15720424056053162, -0.1688467115163803, 0.16045618057250977, -0.061478156596422195, 0.17565833032131195, -0.052619099617004395, 0.0026056033093482256, -0.18590180575847626, -0.07219585031270981, 0.04765832796692848], [-0.023112520575523376, 0.0663328766822815, 0.09524165093898773, 0.04353206604719162, 0.13354825973510742, -0.0513916052877903, -0.08821601420640945, 0.22155919671058655, 0.034147705882787704, -0.21276481449604034, 0.06088152900338173, 0.09387679398059845, 0.0502837598323822, -0.029246406629681587, 0.028522344306111336, 0.14970386028289795, 0.040651462972164154, 0.1321423500776291, 0.1032785028219223, -0.1303822249174118], [0.15919773280620575, -0.1411655843257904, 0.003672721330076456, 0.036225032061338425, -0.040665704756975174, 0.17763863503932953, -0.12072674185037613, -0.06125239282846451, -0.09146144986152649, 0.23970799148082733, -0.05311193689703941, -0.14375260472297668, 0.06634712964296341, 0.14030644297599792, 0.08972738683223724, -0.09919552505016327, -0.25349608063697815, 0.19269193708896637, 0.10739537328481674, 0.06530694663524628], [0.17026428878307343, 0.27711808681488037, -0.16927626729011536, -0.10475417971611023, 0.20336028933525085, 0.10371757298707962, -0.09399659931659698, -0.08906780928373337, -0.1831316351890564, -0.11499884724617004, 0.11664444953203201, -0.15219618380069733, 0.017118515446782112, -0.03937164694070816, -0.007973437197506428, -0.21760845184326172, -0.09390390664339066, -0.03843339532613754, -0.2136755883693695, -0.15502235293388367], [-0.050857096910476685, 0.1668398082256317, -0.054902032017707825, 0.13965468108654022, -0.004393399227410555, -0.18271459639072418, -0.19212152063846588, -0.12017036974430084, 0.20072253048419952, -0.07584331929683685, 0.030707241967320442, -0.07508044689893723, -0.2155466079711914, -0.22402754426002502, -0.11876121163368225, -0.06629911810159683, -0.12724974751472473, 0.15678904950618744, -0.08266787230968475, 0.10574829578399658], [-0.11631603538990021, -0.17941656708717346, 0.17304842174053192, -0.16432204842567444, 0.17282114923000336, 0.06381808966398239, -0.16779334843158722, -0.22360147535800934, 0.14376382529735565, 0.15750938653945923, 0.09766026586294174, 0.25334611535072327, 0.15386340022087097, 0.08145579695701599, -0.15895602107048035, -0.0298107098788023, 0.0608578585088253, -0.11984381079673767, 0.24087387323379517, -0.12464776635169983], [0.19676326215267181, -0.01751757226884365, 0.08841049671173096, 0.021028034389019012, -0.017873335629701614, -0.11421462893486023, 0.01648562401533127, -0.20236320793628693, -0.03427297621965408, -0.15306298434734344, -0.14442196488380432, -0.20878270268440247, 0.192864790558815, -0.11334232240915298, -0.19361165165901184, -0.0999046266078949, 0.11562366783618927, -0.0005955800879746675, 0.09711512178182602, -0.0538516566157341], [-0.13871259987354279, 0.25107645988464355, 0.024957235902547836, 0.03376959264278412, 0.025944560766220093, 0.002254920080304146, -0.0723196342587471, -0.07350623607635498, 0.15428420901298523, -0.15988560020923615, 0.19727884232997894, 0.20743437111377716, 0.1877434104681015, 0.1915491819381714, 0.1758371889591217, -0.140163853764534, 0.1331866830587387, -0.19686190783977509, 0.048794347792863846, -0.19625423848628998], [-0.23363730311393738, -0.1468890756368637, -0.07824603468179703, 0.12028459459543228, -0.018026091158390045, 0.017372898757457733, -0.1540479212999344, -0.11188866943120956, -0.11905886977910995, 0.0006658643833361566, -0.16859586536884308, -0.053086575120687485, -0.20674872398376465, -0.06429851800203323, -0.12794044613838196, 0.03560179844498634, -0.07137204706668854, -0.05631301552057266, 0.2251071333885193, -0.05166444927453995], [0.09533791989088058, 0.1502566635608673, -0.1715763658285141, -0.15714924037456512, 0.2255859225988388, -0.1640496402978897, 0.02646060846745968, 0.16202497482299805, 0.058503735810518265, -0.07201841473579407, -0.14825844764709473, -0.13177600502967834, -0.09511416405439377, 0.002900093561038375, -0.010992947034537792, 0.16553160548210144, -0.14294588565826416, -0.0017220642184838653, 0.19688838720321655, -0.1486586034297943], [0.021980110555887222, 0.05703495815396309, -0.12504276633262634, -0.05776523798704147, -0.05801079422235489, -0.0053533511236310005, -0.20651018619537354, -0.024336334317922592, -0.08221445977687836, 0.01868043839931488, -0.10559546947479248, 0.007647138088941574, -0.07991047948598862, 0.15836520493030548, 0.214453786611557, 0.15974655747413635, -0.2480287402868271, 0.2437775433063507, -0.014345569536089897, -0.03132736682891846], [-0.24946711957454681, -0.16864174604415894, 0.09601206332445145, 0.22029420733451843, -0.07054254412651062, -0.14936205744743347, 0.18955260515213013, -0.10149601101875305, -0.11681817471981049, 0.0161757655441761, 0.15296517312526703, -0.0014372437726706266, -0.14275437593460083, 0.21551448106765747, 0.06856419146060944, 0.021443461999297142, -0.19184720516204834, 0.0567459873855114, -0.13992390036582947, 0.056717850267887115], [-0.00789837259799242, -0.19610439240932465, -0.015116874128580093, 0.16626666486263275, -0.10022931545972824, -0.08111622929573059, -0.022800937294960022, -0.21797508001327515, -0.1556394249200821, -0.011348539032042027, 0.16198861598968506, -0.18789513409137726, 0.20077940821647644, -0.04335406795144081, -0.1955086588859558, 0.06628024578094482, -0.1433052271604538, 0.1257902830839157, 0.19384443759918213, -0.16726121306419373], [0.14282314479351044, -0.11572064459323883, -0.18281716108322144, 0.18733413517475128, 0.05918720364570618, 0.06989378482103348, 0.026506150141358376, -0.1954515129327774, 0.0946686789393425, 0.09995903819799423, -0.11618486046791077, -0.18594758212566376, -0.1429212987422943, -0.15333124995231628, 0.13749940693378448, -0.05146900191903114, -0.22355957329273224, -0.07208188623189926, 0.11779686063528061, -0.21553491055965424], [-0.22592148184776306, -0.25663110613822937, -0.1784559190273285, -0.2006928026676178, 0.04946953430771828, 0.06450905650854111, -0.16491065919399261, 0.06776811927556992, -0.030805151909589767, 0.07155486941337585, -0.04795926809310913, 0.1537661999464035, 0.16270044445991516, 0.13504035770893097, -0.19618289172649384, 0.20430627465248108, -0.04296116903424263, 0.07393383234739304, -0.04932919889688492, -0.09730637073516846], [0.18469534814357758, 0.10181405395269394, -0.16775639355182648, -0.1410272866487503, 0.03502482920885086, 0.0613696351647377, 0.038036420941352844, 0.07877665758132935, -0.07511255145072937, 0.06180748715996742, -0.06516872346401215, -0.2031366378068924, -0.15187197923660278, 0.18541504442691803, -0.08647631108760834, -0.14140313863754272, -0.16443347930908203, -0.16756056249141693, 0.10933178663253784, -0.12487853318452835], [0.11833158880472183, -0.03073876164853573, -0.11316225677728653, -0.16231539845466614, -0.032947588711977005, 0.16828487813472748, -0.013341575860977173, 0.17345257103443146, 0.15410597622394562, 0.046828582882881165, 0.16759507358074188, 0.038541894406080246, -0.04861310124397278, 0.16203956305980682, -0.15923161804676056, 0.14248859882354736, -0.2082798331975937, 0.2098829597234726, 0.008568504825234413, -0.052556946873664856], [-0.07775628566741943, 0.07181478291749954, -0.11350132524967194, -0.19918006658554077, 0.08000581711530685, 0.08052516728639603, -0.20275816321372986, 0.10397475212812424, -0.0048149810172617435, -0.06202581897377968, 0.17088215053081512, 0.23542462289333344, 0.09834209829568863, 0.0804569274187088, 0.2144669145345688, 0.06443902850151062, 0.16569024324417114, -0.0411677323281765, 0.10595089942216873, 0.018842900171875954], [-0.16387160122394562, 0.04317840561270714, 0.13659639656543732, 0.09753913432359695, -0.18068240582942963, 0.17926864326000214, 0.03492456302046776, -0.0051451316103339195, -0.03297417238354683, 0.05656329169869423, -0.10390131920576096, -0.19630706310272217, 0.0627414882183075, -0.1330646425485611, -0.0830441489815712, 0.16959470510482788, 0.11891859024763107, -0.180885449051857, -0.028370052576065063, 0.0605105422437191], [0.06696797162294388, -0.03221575543284416, -0.08218485116958618, -0.009676174260675907, -0.09406586736440659, -0.037395328283309937, -0.004076498560607433, -0.12216269969940186, 0.12189625948667526, 0.08166041225194931, 0.1412729024887085, 0.07091043889522552, -0.020039482042193413, 0.13761983811855316, 0.1785065233707428, -0.08768706023693085, -0.2460680603981018, -0.12195050716400146, -0.12187258154153824, 0.11201190203428268], [-0.047866981476545334, -0.15720577538013458, 0.06505703926086426, 0.19543549418449402, 0.040084358304739, 0.046923380345106125, 0.002698079450055957, -0.09190218895673752, -0.03513855114579201, -0.05921800807118416, -0.14970187842845917, 0.22698743641376495, -0.0031210093293339014, 0.08958402276039124, 0.03258943557739258, 0.09373216331005096, -0.08165605366230011, -0.03527362644672394, 0.22807307541370392, -0.18777115643024445], [0.03780035674571991, 0.02815691940486431, -0.12206105887889862, 0.19121211767196655, -0.16390623152256012, 0.07078585028648376, -0.0019143319223076105, -0.05422726646065712, -0.108481764793396, 0.17233526706695557, 0.1701418161392212, 0.21526090800762177, -0.1293022334575653, 0.14386489987373352, -0.0388050302863121, 0.09579179435968399, 0.118307925760746, -0.11713024228811264, -0.04324914515018463, 0.08101621270179749], [-0.12135563045740128, 0.18319757282733917, 0.21218596398830414, 0.09473592787981033, -0.08340439200401306, 0.14612239599227905, 0.04422521963715553, -0.1532399207353592, 0.14175373315811157, -0.019554143771529198, -0.03882632404565811, 0.20837225019931793, 0.017735883593559265, 0.09698403626680374, 0.06862235069274902, -0.23349815607070923, -0.015661858022212982, -0.11190255731344223, -0.07966692745685577, -0.18307466804981232], [-0.17821630835533142, -0.031471073627471924, 0.11820562928915024, 0.16262991726398468, 0.12131276726722717, 0.1731402426958084, 0.11243661493062973, 0.0906662717461586, -0.08991266787052155, 0.09112393110990524, 0.16072286665439606, 0.07862179726362228, 0.19019804894924164, 0.05290907248854637, 0.18585215508937836, 0.18705452978610992, -0.16730356216430664, -0.1340194195508957, 0.10043063759803772, 0.16248288750648499], [0.10820575058460236, 0.014246748760342598, -0.11269788444042206, -0.03206918388605118, -0.06251093000173569, -0.01888817362487316, -0.015502036549150944, -0.03983653709292412, -0.0019680417608469725, 0.02161911316215992, 0.16401350498199463, -0.1915222853422165, -0.13400214910507202, 0.14216218888759613, 0.11953793466091156, -0.010478056967258453, -0.2083262801170349, 0.20144131779670715, -0.03545490279793739, 0.13433153927326202], [-0.15778227150440216, -0.04713878780603409, 0.1956765055656433, 0.2545583248138428, -0.07597342133522034, -0.05806993693113327, 0.00589466467499733, 0.18416732549667358, 0.08656120300292969, -0.1453235000371933, 0.10673582553863525, -0.07708555459976196, -0.02760203555226326, -0.13076603412628174, 0.21585746109485626, 0.14502395689487457, -0.05053446441888809, -0.049838218837976456, 0.10474120080471039, 0.03233250230550766], [0.08842749893665314, 0.14607098698616028, 0.09579627215862274, 0.030213691294193268, -0.15232059359550476, -0.09186127781867981, 0.08028792589902878, -0.20522156357765198, 0.23848792910575867, 0.10305815935134888, 0.0809888169169426, 0.02488267607986927, -0.18416176736354828, 0.010039789602160454, 0.09787414222955704, -0.08000775426626205, 0.16914300620555878, 0.19359610974788666, 0.14217719435691833, 0.10757056623697281], [-0.16175609827041626, 0.12121598422527313, -0.07344460487365723, 0.08306474983692169, -0.15576054155826569, 0.026142515242099762, 0.02457791566848755, -0.014520334079861641, -0.06004059314727783, 0.030945297330617905, -0.17037460207939148, 0.1643422544002533, -0.1674214005470276, -0.08432400971651077, 0.07070821523666382, 0.11113417893648148, 0.16487102210521698, -0.021823614835739136, -0.08714934438467026, 0.05103699117898941], [0.16191864013671875, -0.07617279887199402, 0.187810480594635, -0.20178833603858948, 0.07872332632541656, 0.168720543384552, -0.10697350651025772, 0.13068531453609467, 0.09428711235523224, -0.06497969478368759, 0.1993122547864914, 0.2066671997308731, -0.1521347612142563, 0.07906045764684677, 0.11732599139213562, 0.22358770668506622, 0.14192253351211548, 0.23459585011005402, -0.0767756998538971, 0.21566647291183472], [0.05220113322138786, 0.08521810919046402, 0.07821319252252579, 0.26782840490341187, 0.2225482016801834, -0.0597672201693058, 0.01992456056177616, -0.19685204327106476, -0.07387693971395493, -0.004958789329975843, -0.10882637649774551, 0.15636634826660156, 0.048890918493270874, -0.0034699563402682543, 0.04303238168358803, -0.10737763345241547, 0.15095579624176025, -0.09767480939626694, -0.0301078949123621, 0.04998002573847771]], "rec.bias_ih_l0": [0.1991657167673111, 0.015771683305501938, -0.02602229081094265, -0.05609927698969841, 0.19406022131443024, -0.1980782449245453, -0.18618088960647583, 0.08475050330162048, -0.15437230467796326, -0.2008931189775467, -0.10764650255441666, 0.07246596366167068, 0.056550849229097366, 0.047861550003290176, 0.2080363929271698, -0.1695355325937271, -0.0622001551091671, -0.20060451328754425, -0.1322031021118164, -0.2595383822917938, 0.12816691398620605, -0.1991601288318634, 0.060063719749450684, -0.22745536267757416, 0.21954169869422913, 0.0321870781481266, 0.1482274830341339, -0.13359233736991882, -0.19894888997077942, 0.1321001648902893, -0.1080145314335823, -0.07323019951581955, -0.07551337033510208, 0.1414339393377304, 0.001253554248251021, 0.0553511343896389, 0.03788489103317261, 0.0009562578634358943, 0.22245556116104126, -0.0278070829808712, 0.19299843907356262, 0.2127767652273178, -0.19871757924556732, -0.18679481744766235, -0.13680565357208252, 0.1551605612039566, -0.010114144533872604, 0.19476324319839478, -0.19585256278514862, 0.004084476735442877, -0.05332363396883011, 0.05813849717378616, -0.12292011827230453, -0.07861277461051941, -0.2084430754184723, 0.10531547665596008, -0.03162475302815437, 0.046574775129556656, -0.1038382276892662, 0.053377654403448105, 0.12615099549293518, -0.16637203097343445, -0.04798431694507599, 0.13220883905887604, 0.06657777726650238, 0.15787088871002197, 0.14697834849357605, -0.06593693792819977, -0.01749432645738125, -0.2307940572500229, -0.20978322625160217, -0.05407115817070007, -0.03401036188006401, 0.03896556794643402, 0.20112481713294983, -0.15739859640598297, 0.05240030214190483, -0.14214301109313965, 0.1762082576751709, 0.16374246776103973], "rec.bias_hh_l0": [-0.19040444493293762, -0.13994380831718445, -0.1465565413236618, -0.21955367922782898, 0.15374045073986053, -0.02993428334593773, -0.15244382619857788, -0.14693699777126312, -0.16946089267730713, 0.17657987773418427, 0.0217552799731493, -0.22277645766735077, 0.13660204410552979, 0.12887664139270782, 0.10269327461719513, 0.1519356071949005, -0.12335668504238129, -0.0770324096083641, -0.15686571598052979, -0.11848053336143494, -0.20182232558727264, 0.0919637531042099, 0.00501477625221014, 0.14109279215335846, 0.015707259997725487, 0.02944895066320896, -0.06128588691353798, 0.16028225421905518, -0.1920936554670334, -0.021829092875123024, -0.0054408651776611805, -0.25442996621131897, -0.07570960372686386, -0.09904312342405319, -0.015093259513378143, 0.05568379908800125, 0.07681436091661453, 0.2043895721435547, 0.014229969121515751, -0.08372993767261505, 0.025935793295502663, -0.1535148173570633, 0.12855026125907898, 0.03295860439538956, -0.06787167489528656, 0.17701439559459686, 0.043978650122880936, -0.1378958821296692, -0.06769581139087677, -0.17924781143665314, 0.18500714004039764, -0.06987328082323074, 0.1511637419462204, -0.08685784786939621, -0.04503382369875908, 0.13155189156532288, 0.14168909192085266, -0.0286899171769619, -0.053461506962776184, 0.07243514806032181, 0.1950092613697052, 0.07824568450450897, -0.03865863382816315, -0.2091713845729828, 0.15147534012794495, 0.07605315744876862, -0.17048020660877228, 0.10861385613679886, 0.09996014088392258, 0.057395707815885544, -0.054612547159194946, 0.17290568351745605, -0.07511743158102036, -0.05796727165579796, -0.1685563027858734, 0.1123986542224884, 0.064672090113163, 0.08422636985778809, 0.004435407463461161, 0.14504340291023254], "lin.weight": [[0.02243281714618206, -0.020238347351551056, 0.12964078783988953, -0.16232115030288696, 0.13148732483386993, -0.21995508670806885, -0.17890433967113495, -0.01064568292349577, 0.09444299340248108, -0.06410633772611618, 0.06962502747774124, -0.03366429731249809, 0.07986465096473694, 0.06872054934501648, 0.06796982139348984, 0.09709970653057098, -0.02283995784819126, 0.023889899253845215, 0.17360705137252808, -0.017036976292729378]], "lin.bias": [0.07618848234415054]}}