{"model_data": {"model": "SimpleRNN", "input_size": 1, "skip": 1, "output_size": 1, "unit_type": "LSTM", "num_layers": 1, "hidden_size": 20, "bias_fl": true}, "state_dict": {"rec.weight_ih_l0": [[0.08400684595108032], [0.07580124586820602], [0.5484934449195862], [-0.34171465039253235], [0.2814231812953949], [0.6909641623497009], [-0.2598872184753418], [0.11756208539009094], [0.6741909980773926], [-0.5292592644691467], [-0.37297940254211426], [-0.40366682410240173], [-0.2349412888288498], [0.44702261686325073], [0.5586264729499817], [-0.5748210549354553], [0.2826899290084839], [0.21344032883644104], [0.557469367980957], [0.08320645987987518], [0.09532247483730316], [0.06511750817298889], [0.5485715866088867], [-0.37888431549072266], [0.5676010251045227], [0.3651316463947296], [-0.28724128007888794], [-0.007617380935698748], [0.35337403416633606], [-0.46491390466690063], [-0.1858336478471756], [-0.19905470311641693], [-0.23165015876293182], [0.4543308615684509], [0.5997317433357239], [-0.39134955406188965], [0.11538727581501007], [0.2540784776210785], [0.24497155845165253], [0.3425773084163666], [0.12292613834142685], [0.21209658682346344], [-0.7076607346534729], [0.4607827663421631], [-0.4421064257621765], [0.3944823443889618], [0.6764443516731262], [-0.08944793790578842], [-0.4150948226451874], [0.69540935754776], [-0.5606693625450134], [0.49989286065101624], [-0.15149624645709991], [-0.1938132643699646], [-0.6977257132530212], [-0.3328344523906708], [0.4184086322784424], [-0.0364304818212986], [-0.3298783302307129], [0.3559953570365906], [0.1948888748884201], [0.20501992106437683], [0.5268372893333435], [-0.3181081712245941], [0.39484232664108276], [0.26984596252441406], [-0.3670559525489807], [0.043518729507923126], [0.4045436382293701], [-0.2264741063117981], [-0.2529461085796356], [-0.29873621463775635], [0.031135665252804756], [0.22023361921310425], [0.5854169726371765], [-0.31116345524787903], [0.15155719220638275], [0.2647841274738312], [0.520720362663269], [0.26063913106918335]], "rec.weight_hh_l0": [[0.14414982497692108, -0.1542089283466339, 0.07368310540914536, 0.10416243225336075, -0.04417736455798149, 0.11741594225168228, 0.09987669438123703, -0.19309847056865692, -0.1021631732583046, 0.10844078660011292, 0.12945467233657837, -0.014875859953463078, 0.1849522590637207, 0.11193424463272095, 0.11629452556371689, -0.027258727699518204, 0.1586538404226303, 0.20873047411441803, 0.20644403994083405, -0.09911240637302399], [-0.17165347933769226, -0.1674114614725113, 0.1058255061507225, 0.04535232111811638, 0.21831189095973969, -0.020783618092536926, -0.06441885232925415, -0.1886541247367859, 0.2152339518070221, -0.16257344186306, 0.07846949249505997, 0.19237878918647766, 0.03404668718576431, 0.21179643273353577, 0.0362996868789196, -0.19427911937236786, -0.2464355081319809, 0.15636132657527924, 0.15055526793003082, -0.012207495979964733], [-0.03292974457144737, -0.07124599814414978, -0.0759410709142685, 0.04255139082670212, -0.2046985924243927, 0.2330893576145172, -0.15056675672531128, -0.046736788004636765, 0.15237033367156982, -0.1566704660654068, 0.019971538335084915, -0.13290496170520782, -0.11726637184619904, -0.1742202490568161, 0.08442191779613495, 0.12620960175991058, -0.09053320437669754, 0.07997562736272812, -0.1805909425020218, -0.056350648403167725], [-0.08093061298131943, -0.012514027766883373, -0.15487338602542877, 0.02695566974580288, -0.03958119824528694, 0.1440671682357788, -0.15147832036018372, 0.05583322048187256, 0.021628009155392647, 0.1928204745054245, -0.08352793753147125, 0.09096561372280121, -0.10426925122737885, 0.20924973487854004, 0.12250570952892303, -0.08093557506799698, -0.09792090207338333, -0.10864033550024033, 0.004237748682498932, 0.17425701022148132], [-0.20480044186115265, 0.08183833211660385, -0.0329715721309185, 0.10848311334848404, 0.21376115083694458, 0.20040543377399445, -0.12402382493019104, -0.0771118775010109, -0.17665034532546997, -0.08297556638717651, 0.07971823215484619, -0.07173082232475281, -0.04547179490327835, 0.02272404171526432, -0.10492230206727982, -0.15256398916244507, -0.047671958804130554, 0.15008774399757385, -0.19587498903274536, 0.18524083495140076], [0.002795334905385971, -0.19438904523849487, 0.08842583745718002, 0.1361178159713745, -0.17314662039279938, -0.09142471104860306, 0.004608375020325184, 0.10640491545200348, 0.07912494987249374, 0.21469636261463165, -0.05037423223257065, 0.18638275563716888, -0.11824145168066025, 0.05554916709661484, -0.004288381896913052, 0.15267537534236908, -0.20324043929576874, 0.1664114147424698, -0.15564361214637756, -0.023852232843637466], [-0.1439003199338913, -0.007799270562827587, 0.11157186329364777, 0.004801983945071697, -0.0018926315242424607, -0.009836028330028057, -0.19333401322364807, 0.04322659969329834, 0.18179261684417725, 0.15650510787963867, -0.21709096431732178, 0.09647513926029205, -0.06909529864788055, 0.1349635273218155, 0.22785061597824097, -0.053119413554668427, -0.07662220299243927, -0.09990997612476349, -0.1924125701189041, -0.2414599061012268], [0.164927139878273, 0.05772620812058449, -0.09943316131830215, 0.0829223096370697, 0.09891902655363083, -0.11193466931581497, 0.03884217143058777, 0.0690651535987854, -0.009169480763375759, 0.08635064959526062, 0.16334499418735504, -0.011005125939846039, -0.034988030791282654, -0.07748111337423325, 0.21697652339935303, -0.21726728975772858, 0.07809732854366302, 0.08050792664289474, -0.03043135441839695, 0.04572732746601105], [0.13396517932415009, -0.17086444795131683, -0.17193718254566193, -0.09964462369680405, -0.21797198057174683, -0.02589801512658596, -0.07355248183012009, -0.14558131992816925, -0.16799183189868927, -0.03483712300658226, -0.11242339760065079, 0.058577556163072586, -0.02458692342042923, -0.10150771588087082, 0.05662867799401283, -0.17365163564682007, 0.013682430610060692, 0.08234554529190063, -0.08462339639663696, 0.11274818331003189], [0.010201580822467804, 0.14949528872966766, 0.24338538944721222, 0.21670575439929962, -0.16441549360752106, 0.09864246845245361, 0.18190421164035797, 0.06876581162214279, -0.07397407293319702, 0.08834095299243927, 0.12941621243953705, 0.15176653861999512, 0.05196743831038475, -0.10570615530014038, -0.0907057598233223, -0.21294569969177246, 0.10160326957702637, -0.005818561185151339, 0.03650331497192383, -0.2049877643585205], [-0.059918131679296494, 0.007254044059664011, 0.0947645753622055, -0.15673798322677612, 0.05849788337945938, -0.13654839992523193, -0.03259894996881485, -0.14374993741512299, -0.17807960510253906, 0.08923274278640747, -0.1860051453113556, 0.03489089384675026, -0.024473220109939575, -0.10766202956438065, -0.13519325852394104, 0.1533181071281433, -0.03867964819073677, 0.2247667759656906, 0.0027542971074581146, 0.034489233046770096], [-0.004397920332849026, -0.08874385058879852, 0.02340051904320717, 0.23110005259513855, -0.11416677385568619, 0.0912637859582901, 0.20979349315166473, -0.1589643508195877, 0.09850835800170898, 0.1872185617685318, 0.0808693990111351, 0.07131733745336533, -0.20036271214485168, -0.14901627600193024, -0.0677090734243393, -0.22280125319957733, -0.05061681941151619, -0.04964748024940491, 0.2499403953552246, -0.11907655745744705], [-0.16478313505649567, 0.1897849142551422, 0.013524321839213371, 0.2320682257413864, 0.256592720746994, -0.029399259015917778, -0.12493986636400223, -0.07794318348169327, -0.16406673192977905, 0.24628925323486328, -0.10159143805503845, 0.10660438239574432, -0.12214183807373047, 0.0007624202989973128, 0.07929867506027222, -0.1201915517449379, 0.16160918772220612, 0.23833438754081726, 0.2361171394586563, -0.10016734898090363], [-0.009508666582405567, -0.2156977653503418, -0.08959688246250153, 0.12387540936470032, -0.1663191020488739, -0.22712519764900208, 0.07717837393283844, 0.014476832933723927, 0.03774327412247658, 0.06946571916341782, -0.16289760172367096, -0.013776760548353195, -0.08176581561565399, 0.1870063841342926, 0.11534109711647034, -0.12202394008636475, -0.10114244371652603, -0.05459017679095268, 0.1981414258480072, -0.16062524914741516], [-0.21640926599502563, -0.12844567000865936, 0.0457913763821125, 0.15417374670505524, 0.08915578573942184, 0.11120127886533737, -0.08530734479427338, 0.03429068997502327, 0.06586898118257523, 0.05967257544398308, -0.1684940904378891, -0.10374180227518082, -0.035982515662908554, -0.21172180771827698, 0.0339900366961956, -0.14198487997055054, 0.1234332025051117, 0.20398767292499542, 0.039895109832286835, 0.00025762419681996107], [-0.1962001621723175, -0.1458970010280609, -0.050232503563165665, 0.12126284092664719, -0.042593277990818024, -0.09503801167011261, 0.17483262717723846, 0.015145882964134216, 0.05407837778329849, 0.060031820088624954, -0.12667341530323029, -0.11180152744054794, 0.07148401439189911, -0.13923445343971252, 0.21633127331733704, 0.018348976969718933, 0.040940266102552414, 0.19162538647651672, 0.20223015546798706, -0.13816231489181519], [0.19111324846744537, -0.2187904566526413, 0.07500369101762772, -0.10827378183603287, 0.20849676430225372, -0.008249054662883282, -0.19020812213420868, -0.1708178073167801, 0.09479667991399765, -0.06842239201068878, 0.2172890156507492, -0.01788228750228882, -0.01334310881793499, 0.08840510249137878, 0.08675695210695267, 0.17094449698925018, 0.16474193334579468, -0.07316986471414566, -0.07534430921077728, -0.16209150850772858], [0.19345922768115997, 0.025993794202804565, -0.14915889501571655, -0.1255234330892563, -0.0795012041926384, -0.1687968522310257, 0.031009217724204063, -0.1116107627749443, 0.08312734216451645, -0.005429868586361408, -0.001824961043894291, 0.21992826461791992, 0.0854732021689415, 0.06677152961492538, 0.1605718731880188, 0.09778834879398346, 0.1704252064228058, -0.17134197056293488, -0.10957609117031097, -0.027895024046301842], [0.1621994823217392, -0.1240350678563118, 0.200600266456604, 0.004909969866275787, 0.1404719054698944, -0.16051845252513885, 0.12883387506008148, -0.01276517752557993, 0.14606299996376038, -0.15272311866283417, 0.009196649305522442, 0.11885858327150345, -0.007368931081146002, 0.13004770874977112, 0.06470583379268646, -0.14671951532363892, -0.20253023505210876, -0.1036059707403183, 0.14985759556293488, -0.0477914921939373], [0.1217418760061264, 0.16040121018886566, -0.153650164604187, 0.25946155190467834, 0.03676489368081093, -0.2707177996635437, -0.04446595907211304, -0.20655333995819092, -0.10628773272037506, -0.01887054555118084, -0.23023447394371033, 0.059343982487916946, -0.09131374210119247, 0.26884400844573975, 0.12712453305721283, -0.009534182026982307, -0.06425127387046814, -0.08399876952171326, 0.1524186134338379, -0.2718079090118408], [-0.10296545922756195, 0.13528254628181458, -0.021305816248059273, 0.19262729585170746, 0.1886705756187439, 0.13310325145721436, -0.08537491410970688, -0.10634112358093262, 0.24569948017597198, -0.19120483100414276, -0.060414139181375504, -0.1403387486934662, 0.1106494665145874, 0.2000594139099121, 0.17062455415725708, 0.047613099217414856, -0.0015739112859591842, -0.1413336843252182, 0.08043660968542099, 0.18963289260864258], [0.02719830721616745, 0.14741002023220062, 0.24842223525047302, 0.24634084105491638, -0.014238934032619, -0.25218939781188965, 0.19456560909748077, -0.10092345625162125, 0.17320691049098969, 0.10747995227575302, -0.05532987043261528, 0.08296096324920654, -0.08466215431690216, 0.2420959323644638, -0.01427523884922266, -0.18701662123203278, 0.08246070146560669, 0.25824499130249023, 0.18314029276371002, 0.02918253280222416], [-0.16906176507472992, 0.15704680979251862, 0.009509444236755371, -0.05038420483469963, -0.15321993827819824, 0.09559266269207001, -0.062354352325201035, -0.06904204189777374, -0.1742665320634842, 0.024022797122597694, -0.13004808127880096, 0.014603708870708942, 0.1848953664302826, 0.1341474950313568, -0.014322429895401001, 0.05245022475719452, 0.16405072808265686, 0.23362000286579132, -0.1460389941930771, 0.01123100146651268], [-0.01120334304869175, 0.18413838744163513, -0.060949862003326416, -0.07108175754547119, 0.22557739913463593, 0.07479827105998993, -0.07479719817638397, -0.1446658968925476, -0.08384896069765091, -0.10433083772659302, -0.02300446294248104, -0.01701723225414753, 0.15987275540828705, 0.1711220145225525, 0.1310979574918747, 0.14423209428787231, -0.11876332014799118, -0.15436479449272156, 0.23293104767799377, -0.0754491537809372], [-0.2209470421075821, 0.13059546053409576, -0.18048472702503204, -0.028196411207318306, -0.015046699903905392, 0.13371683657169342, 0.20596817135810852, -0.07132304459810257, -0.15671874582767487, -0.17354309558868408, -0.192189559340477, 0.16124273836612701, 0.1895333081483841, 0.06547139585018158, 0.03811151161789894, -0.05706576630473137, -0.03528662398457527, -0.20022013783454895, -0.00032644494785927236, 0.10923944413661957], [-0.10953456908464432, -0.2509971261024475, -0.03787147253751755, 0.20023858547210693, 0.05930745229125023, -0.1708192527294159, -0.0076475380919873714, -0.14680324494838715, -0.1668795794248581, 0.04649825766682625, 0.0066714598797261715, -0.21504026651382446, 0.06764483451843262, -0.16792574524879456, -0.12471113353967667, 0.23371204733848572, 0.21449147164821625, -0.17125388979911804, 0.036521609872579575, -0.1364523470401764], [0.017423955723643303, 0.15732789039611816, 0.1252320259809494, -0.03308847174048424, -0.1526109278202057, -0.2200753092765808, -0.13154180347919464, -0.01176117267459631, -0.1446574181318283, 0.15974751114845276, 0.1559390276670456, -0.07553409039974213, -0.21346428990364075, 0.11478188633918762, -0.059638310223817825, 0.12738037109375, -0.17044717073440552, 0.17465095221996307, 0.21927040815353394, 0.13384540379047394], [-0.06017511337995529, -0.24283809959888458, 0.045571889728307724, 0.040563855320215225, 0.21904610097408295, 0.007196499966084957, 0.041972510516643524, 0.1110948845744133, -0.11515354365110397, -0.13771912455558777, 0.17383484542369843, 0.04749763756990433, -0.10181991755962372, -0.1047888770699501, -0.08904338628053665, 0.021708084270358086, -0.14898672699928284, -0.10649631172418594, 0.03422516584396362, 0.1658492088317871], [-0.15241630375385284, 0.03613721951842308, 0.0027627560775727034, 0.11803259700536728, 0.16374415159225464, -0.10155041515827179, -0.1364501416683197, -0.023472461849451065, -0.15292958915233612, 0.05590405315160751, -0.17267350852489471, -0.08239974826574326, 0.10425417870283127, -0.13143587112426758, 0.01955116167664528, -0.09802805632352829, 0.07042752951383591, -0.020958544686436653, 0.09171955287456512, 0.17934678494930267], [-0.19127725064754486, 0.2362578809261322, 0.21710430085659027, 0.1781643033027649, 0.22667773067951202, 0.17354720830917358, -0.10824660956859589, 0.09793420881032944, -0.04060908779501915, 0.1635310798883438, -0.021563557907938957, 0.24555695056915283, 0.04044469818472862, 0.22869382798671722, 0.1361110657453537, -0.25213688611984253, 0.15693341195583344, 0.06768972426652908, -0.14580385386943817, -0.026900459080934525], [-0.21419815719127655, -0.11237030476331711, -0.17592598497867584, 0.12346717715263367, -0.06596995145082474, -0.08849844336509705, 0.03279830887913704, -0.16717049479484558, -0.12466930598020554, 0.18643349409103394, -0.1704922914505005, -0.03406355902552605, 0.10856246203184128, -0.02592872455716133, -0.07814520597457886, -0.21485652029514313, -0.2487475872039795, -0.09813902527093887, 0.10302552580833435, -0.1093568205833435], [-0.16516324877738953, 0.20859546959400177, 0.04065540432929993, 0.006317520514130592, -0.15340863168239594, 0.10773508250713348, 0.060322653502225876, 0.11830515414476395, -0.17163676023483276, 0.004181891214102507, -0.1283351629972458, 0.132735937833786, -0.23152899742126465, 0.13634717464447021, -0.16232141852378845, -0.08984704315662384, -0.03677476942539215, 0.0025679422542452812, 0.16732335090637207, -0.11350642144680023], [0.14433418214321136, 0.03923731669783592, 0.2008112221956253, -0.044265784323215485, 0.22064277529716492, -0.2284580022096634, 0.117657370865345, -0.23775437474250793, 0.17295481264591217, 0.032854195684194565, -0.1462123990058899, 0.25449222326278687, -0.12283464521169662, 0.1612318456172943, -0.011305642314255238, -0.25114312767982483, 0.06170495226979256, -0.04491051658987999, -0.01970032788813114, -0.12312017381191254], [0.057182542979717255, -0.24735617637634277, 0.05005653575062752, 0.0371343158185482, -0.18985265493392944, -0.06387149542570114, 0.017680639401078224, -0.12407661229372025, 0.1813744306564331, 0.00399367930367589, 0.05674072355031967, -0.026271067559719086, 0.0916011855006218, -0.017617689445614815, 0.01569885015487671, 0.1753542423248291, 0.15472464263439178, -0.11277739703655243, -0.05010636895895004, 0.09852238744497299], [0.0585530623793602, -0.20806884765625, 0.2046862244606018, -0.12863090634346008, 0.08127756416797638, -0.18589091300964355, -0.09003031998872757, 0.0022029599640518427, 0.1524410843849182, 0.01501474715769291, -0.18984563648700714, 0.09243211895227432, 0.11287752538919449, -0.14155642688274384, 0.09223940968513489, 0.013054316863417625, -0.10732477158308029, -0.11401284486055374, -0.08089128136634827, -0.08858203887939453], [0.13131152093410492, 0.007307048887014389, -0.1683640033006668, 0.1536659300327301, 0.19196990132331848, 0.06719920039176941, -0.03548591211438179, 0.09585994482040405, 0.07272389531135559, 0.18575367331504822, -0.23629245162010193, -0.05152925103902817, -0.08921172469854355, 0.1281631737947464, 0.2523128390312195, -0.0784909725189209, -0.13787484169006348, -0.05105980113148689, 0.0954192504286766, 0.04576459154486656], [-0.18316876888275146, -0.2735818922519684, 0.08742790669202805, 0.12337125837802887, 0.18788529932498932, -0.22084951400756836, 0.030472951009869576, -0.011342671699821949, -0.18686096370220184, -0.0025116815231740475, 0.07429914176464081, -0.10379628092050552, 0.09314490109682083, -0.13411864638328552, 0.05936112627387047, 0.11335039883852005, -0.07736028730869293, 0.06805464625358582, 0.16606558859348297, -0.050147201865911484], [-0.06341663002967834, 0.02540859952569008, 0.04780970886349678, 0.02780023403465748, -0.15264961123466492, -0.1651701182126999, 0.04162035882472992, 0.09089416265487671, 0.23803338408470154, -0.19717217981815338, -0.13018424808979034, -0.029165126383304596, 0.13203993439674377, -0.15818795561790466, -0.1909339874982834, -0.03758497163653374, 0.01054475363343954, 0.04772122949361801, 0.18574991822242737, -0.05779839679598808], [0.17981265485286713, -0.018764851614832878, 0.1168462485074997, -0.16302134096622467, -0.07674246281385422, -0.06477046757936478, 0.1631338894367218, -0.000817299063783139, 0.15480320155620575, -0.059815239161252975, 0.055862586945295334, 0.11259326338768005, 0.05310676619410515, -0.05941038206219673, 0.12456969916820526, -0.017726127058267593, -0.0787489116191864, 0.0383748821914196, 0.07111016660928726, 0.0070081427693367004], [0.04655291885137558, -0.1889915019273758, -0.1077759861946106, -0.16252732276916504, 0.09460697323083878, -0.09941790252923965, -0.031908128410577774, 0.06590927392244339, -0.11047469824552536, 0.12904492020606995, -0.14131322503089905, 0.26526930928230286, -0.03641044348478317, -0.0882665142416954, 0.1829850971698761, -0.04850877448916435, -0.09769178181886673, 0.1932256668806076, -0.011014404706656933, -0.16401372849941254], [-0.14131350815296173, 0.0070719062350690365, -0.08475790917873383, -0.11424509435892105, -0.15318875014781952, -0.022759754210710526, 0.04595671966671944, -0.05211363732814789, 0.15812326967716217, -0.13689544796943665, -0.10137707740068436, -0.009795451536774635, 0.18109945952892303, 0.059901800006628036, 0.24413147568702698, 0.13689182698726654, 0.06117258220911026, 0.18228450417518616, 0.002202953677624464, -0.20403891801834106], [0.16075946390628815, -0.11617360264062881, -0.025120433419942856, -0.030274497345089912, 0.15973147749900818, -0.09691482037305832, -0.1517862230539322, 0.06379836797714233, 0.09400370717048645, 0.11984432488679886, 0.1619594246149063, -0.23607738316059113, -0.15911275148391724, -0.13364718854427338, 0.02149277739226818, -0.0726301521062851, 0.10774587094783783, -0.21419604122638702, -0.10111725330352783, -0.06901738047599792], [0.1439136266708374, 0.03305511549115181, -0.0004469971754588187, 0.08132842928171158, -0.16892093420028687, -0.14736199378967285, 0.05443093553185463, 0.15160363912582397, -0.006776022259145975, 0.1358204334974289, 0.0812935009598732, -0.21167226135730743, -0.2054864466190338, -0.026289381086826324, 0.07591509819030762, 0.04757476970553398, 0.12706302106380463, -0.10128334164619446, -0.018175074830651283, -0.18993012607097626], [-0.10318417847156525, 0.09962984919548035, 0.0563037134706974, -0.21756814420223236, 0.17985256016254425, 0.10704554617404938, -0.2013186365365982, 0.20778843760490417, -0.09188862144947052, -0.13497205078601837, 0.0925762727856636, -0.07632269710302353, 0.18538182973861694, 0.08782730251550674, -0.09170998632907867, 0.03563670068979263, -0.1435687243938446, -0.13019245862960815, -0.15109360218048096, -0.09139169007539749], [-0.022513730451464653, 0.1532403826713562, 0.06146957725286484, -0.1916860193014145, 0.00217878888361156, -0.0496927872300148, 0.13673201203346252, 0.2152571976184845, 0.18940626084804535, -0.10581448674201965, -0.1948879510164261, -0.16628415882587433, -0.08770579099655151, -0.15256747603416443, 0.03735208883881569, -0.19597822427749634, -0.14216965436935425, 0.020502768456935883, 0.06630894541740417, 0.12866024672985077], [-0.00046342675341293216, 0.03059941902756691, -0.09268408268690109, -0.1156742125749588, 0.15407659113407135, 0.03035719506442547, 0.13313621282577515, -0.10795891284942627, -0.20367872714996338, 0.07350469380617142, -0.0055853743106126785, -0.19107960164546967, 0.093425452709198, 0.08018435537815094, 0.04612342268228531, 0.0655980110168457, 0.13663244247436523, 0.16837145388126373, -0.09451231360435486, 0.07653718441724777], [0.19570249319076538, 0.06391003727912903, -0.034547995775938034, 0.04119964316487312, 0.1948300153017044, -0.134632870554924, 0.13633765280246735, -0.1913110762834549, -0.038490571081638336, -0.24592271447181702, -0.05908472463488579, -0.2461148351430893, 0.21868208050727844, 0.0001184863576781936, 0.10330365598201752, -0.04309976473450661, 0.02201426960527897, -0.18236008286476135, 0.2037472128868103, 0.04988540709018707], [0.07373293489217758, 0.11568478494882584, 0.0803280770778656, -0.0505816787481308, -0.1508273184299469, -0.21120549738407135, 0.11509974300861359, -0.24136076867580414, 0.012453362345695496, 0.16680780053138733, 0.20810258388519287, 0.18158398568630219, 0.09651938080787659, -0.13841786980628967, 0.029213489964604378, -0.1925172060728073, 0.15950237214565277, 0.2265918254852295, -0.11687283962965012, -0.02241237461566925], [0.043766748160123825, -0.11334563791751862, -0.13375678658485413, -0.19166874885559082, 0.20102326571941376, 0.2145804613828659, -0.16875389218330383, 0.01844240352511406, 0.10653183609247208, 0.022236667573451996, 0.1404215544462204, -0.0818629264831543, 0.016948027536273003, 0.09598489105701447, -0.12889628112316132, 0.06607877463102341, 0.17852430045604706, -0.1658492535352707, 0.009866521693766117, -0.026555512100458145], [0.1387711465358734, -0.14135603606700897, -0.19189943373203278, -0.21395660936832428, -0.09693494439125061, -0.17411836981773376, 0.1852814257144928, -0.187803253531456, -0.21383510529994965, -0.20191819965839386, 0.02581697329878807, 0.08065465837717056, 0.2036307007074356, 0.12385237216949463, -0.022888818755745888, 0.12259690463542938, -0.05136389285326004, 0.18839320540428162, -0.2424311488866806, -0.13339979946613312], [-0.24362684786319733, 0.03712373971939087, 0.044899359345436096, -0.04817846417427063, 0.21342268586158752, 0.10269136726856232, 0.012577359564602375, 0.015555273741483688, -0.04903259873390198, 0.16211622953414917, -0.1542467176914215, -0.1701163798570633, 0.16106531023979187, -0.06099178269505501, 0.17704497277736664, -0.05096442997455597, 0.0017451096791774035, -0.18498559296131134, -0.07178118079900742, 0.04738178104162216], [-0.022954827174544334, 0.06807126104831696, 0.08392482250928879, 0.04432423412799835, 0.13145816326141357, -0.049831029027700424, -0.0797858014702797, 0.22160755097866058, 0.031656574457883835, -0.21088063716888428, 0.05874473601579666, 0.09478320926427841, 0.049785368144512177, -0.03053952194750309, 0.026303039863705635, 0.14883318543434143, 0.04204089567065239, 0.1306295245885849, 0.10192655026912689, -0.1298714429140091], [0.15930789709091187, -0.14144347608089447, 0.007798048201948404, 0.03579402714967728, -0.04017609357833862, 0.17734146118164062, -0.12329712510108948, -0.06110278144478798, -0.09081533551216125, 0.23891302943229675, -0.05230700224637985, -0.14406482875347137, 0.06649008393287659, 0.14050371944904327, 0.09028022736310959, -0.0987449362874031, -0.25380098819732666, 0.19304318726062775, 0.10757044702768326, 0.06521174311637878], [0.17063410580158234, 0.27646681666374207, -0.16316331923007965, -0.1063881441950798, 0.2041662037372589, 0.10326467454433441, -0.10883811861276627, -0.08884306252002716, -0.18214893341064453, -0.11742611229419708, 0.11991002410650253, -0.1534527838230133, 0.01792888715863228, -0.039031822234392166, -0.006916813552379608, -0.2158321887254715, -0.09452121704816818, -0.03790561109781265, -0.21336743235588074, -0.15525572001934052], [-0.04996509477496147, 0.1659618616104126, -0.04445338994264603, 0.13623584806919098, -0.0032345610670745373, -0.18317794799804688, -0.22515277564525604, -0.11964209377765656, 0.20205895602703094, -0.08058952540159225, 0.03739393502473831, -0.07768198102712631, -0.21357257664203644, -0.22360731661319733, -0.11713014543056488, -0.06272471696138382, -0.12821245193481445, 0.15760675072669983, -0.08239951729774475, 0.10531757026910782], [-0.11566030979156494, -0.1797754168510437, 0.18058766424655914, -0.16589635610580444, 0.1733561009168625, 0.06372763216495514, -0.1765703707933426, -0.2230299413204193, 0.14448152482509613, 0.1550973504781723, 0.10024076700210571, 0.25213107466697693, 0.154407799243927, 0.08151569962501526, -0.15810588002204895, -0.028192630037665367, 0.060341738164424896, -0.11924149841070175, 0.2408217042684555, -0.12476330995559692], [0.19589544832706451, -0.017473040148615837, 0.08362751454114914, 0.02346830628812313, -0.017930878326296806, -0.11453013122081757, 0.038365598767995834, -0.20277945697307587, -0.034427445381879807, -0.15004636347293854, -0.148549422621727, -0.20713728666305542, 0.19163116812705994, -0.11306540668010712, -0.19394564628601074, -0.10248255729675293, 0.11580125987529755, -0.0008290631230920553, 0.09745791554450989, -0.05383613333106041], [-0.1381961554288864, 0.2510828673839569, 0.026217123493552208, 0.0326964296400547, 0.025638407096266747, 0.0027125594206154346, -0.07748544961214066, -0.07317758351564407, 0.153964564204216, -0.16101868450641632, 0.19861938059329987, 0.20679953694343567, 0.1879691779613495, 0.19115959107875824, 0.17564165592193604, -0.13901488482952118, 0.13327758014202118, -0.19683042168617249, 0.04836805909872055, -0.196102112531662], [-0.23324352502822876, -0.1477658897638321, -0.06940789520740509, 0.11841490864753723, -0.016744377091526985, 0.016595322638750076, -0.1698528230190277, -0.1116642877459526, -0.11755630373954773, -0.0023270384408533573, -0.16478222608566284, -0.05470418930053711, -0.20580515265464783, -0.06368477642536163, -0.12634895741939545, 0.03752492368221283, -0.07234938442707062, -0.0554676428437233, 0.225654736161232, -0.05206328630447388], [0.09485448896884918, 0.1507769376039505, -0.17895148694515228, -0.15467190742492676, 0.22445355355739594, -0.16339197754859924, 0.0553152970969677, 0.161707803606987, 0.05722302198410034, -0.06862349808216095, -0.1532030701637268, -0.12982642650604248, -0.09643638879060745, 0.002430153312161565, -0.012394499965012074, 0.1629255712032318, -0.142075777053833, -0.002379450248554349, 0.19641491770744324, -0.14820747077465057], [0.021409157663583755, 0.056436244398355484, -0.1252254992723465, -0.056194037199020386, -0.0575413852930069, -0.005905163940042257, -0.1786099374294281, -0.024576682597398758, -0.08166282624006271, 0.019926084205508232, -0.10683324933052063, 0.008279646746814251, -0.07980985939502716, 0.15845927596092224, 0.2144988477230072, 0.15790051221847534, -0.24785204231739044, 0.24329404532909393, -0.013843785040080547, -0.03140757605433464], [-0.24880139529705048, -0.16602204740047455, 0.09281808137893677, 0.21881675720214844, -0.07085483521223068, -0.14862045645713806, 0.18211431801319122, -0.10081082582473755, -0.11679591238498688, 0.016667457297444344, 0.1503714770078659, -0.0011056048097088933, -0.14118783175945282, 0.21430353820323944, 0.06789306551218033, 0.021022265776991844, -0.1909627467393875, 0.056255560368299484, -0.13967005908489227, 0.0565972700715065], [-0.0010578383225947618, -0.18680676817893982, -0.037052325904369354, 0.15711449086666107, -0.11243703216314316, -0.06861685961484909, -0.0063318656757473946, -0.2129826843738556, -0.16803283989429474, -0.01539509929716587, 0.16374240815639496, -0.1883988082408905, 0.19945453107357025, -0.052532777190208435, -0.2069007307291031, 0.0748404785990715, -0.13596124947071075, 0.12092812359333038, 0.18324552476406097, -0.16224846243858337], [0.14405040442943573, -0.11482317000627518, -0.17582039535045624, 0.18498052656650543, 0.058641865849494934, 0.07085492461919785, 0.01742989756166935, -0.19390909373760223, 0.09412281960248947, 0.09700538963079453, -0.11312982439994812, -0.18712246417999268, -0.14213994145393372, -0.15401501953601837, 0.13734948635101318, -0.049244143068790436, -0.22334907948970795, -0.07183486968278885, 0.11668317764997482, -0.21526753902435303], [-0.22523197531700134, -0.25442588329315186, -0.18833409249782562, -0.19978931546211243, 0.046648237854242325, 0.06688006222248077, -0.14037342369556427, 0.06816136837005615, -0.03381995111703873, 0.07374438643455505, -0.05156555026769638, 0.15496674180030823, 0.16142012178897858, 0.13315127789974213, -0.1991076022386551, 0.20338594913482666, -0.041126955300569534, 0.07257883250713348, -0.0511942096054554, -0.09624577313661575], [0.18497388064861298, 0.10358153283596039, -0.17986612021923065, -0.139473095536232, 0.032201137393713, 0.06359641999006271, 0.06174809858202934, 0.07901845127344131, -0.0781913697719574, 0.0649629458785057, -0.0697539895772934, -0.2011786848306656, -0.15298086404800415, 0.18360385298728943, -0.08955568820238113, -0.14293649792671204, -0.16246624290943146, -0.16897451877593994, 0.10753460973501205, -0.12385068833827972], [0.12831154465675354, -0.009069941937923431, -0.1250857561826706, -0.17182908952236176, -0.04925386980175972, 0.18452401459217072, -0.03027927875518799, 0.18844661116600037, 0.1331014484167099, 0.036357853561639786, 0.17533926665782928, 0.034107331186532974, -0.046727437525987625, 0.14672879874706268, -0.1721581667661667, 0.15224067866802216, -0.19928419589996338, 0.19938084483146667, -0.007896048948168755, -0.049450699239969254], [-0.07762150466442108, 0.07078084349632263, -0.11159789562225342, -0.19751815497875214, 0.08000804483890533, 0.08018689602613449, -0.17805229127407074, 0.10331929475069046, -0.004612889606505632, -0.061833590269088745, 0.16894933581352234, 0.23359782993793488, 0.0969022735953331, 0.08024192601442337, 0.2141699194908142, 0.06413474678993225, 0.16510213911533356, -0.0408984050154686, 0.10569192469120026, 0.01868348941206932], [-0.16307766735553741, 0.045001085847616196, 0.1254367083311081, 0.09811798483133316, -0.18364503979682922, 0.18178622424602509, 0.059929557144641876, -0.004638614598661661, -0.036222364753484726, 0.058833397924900055, -0.107560895383358, -0.19458891451358795, 0.061455100774765015, -0.13493873178958893, -0.08622070401906967, 0.16864490509033203, 0.12081433832645416, -0.182098388671875, -0.030414512380957603, 0.06156277284026146], [0.06896428018808365, -0.029805535450577736, -0.07770327478647232, -0.012458099983632565, -0.09600988775491714, -0.034808676689863205, -0.012490320019423962, -0.11912369728088379, 0.11914558708667755, 0.07812400162220001, 0.143811896443367, 0.0691564604640007, -0.019308269023895264, 0.1350197196006775, 0.17669250071048737, -0.08467454463243484, -0.2445022612810135, -0.1218743622303009, -0.12393470108509064, 0.11223825812339783], [-0.04564720019698143, -0.1525864452123642, 0.06559479981660843, 0.19241401553153992, 0.037322234362363815, 0.049874622374773026, -0.003700545523315668, -0.08883363753557205, -0.03814081847667694, -0.061993177980184555, -0.1467033177614212, 0.22520935535430908, -0.0025954204611480236, 0.08682888001203537, 0.030474625527858734, 0.09617842733860016, -0.08022472262382507, -0.03612146154046059, 0.22466261684894562, -0.18694016337394714], [0.03837656229734421, 0.028113607317209244, -0.11833707243204117, 0.18932798504829407, -0.1642395257949829, 0.07149703055620193, -0.003945219796150923, -0.05248032882809639, -0.10864919424057007, 0.1706978678703308, 0.16983343660831451, 0.21361993253231049, -0.12830735743045807, 0.14215008914470673, -0.03930368274450302, 0.09629415720701218, 0.11819934844970703, -0.1161608174443245, -0.04392487183213234, 0.08087914437055588], [-0.12108663469552994, 0.1795133650302887, 0.20926699042320251, 0.09438472241163254, -0.08341636508703232, 0.14604827761650085, 0.04343860223889351, -0.15132521092891693, 0.14103350043296814, -0.019648799672722816, -0.038597796112298965, 0.20778430998325348, 0.017702195793390274, 0.09654129296541214, 0.0684191957116127, -0.23304922878742218, -0.015570484101772308, -0.11126744002103806, -0.07959181815385818, -0.1827523410320282], [-0.17801479995250702, -0.030604474246501923, 0.11241021007299423, 0.16308066248893738, 0.12003876268863678, 0.17391443252563477, 0.12443698197603226, 0.09051516652107239, -0.09106521308422089, 0.09260772168636322, 0.15756404399871826, 0.07931189239025116, 0.18867217004299164, 0.052149202674627304, 0.18438877165317535, 0.18576297163963318, -0.16634903848171234, -0.134343683719635, 0.09961488097906113, 0.16260366141796112], [0.10908889025449753, 0.016300741583108902, -0.12328804284334183, -0.031649522483348846, -0.06584782898426056, -0.015913935378193855, 0.012935190461575985, -0.039135102182626724, -0.005564520601183176, 0.023646466434001923, 0.1598292887210846, -0.1898692399263382, -0.13462954759597778, 0.1397669017314911, 0.11596652120351791, -0.010900064371526241, -0.2060336321592331, 0.19968847930431366, -0.037770066410303116, 0.13539846241474152], [-0.15662358701229095, -0.046421803534030914, 0.20069704949855804, 0.25263649225234985, -0.07646158337593079, -0.057134341448545456, -0.0007175221107900143, 0.18496586382389069, 0.08598064631223679, -0.14750908315181732, 0.10884612798690796, -0.07806014269590378, -0.027113309130072594, -0.13141286373138428, 0.21562084555625916, 0.1466691792011261, -0.050404950976371765, -0.04965885356068611, 0.10370921343564987, 0.03242915868759155], [0.08850156515836716, 0.14588390290737152, 0.09236998111009598, 0.030451223254203796, -0.15303629636764526, -0.09108713269233704, 0.08851627260446548, -0.2046842873096466, 0.2372405230998993, 0.10366800427436829, 0.07929271459579468, 0.025272130966186523, -0.18361476063728333, 0.009516865015029907, 0.09691359847784042, -0.08022377640008926, 0.1694827824831009, 0.192919060587883, 0.1414656639099121, 0.10767685621976852], [-0.161491259932518, 0.12002357840538025, -0.07317110151052475, 0.08267050236463547, -0.15556810796260834, 0.026125915348529816, 0.024722548201680183, -0.014478177763521671, -0.059906017035245895, 0.031027810648083687, -0.16908679902553558, 0.16351500153541565, -0.165678009390831, -0.08407346159219742, 0.07051388919353485, 0.11053071171045303, 0.16453659534454346, -0.021769648417830467, -0.0869181752204895, 0.05086567625403404], [0.16198725998401642, -0.074839748442173, 0.17904628813266754, -0.2004045695066452, 0.0768432542681694, 0.17012357711791992, -0.0885770320892334, 0.13070853054523468, 0.09218213707208633, -0.06254944950342178, 0.1956254243850708, 0.20786401629447937, -0.15285564959049225, 0.07791443914175034, 0.11522377282381058, 0.22217895090579987, 0.14313869178295135, 0.23349814116954803, -0.0778612419962883, 0.2161870151758194], [0.05224336311221123, 0.08463101089000702, 0.07363241910934448, 0.2660908102989197, 0.22109372913837433, -0.05880115181207657, 0.026724260300397873, -0.19546401500701904, -0.0745965912938118, -0.0040455046109855175, -0.1090589240193367, 0.15573418140411377, 0.047915443778038025, -0.004056926351040602, 0.0418965183198452, -0.10726594924926758, 0.15109965205192566, -0.09759308397769928, -0.030625177547335625, 0.05006318539381027]], "rec.bias_ih_l0": [0.19813507795333862, 0.01592908427119255, -0.01394498348236084, -0.054152000695466995, 0.19516272842884064, -0.19762836396694183, -0.17053811252117157, 0.08462592959403992, -0.15307624638080597, -0.19768209755420685, -0.10413607209920883, 0.07348401844501495, 0.05670037493109703, 0.047959182411432266, 0.20952606201171875, -0.16795603930950165, -0.061821646988391876, -0.20057417452335358, -0.13179761171340942, -0.25901296734809875, 0.1272820681333542, -0.1989564299583435, 0.07117201387882233, -0.2255132794380188, 0.2207750529050827, 0.032967593520879745, 0.16175943613052368, -0.13362303376197815, -0.1973893791437149, 0.13506333529949188, -0.104945607483387, -0.07222248613834381, -0.07532751560211182, 0.1416628360748291, 0.0029607161413878202, 0.056896425783634186, 0.03811332583427429, 0.0009125110227614641, 0.2228558361530304, -0.027387190610170364, 0.1915794163942337, 0.21243524551391602, -0.19865809381008148, -0.18764233589172363, -0.13624130189418793, 0.1546766459941864, -0.011266329325735569, 0.19457225501537323, -0.19575034081935883, 0.0040564402006566525, -0.052737172693014145, 0.0585649274289608, -0.12278754264116287, -0.07813333719968796, -0.2072826772928238, 0.10619781166315079, -0.03291133791208267, 0.04740042984485626, -0.10342446714639664, 0.05280258506536484, 0.12518355250358582, -0.16616278886795044, -0.035824600607156754, 0.13411392271518707, 0.06786752492189407, 0.15866120159626007, 0.16317449510097504, -0.06600020080804825, -0.016045333817601204, -0.2275027334690094, -0.20631763339042664, -0.05296814814209938, -0.03383829817175865, 0.03919491171836853, 0.2029775232076645, -0.15576083958148956, 0.05274896323680878, -0.14213304221630096, 0.17659913003444672, 0.16407881677150726], "rec.bias_hh_l0": [-0.19135688245296478, -0.13971996307373047, -0.13444755971431732, -0.21759530901908875, 0.1548452377319336, -0.0294886976480484, -0.13681037724018097, -0.14696350693702698, -0.16816383600234985, 0.17967131733894348, 0.02523723989725113, -0.22164303064346313, 0.1367311328649521, 0.12896065413951874, 0.10419705510139465, 0.15349234640598297, -0.12296956032514572, -0.07704107463359833, -0.15645934641361237, -0.11799857765436172, -0.20264559984207153, 0.09202203899621964, 0.01613704301416874, 0.14300641417503357, 0.01694871485233307, 0.030229538679122925, -0.047690000385046005, 0.1601390689611435, -0.19053475558757782, -0.01882048137485981, -0.002395831746980548, -0.25333744287490845, -0.07552368193864822, -0.09877967089414597, -0.013384218327701092, 0.05722906440496445, 0.07703736424446106, 0.20428819954395294, 0.01463746652007103, -0.08328893780708313, 0.02452179230749607, -0.1538521647453308, 0.1286071389913559, 0.032109636813402176, -0.06730774790048599, 0.1765304058790207, 0.042826224118471146, -0.13807927072048187, -0.06759466230869293, -0.17926983535289764, 0.18558980524539948, -0.0694427639245987, 0.1512913703918457, -0.08637828379869461, -0.04387681931257248, 0.1324339658021927, 0.14039887487888336, -0.02786245383322239, -0.05304795503616333, 0.07185941189527512, 0.194026917219162, 0.07834339141845703, -0.026501374319195747, -0.2072417289018631, 0.15276099741458893, 0.07684601098299026, -0.15417076647281647, 0.10847236961126328, 0.10139954835176468, 0.06060701608657837, -0.05117661505937576, 0.1739007830619812, -0.07493611425161362, -0.05772297829389572, -0.16666413843631744, 0.1140177920460701, 0.06501886248588562, 0.08415791392326355, 0.004833955317735672, 0.1453881710767746], "lin.weight": [[0.023057544603943825, -0.021297959610819817, 0.14125940203666687, -0.16474652290344238, 0.13301926851272583, -0.220805823802948, -0.1977846920490265, -0.010294641368091106, 0.09623875468969345, -0.06801091134548187, 0.07441186904907227, -0.03569770231842995, 0.08100614696741104, 0.06939893960952759, 0.06989696621894836, 0.09963666647672653, -0.024043008685112, 0.025018278509378433, 0.1741727739572525, -0.01747222989797592]], "lin.bias": [0.07688762992620468]}}