{"model_data": {"model": "SimpleRNN", "input_size": 1, "skip": 1, "output_size": 1, "unit_type": "LSTM", "num_layers": 1, "hidden_size": 20, "bias_fl": true}, "state_dict": {"rec.weight_ih_l0": [[-0.791290819644928], [-3.127093553543091], [0.30606934428215027], [-0.6413418054580688], [0.5907549262046814], [-0.5237810015678406], [1.4171749353408813], [-2.0163118839263916], [-0.7787911295890808], [0.23987098038196564], [0.14441320300102234], [-0.27020809054374695], [1.138631820678711], [0.2957901358604431], [-0.020466456189751625], [-0.33378005027770996], [0.27662718296051025], [0.8080348372459412], [0.01877281814813614], [-0.22760772705078125], [-0.6155697703361511], [-1.946613073348999], [0.22899362444877625], [-0.38470423221588135], [0.4227677881717682], [-0.4944702684879303], [1.0429844856262207], [-1.1788408756256104], [-0.6689001321792603], [0.11878135800361633], [0.07925435155630112], [-0.06165584176778793], [0.951870322227478], [0.3539569079875946], [0.10719528049230576], [-0.14339159429073334], [0.23401765525341034], [0.8673141598701477], [0.0013898502802476287], [0.12796726822853088], [2.4703214168548584], [4.142664432525635], [-1.910475730895996], [2.432159662246704], [-2.6865975856781006], [1.795467495918274], [-3.3356783390045166], [4.657781600952148], [-2.3009703159332275], [1.2928105592727661], [-1.9910317659378052], [2.0541725158691406], [-2.3475258350372314], [1.7098894119262695], [-1.9887397289276123], [1.0015652179718018], [1.2004265785217285], [-3.4775171279907227], [-0.9073368310928345], [-3.5387067794799805], [-0.6977174878120422], [-3.1411428451538086], [-0.0001434714940842241], [-0.8036318421363831], [0.4145638644695282], [-0.687098503112793], [0.3639855980873108], [-1.9775092601776123], [-0.5356370806694031], [0.4414401352405548], [0.08882657438516617], [-0.2441430687904358], [1.1041876077651978], [0.18800997734069824], [-0.30447760224342346], [-0.37700414657592773], [0.2374611794948578], [-0.12635451555252075], [0.08423208445310593], [-0.6988090872764587]], "rec.weight_hh_l0": [[-0.0693335011601448, 0.11017400771379471, 0.23240160942077637, -0.16671182215213776, 0.22055380046367645, -0.3053434491157532, 0.30368688702583313, -0.24011963605880737, 0.22041752934455872, -0.15118053555488586, 0.13385429978370667, -0.1252509504556656, -0.30693402886390686, 0.04576867073774338, 0.29610374569892883, 0.16827718913555145, -0.2379520684480667, 0.10686145722866058, 0.3732945919036865, 0.34802451729774475], [0.04701549932360649, 0.2371150255203247, 0.10427475720643997, 0.05323697254061699, 0.1457749903202057, -0.16875556111335754, -0.18063780665397644, 0.11105386912822723, -0.022662054747343063, 0.252163827419281, 0.13936398923397064, -0.0906238853931427, 0.46893495321273804, -0.2636704444885254, -0.05577049031853676, -0.02504391223192215, -0.13272830843925476, 0.0013095788890495896, -0.07531682401895523, 0.08877740055322647], [-0.19562333822250366, -0.036506377160549164, 0.1274605095386505, -0.09550009667873383, 0.2928296625614166, -0.2769048511981964, 0.05231398344039917, -0.3469645082950592, 0.3284429907798767, -0.15608666837215424, 0.05127891153097153, -0.27432769536972046, -0.21673963963985443, 0.18655122816562653, 0.1829865276813507, 0.2784141004085541, 0.08738827705383301, 0.024357588961720467, 0.2626399099826813, 0.055711787194013596], [-0.37829720973968506, 0.0349566675722599, 0.007927563041448593, -0.30801907181739807, 0.041454873979091644, -0.2920477092266083, 0.11367861926555634, -0.46882376074790955, 0.23926405608654022, -0.17250005900859833, -0.030623309314250946, -0.1016719788312912, -0.18806672096252441, 0.12710213661193848, 0.18433921039104462, 0.29464805126190186, 0.06453625112771988, 0.41696983575820923, 0.3978566825389862, 0.3612074553966522], [-0.15579289197921753, 0.1897953599691391, 0.31157055497169495, -0.4517006278038025, 0.31600335240364075, -0.19908294081687927, 0.05083218961954117, -0.16912944614887238, 0.5232795476913452, -0.2602308988571167, 0.03208336979150772, -0.33604109287261963, -0.33186912536621094, 0.03586934879422188, 0.027235444635152817, 0.17544303834438324, 0.051730990409851074, 0.10536167770624161, 0.21293899416923523, 0.32076600193977356], [-0.018368123099207878, -0.04851221665740013, 0.17255698144435883, -0.12051370739936829, 0.2423309087753296, 0.03381779417395592, -0.09229743480682373, -0.08690570294857025, -0.20605923235416412, 0.09884632378816605, 0.04776071012020111, -0.16123053431510925, -0.2621205151081085, 0.19602960348129272, 0.14650703966617584, 0.018918126821517944, -0.18732818961143494, 0.10923638194799423, -0.0866682231426239, 0.1738588511943817], [-0.16344775259494781, -0.032609958201646805, 0.311601459980011, -0.060170333832502365, 0.33794909715652466, -0.36948928236961365, 0.2588872015476227, -0.20446553826332092, 0.21578118205070496, -0.16646510362625122, 0.33032307028770447, -0.04080164059996605, -0.3554818332195282, 0.09869413822889328, 0.31856003403663635, 0.03965194895863533, 0.046750616282224655, 0.2641415596008301, 0.32182157039642334, 0.20391632616519928], [-0.3626919984817505, 0.2712269127368927, 0.14397382736206055, -0.1837860345840454, 0.10090743005275726, -0.1512744426727295, 0.3687288463115692, -0.2661057710647583, -0.003483427222818136, -0.17934873700141907, 0.18583399057388306, -0.2041606307029724, -0.28202491998672485, 0.07148006558418274, 0.039837487041950226, 0.14557750523090363, 0.18916992843151093, 0.0330079048871994, 0.3360055088996887, 0.3563212752342224], [-0.19584189355373383, -0.09122391790151596, 0.059566084295511246, -0.14945998787879944, 0.011206544004380703, 0.13022750616073608, -0.08772215247154236, 0.14939408004283905, 0.20470519363880157, -0.1556616872549057, 0.013327520340681076, -0.10516107827425003, 0.08704940229654312, 0.2302955985069275, 0.21040458977222443, 0.08405452966690063, -0.22378402948379517, 0.2375357449054718, 0.40246638655662537, 0.1068502813577652], [-0.1715288907289505, -0.10163247585296631, 0.15478768944740295, -0.31054267287254333, 0.04127746447920799, 0.10403259843587875, -0.154042050242424, 0.007582481950521469, 0.18895620107650757, 0.06684379279613495, -0.06401311606168747, -0.13797639310359955, 0.0391702838242054, 0.07662472873926163, 0.1509905308485031, 0.10742682963609695, 0.12814714014530182, 0.04444805905222893, 0.05538380146026611, -0.00862065702676773], [-0.38753384351730347, 0.3664180338382721, 0.08818019181489944, -0.2426617294549942, 0.3106992840766907, -0.2982883155345917, 0.26241162419319153, -0.3503771424293518, 0.3766123354434967, -0.27008843421936035, 0.15696528553962708, -0.18670837581157684, -0.27663910388946533, -0.011261831037700176, 0.031281307339668274, 0.14716100692749023, 0.13196195662021637, 0.10542473196983337, 0.34190747141838074, 0.01892302744090557], [-0.1861179769039154, -0.030189141631126404, 0.1772175431251526, -0.4263700246810913, 0.12662935256958008, -0.02293366752564907, 0.15642337501049042, -0.3787822425365448, 0.302971214056015, -0.2754226326942444, -0.017283689230680466, -0.031424522399902344, -0.029312018305063248, 0.1474519520998001, 0.0504864901304245, 0.3320123851299286, 0.09649838507175446, 0.29733729362487793, 0.20653687417507172, 0.16642121970653534], [-0.1770099401473999, 0.0012852841755375266, 0.2727329134941101, -0.14666016399860382, 0.2544923424720764, -0.15845069289207458, 0.2563692033290863, -0.20408888161182404, 0.30032628774642944, -0.11538668721914291, 0.3199177086353302, -0.315057635307312, 0.0035487664863467216, 0.05679958313703537, 0.03496694937348366, -0.06397873908281326, -0.005099044647067785, -0.007723431568592787, 0.03834023326635361, 0.04912924766540527], [-0.191099151968956, 0.06396273523569107, 0.15477241575717926, -0.33145010471343994, 0.21014747023582458, 0.0018020588904619217, -0.06132788583636284, -0.25057747960090637, 0.16938109695911407, -0.04473598673939705, -0.08583822101354599, -0.005837441422045231, -0.30640166997909546, 0.17824538052082062, -0.049777425825595856, 0.12646524608135223, -0.20431534945964813, 0.18894658982753754, 0.3294795751571655, -0.07721460610628128], [-0.09995754808187485, 0.2911585569381714, 0.04172196239233017, -0.21997429430484772, 0.3213900923728943, -0.4115069508552551, 0.11226747184991837, -0.23346887528896332, 0.35564127564430237, -0.1561412811279297, 0.2850198447704315, -0.21316172182559967, -0.30308181047439575, 0.09337985515594482, 0.012916521169245243, 0.020790422335267067, -0.02449585683643818, 0.17424340546131134, 0.11367711424827576, 0.1541939526796341], [-0.060237038880586624, -0.029652297496795654, 0.34653058648109436, -0.053737059235572815, 0.36038005352020264, 0.03945314884185791, 0.1117582842707634, 0.002208505757153034, 0.18656809628009796, 0.023242037743330002, -0.018501698970794678, -0.18068258464336395, 0.05459270626306534, 0.16725435853004456, 0.2717711925506592, 0.47274723649024963, -0.382618248462677, 0.26658642292022705, 0.14582811295986176, -0.02952156402170658], [-0.06496570259332657, 0.05851192772388458, 0.28046348690986633, 0.05516040697693825, 0.01813202165067196, -0.12730279564857483, 0.06982014328241348, 0.1907627135515213, -0.1058039590716362, -0.04268346726894379, 0.16987721621990204, -0.24761740863323212, -0.2079358845949173, 0.12781211733818054, 0.16214346885681152, 0.1911337822675705, -0.15860827267169952, 0.09096058458089828, 0.07322151958942413, 0.01746702753007412], [-0.20955154299736023, 0.34080401062965393, -0.02592918835580349, -0.40504390001296997, 0.13280096650123596, -0.18423563241958618, -0.09312335401773453, -0.20560617744922638, 0.17485950887203217, -0.41385337710380554, 0.18672344088554382, -0.27486452460289, -0.23960086703300476, 0.36411967873573303, 0.21275387704372406, -0.09497251361608505, 0.009087137877941132, 0.14002563059329987, 0.04564014822244644, 0.21882762014865875], [-0.27766576409339905, 0.2259194552898407, 0.3779205083847046, -0.35671573877334595, 0.22823768854141235, 0.018953660503029823, 0.29335248470306396, -0.3636302351951599, 0.2364042103290558, -0.12146587669849396, 0.03238813206553459, 0.005059155635535717, 0.04909076541662216, 0.2093462496995926, 0.36863869428634644, 0.08481577038764954, -0.21137259900569916, 0.04514788091182709, 0.11751680821180344, 0.3024502098560333], [-0.18300601840019226, 0.1850111037492752, 0.009420616552233696, -0.4405971169471741, 0.37947243452072144, -0.2214447557926178, 0.02917022630572319, -0.23963652551174164, 0.19596804678440094, -0.24816712737083435, 0.20350974798202515, -0.24583560228347778, -0.13985228538513184, 0.0586758516728878, 0.2588731348514557, 0.02268008142709732, 0.19894461333751678, 0.11133407056331635, 0.018396111205220222, 0.3256755471229553], [-0.1978069692850113, 0.12697473168373108, 0.38152003288269043, -0.23176582157611847, 0.2901701331138611, -0.020263472571969032, 0.40710967779159546, -0.21515700221061707, 0.5039328336715698, -0.005022053141146898, 0.35712751746177673, -0.08102704584598541, -0.3824385404586792, 0.15690356492996216, 0.09923030436038971, 0.38710397481918335, -0.27481406927108765, 0.07480743527412415, 0.06385376304388046, 0.31044724583625793], [0.3050844073295593, 0.3138749897480011, -0.24744491279125214, 0.22705554962158203, 0.18695825338363647, -0.09572301805019379, 0.22362717986106873, 0.1524108648300171, 0.0018472421215847135, 0.22738735377788544, -0.16936977207660675, -0.06822890788316727, 0.3571108877658844, -0.25423261523246765, -0.16171911358833313, 0.032510753720998764, -0.2967647910118103, 0.045672282576560974, -0.07039915770292282, -0.12957130372524261], [-0.01813596673309803, 0.03844895958900452, 0.028801564127206802, -0.36140725016593933, 0.0011035032803192735, -0.27096909284591675, 0.24146993458271027, -0.15198615193367004, 0.3983985185623169, -0.38964396715164185, -0.044063400477170944, -0.25704053044319153, -0.13442672789096832, -0.0640786811709404, 0.2972865402698517, 0.0069723972119390965, 0.07676120102405548, 0.25552207231521606, 0.2764986455440521, 0.09282682836055756], [-0.3719259798526764, 0.019689852371811867, 0.059337716549634933, -0.27269884943962097, 0.3454267084598541, -0.05554196611046791, 0.1892259120941162, -0.3664063811302185, 0.44745567440986633, -0.2994895577430725, 0.21428614854812622, -0.243813619017601, -0.2624683976173401, -0.03452765569090843, 0.001483697327785194, 0.18744637072086334, -0.05792273208498955, 0.09040561318397522, 0.05124127119779587, 0.06735219806432724], [-0.032775625586509705, 0.03716329485177994, 0.06493774056434631, -0.33971497416496277, 0.389101505279541, -0.31132182478904724, 0.33295586705207825, -0.34175461530685425, 0.40895935893058777, -0.0948309451341629, 0.04591323062777519, -0.33425816893577576, 0.03735009953379631, -0.02369082160294056, 0.3816184997558594, 0.11125372350215912, -0.04537944123148918, 0.2850573658943176, 0.20808443427085876, 0.14157399535179138], [-0.3156309723854065, 0.06705856323242188, 0.1512344777584076, -0.2906041443347931, -0.11872318387031555, -0.10081374645233154, 0.15267395973205566, 0.09854264557361603, -0.1307629644870758, -0.08021274954080582, -0.03499836474657059, -0.2633839547634125, -0.21567615866661072, 0.17976200580596924, 0.26122021675109863, 0.24032501876354218, -0.15976281464099884, -0.14810359477996826, 0.27657294273376465, -0.12260404974222183], [-0.1719384491443634, 0.08057702332735062, 0.12680774927139282, -0.3123759329319, 0.21942618489265442, -0.056805577129125595, 0.3500186800956726, -0.26254746317863464, 0.1939755529165268, -0.4970637559890747, 0.23537752032279968, -0.377287358045578, -0.035126931965351105, 0.39164966344833374, 0.29930245876312256, -0.03242119401693344, 0.2512713074684143, 0.29093074798583984, 0.3588245213031769, 0.37394779920578003], [-0.41225364804267883, 0.09670190513134003, 0.24530857801437378, -0.3147376477718353, 0.04086730629205704, -0.18646204471588135, 0.2609584331512451, -0.06404659897089005, -0.11883816123008728, 0.16955186426639557, -0.04016900435090065, -0.12988628447055817, -0.2760778069496155, -0.09802161902189255, 0.333673894405365, 0.1371091902256012, -0.06888237595558167, -0.05132315307855606, 0.27886083722114563, -0.05364551395177841], [-0.48138830065727234, 0.04081224650144577, -0.03815918788313866, -0.03178556263446808, 0.21977144479751587, 0.16932569444179535, 0.2111293375492096, -0.055265724658966064, 0.09174443036317825, 0.07886788994073868, 0.19365349411964417, -0.22284609079360962, -0.2727779746055603, -0.046998899430036545, 0.20768113434314728, 0.2248385101556778, -0.04831336438655853, 0.15640777349472046, 0.4228242337703705, 0.16011320054531097], [-0.24335186183452606, -0.0842401459813118, -0.14980335533618927, 0.08179530501365662, 0.24747084081172943, -0.1629728078842163, 0.18757417798042297, 0.13314883410930634, -0.15302062034606934, 0.21433602273464203, -0.14300158619880676, 0.07137811928987503, -0.04853599891066551, 0.05265061557292938, -0.014913199469447136, 0.06372234225273132, -0.12770652770996094, 0.27385473251342773, 0.13137824833393097, -0.10087773948907852], [0.007858461700379848, 0.026417676359415054, 0.1412220597267151, -0.00989275798201561, 0.1816234141588211, -0.22847265005111694, 0.3250664174556732, -0.0870354175567627, 0.21677425503730774, -0.17300057411193848, 0.36474311351776123, -0.2694535553455353, -0.22867466509342194, 0.15936115384101868, 0.35260987281799316, 0.026458341628313065, -0.01734505407512188, 0.08357352763414383, 0.23158545792102814, 0.3269328773021698], [-0.28322261571884155, -0.029767457395792007, 0.2707812488079071, -0.15253424644470215, 0.016443485394120216, -0.228058859705925, 0.0031862803734838963, -0.11736630648374557, 0.24456346035003662, -0.164633646607399, 0.2699386775493622, -0.08798416703939438, 0.082712322473526, 0.34454813599586487, 0.03093542531132698, 0.3197481632232666, 0.12633492052555084, 0.3716816306114197, 0.30177974700927734, 0.18185639381408691], [-0.18310317397117615, -0.20178882777690887, 0.30534660816192627, -0.013438792899250984, -0.06896042823791504, 0.19438302516937256, 0.3089059889316559, 0.10357138514518738, 0.021161403506994247, -0.027194207534193993, -0.014621784910559654, -0.3128451108932495, -0.22444984316825867, 0.011841347441077232, 0.13113808631896973, -0.11847050487995148, 0.0010239091934636235, 0.28070831298828125, 0.08844440430402756, 0.23619942367076874], [-0.2512572407722473, -0.10881263762712479, -0.012218560092151165, 0.0011469986056908965, 0.044329576194286346, 0.1309061348438263, 0.16657917201519012, 0.09023022651672363, 0.08864578604698181, 0.09692060202360153, 0.22059296071529388, 0.002305450150743127, -0.3359634578227997, 0.1418362408876419, 0.08903447538614273, 0.00841111782938242, -0.23717573285102844, 0.029308224096894264, 0.3474055230617523, 0.29191720485687256], [-0.3624563217163086, 0.3038308918476105, 0.2644275426864624, -0.2904948592185974, 0.006342989858239889, -0.26060155034065247, 0.13772469758987427, -0.3615490198135376, 0.4962572455406189, -0.3167225420475006, 0.3072021007537842, -0.39096054434776306, -0.09140434116125107, 0.3275218605995178, 0.2763576805591583, 0.0623592883348465, -0.236937016248703, 0.299211710691452, 0.039065223187208176, 0.2166515588760376], [-0.13004057109355927, 0.11258983612060547, 0.38414260745048523, -0.07261145114898682, 0.44064855575561523, -0.12193987518548965, 0.21337462961673737, 0.2046632319688797, 0.17003004252910614, 0.26527324318885803, 0.21793006360530853, -0.18057946860790253, -0.04099179431796074, 0.20291800796985626, 0.2979130446910858, 0.30346497893333435, -0.26474714279174805, 0.2722374200820923, 0.12367410957813263, 0.32354140281677246], [-0.07525236159563065, 0.3009476065635681, 0.24415479600429535, 0.03697437047958374, 0.09423127770423889, 0.0919632613658905, 0.0429275706410408, 0.11235873401165009, -0.1699848771095276, 0.17160867154598236, 0.09351290762424469, -0.034756436944007874, 0.09197483211755753, 0.13987505435943604, 0.28225067257881165, 0.26931872963905334, -0.09025279432535172, 0.3477664291858673, 0.06737960875034332, 0.2804606556892395], [-0.16187743842601776, 0.19343015551567078, 0.20578879117965698, -0.2538619041442871, 0.31344476342201233, -0.20996679365634918, 0.32303959131240845, -0.44028425216674805, 0.2360154092311859, -0.2482125163078308, 0.14106281101703644, -0.29946228861808777, 0.026158863678574562, 0.24754175543785095, 0.1186802089214325, 0.19787895679473877, 0.11369863152503967, 0.019569266587495804, 0.3701379895210266, 0.19001589715480804], [0.04685799404978752, 0.12775488197803497, 0.2031460404396057, 0.032675549387931824, -0.0005263721686787903, 0.0735442191362381, 0.22109483182430267, 0.047541506588459015, 0.21698035299777985, 0.050185952335596085, 0.35917797684669495, -0.09350814670324326, -0.15312084555625916, 0.31961655616760254, 0.09138313680887222, 0.1979738175868988, -0.19106793403625488, 0.3545636534690857, 0.32832956314086914, 0.15031322836875916], [-0.28753864765167236, 0.3556637465953827, 0.2661745250225067, -0.1547962725162506, 0.049666404724121094, -0.08813148736953735, 0.21123726665973663, -0.08347280323505402, 0.41026771068573, -0.12459555268287659, 0.34318435192108154, -0.03480393439531326, -0.26454082131385803, 0.19490209221839905, 0.04620175436139107, 0.2573760449886322, -0.20172196626663208, 0.3390100300312042, 0.07818514853715897, 0.3605645000934601], [-0.22169795632362366, 0.22275668382644653, -0.06917482614517212, -0.13260573148727417, 0.08264170587062836, -0.11047481745481491, -0.005860325414687395, 0.02124854177236557, -0.003987819422036409, 0.10665762424468994, 0.09541115909814835, 0.022301504388451576, -0.10029539465904236, -0.029614893719553947, 0.1760510951280594, 0.17729777097702026, -0.11421847343444824, 0.19797930121421814, 0.34139350056648254, -0.013312661089003086], [-0.10223788768053055, -0.19431360065937042, 0.18705551326274872, -0.215473011136055, 0.02145203948020935, 0.17799773812294006, 0.329753577709198, -0.005196166690438986, 0.054505009204149246, -0.030115436762571335, -0.020686259493231773, -0.26225313544273376, -0.3457646071910858, 0.2833956480026245, 0.006962415296584368, -0.2923109829425812, 0.2994353771209717, 0.16628190875053406, 0.24239325523376465, 0.09829259663820267], [0.017095409333705902, -0.19113898277282715, 0.006600712891668081, 0.24455253779888153, -0.21743027865886688, 0.289559543132782, 0.08580651879310608, 0.29410865902900696, -0.5305633544921875, 0.04934976249933243, -0.014608721248805523, 0.022934040054678917, 0.11356434971094131, -0.19290074706077576, 0.03331737220287323, -0.09199448674917221, 0.13429823517799377, -0.10488440841436386, -0.328050822019577, -0.2044176161289215], [-0.31297528743743896, 0.27966731786727905, -0.15935038030147552, -0.19456729292869568, -0.04339130222797394, 0.07474392652511597, 0.07066423445940018, -0.26085230708122253, 0.3368169367313385, -0.09003946185112, -0.15569481253623962, -0.09219960868358612, 0.05407573655247688, 0.07150407135486603, 0.12837868928909302, 0.06798006594181061, 0.08689247071743011, 0.013312214985489845, 0.11980743706226349, 0.15133784711360931], [0.25891271233558655, 0.07486817985773087, -0.16826920211315155, 0.2251666784286499, 0.10728887468576431, 0.0690532997250557, -0.21964164078235626, 0.1462630331516266, -0.48239776492118835, 0.21372359991073608, -0.016213003545999527, 0.16204549372196198, 0.1690683215856552, -0.002207733690738678, 0.020634964108467102, -0.1697346270084381, -0.2812449038028717, -0.12633013725280762, -0.052661456167697906, -0.3110521137714386], [0.22392158210277557, -0.09286897629499435, -0.13639040291309357, 0.23750349879264832, -0.15279923379421234, -0.21932090818881989, -0.030104903504252434, -0.1900307685136795, 0.1202254369854927, -0.20661121606826782, -0.15999911725521088, 0.15654435753822327, 0.34757134318351746, -0.26345354318618774, 0.03066457435488701, -0.03661932051181793, 0.15336726605892181, -0.18462878465652466, -0.14682093262672424, -0.15232501924037933], [0.24107082188129425, -0.1544698178768158, -0.0667303204536438, 0.354701429605484, 0.08253369480371475, 0.41019904613494873, -0.1378820687532425, 0.4180891513824463, -0.42340222001075745, 0.018385887145996094, -0.20295466482639313, 0.3155752718448639, 0.3246139883995056, 0.03639787808060646, 0.06420373916625977, 0.07941579073667526, -0.050445906817913055, -0.20765499770641327, -0.1916198879480362, -0.22454369068145752], [0.1079949289560318, 0.10361182689666748, 0.15253649652004242, -0.08929090201854706, -0.038151808083057404, 0.10165897756814957, -0.02263898029923439, -0.16764165461063385, 0.14252644777297974, 0.08957206457853317, 0.13277511298656464, 0.09674045443534851, -0.05351020768284798, 0.09300410747528076, 0.1436934918165207, -0.13264384865760803, 0.2573184072971344, 0.10341867059469223, -0.19622734189033508, 0.08456801623106003], [-0.15620987117290497, 0.17968326807022095, -0.1407112181186676, 0.02963263727724552, -0.08349815011024475, 0.2116473913192749, -0.08334966003894806, 0.10113783925771713, -0.050250571221113205, -0.10818982869386673, 0.22778910398483276, -0.15856106579303741, -0.008378752507269382, 0.15299516916275024, -0.16692642867565155, 0.0975630134344101, 0.19703270494937897, 0.0773199126124382, 0.10376617312431335, 0.09635989367961884], [0.011052938178181648, -0.09255551546812057, -0.25564974546432495, 0.04580286890268326, 0.09312941133975983, 0.00915880873799324, -0.04081296920776367, 0.11389753222465515, -0.03626697137951851, 0.15214765071868896, -0.005248351488262415, 0.1444317251443863, 0.1864595115184784, -0.11994672566652298, -0.048109907656908035, 0.0856233462691307, 0.178227499127388, -0.2708452343940735, -0.3101838231086731, -0.007280288264155388], [0.40581417083740234, -0.029609492048621178, -0.3803197741508484, 0.3127194344997406, -0.15959583222866058, 0.13061729073524475, -0.16039106249809265, 0.20886018872261047, -0.3156042993068695, 0.36755529046058655, 0.011583802290260792, -0.0006998723256401718, 0.26645854115486145, -0.09458563476800919, -0.1980164796113968, -0.3759375214576721, -0.014242622070014477, -0.19731329381465912, -0.03260359913110733, -0.016167890280485153], [-0.32761529088020325, 0.3289467692375183, 0.015720492228865623, -0.09903907030820847, 0.1420707255601883, -0.05123845860362053, -0.08362307399511337, -0.3800731599330902, 0.33433830738067627, -0.29330626130104065, -0.04612748697400093, 0.025631040334701538, -0.21770219504833221, 0.021319139748811722, 0.008541649207472801, 0.23770196735858917, 0.23615919053554535, -0.009654042311012745, -0.014475937932729721, -0.027206774801015854], [-0.055438268929719925, 0.38568973541259766, 0.24158242344856262, -0.06988372653722763, -0.08871020376682281, -0.35116371512413025, 0.2556377053260803, 0.031436625868082047, 0.3410927951335907, -0.3179050385951996, 0.12851865589618683, -0.11730591952800751, -0.2686978578567505, 0.039898212999105453, -0.05709407478570938, 0.037018097937107086, 0.04258785769343376, 0.007841167040169239, 0.13681387901306152, 0.21260328590869904], [-0.049984659999608994, -0.3443414866924286, 0.004943977575749159, 0.09832948446273804, 0.021623089909553528, 0.08362459391355515, 0.04993095248937607, 0.24284297227859497, -0.21759557723999023, 0.2568210959434509, -0.05706239119172096, 0.002748221857473254, -0.07733230292797089, -0.1785467118024826, -0.29483509063720703, -0.2622472047805786, -0.08200297504663467, -0.124461829662323, -0.2135830968618393, -0.1990063637495041], [0.16648393869400024, -0.2598493695259094, -0.2237788736820221, -0.0010618350934237242, 0.051578063517808914, 0.21966804563999176, -0.1858154833316803, 0.22299541532993317, -0.23890449106693268, 0.06089508533477783, -0.04859050363302231, -0.03151335567235947, -0.0709616169333458, -0.1243131011724472, -0.11459986120462418, -0.29458993673324585, 0.16277338564395905, -0.19721290469169617, -0.20398418605327606, -0.3056337237358093], [-0.2355230152606964, -0.2075539082288742, -0.11804373562335968, -0.2084195911884308, 0.006125439424067736, 0.1365952491760254, -0.10977939516305923, -0.1743578165769577, 0.09167762845754623, -0.15557001531124115, 0.10183173418045044, -0.10153061151504517, -0.40414121747016907, 0.20482246577739716, 0.14322464168071747, -0.17580312490463257, 0.6095103025436401, 0.06190644949674606, 0.2146703600883484, 0.26091933250427246], [0.09639783948659897, 0.16748754680156708, -0.2643698751926422, 0.1433028280735016, 0.1438124179840088, -0.01071509625762701, -0.08493401855230331, 0.059149496257305145, -0.33774957060813904, 0.056964755058288574, -0.1499239057302475, 0.1575337052345276, 0.15075622498989105, 0.08608336001634598, -0.2949337959289551, 0.0032936949282884598, -0.12803713977336884, -0.05855191871523857, 0.07970353215932846, -0.040926188230514526], [0.32638972997665405, -0.010857801884412766, 0.07738694548606873, 0.18340356647968292, -0.02041170932352543, 0.3115101456642151, -0.06347042322158813, 0.06558740139007568, -0.3027741611003876, 0.2244858592748642, 0.011087002232670784, -0.11087644845247269, 0.11039428412914276, 0.10925973206758499, 0.10027580708265305, 0.1142675131559372, -0.28268614411354065, 0.027318820357322693, -0.04301666095852852, -0.14176972210407257], [0.23874278366565704, -0.05534717068076134, -0.2020551711320877, -0.017316799610853195, 0.19773194193840027, -0.1268591731786728, -0.10170307010412216, 0.1483563482761383, -0.18299870193004608, 0.2862374782562256, 0.014910482801496983, 0.22705601155757904, 0.2218683958053589, 0.033207401633262634, 0.16921396553516388, 0.15803435444831848, -0.15426018834114075, 0.1536550670862198, -0.06470908969640732, 0.17233702540397644], [0.041456013917922974, -0.2940416634082794, -0.0024486056063324213, 0.21149533987045288, -0.039801426231861115, 0.1316870152950287, -0.1380244940519333, 0.3354719579219818, -0.06603449583053589, 0.3217118978500366, -0.05950012058019638, 0.0799185261130333, 0.1313920021057129, -0.28096288442611694, -0.15300032496452332, 0.0022469363175332546, -0.20292025804519653, -0.2243747115135193, -0.12595634162425995, -0.2654630243778229], [-0.31404566764831543, 0.27041465044021606, 0.034364763647317886, -0.1438150703907013, 0.17703977227210999, -0.38859397172927856, 0.22053202986717224, -0.40287235379219055, 0.3324221670627594, -0.22242790460586548, 0.058552492409944534, -0.10753350704908371, 0.05276859551668167, -0.03901725634932518, 0.31774282455444336, 0.36921942234039307, 0.012262952513992786, 0.39902856945991516, 0.13764791190624237, 0.032827723771333694], [0.22243621945381165, 0.12006793171167374, -0.25046682357788086, 0.08347658067941666, 0.17440354824066162, -0.2859566807746887, 0.15377803146839142, 0.1422746628522873, -0.19529052078723907, 0.0768919363617897, -0.10658381879329681, 0.2221052050590515, 0.484002023935318, -0.35164564847946167, -0.10139445215463638, 0.12757053971290588, -0.11131317168474197, -0.08725208044052124, -0.09721594303846359, 0.039780497550964355], [-0.22891631722450256, 0.07236143201589584, 0.20769967138767242, -0.23948146402835846, 0.04869230091571808, -0.005793591495603323, 0.1525670439004898, -0.5237960815429688, 0.4182918071746826, -0.29055705666542053, 0.19726593792438507, -0.07067830860614777, -0.010082999244332314, 0.192365825176239, 0.026213722303509712, 0.15382124483585358, -0.16207721829414368, 0.16621822118759155, 0.22848837077617645, 0.02530764415860176], [-0.13604989647865295, 0.17533907294273376, 0.14558085799217224, -0.17445601522922516, 0.13208499550819397, -0.0426521822810173, 0.08958391845226288, -0.26906073093414307, 0.25712087750434875, -0.31464138627052307, -0.03562598302960396, -0.40008482336997986, -0.32154688239097595, 0.23929879069328308, 0.09727232158184052, 0.2574252188205719, -0.23000098764896393, 0.42340096831321716, 0.236873060464859, 0.1950320154428482], [-0.305774450302124, 0.04246975854039192, 0.41508811712265015, -0.42718321084976196, 0.3115940988063812, -0.13257920742034912, 0.41472727060317993, -0.25771892070770264, 0.3479539752006531, -0.23984993994235992, 0.22281602025032043, -0.2812599837779999, -0.05650996044278145, 0.1890285462141037, 0.37753409147262573, 0.14557398855686188, 0.0832393690943718, 0.24081717431545258, 0.06408459693193436, 0.0983654037117958], [-0.19954131543636322, 0.1618693321943283, -0.1386328786611557, 0.04151938483119011, 0.22665522992610931, 0.25420528650283813, -0.11733616888523102, -0.12773984670639038, 0.17631705105304718, -0.13324762880802155, 0.23760226368904114, 0.008220568299293518, -0.07077527791261673, -0.049877386540174484, 0.0725846067070961, -0.1261381357908249, 0.12014788389205933, -0.020841948688030243, 0.1417950689792633, -0.0006999534671194851], [-0.4177669882774353, 0.23513060808181763, 0.22876307368278503, -0.4197435677051544, 0.08620165288448334, -0.01789759285748005, 0.28283578157424927, -0.4199286103248596, 0.16116145253181458, -0.43289485573768616, 0.3227188289165497, -0.401371568441391, -0.40599244832992554, 0.12352846562862396, 0.41226303577423096, 0.1490681916475296, -0.12750616669654846, 0.19373315572738647, 0.05701235681772232, 0.3784642219543457], [-0.1704300493001938, 0.26848599314689636, 0.13497883081436157, -0.3200145959854126, 0.300338476896286, 0.026440775021910667, 0.22964152693748474, -0.03094724752008915, 0.13350394368171692, -0.2181483507156372, 0.2467743307352066, 0.015956208109855652, -0.3076842129230499, 0.12707066535949707, 0.24591666460037231, -0.09654819965362549, -0.21191483736038208, 0.21627925336360931, 0.42265453934669495, 0.35452425479888916], [-0.280205100774765, 0.1774362474679947, 0.0032758021261543036, -0.22942712903022766, 0.1389230638742447, 0.039271119982004166, 0.14750739932060242, -0.22059310972690582, 0.039774175733327866, 0.19449694454669952, -0.07109460234642029, -0.3057061731815338, 0.04431374371051788, 0.21514387428760529, 0.2454676777124405, 0.10599078983068466, -0.17434358596801758, 0.01661721244454384, 0.4912324547767639, 0.3457534909248352], [-0.022967999801039696, 0.11760856956243515, 0.12707345187664032, -0.08117931336164474, -0.04848755896091461, -0.08310110121965408, 0.19852390885353088, 0.131378635764122, 0.14669519662857056, 0.116395965218544, -0.14822989702224731, -0.2895422577857971, -0.10809917002916336, 0.08324350416660309, 0.25059691071510315, -0.003500317456200719, -0.08743364363908768, 0.177348792552948, 0.11970318853855133, -0.00795426219701767], [-0.07993824034929276, 0.3317652940750122, -0.017955156043171883, -0.11974108219146729, 0.2594093382358551, -0.20842482149600983, 0.17661263048648834, -0.44298094511032104, 0.15588465332984924, -0.3968033790588379, 0.19481351971626282, -0.010904578492045403, -0.13054987788200378, 0.22467049956321716, 0.35552218556404114, 0.09837415814399719, 0.0863633081316948, 0.02889396622776985, 0.06422025710344315, 0.07606138288974762], [-0.27613329887390137, 0.1998506635427475, 0.3706355392932892, 0.01164108794182539, -0.04600853472948074, -0.2589077055454254, 0.25743672251701355, -0.17958709597587585, 0.5477746725082397, -0.03190764784812927, 0.05014164000749588, -0.24890729784965515, -0.1951446831226349, 0.16974197328090668, 0.13242056965827942, 0.04450506344437599, -0.09464853256940842, 0.14011770486831665, 0.03590138629078865, 0.07401247322559357], [-0.3405049443244934, -0.2941493093967438, 0.12381475418806076, -0.28826069831848145, 0.06414125859737396, -0.023509535938501358, -0.025464702397584915, 0.1489511877298355, 0.2957906424999237, 0.09490769356489182, -0.10901578515768051, -0.2944489121437073, 0.0234067402780056, 0.01692683808505535, 0.03300481289625168, 0.07167632132768631, -0.2042287439107895, -0.11431887000799179, 0.04182392358779907, 0.27225521206855774], [-0.1295504868030548, -0.20039738714694977, 0.19604948163032532, -0.08664042502641678, 0.020531076937913895, 0.16121572256088257, -0.0494794100522995, 0.016261788085103035, 0.17555733025074005, 0.011227359995245934, 0.007275348529219627, -0.07966768741607666, -0.027099933475255966, 0.19975163042545319, 0.18639083206653595, 0.20458418130874634, -0.11873393505811691, 0.30699628591537476, 0.12030540406703949, 0.2763086259365082], [-0.07058818638324738, -0.04833782836794853, 0.1747526079416275, -0.42185574769973755, 0.4047950208187103, -0.0675881952047348, 0.12061093002557755, -0.2857070565223694, 0.2731909155845642, -0.48114174604415894, 0.2919117510318756, -0.12660996615886688, -0.2621804177761078, 0.08801024407148361, 0.2918245494365692, 0.25785717368125916, -0.19606417417526245, 0.21480600535869598, 0.08457285910844803, 0.3499778211116791], [0.12025619298219681, -0.10401257127523422, 0.345930814743042, -0.050063397735357285, 0.24298328161239624, -0.11105682700872421, 0.38424918055534363, 0.24373362958431244, 0.06672286987304688, 0.09544568508863449, 0.3258305788040161, -0.20781369507312775, -0.04490648955106735, 0.10897526144981384, 0.31774163246154785, 0.28812962770462036, -0.504930853843689, 0.14012107253074646, 0.11603674292564392, 0.1788337230682373], [-0.03709535673260689, 0.1313776820898056, 0.23858068883419037, -0.18161042034626007, 0.32068321108818054, 0.20118647813796997, 0.021346786990761757, 0.09364765137434006, -0.16398735344409943, 0.23135432600975037, 0.1795758157968521, -0.20036040246486664, -0.10790039598941803, 0.10535438358783722, 0.18064436316490173, 0.0731203556060791, -0.26641225814819336, 0.1264284998178482, 0.06813403964042664, 0.1286090612411499], [-0.22146785259246826, 0.09411726146936417, 0.37011849880218506, -0.37530219554901123, 0.36094385385513306, -0.14347408711910248, 0.2510085701942444, -0.4756898283958435, 0.5325892567634583, -0.21439798176288605, 0.27333059906959534, -0.01333545707166195, -0.24553129076957703, 0.2757115960121155, 0.033515769988298416, 0.3603123426437378, 0.023290712386369705, 0.32714107632637024, 0.40003517270088196, 0.15200242400169373], [-0.006706485990434885, -0.04589052125811577, 0.1498115509748459, -0.3828970193862915, 0.3078153729438782, -0.31025928258895874, 0.14949184656143188, 0.00459559541195631, 0.21645642817020416, 0.06439169496297836, 0.04539523646235466, -0.2344283014535904, -0.0031378264538943768, 0.12931452691555023, 0.14055605232715607, 0.1966458410024643, -0.047782521694898605, 0.15751780569553375, 0.3475470244884491, 0.13618499040603638], [-0.305152028799057, 0.025162167847156525, 0.17977897822856903, -0.4252183437347412, 0.3108345568180084, -0.13456730544567108, 0.39533674716949463, -0.3696301579475403, 0.12185357511043549, -0.10797058790922165, 0.03221871703863144, -0.04648362472653389, -0.37444552779197693, 0.03091587871313095, 0.3645722568035126, 0.2537565529346466, 0.09870011359453201, 0.2660926282405853, 0.08385451138019562, 0.2085842341184616]], "rec.bias_ih_l0": [-0.12267834693193436, -0.10515524446964264, -0.3116239309310913, -0.04765355587005615, -0.007833844050765038, 0.0019218436209484935, -0.11933714151382446, -0.06248456984758377, -0.2932772636413574, 0.06376229226589203, -0.3562577962875366, -0.01013203151524067, 0.11032102257013321, -0.1100381463766098, -0.02920883148908615, -0.14206087589263916, -0.228965163230896, 0.13813409209251404, -0.07213957607746124, -0.19841718673706055, 0.0022077797912061214, -0.09840257465839386, 0.03392527997493744, -0.22736908495426178, 0.01595044881105423, 0.08417902886867523, 0.11108622699975967, 0.09279636293649673, -0.13783182203769684, -0.279063880443573, -0.07040264457464218, -0.01325452234596014, -0.1590961366891861, -0.12292876094579697, -0.08765905350446701, -0.32075512409210205, -0.2602445185184479, -0.28401145339012146, -0.324420303106308, 0.032766420394182205, -0.2004040628671646, -0.22839011251926422, -0.11681637912988663, -0.13102714717388153, -0.2017434686422348, 0.0738237276673317, -0.26496368646621704, -0.01807316392660141, 0.1624051034450531, -0.06226428598165512, -0.10743072628974915, -0.1092289537191391, -0.04112958163022995, -0.028569448739290237, -0.004381953738629818, -0.1754503697156906, 0.04988524317741394, -0.2607688307762146, 0.03015262819826603, -0.1052856370806694, -0.05522115156054497, -0.08205633610486984, -0.020387904718518257, -0.06319059431552887, -0.3476312458515167, -0.12589004635810852, -0.025421617552638054, 0.0832090899348259, -0.07843561470508575, -0.24670462310314178, -0.3352554142475128, -0.06524243950843811, -0.13188645243644714, -0.2257949858903885, -0.18883514404296875, -0.1042039766907692, -0.2280067801475525, -0.10933304578065872, -0.11850633472204208, -0.2546117603778839], "rec.bias_hh_l0": [-0.15780821442604065, -0.006721807643771172, -0.09357329457998276, 0.04360301047563553, -0.2002674788236618, 0.12959493696689606, 0.17961473762989044, -0.05166515335440636, -0.05312768369913101, -0.05454074218869209, -0.041123077273368835, -0.10942685604095459, -0.11915623396635056, -0.2638378441333771, 0.0033688570838421583, -0.17564572393894196, -0.3076392710208893, -0.0880996435880661, -0.13384489715099335, -0.16230134665966034, -0.35508427023887634, -0.2582663595676422, -0.278788685798645, -0.2701159119606018, -0.22899919748306274, -0.17781130969524384, -0.036122821271419525, -0.28620362281799316, 0.1324325054883957, -0.24469953775405884, -0.34510549902915955, -0.22103486955165863, -0.23443210124969482, -0.13872657716274261, -0.18520575761795044, -0.28750088810920715, -0.07619288563728333, 0.11376962810754776, -0.3217037618160248, -0.08316046744585037, 0.18396781384944916, -0.019489256665110588, -0.13865087926387787, 0.21165788173675537, -0.16302862763404846, -0.06945108622312546, -0.24860626459121704, 0.061339735984802246, -0.14431500434875488, -0.051020555198192596, -0.13544093072414398, 0.18115009367465973, -0.22015348076820374, 0.22970761358737946, -0.19281959533691406, -0.020633172243833542, 0.051096975803375244, -0.07081406563520432, 0.05714171752333641, -0.14972084760665894, -0.12659837305545807, -0.11410650610923767, -0.006937599275261164, -0.0842047929763794, -0.03393804654479027, -0.05512126907706261, -0.02484068274497986, -0.15767686069011688, -0.27973777055740356, 0.14029815793037415, -0.05664398893713951, -0.3077932298183441, 0.09459051489830017, -0.23680859804153442, -0.2793629467487335, -0.4866335690021515, -0.10921616107225418, -0.05498221144080162, -0.13514754176139832, 0.09197156131267548], "lin.weight": [[0.04154369980096817, 0.09017716348171234, -0.05111515149474144, 0.08296582847833633, -0.07839079201221466, 0.03981415927410126, -0.15547612309455872, 0.09609055519104004, -0.061241403222084045, 0.015814246609807014, -0.043102674186229706, 0.04530704766511917, -0.09222284704446793, 0.0718647912144661, -0.06116657704114914, 0.028651705011725426, 0.030679844319820404, -0.16223734617233276, -0.004309733863919973, -0.11247950047254562]], "lin.bias": [-0.07634826004505157]}}