{"model_data": {"model": "SimpleRNN", "input_size": 1, "skip": 1, "output_size": 1, "unit_type": "LSTM", "num_layers": 1, "hidden_size": 20, "bias_fl": true}, "state_dict": {"rec.weight_ih_l0": [[-0.5502893924713135], [-0.009749885648488998], [0.5107966065406799], [-0.33386337757110596], [0.4727500081062317], [-1.6011817455291748], [0.816706657409668], [-2.2905354499816895], [-1.7587406635284424], [-1.8626705408096313], [0.22873248159885406], [-0.16976706683635712], [0.044438622891902924], [0.12648619711399078], [0.20949731767177582], [0.06738417595624924], [-1.0352783203125], [0.38834014534950256], [-0.3792256712913513], [-0.037283603101968765], [-0.21292075514793396], [0.006850995123386383], [0.44530969858169556], [-0.09734804928302765], [0.33503037691116333], [-1.0813599824905396], [0.5934258699417114], [-0.9574930667877197], [-1.286726951599121], [-0.9250388741493225], [0.21140964329242706], [0.08457329124212265], [0.0579228475689888], [0.10818608850240707], [0.2392299473285675], [0.025164922699332237], [-0.5593473315238953], [0.5851495265960693], [-0.11290813237428665], [0.2590424716472626], [2.202477216720581], [-0.43389201164245605], [-1.2353544235229492], [1.5954861640930176], [-1.3472574949264526], [1.8629956245422363], [-1.4189980030059814], [3.1026811599731445], [-2.595665454864502], [2.604626417160034], [-1.173110008239746], [1.4621399641036987], [1.2362134456634521], [-0.9937650561332703], [-1.3326915502548218], [-0.4802969992160797], [-1.3348448276519775], [-1.5793564319610596], [-1.1890572309494019], [-1.7310525178909302], [-0.8059554100036621], [0.0010773401008918881], [0.2282360941171646], [-0.4254764914512634], [0.48249995708465576], [-1.7613871097564697], [0.3653648793697357], [-2.4403204917907715], [-1.8796443939208984], [-1.8343803882598877], [0.3242530822753906], [0.0008228429942391813], [0.07586266100406647], [0.1454635113477707], [-0.051778942346572876], [0.07484069466590881], [-1.0447015762329102], [0.20745286345481873], [-0.24722710251808167], [-0.14330542087554932]], "rec.weight_hh_l0": [[0.01322248950600624, -0.11199987679719925, 0.14263539016246796, -0.06842899322509766, 0.11735555529594421, -0.15186648070812225, 0.17095546424388885, 0.07069131731987, 0.04183550179004669, 0.05646304041147232, 0.06094551086425781, -0.03958320617675781, -0.27714020013809204, 0.007755167782306671, 0.2083897739648819, 0.0617661289870739, -0.26645392179489136, -0.02535575069487095, 0.31750378012657166, 0.24511152505874634], [-0.16615161299705505, 0.17353418469429016, 0.19312529265880585, -0.06979421526193619, 0.19733034074306488, -0.07607881724834442, -0.15834930539131165, 0.0032288345973938704, 0.07942931354045868, 0.11295092850923538, 0.21571964025497437, -0.23319755494594574, 0.04652242362499237, 0.0033568795770406723, 0.07822910696268082, -0.14838729798793793, 0.14807532727718353, 0.05914735794067383, 0.0466175451874733, 0.17851068079471588], [-0.05453674867749214, -0.24166949093341827, -0.01859951950609684, 0.06860802322626114, 0.14318473637104034, -0.13405035436153412, -0.12019401043653488, -0.08374153077602386, 0.10339167714118958, 0.04248404502868652, -0.06804268062114716, -0.12606997787952423, -0.13111552596092224, 0.10145258158445358, 0.034950874745845795, 0.14832521975040436, 0.04697625711560249, -0.1583722084760666, 0.14741699397563934, -0.10309155285358429], [-0.2881660461425781, -0.1778283566236496, -0.09752797335386276, -0.1931237429380417, -0.07274115085601807, -0.1665610671043396, -0.024862581863999367, -0.25320494174957275, 0.07389120757579803, -0.010881076566874981, -0.1156984344124794, 0.0018039430724456906, -0.1367749273777008, 0.0740865170955658, 0.08008377999067307, 0.18452300131320953, 0.04735642299056053, 0.2758088707923889, 0.3288505971431732, 0.24635350704193115], [0.002057980513200164, 0.012002885341644287, 0.1606197953224182, -0.2812555432319641, 0.16712798178195953, -0.05621713027358055, -0.11427929997444153, 0.08154648542404175, 0.30654624104499817, -0.057654235512018204, -0.09378939867019653, -0.17754045128822327, -0.21669788658618927, -0.07134588062763214, -0.13066887855529785, 0.06610464304685593, -0.02048472873866558, -0.07348799705505371, 0.08369865268468857, 0.1592712253332138], [-0.007658270187675953, -0.045372605323791504, 0.16265909373760223, -0.11714889109134674, 0.23301896452903748, 0.027055872604250908, -0.10508431494235992, -0.08980144560337067, -0.2118779420852661, 0.09478573501110077, 0.039348430931568146, -0.15482984483242035, -0.27242931723594666, 0.1976141780614853, 0.1381751447916031, 0.015098918229341507, -0.18598273396492004, 0.09911210089921951, -0.10553350299596786, 0.16638116538524628], [0.00792822614312172, -0.20131531357765198, 0.17121706902980804, 0.11389786750078201, 0.20943200588226318, -0.22111287713050842, 0.12190838158130646, 0.040681082755327225, -0.015824565663933754, 0.05141175538301468, 0.21697813272476196, 0.12056924402713776, -0.2178449034690857, -0.026253540068864822, 0.16690953075885773, -0.06573018431663513, -0.04984975978732109, 0.10448459535837173, 0.17535409331321716, 0.05198076367378235], [-0.10488367080688477, 0.18115234375, 0.03861198574304581, 0.01695064641535282, 0.005347966682165861, -0.1153087317943573, 0.26163995265960693, -0.18057267367839813, -0.13225021958351135, -0.13264431059360504, 0.1188276931643486, -0.06807360798120499, -0.19849538803100586, -0.0032261614687740803, -0.09378745406866074, 0.10438141971826553, 0.18193259835243225, -0.10748942196369171, 0.05906897410750389, 0.23934827744960785], [-0.03615953400731087, -0.14509205520153046, 0.016676364466547966, -0.040025074034929276, -0.031460944563150406, 0.1671282798051834, -0.14290551841259003, 0.2180338203907013, 0.1153794601559639, -0.12486959248781204, -0.012717140838503838, -0.04578235000371933, 0.08633881062269211, 0.23548336327075958, 0.15563912689685822, 0.06597653776407242, -0.2433823198080063, 0.16722600162029266, 0.3536604940891266, 0.04560147970914841], [-0.14398090541362762, -0.11155660450458527, 0.14312048256397247, -0.2932355999946594, 0.02950517274439335, 0.10527560859918594, -0.16945798695087433, 0.014512539841234684, 0.18337596952915192, 0.06899556517601013, -0.07271062582731247, -0.1245635524392128, 0.04197724536061287, 0.07353943586349487, 0.13752347230911255, 0.10561461746692657, 0.131128191947937, 0.026622816920280457, 0.02520880289375782, -0.023062333464622498], [-0.28210964798927307, 0.1694980263710022, -0.03315872699022293, -0.11184653639793396, 0.18164889514446259, -0.17001913487911224, 0.10828862339258194, -0.11400866508483887, 0.19916848838329315, -0.09685607999563217, 0.05826571583747864, -0.06824979186058044, -0.21308676898479462, -0.0768464207649231, -0.09016416221857071, 0.027954168617725372, 0.11483107507228851, -0.053276967257261276, 0.26013344526290894, -0.11406363546848297], [-0.0843619778752327, -0.22399325668811798, 0.06542804092168808, -0.30319368839263916, 0.006486806552857161, 0.08847953379154205, 0.010665979236364365, -0.16140462458133698, 0.12107979506254196, -0.13014504313468933, -0.10627283900976181, 0.07897910475730896, 0.029873322695493698, 0.09012008458375931, -0.06206022948026657, 0.22356100380420685, 0.06942525506019592, 0.14655949175357819, 0.1258629411458969, 0.04294184595346451], [-0.16449221968650818, 0.12247190624475479, 0.2613641917705536, -0.14055830240249634, 0.2539874315261841, -0.24431434273719788, 0.26291099190711975, -0.23647384345531464, 0.3353464901447296, -0.05661623552441597, 0.31384962797164917, -0.2987644374370575, 0.025078726932406425, 0.048134416341781616, 0.01986163854598999, 0.006951190531253815, -0.028174730017781258, -0.015174039639532566, 0.01897348277270794, 0.03902387619018555], [-0.17360495030879974, 0.057442557066679, 0.13376659154891968, -0.313960999250412, 0.19122374057769775, 0.0012986719375476241, -0.08669061958789825, -0.2151561826467514, 0.14866720139980316, 0.010534840635955334, -0.10341566801071167, 0.016783522441983223, -0.30079832673072815, 0.1653619110584259, -0.07294335961341858, 0.1383141279220581, -0.20861274003982544, 0.1635282188653946, 0.32007166743278503, -0.09907609969377518], [0.029983501881361008, 0.08340317010879517, -0.09813334047794342, -0.06642328202724457, 0.1763727068901062, -0.2652883231639862, -0.056967079639434814, 0.02987673319876194, 0.1477385312318802, 0.04633074626326561, 0.171162411570549, -0.07359844446182251, -0.22389234602451324, 0.013168489560484886, -0.1280350387096405, -0.11622454971075058, -0.06240798905491829, -0.002133981790393591, 0.00677907420322299, 0.0029358668252825737], [-0.2292657047510147, -0.047339968383312225, 0.3842754364013672, -0.12844052910804749, 0.3614239990711212, 0.14157652854919434, 0.07750494033098221, -0.06379871070384979, 0.2770058512687683, -0.11283138394355774, 0.0024763436522334814, -0.270733505487442, -0.25878676772117615, 0.3527117669582367, 0.3696185350418091, 0.38211482763290405, -0.2032933533191681, 0.2698979079723358, 0.2166392058134079, -0.0003048974904231727], [-0.1571303904056549, -0.16949357092380524, 0.218994140625, 0.11541018635034561, -0.07208481431007385, -0.13706845045089722, -0.042679622769355774, 0.1868988424539566, -0.09216751158237457, -0.056694746017456055, 0.12286137044429779, -0.2260294109582901, -0.24364884197711945, 0.15824784338474274, 0.14024287462234497, 0.08372560888528824, -0.08629926294088364, -0.01113813929259777, 0.09664396941661835, -0.05040263757109642], [-0.058115895837545395, 0.1797141134738922, -0.15439021587371826, -0.2465464472770691, 0.013421911746263504, -0.06327718496322632, -0.22141575813293457, -0.007057707291096449, -0.02794591896235943, -0.2477899193763733, 0.08451522886753082, -0.13009968400001526, -0.11710748076438904, 0.25737467408180237, 0.07486284524202347, -0.19300758838653564, -0.06266071647405624, -0.00864692497998476, -0.08743934333324432, 0.08044843375682831], [-0.2511429786682129, 0.06708359718322754, 0.342515230178833, -0.32232484221458435, 0.1853555142879486, 0.08592835068702698, 0.2336042821407318, -0.2183026522397995, 0.18112866580486298, -0.03693689405918121, 0.0024545807391405106, 0.03979663923382759, 0.06677757203578949, 0.19704274833202362, 0.3361312448978424, 0.042723629623651505, -0.24849548935890198, -0.013536343351006508, 0.09723146259784698, 0.26268476247787476], [-0.05752504616975784, 0.0035188517067581415, -0.11659378558397293, -0.29688382148742676, 0.253632128238678, -0.09790896624326706, -0.11437369883060455, -0.029759202152490616, 0.005736635532230139, -0.08198920637369156, 0.10223191976547241, -0.11481713503599167, -0.0499902218580246, -0.024877512827515602, 0.12972241640090942, -0.08780083805322647, 0.16142572462558746, -0.044346679002046585, -0.08922553807497025, 0.19021645188331604], [-0.1307685226202011, -0.05575670674443245, 0.31612417101860046, -0.15694789588451385, 0.2145376205444336, 0.12037176638841629, 0.3084053099155426, 0.07463578879833221, 0.3565172553062439, 0.18068140745162964, 0.30617421865463257, -0.016205858439207077, -0.35712042450904846, 0.12869088351726532, 0.03167709708213806, 0.3167722225189209, -0.3116559386253357, -0.02699602022767067, 0.013784222304821014, 0.23183053731918335], [0.14545658230781555, 0.22395430505275726, -0.18745841085910797, 0.13286763429641724, 0.21506856381893158, 0.009500797837972641, 0.22738337516784668, 0.04502196982502937, 0.10355512797832489, 0.08326084166765213, -0.12184228748083115, -0.1982012689113617, -0.06393186748027802, -0.004703707527369261, -0.04470863938331604, -0.11084706336259842, -0.0490751788020134, 0.08174724876880646, 0.03090236708521843, -0.0652654767036438], [0.09003178030252457, -0.15609592199325562, -0.09011758863925934, -0.2326168715953827, -0.12660415470600128, -0.14942865073680878, 0.08776301890611649, 0.10242383927106857, 0.20899182558059692, -0.21369773149490356, -0.1396951824426651, -0.14119835197925568, -0.07088249176740646, -0.12714700400829315, 0.1788395345211029, -0.10706775635480881, 0.042064424604177475, 0.09748602658510208, 0.19330567121505737, -0.03778849542140961], [-0.3071799874305725, -0.16885772347450256, -0.01555104460567236, -0.19059032201766968, 0.26377108693122864, 0.047437090426683426, 0.08451671898365021, -0.1745653599500656, 0.32051944732666016, -0.17049016058444977, 0.1563030481338501, -0.17205476760864258, -0.22254076600074768, -0.07428009063005447, -0.07383614778518677, 0.10190039128065109, -0.08311697840690613, -0.01716952584683895, -0.0015643134247511625, -0.017264176160097122], [0.09885921329259872, -0.13911275565624237, -0.06902620196342468, -0.19167186319828033, 0.25251248478889465, -0.1847187727689743, 0.17604880034923553, -0.09791071712970734, 0.20973005890846252, 0.09349008649587631, -0.06356199085712433, -0.19906198978424072, 0.13037122786045074, -0.10771117359399796, 0.24531427025794983, 0.007460160180926323, -0.1059112399816513, 0.11877703666687012, 0.10522577166557312, -0.003578377654775977], [-0.31611788272857666, 0.07171507924795151, 0.1434105634689331, -0.2916182577610016, -0.12775063514709473, -0.1075882539153099, 0.14409542083740234, 0.09752651304006577, -0.13425211608409882, -0.08461228013038635, -0.042096614837646484, -0.25939229130744934, -0.2199200987815857, 0.17953650653362274, 0.2558417022228241, 0.2393692284822464, -0.15803183615207672, -0.15741251409053802, 0.30162256956100464, -0.13076181709766388], [-0.0033079918939620256, -0.08659189194440842, -0.019515788182616234, -0.13861016929149628, 0.08118119835853577, 0.08996616303920746, 0.2005777508020401, -0.0029996635857969522, -0.04176522046327591, -0.27625197172164917, 0.11656398326158524, -0.2163538634777069, 0.09691113978624344, 0.27552324533462524, 0.14378994703292847, -0.1379450112581253, 0.1663757562637329, 0.12158162146806717, 0.21923168003559113, 0.21643055975437164], [-0.18598461151123047, 0.02138400264084339, 0.1602807641029358, -0.14248152077198029, -0.036030612885951996, -0.16179564595222473, 0.17481417953968048, 0.003888181410729885, -0.22198526561260223, 0.2063795030117035, -0.09452167898416519, -0.015818972140550613, -0.19423599541187286, -0.16810613870620728, 0.22616595029830933, 0.10579246282577515, -0.08262263238430023, -0.16873179376125336, 0.025457855314016342, -0.1519719958305359], [-0.3037996292114258, 0.038576774299144745, -0.06347151100635529, 0.07086560875177383, 0.20141948759555817, 0.20766088366508484, 0.1899528056383133, 0.019526567310094833, -0.033007483929395676, 0.11869993805885315, 0.18406569957733154, -0.18745683133602142, -0.26389262080192566, -0.06684338301420212, 0.16982680559158325, 0.21904312074184418, -0.06378745287656784, 0.1134660542011261, 0.3840720057487488, 0.11659537255764008], [-0.22156181931495667, -0.08635600656270981, -0.1593048870563507, 0.10342513769865036, 0.24115422368049622, -0.16451454162597656, 0.17957107722759247, 0.14049826562404633, -0.1667272448539734, 0.2173568457365036, -0.14981748163700104, 0.08360975235700607, -0.04275500774383545, 0.04816821217536926, -0.02647213265299797, 0.06300363689661026, -0.1313452422618866, 0.2640862464904785, 0.1188342273235321, -0.11225973814725876], [0.08862631022930145, -0.1712198406457901, 0.04825975000858307, 0.09103240817785263, 0.07902252674102783, -0.12010224908590317, 0.197394460439682, 0.13421529531478882, 0.0668281838297844, -0.022855833172798157, 0.2914848327636719, -0.18117065727710724, -0.18188361823558807, 0.11350850760936737, 0.26169413328170776, -0.07502957433462143, -0.03939729928970337, -0.04609062895178795, 0.1722169816493988, 0.22484013438224792], [-0.20760215818881989, -0.2128869742155075, 0.18466629087924957, -0.05805014446377754, -0.07923074811697006, -0.13676714897155762, -0.11795449256896973, 0.0844968929886818, 0.09501029551029205, -0.03800315409898758, 0.20290225744247437, -0.005002071149647236, 0.12758274376392365, 0.3037690222263336, -0.0554354228079319, 0.23155829310417175, 0.10361285507678986, 0.24957071244716644, 0.2446625530719757, 0.08572860062122345], [-0.19657792150974274, -0.14215250313282013, 0.2876034379005432, -0.007072639651596546, -0.09065314382314682, 0.14651842415332794, 0.28857430815696716, 0.017640359699726105, 0.09582968801259995, -0.01814003847539425, -0.033960357308387756, -0.2969081997871399, -0.2534826993942261, 0.03379105031490326, 0.1189994290471077, -0.07417680323123932, 0.005974418483674526, 0.259562224149704, 0.0885830745100975, 0.22261813282966614], [-0.2454809695482254, -0.1800948530435562, -0.03074520453810692, 0.01680481992661953, 0.025551386177539825, 0.13358163833618164, 0.14173968136310577, 0.10560254752635956, 0.08997143059968948, 0.13377122581005096, 0.20813409984111786, 0.019813163205981255, -0.3467119634151459, 0.13713929057121277, 0.07275935262441635, 0.010495491325855255, -0.23784871399402618, 0.005136837251484394, 0.34735384583473206, 0.2785344421863556], [-0.2682231664657593, 0.10404330492019653, 0.15514332056045532, -0.17276187241077423, -0.11289763450622559, -0.14090891182422638, -0.007535476703196764, -0.12434100359678268, 0.3297528028488159, -0.1482551544904709, 0.21993011236190796, -0.28566697239875793, -0.032465387135744095, 0.27200502157211304, 0.16814544796943665, -0.051368724554777145, -0.2779102325439453, 0.15167036652565002, -0.03760699927806854, 0.09689046442508698], [-0.3124471604824066, 0.10939342528581619, 0.3853754997253418, -0.11764848232269287, 0.40223124623298645, -0.002450155094265938, 0.13016794621944427, 0.23215971887111664, 0.22613807022571564, 0.21879726648330688, 0.21068285405635834, -0.24990440905094147, -0.3764505386352539, 0.3977079391479492, 0.3808501660823822, 0.18378300964832306, -0.07707343250513077, 0.22802415490150452, 0.16560421884059906, 0.33197858929634094], [-0.22503021359443665, 0.09975006431341171, 0.19097578525543213, 0.09264146536588669, 0.01650012657046318, 0.11736880242824554, -0.07241915911436081, 0.09315666556358337, -0.1734035313129425, 0.1726095974445343, 0.04681212827563286, 0.011978035792708397, 0.059142619371414185, 0.22550271451473236, 0.2940146028995514, 0.19993746280670166, -0.0010904106311500072, 0.2726900279521942, 0.18856914341449738, 0.2549522817134857], [-0.022822700440883636, 0.02750663459300995, 0.07662543654441833, -0.10109759867191315, 0.18795102834701538, -0.09457337111234665, 0.1838483065366745, -0.23314133286476135, 0.03722323477268219, -0.08331287652254105, 0.037912119179964066, -0.1607913076877594, 0.13223277032375336, 0.15421341359615326, -0.017286062240600586, 0.09984581917524338, 0.053158268332481384, -0.13630732893943787, 0.25547996163368225, 0.05042245611548424], [0.07226894795894623, -0.004784208256751299, 0.17866715788841248, 0.06246986985206604, -0.031917523592710495, 0.13480044901371002, 0.18083952367305756, 0.1925673633813858, 0.17569853365421295, 0.1272316724061966, 0.34368202090263367, -0.07017479091882706, -0.14478658139705658, 0.31619784235954285, 0.06661295145750046, 0.18036499619483948, -0.23549039661884308, 0.31762105226516724, 0.3259119689464569, 0.1215520054101944], [-0.18422991037368774, 0.17752179503440857, 0.1549142450094223, -0.02959153801202774, -0.06675362586975098, 0.02392476797103882, 0.0750737339258194, 0.12234222143888474, 0.24416328966617584, 0.02991131879389286, 0.2548108398914337, 0.07816161215305328, -0.1918400377035141, 0.1277056336402893, -0.0674368143081665, 0.15714862942695618, -0.2501125633716583, 0.19519296288490295, -0.007375866174697876, 0.24018150568008423], [-0.14692723751068115, 0.07615701854228973, -0.14862748980522156, -0.031243320554494858, 0.0044198003597557545, -0.05891574174165726, -0.09831772744655609, 0.10527803003787994, -0.0899345651268959, 0.16277149319648743, 0.0381949245929718, 0.10927172005176544, -0.04728467017412186, -0.07809969782829285, 0.09289560467004776, 0.115032859146595, -0.13503499329090118, 0.09228410571813583, 0.2766464650630951, -0.09984980523586273], [0.1681385338306427, -0.12508784234523773, 0.013156798668205738, -0.0029417879413813353, -0.1288219541311264, 0.1400361806154251, 0.1877863109111786, 0.1573363095521927, -0.09990201890468597, 0.12244992703199387, -0.1669585406780243, -0.06063413619995117, 0.06984389573335648, 0.010615152306854725, -0.20682652294635773, -0.19952382147312164, 0.04181086644530296, -0.0020543732680380344, 0.028713233768939972, -0.0732736587524414], [-0.11318861693143845, -0.003696839325129986, 0.11889622360467911, 0.10071419179439545, -0.11179068684577942, 0.1710229218006134, 0.20216453075408936, 0.11504288017749786, -0.33941778540611267, -0.09004624933004379, 0.0731102004647255, -0.10524109750986099, 0.03005032055079937, -0.11178365349769592, 0.15264298021793365, 0.024338942021131516, 0.1757635474205017, 0.030806049704551697, -0.21448029577732086, -0.08006347715854645], [-0.2551186680793762, 0.13391076028347015, -0.20841670036315918, -0.11821631342172623, -0.08704745769500732, 0.12804479897022247, 0.01963098533451557, -0.19691380858421326, 0.26215797662734985, -0.04098302125930786, -0.18720486760139465, -0.030111612752079964, 0.09320977330207825, 0.03536154329776764, 0.07421866059303284, 0.008735181763768196, 0.07156281918287277, -0.05446977913379669, 0.06526023894548416, 0.09448321908712387], [0.11969177424907684, 0.2334982454776764, -0.05725458264350891, 0.08050476014614105, 0.20726343989372253, -0.04413285478949547, -0.11377989500761032, -0.027666188776493073, -0.30192291736602783, 0.06836111098527908, 0.07088495790958405, 0.030598217621445656, 0.05674034729599953, 0.0960107147693634, 0.14275458455085754, -0.08236083388328552, -0.20728358626365662, 0.0017620755825191736, 0.06713133305311203, -0.18931114673614502], [0.0614059641957283, -0.09546544402837753, -0.046825919300317764, 0.09507042169570923, -0.06984952092170715, -0.2088395655155182, 0.06503371149301529, -0.23530304431915283, 0.18409082293510437, -0.21954485774040222, -0.09891572594642639, 0.05402257665991783, 0.27818533778190613, -0.2071615308523178, 0.13869346678256989, -0.03531918674707413, 0.1645752638578415, -0.06952715665102005, -0.00897783599793911, -0.05896645411849022], [0.11306924372911453, -0.004418151918798685, 0.01882629096508026, 0.22959499061107635, 0.15171116590499878, 0.2899046540260315, -0.06699348986148834, 0.25194206833839417, -0.25260189175605774, -0.1361999809741974, -0.140172079205513, 0.20267543196678162, 0.20927812159061432, 0.13453762233257294, 0.1636071503162384, 0.16123323142528534, 0.04049686715006828, -0.11054345220327377, -0.07954160124063492, -0.12782369554042816], [0.1851634979248047, 0.019659308716654778, 0.11084260046482086, -0.005061114672571421, -0.0717889592051506, 0.13330788910388947, -0.06011497229337692, -0.12441285699605942, 0.09500116854906082, 0.12410138547420502, 0.10953614860773087, 0.15928813815116882, 0.01023098360747099, 0.04801449552178383, 0.0904058963060379, -0.1546567976474762, 0.23824867606163025, 0.047440484166145325, -0.2943243086338043, 0.036516521126031876], [-0.17332105338573456, 0.248440220952034, -0.12251631170511246, -0.009358389303088188, -0.06773974746465683, 0.20079150795936584, -0.0627603679895401, 0.09439534693956375, -0.047652628272771835, -0.11678330600261688, 0.236887127161026, -0.18403269350528717, -0.028809377923607826, 0.16814112663269043, -0.1458291858434677, 0.11347696185112, 0.19987836480140686, 0.10739045590162277, 0.13774454593658447, 0.1156236007809639], [-0.036607444286346436, -0.14214278757572174, -0.2320130169391632, 0.0231806468218565, 0.11292663961648941, 0.029472414404153824, -0.022518903017044067, 0.11372388899326324, -0.02410164289176464, 0.1602359116077423, 0.013896177522838116, 0.11991219222545624, 0.1613539606332779, -0.09828151017427444, -0.020673241466283798, 0.08131752908229828, 0.17826025187969208, -0.25163379311561584, -0.2921395003795624, 0.013709020800888538], [0.28088638186454773, 0.17789673805236816, -0.2553240656852722, 0.16738182306289673, -0.03628254309296608, -0.009169777855277061, -0.022673804312944412, 0.0023775279987603426, -0.12972143292427063, 0.20224016904830933, 0.11382460594177246, -0.1344393491744995, 0.1810232698917389, -0.010925469920039177, -0.06939775496721268, -0.2463741898536682, 0.02182081714272499, -0.04584098607301712, 0.07330790907144547, 0.11981723457574844], [-0.23636460304260254, 0.1649901419878006, -0.06094940006732941, 0.010045776143670082, 0.07018854469060898, 0.025891738012433052, -0.1660737544298172, -0.2687305510044098, 0.2040187418460846, -0.21552887558937073, -0.10080178827047348, 0.11677704006433487, -0.1666828840970993, -0.029468635097146034, -0.0744224488735199, 0.15449243783950806, 0.21493743360042572, -0.11039470136165619, -0.0970195010304451, -0.11526456475257874], [-0.002671152353286743, 0.05411772429943085, 0.14533664286136627, 0.04322631657123566, -0.2067514955997467, -0.23627793788909912, 0.10184203833341599, 0.14506088197231293, 0.22169142961502075, -0.263278990983963, 0.052332255989313126, -0.0321955643594265, -0.2722548842430115, 0.014426209032535553, -0.1458301991224289, -0.14358283579349518, 0.07380448281764984, -0.14126230776309967, 0.08204399794340134, 0.10644921660423279], [-0.09437602013349533, 0.01627599261701107, 0.0883125513792038, 0.00441884296014905, 0.12368616461753845, -0.01406832505017519, 0.18960174918174744, 0.1370999664068222, -0.10752411186695099, 0.2099110186100006, 0.0074473158456385136, -0.07111793011426926, -0.07059096544981003, -0.16453537344932556, -0.22135581076145172, -0.08923177421092987, -0.11735454946756363, 0.01073053851723671, -0.169548898935318, -0.1051996573805809], [0.04354625195264816, -0.1051366925239563, -0.12290260195732117, -0.13353899121284485, 0.1450866013765335, 0.1160988137125969, -0.08406095951795578, 0.0580391027033329, -0.06319908052682877, -0.06767618656158447, 0.029058925807476044, -0.1489075869321823, -0.1572175770998001, -0.047021206468343735, -0.004835021682083607, -0.20903101563453674, 0.2197742760181427, -0.07553816586732864, -0.10074052959680557, -0.1929824948310852], [-0.04418027400970459, -0.02774694748222828, -0.22841373085975647, -0.07262314110994339, -0.08440233021974564, 0.0558377169072628, -0.19121426343917847, 0.005892445333302021, -0.07808377593755722, 0.021391157060861588, 0.010230653919279575, 0.032586049288511276, -0.134629026055336, 0.04519353061914444, -0.0017767025856301188, 0.017837680876255035, 0.30472230911254883, -0.039561063051223755, 0.10374977439641953, 0.15032432973384857], [-0.03573118895292282, 0.17565961182117462, -0.17636576294898987, 0.012342967092990875, 0.22582107782363892, -0.040721163153648376, 0.004384415689855814, -0.031049557030200958, -0.24010978639125824, 0.0019837357103824615, -0.08800872415304184, 0.05386108532547951, 0.04583308845758438, 0.16480666399002075, -0.18656490743160248, -0.028990138322114944, -0.0316961370408535, 0.047613486647605896, 0.1746639460325241, 0.05373920500278473], [0.23232269287109375, 0.11051415652036667, 0.1324223428964615, 0.08839613199234009, 0.02044665440917015, 0.24014240503311157, -0.021796440705657005, -0.0292501263320446, -0.1881406158208847, 0.14346548914909363, 0.046385813504457474, -0.1915101259946823, 0.030484717339277267, 0.1749429702758789, 0.16756311058998108, 0.16838771104812622, -0.23658625781536102, 0.09327296167612076, 0.04331156238913536, -0.07663363963365555], [0.20432451367378235, 0.06933968514204025, -0.16650712490081787, -0.07333379238843918, 0.23555819690227509, -0.15652143955230713, -0.05122726783156395, 0.11000373959541321, -0.14045391976833344, 0.2624611258506775, 0.037021704018116, 0.18779021501541138, 0.21254432201385498, 0.04584454745054245, 0.2071569710969925, 0.19425298273563385, -0.1539815366268158, 0.213993638753891, -0.02763637714087963, 0.21449123322963715], [-0.061798542737960815, -0.1392943412065506, 0.08056262135505676, 0.09701743721961975, 0.032776810228824615, 0.04292033985257149, -0.06014196202158928, 0.21194566786289215, 0.06520596146583557, 0.21852093935012817, 0.001806030049920082, -0.02219131775200367, 0.04771239683032036, -0.20735429227352142, -0.06129837781190872, 0.08371976763010025, -0.16015644371509552, -0.125237837433815, -0.03569522127509117, -0.17306604981422424], [-0.2278880774974823, 0.06602700054645538, -0.061846740543842316, -0.038904763758182526, 0.06737419962882996, -0.22752240300178528, 0.08022572100162506, -0.07878540456295013, 0.14564594626426697, -0.002702853176742792, -0.019736623391509056, -0.01624547317624092, 0.09023971110582352, -0.0803622230887413, 0.22461403906345367, 0.26624608039855957, 0.0072447448037564754, 0.26158836483955383, 0.07112690061330795, -0.07968761026859283], [0.061631254851818085, 0.036088816821575165, -0.18147988617420197, -0.022785866633057594, 0.20961721241474152, -0.16564849019050598, 0.16315774619579315, 0.05651318281888962, -0.134521946310997, -0.05463520064949989, -0.050147030502557755, 0.10296152532100677, 0.03820621222257614, -0.08101483434438705, 0.021665990352630615, -0.003373926505446434, 0.17382016777992249, -0.048932433128356934, -0.06529803574085236, 0.11297111213207245], [-0.10730446130037308, -0.13036838173866272, 0.0711982324719429, -0.09257536381483078, -0.09590695053339005, 0.1360437422990799, -0.017682664096355438, -0.2616666257381439, 0.2255789339542389, -0.08972451835870743, 0.0859093964099884, 0.0640905499458313, 0.06640984117984772, 0.11791276931762695, -0.11085455864667892, 0.029798705130815506, -0.2035982757806778, -0.009056524373590946, 0.1314568817615509, -0.1229126900434494], [-0.052392855286598206, -0.03126019239425659, 0.04675799608230591, -0.06690461933612823, 0.023724393919110298, 0.08298765867948532, -0.04451637342572212, -0.05835696682333946, 0.10893255472183228, -0.16151365637779236, -0.11562228202819824, -0.3054477274417877, -0.27654656767845154, 0.19179411232471466, -0.0008009273442439735, 0.15168403089046478, -0.25957298278808594, 0.28841066360473633, 0.1712055653333664, 0.08598040044307709], [-0.16943800449371338, -0.1401677429676056, 0.2712893784046173, -0.27100151777267456, 0.1646358072757721, 0.0046827238984405994, 0.2478109747171402, -0.007300162222236395, 0.15274356305599213, -0.037105344235897064, 0.10361316055059433, -0.13571235537528992, 0.04476740583777428, 0.09737148880958557, 0.23093949258327484, 0.03796907886862755, 0.02503003366291523, 0.06513431668281555, -0.04687999188899994, -0.05590901896357536], [-0.18776723742485046, 0.16746576130390167, -0.15042588114738464, 0.051440801471471786, 0.21657048165798187, 0.25021892786026, -0.13080164790153503, -0.12849920988082886, 0.17462792992591858, -0.13726894557476044, 0.2298279106616974, 0.0175932589918375, -0.07657923549413681, -0.05256343632936478, 0.06231197714805603, -0.13197806477546692, 0.12775786221027374, -0.03295796364545822, 0.1407308131456375, -0.010929097421467304], [-0.25009068846702576, 0.061742957681417465, 0.07323344051837921, -0.2408803403377533, -0.06053796038031578, 0.1277489960193634, 0.1247696653008461, -0.17589367926120758, -0.05077148973941803, -0.2091701179742813, 0.19494394958019257, -0.2315668761730194, -0.2644888460636139, -0.005788170266896486, 0.24885223805904388, 0.03996647894382477, -0.22234836220741272, 0.01677822135388851, -0.08921431750059128, 0.2148100584745407], [0.11558251827955246, 0.18615999817848206, 0.030158275738358498, -0.11404597014188766, 0.20619818568229675, 0.0662611573934555, 0.12163510173559189, 0.06270616501569748, -0.0020797692704945803, -0.1701391488313675, 0.18047425150871277, 0.1563374549150467, -0.23243902623653412, 0.057538434863090515, 0.11357717216014862, -0.13921816647052765, -0.22988872230052948, 0.07559182494878769, 0.12958276271820068, 0.2353755533695221], [-0.0872122049331665, 0.14529605209827423, -0.04248499125242233, -0.10997762531042099, 0.09599664807319641, 0.08076336979866028, 0.09314139187335968, -0.1447225660085678, -0.09171870350837708, 0.23852233588695526, -0.10017548501491547, -0.2482922524213791, 0.03789186477661133, 0.22030499577522278, 0.18570494651794434, 0.0877869576215744, -0.19290757179260254, -0.06386018544435501, 0.430795818567276, 0.28325140476226807], [0.012553361244499683, 0.11111960560083389, 0.11577112972736359, -0.057950351387262344, -0.060192007571458817, -0.08269331604242325, 0.18542763590812683, 0.13933871686458588, 0.13900041580200195, 0.11901520937681198, -0.15692691504955292, -0.2777482867240906, -0.1082419753074646, 0.08014213293790817, 0.23842784762382507, -0.0065521253272891045, -0.08973854780197144, 0.16102252900600433, 0.09331172704696655, -0.02192491479218006], [0.01785001903772354, 0.1341402232646942, -0.1325034499168396, 0.002713737776502967, 0.13652688264846802, -0.08655721694231033, 0.027904734015464783, -0.22086746990680695, -0.009148310869932175, -0.23457111418247223, 0.10238524526357651, 0.10031632333993912, -0.07050041109323502, 0.16619408130645752, 0.24332433938980103, -0.01675347238779068, 0.0704990103840828, -0.12297011911869049, -0.013952486217021942, -0.048729147762060165], [-0.19122378528118134, 0.010853758081793785, 0.27150604128837585, 0.11995605379343033, -0.15570563077926636, -0.15601296722888947, 0.12145449221134186, 0.03310356289148331, 0.3964971899986267, 0.11086969077587128, -0.028855513781309128, -0.15363940596580505, -0.14637641608715057, 0.12109160423278809, 0.03363177180290222, -0.058584064245224, -0.1216396912932396, 0.0020120323169976473, -0.03252016007900238, -0.036024849861860275], [-0.3477024435997009, -0.2270098328590393, 0.11107273399829865, -0.2934747338294983, 0.06129114702343941, -0.12617182731628418, -0.022869637235999107, 0.04724583774805069, 0.3869504928588867, 0.1379416286945343, -0.12146857380867004, -0.2806086242198944, 0.04440147429704666, 0.00922782626003027, 0.021151820197701454, 0.153279110789299, -0.2489769607782364, -0.12078811228275299, 0.030819537118077278, 0.27171802520751953], [-0.11702144145965576, -0.24917958676815033, 0.1775248795747757, -0.07015115767717361, 0.0021442261058837175, 0.16037224233150482, -0.0725848376750946, 0.03542272374033928, 0.17131482064723969, 0.057841625064611435, -0.007634363602846861, -0.06091272830963135, -0.01882355473935604, 0.18887880444526672, 0.16864873468875885, 0.21738098561763763, -0.11223866790533066, 0.2856893241405487, 0.10821831971406937, 0.2614847719669342], [0.03794822469353676, -0.261633962392807, 0.05012825131416321, -0.2894900441169739, 0.27098548412323, 0.07686977833509445, -0.04110430181026459, -0.02281523123383522, 0.09002220630645752, -0.2841091454029083, 0.19056841731071472, -0.005504951346665621, -0.19631923735141754, 0.021907338872551918, 0.16845375299453735, 0.13573279976844788, -0.23175446689128876, 0.0507986806333065, -0.0025573321618139744, 0.21488721668720245], [-0.034701041877269745, -0.1661817580461502, 0.37632253766059875, -0.11813943088054657, 0.2318507730960846, -0.023236433044075966, 0.3481140732765198, 0.22306804358959198, 0.11835874617099762, -0.022180968895554543, 0.3516484498977661, -0.29293322563171387, -0.3647210896015167, 0.28375571966171265, 0.4112253189086914, 0.1665181815624237, -0.34674978256225586, 0.13178421556949615, 0.17153117060661316, 0.20839396119117737], [-0.1328708380460739, -0.09046732634305954, 0.17510366439819336, -0.19013500213623047, 0.25866833329200745, 0.2381971776485443, -0.09349516034126282, 0.06012925133109093, -0.1618238240480423, 0.24779753386974335, 0.13429589569568634, -0.17389893531799316, -0.12087911367416382, 0.1288270503282547, 0.16362997889518738, -0.05672667175531387, -0.229881152510643, 0.02953214943408966, 0.10120691359043121, 0.07895700633525848], [-0.07441708445549011, -0.07841449230909348, 0.23049718141555786, -0.2137523740530014, 0.22567176818847656, -0.016580922529101372, 0.10236801207065582, -0.2614687383174896, 0.3378247916698456, -0.03148464486002922, 0.15974164009094238, 0.13687966763973236, -0.1286407858133316, 0.17123466730117798, -0.11322955042123795, 0.25867149233818054, -0.04180685430765152, 0.16258051991462708, 0.2763843238353729, 0.0027534901164472103], [0.023715799674391747, -0.256382554769516, 0.11324947327375412, -0.34929195046424866, 0.26625195145606995, -0.2698017656803131, 0.08890776336193085, 0.17242947220802307, 0.16153781116008759, 0.15732021629810333, 0.01589418388903141, -0.20263846218585968, 0.012980429455637932, 0.11577767133712769, 0.10568945109844208, 0.16117937862873077, -0.062479227781295776, 0.10039058327674866, 0.33582738041877747, 0.09466797858476639], [-0.19051802158355713, -0.1616416573524475, 0.05709513649344444, -0.28884172439575195, 0.18544144928455353, -0.013130996376276016, 0.251069039106369, -0.164250910282135, -0.053717922419309616, 0.05878701061010361, -0.0674099549651146, 0.07922958582639694, -0.2936050295829773, -0.046867404133081436, 0.24031271040439606, 0.14800366759300232, 0.06261546164751053, 0.1121055856347084, -0.013055638410151005, 0.07641209661960602]], "rec.bias_ih_l0": [0.006113050505518913, -0.06679592281579971, -0.18012464046478271, 0.06488817930221558, 0.10725473612546921, 0.017442403361201286, -0.0488070510327816, 0.014107798226177692, -0.25739869475364685, 0.07785919308662415, -0.2278924584388733, 0.109865203499794, 0.0628051683306694, -0.10170930624008179, 0.10356611758470535, -0.031614240258932114, -0.12000898271799088, 0.20620164275169373, -0.001375842373818159, -0.10064491629600525, 0.09977525472640991, -0.03186165913939476, 0.16169148683547974, -0.13853080570697784, 0.1346106082201004, 0.09614580124616623, 0.19901688396930695, 0.15273569524288177, -0.12816227972507477, -0.2707436978816986, 0.04299201816320419, 0.09193181246519089, -0.17145422101020813, -0.10573967546224594, 0.03434225171804428, -0.15912440419197083, -0.1480669230222702, -0.19697898626327515, -0.2776462733745575, 0.13342627882957458, -0.13994638621807098, -0.11392771452665329, -0.17917807400226593, -0.1199241504073143, -0.2473672479391098, -0.012425439432263374, -0.2679428160190582, -0.01042678952217102, 0.1518905609846115, -0.07723619788885117, -0.19670221209526062, -0.07253265380859375, 0.12067940086126328, -0.17102457582950592, -0.05155326426029205, -0.12679988145828247, -0.015632538124918938, -0.24406525492668152, -0.011088733561336994, -0.12588714063167572, 0.08003932982683182, -0.023205142468214035, 0.11819043010473251, 0.049052901566028595, -0.22036370635032654, -0.11028385907411575, 0.07046879082918167, 0.15905684232711792, -0.04139787703752518, -0.23378059267997742, -0.2090422511100769, 0.05272003263235092, -0.178581103682518, -0.2168702334165573, -0.05301545932888985, 0.013344082050025463, -0.12036214023828506, -0.014864944852888584, -0.04858582839369774, -0.15025292336940765], "rec.bias_hh_l0": [-0.029071468859910965, 0.0319601334631443, 0.038031186908483505, 0.15624278783798218, -0.08528728783130646, 0.14523229002952576, 0.25025230646133423, 0.024938346818089485, -0.016566477715969086, -0.04055306687951088, 0.0874955803155899, 0.010506832972168922, -0.1673339307308197, -0.25583863258361816, 0.13616806268692017, -0.06541596353054047, -0.19958318769931793, -0.02010522596538067, -0.06324613839387894, -0.06450808793306351, -0.25818848609924316, -0.1923103779554367, -0.15116901695728302, -0.18132434785366058, -0.11047903448343277, -0.166055366396904, 0.05175875499844551, -0.22663284838199615, 0.14295782148838043, -0.23634304106235504, -0.23196998238563538, -0.11597108840942383, -0.24707457423210144, -0.12157605588436127, -0.06327007710933685, -0.1255202293395996, 0.03839704021811485, 0.20092156529426575, -0.2749195396900177, 0.017428915947675705, 0.24448160827159882, 0.09502581506967545, -0.20101600885391235, 0.22278864681720734, -0.20864686369895935, -0.15571290254592896, -0.2515842020511627, 0.06899359077215195, -0.15487639605998993, -0.06599056720733643, -0.22471794486045837, 0.21786901354789734, -0.058404091745615005, 0.08733983337879181, -0.240009605884552, 0.02811577171087265, -0.01442023180425167, -0.05409893020987511, 0.01590338721871376, -0.17032639682292938, 0.00854145921766758, -0.05536283552646637, 0.13164736330509186, 0.028019238263368607, 0.09345907717943192, -0.03945838660001755, 0.07104986160993576, -0.08206305652856827, -0.24324604868888855, 0.15352201461791992, 0.06978245079517365, -0.18995264172554016, 0.04857007786631584, -0.22790414094924927, -0.14358830451965332, -0.37119877338409424, -0.0001631671329960227, 0.03949873521924019, -0.06527233123779297, 0.19652831554412842], "lin.weight": [[0.12116728723049164, 0.008120023645460606, -0.07668061554431915, 0.15624064207077026, -0.08212979137897491, 0.10397131741046906, -0.15118485689163208, 0.15349556505680084, -0.1322816014289856, 0.09651884436607361, -0.05514160171151161, 0.10819807648658752, 0.041985973715782166, -0.024418780580163002, -0.10557609051465988, 0.012934592552483082, -0.06944862753152847, -0.1853591948747635, -0.09292522817850113, -0.14439567923545837]], "lin.bias": [-0.1517535001039505]}}